
/* Species #1 : (Size 86) (AF 1273.3) (Age 15)  */


/* Organism #0 Fitness: 2683 Error: 0 */
genomestart 0
trait 1 0.1 0 0 0 3.45054e-05 0 0 0 
trait 2 0.196777 0.0243937 0.058816 0 0 0 0.00413345 0 
trait 3 0.290806 0.0215941 0 0.00501108 0 0 0.00641013 0.0109572 
node 1 1 1 1
node 2 1 1 1
node 3 2 1 1
node 4 1 1 1
node 5 1 1 1
node 6 3 1 1
node 7 2 1 3
node 8 1 0 2
gene 3 1 8 1.70081 0 1 1.70081 0
gene 3 2 8 -0.692893 0 2 -0.692893 1
gene 2 3 8 -2.00229 0 3 -2.00229 1
gene 3 4 8 -6.89594 0 4 -6.89594 1
gene 2 5 8 2.66259 0 5 2.66259 1
gene 2 6 8 2.10114 0 6 2.10114 1
gene 2 7 8 -0.0388775 0 7 -0.0388775 1
genomeend 0

/* Organism #1 Fitness: 273 Error: 0 */
genomestart 1
trait 1 0.0875 0 0.0281979 0.0611323 0.000103516 0 0 0.0452824 
trait 2 0.1971 0.00609844 0.0230822 0.000312637 0 0 0.00475346 0 
trait 3 0.293104 0.0647822 0 0.0150333 0 0 0.0173478 0.0328715 
node 1 1 1 1
node 2 1 1 1
node 3 2 1 1
node 4 1 1 1
node 5 1 1 1
node 6 3 1 1
node 7 2 1 3
node 8 1 0 2
gene 3 1 8 1.22846 0 1 1.22846 0
gene 3 2 8 -0.314049 0 2 -0.314049 0
gene 3 3 8 -2.50188 0 3 -2.50188 1
gene 1 4 8 -6.02793 0 4 -6.02793 1
gene 2 5 8 2.44511 0 5 2.44511 1
gene 1 6 8 1.68642 0 6 1.68642 1
gene 2 7 8 -0.280818 0 7 -0.280818 1
genomeend 1

/* Organism #2 Fitness: 221 Error: 0 */
genomestart 2
trait 1 0.1 0 0 0 5.17581e-05 0 0 0 
trait 2 0.19666 0.0243937 0.0598977 0.000312637 0 0 0.00450546 0 
trait 3 0.290806 0.0323911 0 0.00751663 0 0 0.00925316 0.0164357 
node 1 1 1 1
node 2 2 1 1
node 3 2 1 1
node 4 2 1 1
node 5 1 1 1
node 6 1 1 1
node 7 1 1 3
node 8 1 0 2
gene 3 1 8 0.34181 0 1 0.34181 0
gene 2 2 8 -1.70581 0 2 -1.70581 0
gene 3 3 8 -1.22292 0 3 -1.22292 1
gene 3 4 8 -8 0 4 -8 1
gene 2 5 8 2.31704 0 5 2.31704 1
gene 2 6 8 2.16995 0 6 2.16995 1
gene 2 7 8 -0.443969 0 7 -0.443969 1
genomeend 2

/* Organism #3 Fitness: 175 Error: 0 */
genomestart 3
trait 1 0.1 0 0 0.0916984 5.17581e-05 0 0 0 
trait 2 0.197793 0.0121969 0.0335538 0.00093791 0 0 0.0035961 0 
trait 3 0.296552 0.0323911 0 0.00751663 0 0 0.00907215 0.0164357 
node 1 1 1 1
node 2 3 1 1
node 3 2 1 1
node 4 1 1 1
node 5 1 1 1
node 6 3 1 1
node 7 2 1 3
node 8 1 0 2
gene 1 1 8 -0.561622 0 1 -0.561622 0
gene 2 2 8 -2.35625 0 2 -2.35625 0
gene 3 3 8 -3.56215 0 3 -3.56215 1
gene 3 4 8 -5.08701 0 4 -5.08701 1
gene 2 5 8 3.43473 0 5 3.43473 1
gene 2 6 8 2.17193 0 6 2.17193 1
gene 2 7 8 -0.436963 0 7 -0.436963 1
genomeend 3

/* Organism #4 Fitness: 148 Error: 0 */
genomestart 4
trait 1 0.1 0 0 0.0611323 3.45054e-05 0 0 0 
trait 2 0.197588 0.0121969 0.0330119 0.000312637 0 0 0.0035961 0 
trait 3 0.290806 0.0215941 0 0.00501108 0 0 0.0061205 0.0109572 
node 1 1 1 1
node 2 1 1 1
node 3 2 1 1
node 4 1 1 1
node 5 1 1 1
node 6 3 1 1
node 7 1 1 3
node 8 1 0 2
gene 3 1 8 3.91683 0 1 3.91683 1
gene 2 2 8 -3.01813 0 2 -3.01813 0
gene 3 3 8 -2.96786 0 3 -2.96786 1
gene 3 4 8 -7.15409 0 4 -7.15409 1
gene 2 5 8 2.67637 0 5 2.67637 1
gene 2 6 8 2.23815 0 6 2.23815 1
gene 2 7 8 -0.178605 0 7 -0.178605 1
genomeend 4

/* Organism #5 Fitness: 41 Error: 0 */
genomestart 5
trait 1 0.1 0 0 0.0611323 3.45054e-05 0 0 0 
trait 2 0.197881 0 0.00846824 0.000312637 0 0 0.00376144 0 
trait 3 0.281611 0.0215941 0 0.00501108 0 0 0.00583088 0.0109572 
node 1 1 1 1
node 2 2 1 1
node 3 2 1 1
node 4 2 1 1
node 5 1 1 1
node 6 1 1 1
node 7 1 1 3
node 8 1 0 2
gene 3 1 8 2.92168 0 1 2.92168 0
gene 2 2 8 -3.42622 0 2 -3.42622 1
gene 3 3 8 -2.80517 0 3 -2.80517 1
gene 1 4 8 -6.54582 0 4 -6.54582 1
gene 2 5 8 4.44765 0 5 4.44765 1
gene 2 6 8 0.563607 0 6 0.563607 1
gene 2 7 8 0.307594 0 7 0.307594 1
genomeend 5

/* Organism #6 Fitness: 5 Error: 0 */
genomestart 6
trait 1 0.1 0 0 0.0611323 0 0 0 0 
trait 2 0.19707 0.0243937 0.057735 0 0 0 0.00363743 0 
trait 3 0.28391 0 0 0 0 0 0.000651648 0 
node 1 1 1 1
node 2 1 1 1
node 3 2 1 1
node 4 1 1 1
node 5 1 1 1
node 6 3 1 1
node 7 2 1 3
node 8 1 0 2
gene 3 1 8 -0.244224 0 1 -0.244224 0
gene 3 2 8 -2.87138 0 2 -2.87138 0
gene 3 3 8 -0.358091 0 3 -0.358091 1
gene 3 4 8 -4.70542 0 4 -4.70542 1
gene 2 5 8 3.897 0 5 3.897 1
gene 2 6 8 -0.787532 0 6 -0.787532 1
gene 2 7 8 2.06761 0 7 2.06761 1
genomeend 6

/* Organism #7 Fitness: 6 Error: 0 */
genomestart 7
trait 1 0.0875 0 0.0281979 0 0.000120769 0 0 0.0452824 
trait 2 0.197334 0.00609844 0.0241653 0.00125055 0 0 0.00487747 0 
trait 3 0.297701 0.0755792 0 0.0175388 0 0 0.0202633 0.0383501 
node 1 1 1 1
node 2 2 1 1
node 3 2 1 1
node 4 2 1 1
node 5 1 1 1
node 6 1 1 1
node 7 1 1 3
node 8 1 0 2
gene 1 1 8 2.00357 0 1 2.00357 0
gene 3 2 8 1.64444 0 2 1.64444 0
gene 3 3 8 -2.12778 0 3 -2.12778 1
gene 1 4 8 -7.37717 0 4 -7.37717 1
gene 2 5 8 2.66214 0 5 2.66214 1
gene 1 6 8 -0.743088 0 6 -0.743088 1
gene 2 7 8 0.902061 0 7 0.902061 1
genomeend 7

/* Organism #8 Fitness: 5 Error: 0 */
genomestart 8
trait 1 0.1 0 0 0.0305661 1.72527e-05 0 0 0 
trait 2 0.197607 0.0121969 0.0322906 0 0 0 0.00338943 0 
trait 3 0.287358 0.010797 0 0.00250554 0 0 0.00324127 0.00547858 
node 1 1 1 1
node 2 1 1 1
node 3 2 1 1
node 4 1 1 1
node 5 1 1 1
node 6 3 1 1
node 7 2 1 3
node 8 1 0 2
gene 3 1 8 0.197917 0 1 0.197917 0
gene 3 2 8 0.00467643 0 2 0.00467643 1
gene 2 3 8 -0.817628 0 3 -0.817628 1
gene 1 4 8 -8 0 4 -8 1
gene 2 5 8 2.17877 0 5 2.17877 1
gene 2 6 8 0.32581 0 6 0.32581 1
gene 2 7 8 -1.02109 0 7 -1.02109 1
genomeend 8

/* Organism #9 Fitness: 56 Error: 0 */
genomestart 9
trait 1 0.1 0 0 0.0611323 0 0 0 0 
trait 2 0.197266 0.0243937 0.0570144 0 0 0 0.00330676 0 
trait 3 0.293104 0 0 0 0 0 0.000941269 0 
node 1 1 1 1
node 2 3 1 1
node 3 2 1 1
node 4 1 1 1
node 5 1 1 1
node 6 3 1 1
node 7 2 1 3
node 8 1 0 2
gene 3 1 8 2.20365 0 1 2.20365 0
gene 2 2 8 -0.720779 0 2 -0.720779 1
gene 2 3 8 -1.38079 0 3 -1.38079 1
gene 1 4 8 0.106207 0 4 0.106207 1
gene 2 5 8 3.56336 0 5 3.56336 1
gene 2 6 8 0.317473 0 6 0.317473 1
gene 2 7 8 -0.903341 0 7 -0.903341 1
genomeend 9

/* Organism #10 Fitness: 5 Error: 0 */
genomestart 10
trait 1 0.1 0 0 0.0611323 6.90108e-05 0 0 0 
trait 2 0.197812 0 0.00936976 0.000625273 0 0 0.00405078 0 
trait 3 0.290806 0.0431881 0 0.0100222 0 0 0.0115894 0.0219143 
node 1 1 1 1
node 2 2 1 1
node 3 2 1 1
node 4 2 1 1
node 5 1 1 1
node 6 1 1 1
node 7 1 1 3
node 8 1 0 2
gene 3 1 8 1.77072 0 1 1.77072 1
gene 2 2 8 -0.287481 0 2 -0.287481 0
gene 3 3 8 -1.24161 0 3 -1.24161 1
gene 1 4 8 -5.84792 0 4 -5.84792 1
gene 2 5 8 -1.70268 0 5 -1.70268 1
gene 2 6 8 0.73749 0 6 0.73749 1
gene 2 7 8 -1.75945 0 7 -1.75945 1
genomeend 10

/* Organism #11 Fitness: 134 Error: 0 */
genomestart 11
trait 1 0.0875 0 0.0281979 0 0.000120769 0 0 0.0452824 
trait 2 0.197334 0.00609844 0.0241653 0.00125055 0 0 0.00487747 0 
trait 3 0 0.0755792 0 0.0175388 0 0.603931 0 0 
node 1 1 1 1
node 2 2 1 1
node 3 2 1 1
node 4 2 1 1
node 5 1 1 1
node 6 1 1 1
node 7 1 1 3
node 8 1 0 2
gene 1 1 8 -0.776144 0 1 -0.776144 0
gene 3 2 8 2.76246 0 2 2.76246 0
gene 3 3 8 -2.02899 0 3 -2.02899 1
gene 1 4 8 -7.54356 0 4 -7.54356 1
gene 2 5 8 3.19475 0 5 3.19475 1
gene 1 6 8 1.82796 0 6 1.82796 1
gene 2 7 8 -0.0546928 0 7 -0.0546928 1
genomeend 11

/* Organism #12 Fitness: 152 Error: 0 */
genomestart 12
trait 1 0.1 0 0 0.122265 3.45054e-05 0 0 0 
trait 2 0.198398 0 0.00720784 0.000625273 0 0 0.00305875 0 
trait 3 0.290806 0 0.519076 0 0 0 0.00507416 0 
node 1 1 1 1
node 2 1 1 1
node 3 2 1 1
node 4 1 1 1
node 5 1 1 1
node 6 3 1 1
node 7 2 1 3
node 8 1 0 2
gene 3 1 8 1.1482 0 1 1.1482 1
gene 2 2 8 -2.05489 0 2 -2.05489 0
gene 3 3 8 -3.20551 0 3 -3.20551 1
gene 1 4 8 -6.75705 0 4 -6.75705 1
gene 2 5 8 1.82418 0 5 1.82418 1
gene 2 6 8 1.58533 0 6 1.58533 1
gene 2 7 8 0.119802 0 7 0.119802 1
genomeend 12

/* Organism #13 Fitness: 5 Error: 0 */
genomestart 13
trait 1 0.075 0 0.0563958 0 0 0 0 0 
trait 2 0.195801 0.0121969 0.0389565 0 0 0 0.00644818 0 
trait 3 0.295403 0.10797 0 0.0250554 0 0 0.0288648 0.0547858 
node 1 1 1 1
node 2 2 1 1
node 3 2 1 1
node 4 3 1 1
node 5 1 1 1
node 6 2 1 1
node 7 3 1 3
node 8 2 0 2
gene 3 1 8 2.77862 0 1 2.77862 0
gene 3 2 8 -1.43555 0 2 -1.43555 1
gene 3 3 8 -1.60725 0 3 -1.60725 1
gene 1 4 8 -3.39184 0 4 -3.39184 1
gene 2 5 8 3.56015 0 5 3.56015 1
gene 1 6 8 -1.74186 0 6 -1.74186 1
gene 2 7 8 -2.46872 0 7 -2.46872 1
genomeend 13

/* Organism #14 Fitness: 20 Error: 0 */
genomestart 14
trait 1 0.1 0 0 0.0611323 0 0 0 0 
trait 2 0.197949 0 0.00756673 0 0 0 0.00347209 0 
trait 3 0 0 0 0.698598 0 0 7.24053e-05 0 
node 1 1 1 1
node 2 1 1 1
node 3 2 1 1
node 4 1 1 1
node 5 1 1 1
node 6 3 1 1
node 7 2 1 3
node 8 1 0 2
gene 3 1 8 1.07873 0 1 1.07873 0
gene 2 2 8 -2.13581 0 2 -2.13581 1
gene 3 3 8 1.45922 0 3 1.45922 1
gene 1 4 8 -0.236864 0 4 -0.236864 1
gene 2 5 8 0.00554751 0 5 0.00554751 1
gene 2 6 8 2.38111 0 6 2.38111 1
gene 2 7 8 -1.41825 0 7 -1.41825 1
genomeend 14

/* Organism #15 Fitness: 56 Error: 0 */
genomestart 15
trait 1 0.1 0 0 0.122265 6.90108e-05 0 0 0 
trait 2 0.198359 0 0.00865055 0.00125055 0 0 0.00347209 0 
trait 3 0.295403 0.0431881 0 0.0100222 0 0 0.011517 0.0219143 
node 1 1 1 1
node 2 3 1 1
node 3 2 1 1
node 4 1 1 1
node 5 1 1 1
node 6 3 1 1
node 7 2 1 3
node 8 1 0 2
gene 1 1 8 0.0598622 0 1 0.0598622 1
gene 2 2 8 2.15915 0 2 2.15915 0
gene 3 3 8 -6.01949 0 3 -6.01949 1
gene 1 4 8 -1.01027 0 4 -1.01027 1
gene 2 5 8 4.70465 0 5 4.70465 1
gene 2 6 8 2.05595 0 6 2.05595 1
gene 2 7 8 -0.200086 0 7 -0.200086 1
genomeend 15

/* Organism #16 Fitness: 5 Error: 0 */
genomestart 16
trait 1 0.1 0 0 0.0611323 1.72527e-05 0 0 0 
trait 2 0.198027 0 0.00792776 0.000312637 0 0 0.00351343 0 
trait 3 0.277014 0.010797 0 0.00250554 0 0 0.00291544 0.00547858 
node 1 1 1 1
node 2 1 1 1
node 3 2 1 1
node 4 1 1 1
node 5 1 1 1
node 6 3 1 1
node 7 2 1 3
node 8 1 0 2
gene 3 1 8 1.42737 0 1 1.42737 0
gene 2 2 8 -0.498201 0 2 -0.498201 0
gene 2 3 8 2.41971 0 3 2.41971 1
gene 1 4 8 -5.93555 0 4 -5.93555 1
gene 2 5 8 2.36478 0 5 2.36478 1
gene 2 6 8 -2.49758 0 6 -2.49758 1
gene 2 7 8 2.12268 0 7 2.12268 1
genomeend 16

/* Organism #17 Fitness: 61 Error: 0 */
genomestart 17
trait 1 0.1 0 0 0.0305661 1.72527e-05 0 0 0 
trait 2 0.196924 0.0243937 0.0582755 0 0 0 0.00388544 0 
trait 3 0.287358 0.010797 0 0.00250554 0 0 0.00353089 0.00547858 
node 1 1 1 1
node 2 1 1 1
node 3 2 1 1
node 4 1 1 1
node 5 1 1 1
node 6 3 1 1
node 7 2 1 3
node 8 1 0 2
gene 3 1 8 -0.374792 0 1 -0.374792 0
gene 3 2 8 -3.38864 0 2 -3.38864 0
gene 2 3 8 0.139941 0 3 0.139941 1
gene 3 4 8 -6.89594 0 4 -6.89594 1
gene 2 5 8 4.45802 0 5 4.45802 1
gene 2 6 8 2.24787 0 6 2.24787 1
gene 2 7 8 0.0523723 0 7 0.0523723 1
genomeend 17

/* Organism #18 Fitness: 87 Error: 0 */
genomestart 18
trait 1 0.1 0 0 0.0916984 1.72527e-05 0 0 0 
trait 2 0.198174 0 0.00738728 0.000312637 0 0 0.00326542 0 
trait 3 0.281611 0.010797 0 0.00250554 0 0 0.00295164 0.00547858 
node 1 1 1 1
node 2 1 1 1
node 3 2 1 1
node 4 1 1 1
node 5 1 1 1
node 6 3 1 1
node 7 2 1 3
node 8 1 0 2
gene 3 1 8 0.0313896 0 1 0.0313896 1
gene 2 2 8 -0.814741 0 2 -0.814741 0
gene 3 3 8 -3.28006 0 3 -3.28006 1
gene 1 4 8 -5.74439 0 4 -5.74439 1
gene 2 5 8 3.29807 0 5 3.29807 1
gene 2 6 8 0.842462 0 6 0.842462 1
gene 2 7 8 1.13971 0 7 1.13971 1
genomeend 18

/* Organism #19 Fitness: 78 Error: 0 */
genomestart 19
trait 1 0.1 0 0 0.0305661 1.72527e-05 0 0 0 
trait 2 0.197021 0.0243937 0.0579152 0 0 0 0.0037201 0 
trait 3 0.291955 0.010797 0 0.00250554 0 0 0.0036757 0.00547858 
node 1 1 1 1
node 2 1 1 1
node 3 2 1 1
node 4 1 1 1
node 5 1 1 1
node 6 3 1 1
node 7 2 1 3
node 8 1 0 2
gene 3 1 8 2.52929 0 1 2.52929 0
gene 3 2 8 0.592361 0 2 0.592361 1
gene 2 3 8 -3.87037 0 3 -3.87037 1
gene 3 4 8 -7.26877 0 4 -7.26877 1
gene 2 5 8 4.08262 0 5 4.08262 1
gene 2 6 8 2.55389 0 6 2.55389 1
gene 2 7 8 1.70574 0 7 1.70574 1
genomeend 19

/* Organism #20 Fitness: 51 Error: 0 */
genomestart 20
trait 1 0.1 0 0 0.0305661 1.72527e-05 0 0 0 
trait 2 0.196924 0.0243937 0.0582755 0 0 0 0.00388544 0 
trait 3 0.287358 0.010797 0 0.00250554 0 0 0.00353089 0.00547858 
node 1 1 1 1
node 2 1 1 1
node 3 2 1 1
node 4 1 1 1
node 5 1 1 1
node 6 3 1 1
node 7 2 1 3
node 8 1 0 2
gene 3 1 8 -0.781652 0 1 -0.781652 0
gene 3 2 8 -1.62036 0 2 -1.62036 0
gene 2 3 8 0.314986 0 3 0.314986 1
gene 3 4 8 -7.68968 0 4 -7.68968 1
gene 2 5 8 1.21173 0 5 1.21173 1
gene 2 6 8 1.90982 0 6 1.90982 1
gene 2 7 8 1.91051 0 7 1.91051 1
genomeend 20

/* Organism #21 Fitness: 5 Error: 0 */
genomestart 21
trait 1 0.1 0 0 0.0611323 6.90108e-05 0 0 0 
trait 2 0.197812 0 0.00936976 0.000625273 0 0 0.00405078 0 
trait 3 0.290806 0.0431881 0 0.0100222 0 0 0.0115894 0.0219143 
node 1 1 1 1
node 2 2 1 1
node 3 2 1 1
node 4 2 1 1
node 5 1 1 1
node 6 1 1 1
node 7 1 1 3
node 8 1 0 2
gene 3 1 8 1.2508 0 1 1.2508 1
gene 2 2 8 -0.299454 0 2 -0.299454 0
gene 3 3 8 -6.66721 0 3 -6.66721 1
gene 1 4 8 -8 0 4 -8 1
gene 2 5 8 5.18658 0 5 5.18658 1
gene 2 6 8 -0.0391989 0 6 -0.0391989 1
gene 2 7 8 -2.89483 0 7 -2.89483 1
genomeend 21

/* Organism #22 Fitness: 189 Error: 0 */
genomestart 22
trait 1 0.1 0 0 0.0611323 3.45054e-05 0 0 0 
trait 2 0.198008 0 0.00864912 0.000625273 0 0 0.0037201 0 
trait 3 0.279313 0.0215941 0 0.00501108 0 0 0.00575848 0.0109572 
node 1 1 1 1
node 2 3 1 1
node 3 3 1 1
node 4 2 1 1
node 5 2 1 1
node 6 3 1 1
node 7 1 1 3
node 8 1 0 2
gene 3 1 8 1.98331 0 1 1.98331 0
gene 2 2 8 -1.77334 0 2 -1.77334 0
gene 3 3 8 -3.7498 0 3 -3.7498 1
gene 1 4 8 -6.00347 0 4 -6.00347 1
gene 2 5 8 2.37272 0 5 2.37272 1
gene 2 6 8 1.99333 0 6 1.99333 1
gene 2 7 8 -0.551515 0 7 -0.551515 1
genomeend 22

/* Organism #23 Fitness: 94 Error: 0 */
genomestart 23
trait 1 0.1 0 0 0.122265 3.45054e-05 0 0 0 
trait 2 0.198398 0 0.00720784 0.000625273 0 0 0.00305875 0 
trait 3 0.290806 0.0215941 0 0.00501108 0 0 0.00583088 0.0109572 
node 1 1 1 1
node 2 1 1 1
node 3 2 1 1
node 4 1 1 1
node 5 1 1 1
node 6 3 1 1
node 7 2 1 3
node 8 1 0 2
gene 3 1 8 1.64179 0 1 1.64179 1
gene 2 2 8 -2.05489 0 2 -2.05489 0
gene 3 3 8 1.41975 0 3 1.41975 1
gene 1 4 8 -6.75705 0 4 -6.75705 1
gene 2 5 8 1.82418 0 5 1.82418 1
gene 2 6 8 1.57949 0 6 1.57949 1
gene 2 7 8 -1.30643 0 7 -1.30643 1
genomeend 23

/* Organism #24 Fitness: 5 Error: 0 */
genomestart 24
trait 1 0.075 0 0.0563958 0 0.000172527 0 0 0.0905647 
trait 2 0.195801 0.0121969 0.0389565 0 0 0 0.00644818 0 
trait 3 0.295403 0.10797 0 0.0250554 0 0 0.0288648 0.0547858 
node 1 1 1 1
node 2 2 1 1
node 3 1 1 1
node 4 3 1 1
node 5 1 1 1
node 6 2 1 1
node 7 3 1 3
node 8 2 0 2
gene 3 1 8 0.647848 0 1 0.647848 0
gene 3 2 8 3.50741 0 2 3.50741 1
gene 3 3 8 -1.38508 0 3 -1.38508 1
gene 1 4 8 -7.1809 0 4 -7.1809 1
gene 2 5 8 0.961587 0 5 0.961587 1
gene 1 6 8 -0.600312 0 6 -0.600312 1
gene 2 7 8 1.24798 0 7 1.24798 1
genomeend 24

/* Organism #25 Fitness: 26 Error: 0 */
genomestart 25
trait 1 0.09375 0 0.014099 0.0611323 9.48898e-05 0 0 0.0226412 
trait 2 0.197846 0.00304922 0.0164079 0.00125055 0 0 0.00417478 0 
trait 3 0.296552 0.0593837 0 0.0137805 0 0 0.0158901 0.0301322 
node 1 1 1 1
node 2 3 1 1
node 3 2 1 1
node 4 1 1 1
node 5 1 1 1
node 6 3 1 1
node 7 2 1 3
node 8 1 0 2
gene 1 1 8 0.455294 0 1 0.455294 0
gene 2 2 8 -1.03304 0 2 -1.03304 0
gene 3 3 8 -1.62393 0 3 -1.62393 1
gene 1 4 8 -6.80053 0 4 -6.80053 1
gene 2 5 8 2.95219 0 5 2.95219 1
gene 1 6 8 0.770483 0 6 0.770483 1
gene 2 7 8 -0.632235 0 7 -0.632235 1
genomeend 25

/* Organism #26 Fitness: 94 Error: 0 */
genomestart 26
trait 1 0.1 0 0 0.0611323 3.45054e-05 0 0 0 
trait 2 0.197539 0.0121969 0.0331921 0.000312637 0 0 0.00367877 0 
trait 3 0.291955 0.0215941 0 0.00501108 0 0 0.00626531 0.0109572 
node 1 1 1 1
node 2 2 1 1
node 3 2 1 1
node 4 2 1 1
node 5 1 1 1
node 6 1 1 1
node 7 1 1 3
node 8 1 0 2
gene 3 1 8 0.531097 0 1 0.531097 0
gene 2 2 8 -1.17024 0 2 -1.17024 0
gene 2 3 8 -1.60786 0 3 -1.60786 1
gene 1 4 8 -7.55736 0 4 -7.55736 1
gene 2 5 8 3.75185 0 5 3.75185 1
gene 2 6 8 1.4792 0 6 1.4792 1
gene 2 7 8 0.0624844 0 7 0.0624844 1
genomeend 26

/* Organism #27 Fitness: 145 Error: 0 */
genomestart 27
trait 1 0.1 0 0 0.0611323 0 0 0 0 
trait 2 0.19751 0.0121969 0.0326509 0 0 0 0.00355476 0 
trait 3 0.278164 0 0 0 0 0 0.000362026 0 
node 1 1 1 1
node 2 1 1 1
node 3 2 1 1
node 4 1 1 1
node 5 1 1 1
node 6 3 1 1
node 7 2 1 3
node 8 1 0 2
gene 3 1 8 2.49683 0 1 2.49683 0
gene 2 2 8 -0.440187 0 2 -0.440187 1
gene 3 3 8 -0.720794 0 3 -0.720794 1
gene 1 4 8 -7.74654 0 4 -7.74654 1
gene 2 5 8 2.58004 0 5 2.58004 1
gene 2 6 8 1.45927 0 6 1.45927 1
gene 2 7 8 -0.839862 0 7 -0.839862 1
genomeend 27

/* Organism #28 Fitness: 39 Error: 0 */
genomestart 28
trait 1 0.1 0 0 0.0611323 0 0 0 0 
trait 2 0.197852 0.0121969 0.0313898 0 0 0 0.00297608 0 
trait 3 0.288507 0 0 0 0 0 0.000506837 0 
node 1 1 1 1
node 2 3 1 1
node 3 2 1 1
node 4 1 1 1
node 5 1 1 1
node 6 3 1 1
node 7 2 1 3
node 8 1 0 2
gene 3 1 8 0.413666 0 1 0.413666 1
gene 2 2 8 -1.10442 0 2 -1.10442 1
gene 2 3 8 1.95863 0 3 1.95863 1
gene 1 4 8 -1.41486 0 4 -1.41486 1
gene 2 5 8 0.80922 0 5 0.80922 1
gene 2 6 8 2.78801 0 6 2.78801 1
gene 2 7 8 -1.26963 0 7 -1.26963 1
genomeend 28

/* Organism #29 Fitness: 139 Error: 0 */
genomestart 29
trait 1 0.1 0 0 0.0305661 5.17581e-05 0 0 0 
trait 2 0.197803 0 0.00810721 0 0 0 0.0037201 0 
trait 3 0.287358 0.0323911 0 0.00751663 0 0 0.00863772 0.0164357 
node 1 1 1 1
node 2 2 1 1
node 3 2 1 1
node 4 3 1 1
node 5 1 1 1
node 6 2 1 1
node 7 3 1 3
node 8 2 0 2
gene 3 1 8 1.92895 0 1 1.92895 1
gene 2 2 8 0.252849 0 2 0.252849 1
gene 2 3 8 -3.15488 0 3 -3.15488 1
gene 1 4 8 -8 0 4 -8 1
gene 2 5 8 1.63639 0 5 1.63639 1
gene 2 6 8 2.09889 0 6 2.09889 1
gene 2 7 8 0.129266 0 7 0.129266 1
genomeend 29

/* Organism #30 Fitness: 150 Error: 0 */
genomestart 30
trait 1 0.0875 0 0.0281979 0 0.000120769 0 0 0.0452824 
trait 2 0.197334 0.00609844 0.0241653 0.00125055 0 0 0.00487747 0 
trait 3 0.297701 0.0755792 0 0.0175388 0 0 0.0202633 0.0383501 
node 1 1 1 1
node 2 2 1 1
node 3 2 1 1
node 4 2 1 1
node 5 1 1 1
node 6 1 1 1
node 7 1 1 3
node 8 1 0 2
gene 3 1 8 1.09701 0 1 1.09701 0
gene 3 2 8 1.62536 0 2 1.62536 0
gene 3 3 8 -2.12778 0 3 -2.12778 1
gene 1 4 8 -5.2988 0 4 -5.2988 1
gene 2 5 8 3.19475 0 5 3.19475 1
gene 1 6 8 2.39344 0 6 2.39344 1
gene 2 7 8 0.158353 0 7 0.158353 1
genomeend 30

/* Organism #31 Fitness: 5 Error: 0 */
genomestart 31
trait 1 0.1 0 0 0.0611323 0 0 0 0 
trait 2 0.197754 0.0121969 0.0317501 0 0 0 0.00314142 0 
trait 3 0.912598 0 0 0 0 0 0.000362026 0.463837 
node 1 1 1 1
node 2 1 1 1
node 3 2 1 1
node 4 1 1 1
node 5 1 1 1
node 6 3 1 1
node 7 2 1 3
node 8 1 0 2
gene 3 1 8 1.80193 0 1 1.80193 0
gene 3 2 8 -0.30442 0 2 -0.30442 0
gene 3 3 8 -0.807444 0 3 -0.807444 1
gene 1 4 8 -5.96833 0 4 -5.96833 1
gene 2 5 8 3.78242 0 5 3.78242 1
gene 2 6 8 0.179601 0 6 0.179601 1
gene 2 7 8 1.58027 0 7 1.58027 1
genomeend 31

/* Organism #32 Fitness: 130 Error: 0 */
genomestart 32
trait 1 0.1 0 0 0.0305661 5.17581e-05 0 0 0 
trait 2 0.197217 0.0121969 0.0337318 0 0 0 0.00405078 0 
trait 3 0.291955 0.0323911 0 0.00751663 0 0 0.00907215 0.0164357 
node 1 1 1 1
node 2 3 1 1
node 3 2 1 1
node 4 1 1 1
node 5 1 1 1
node 6 3 1 1
node 7 2 1 3
node 8 1 0 2
gene 3 1 8 -0.291107 0 1 -0.291107 0
gene 2 2 8 0.246942 0 2 0.246942 1
gene 2 3 8 -3.64536 0 3 -3.64536 1
gene 1 4 8 -6.52103 0 4 -6.52103 1
gene 2 5 8 3.68048 0 5 3.68048 1
gene 2 6 8 2.44416 0 6 2.44416 1
gene 2 7 8 0.495982 0 7 0.495982 1
genomeend 32

/* Organism #33 Fitness: 12 Error: 0 */
genomestart 33
trait 1 0.1 0 0 0.0305661 6.90108e-05 0 0 0 
trait 2 0.197178 0.0121969 0.0351746 0.000625273 0 0 0.00446412 0 
trait 3 0.290806 0.0431881 0 0.0100222 0 0 0.0118428 0.0219143 
node 1 1 1 1
node 2 2 1 1
node 3 2 1 1
node 4 2 1 1
node 5 1 1 1
node 6 1 1 1
node 7 1 1 3
node 8 1 0 2
gene 3 1 8 4.27804 0 1 4.27804 0
gene 2 2 8 -3.17365 0 2 -3.17365 0
gene 3 3 8 -2.5399 0 3 -2.5399 1
gene 1 4 8 -8 0 4 -8 1
gene 2 5 8 -1.75128 0 5 -1.75128 1
gene 2 6 8 1.88212 0 6 1.88212 1
gene 2 7 8 -0.87567 0 7 -0.87567 1
genomeend 33

/* Organism #34 Fitness: 107 Error: 0 */
genomestart 34
trait 1 0.1 0 0 0.0611323 3.45054e-05 0 0 0 
trait 2 0.197441 0.0121969 0.0335524 0.000312637 0 0 0.00384411 0 
trait 3 0.287358 0.0215941 0 0.00501108 0 0 0.0061205 0.0109572 
node 1 1 1 1
node 2 1 1 1
node 3 2 1 1
node 4 1 1 1
node 5 1 1 1
node 6 3 1 1
node 7 2 1 3
node 8 1 0 2
gene 3 1 8 5.42097 0 1 5.42097 0
gene 3 2 8 0.650673 0 2 0.650673 0
gene 3 3 8 0.239157 0 3 0.239157 1
gene 1 4 8 -8 0 4 -8 1
gene 2 5 8 1.11736 0 5 1.11736 1
gene 2 6 8 1.10149 0 6 1.10149 1
gene 2 7 8 -0.117343 0 7 -0.117343 1
genomeend 34

/* Organism #35 Fitness: 31 Error: 0 */
genomestart 35
trait 1 0.1 0 0 0.0611323 0 0 0 0 
trait 2 0.197754 0.0121969 0.0317501 0 0 0 0.00314142 0 
trait 3 0.28391 0 0 0 0 0 0.000362026 0 
node 1 1 1 1
node 2 1 1 1
node 3 2 1 1
node 4 1 1 1
node 5 1 1 1
node 6 3 1 1
node 7 2 1 3
node 8 1 0 2
gene 3 1 8 1.22726 0 1 1.22726 0
gene 3 2 8 -0.419894 0 2 -0.419894 0
gene 2 3 8 -0.965622 0 3 -0.965622 1
gene 1 4 8 -6.38186 0 4 -6.38186 1
gene 2 5 8 3.92543 0 5 3.92543 1
gene 2 6 8 4.32766 0 6 4.32766 1
gene 2 7 8 2.48528 0 7 2.48528 1
genomeend 35

/* Organism #36 Fitness: 5 Error: 0 */
genomestart 36
trait 1 0.1 0 0 0.0611323 5.17581e-05 0 0 0 
trait 2 0.197519 0.0121969 0.0339134 0.000625273 0 0 0.00388544 0 
trait 3 0.294254 0.0323911 0 0.00751663 0 0 0.00910835 0.0164357 
node 1 1 1 1
node 2 2 1 1
node 3 2 1 1
node 4 2 1 1
node 5 1 1 1
node 6 1 1 1
node 7 1 1 3
node 8 1 0 2
gene 3 1 8 0.16939 0 1 0.16939 1
gene 2 2 8 -1.13721 0 2 -1.13721 0
gene 3 3 8 -5.30308 0 3 -5.30308 1
gene 1 4 8 -7.46222 0 4 -7.46222 1
gene 2 5 8 4.75888 0 5 4.75888 1
gene 2 6 8 -2.28722 0 6 -2.28722 1
gene 2 7 8 -0.491351 0 7 -0.491351 1
genomeend 36

/* Organism #37 Fitness: 54 Error: 0 */
genomestart 37
trait 1 0.09375 0 0.014099 0.0611323 7.76371e-05 0 0 0.0226412 
trait 2 0.197866 0.00304922 0.0156866 0.00093791 0 0 0.00396811 0 
trait 3 0.294254 0.64322 0 0.875948 0 0 0 0.457164 
node 1 1 1 1
node 2 1 1 1
node 3 2 1 1
node 4 1 1 1
node 5 1 1 1
node 6 3 1 1
node 7 2 1 3
node 8 1 0 2
gene 3 1 8 -0.543994 0 1 -0.543994 0
gene 2 2 8 -2.554 0 2 -2.554 0
gene 3 3 8 -3.90409 0 3 -3.90409 1
gene 1 4 8 2.18517 0 4 2.18517 1
gene 2 5 8 3.65617 0 5 3.65617 1
gene 2 6 8 0.091653 0 6 0.091653 1
gene 2 7 8 -0.314384 0 7 -0.314384 1
genomeend 37

/* Organism #38 Fitness: 159 Error: 0 */
genomestart 38
trait 1 0.09375 0 0.014099 0.0611323 7.76371e-05 0 0 0.0226412 
trait 2 0.197866 0.00304922 0.0156866 0.00093791 0 0 0.00396811 0 
trait 3 0.294254 0.0485867 0 0.0112749 0 0 0.0130471 0.0246536 
node 1 1 1 1
node 2 1 1 1
node 3 2 1 1
node 4 1 1 1
node 5 1 1 1
node 6 3 1 1
node 7 2 1 3
node 8 1 0 2
gene 3 1 8 1.1226 0 1 1.1226 0
gene 3 2 8 -0.214763 0 2 -0.214763 0
gene 3 3 8 -2.66665 0 3 -2.66665 1
gene 1 4 8 -6.02793 0 4 -6.02793 1
gene 2 5 8 2.50946 0 5 2.50946 1
gene 1 6 8 1.98938 0 6 1.98938 1
gene 2 7 8 0.139077 0 7 0.139077 1
genomeend 38

/* Organism #39 Fitness: 23 Error: 0 */
genomestart 39
trait 1 0.1 0 0 0.0611323 3.45054e-05 0 0 0 
trait 2 0.197539 0.0121969 0.0331921 0.000312637 0 0 0.00367877 0 
trait 3 0.291955 0.0215941 0 0.00501108 0 0 0.00626531 0.0109572 
node 1 1 1 1
node 2 2 1 1
node 3 2 1 1
node 4 2 1 1
node 5 1 1 1
node 6 1 1 1
node 7 1 1 3
node 8 1 0 2
gene 3 1 8 1.3236 0 1 1.3236 0
gene 2 2 8 -2.25919 0 2 -2.25919 0
gene 2 3 8 -0.85981 0 3 -0.85981 1
gene 1 4 8 1.83522 0 4 1.83522 1
gene 2 5 8 -0.715264 0 5 -0.715264 1
gene 2 6 8 3.05477 0 6 3.05477 1
gene 2 7 8 -0.507093 0 7 -0.507093 1
genomeend 39

/* Organism #40 Fitness: 36 Error: 0 */
genomestart 40
trait 1 0.1 0 0 0 0 0 0 0 
trait 2 0.197656 0 0.00864769 0 0 0 0.00396811 0 
trait 3 0.263223 0 0 0 0 0 0 0 
node 1 1 1 1
node 2 3 1 1
node 3 3 1 1
node 4 2 1 1
node 5 2 1 1
node 6 3 1 1
node 7 1 1 3
node 8 1 0 2
node 43 1 0 0
gene 3 1 8 1.6238 0 1 1.6238 0
gene 2 2 8 -1.19043 0 2 -1.19043 0
gene 2 3 8 -1.74165 0 3 -1.74165 1
gene 1 4 8 -5.45654 0 4 -5.45654 1
gene 2 5 8 1.31072 0 5 1.31072 1
gene 2 6 8 1.81472 0 6 1.81472 1
gene 2 7 8 -0.194413 0 7 -0.194413 1
gene 2 2 43 1 0 101 0 1
gene 2 43 8 -1.19043 0 102 0 1
genomeend 40

/* Organism #41 Fitness: 7 Error: 0 */
genomestart 41
trait 1 0.1 0 0 0.0305661 8.62635e-05 0 0 0 
trait 2 0.19749 0 0.00990952 0.000312637 0 0 0.00442279 0 
trait 3 0.290806 0.0539852 0 0.0125277 0 0 0.0143962 0.0273929 
node 1 1 1 1
node 2 2 1 1
node 3 2 1 1
node 4 3 1 1
node 5 1 1 1
node 6 2 1 1
node 7 3 1 3
node 8 2 0 2
gene 3 1 8 1.77067 0 1 1.77067 1
gene 3 2 8 1.05317 0 2 1.05317 0
gene 3 3 8 -4.35583 0 3 -4.35583 1
gene 1 4 8 -7.61915 0 4 -7.61915 1
gene 2 5 8 3.18106 0 5 3.18106 1
gene 2 6 8 0.626382 0 6 0.626382 1
gene 2 7 8 0.372233 0 7 0.372233 1
genomeend 41

/* Organism #42 Fitness: 60 Error: 0 */
genomestart 42
trait 1 0.1 0 0 0.0611323 1.72527e-05 0 0 0 
trait 2 0.197588 0.0121969 0.0330119 0.000312637 0 0 0.0035961 0 
trait 3 0.285059 0.010797 0 0.00250554 0 0 0.00334987 0.00547858 
node 1 1 1 1
node 2 1 1 1
node 3 2 1 1
node 4 1 1 1
node 5 1 1 1
node 6 3 1 1
node 7 2 1 3
node 8 1 0 2
gene 3 1 8 0.659265 0 1 0.659265 0
gene 2 2 8 -2.88373 0 2 -2.88373 1
gene 3 3 8 -2.22304 0 3 -2.22304 1
gene 1 4 8 -8 0 4 -8 1
gene 2 5 8 5.78262 0 5 5.78262 1
gene 2 6 8 3.30206 0 6 3.30206 1
gene 2 7 8 -1.78712 0 7 -1.78712 1
genomeend 42

/* Organism #43 Fitness: 138 Error: 0 */
genomestart 43
trait 1 0.09375 0 0.014099 0 9.48898e-05 0 0 0.0226412 
trait 2 0.196938 0.0152461 0.0425723 0.00093791 0 0 0.00487747 0 
trait 3 0.294254 0.0593837 0 0.0137805 0 0 0.0161797 0.0301322 
node 1 1 1 1
node 2 2 1 1
node 3 2 1 1
node 4 2 1 1
node 5 1 1 1
node 6 1 1 1
node 7 1 1 3
node 8 1 0 2
gene 3 1 8 1.6238 0 1 1.6238 0
gene 3 2 8 1.62536 0 2 1.62536 0
gene 3 3 8 -2.26709 0 3 -2.26709 1
gene 1 4 8 -7.40587 0 4 -7.40587 1
gene 2 5 8 2.93439 0 5 2.93439 1
gene 1 6 8 2.39344 0 6 2.39344 1
gene 2 7 8 0.158353 0 7 0.158353 1
genomeend 43

/* Organism #44 Fitness: 26 Error: 0 */
genomestart 44
trait 1 0.1 0 0 0.0611323 6.90108e-05 0 0 0 
trait 2 0.197783 0 0.00882856 0.000312637 0 0 0.00392677 0 
trait 3 0.290806 0.0431881 0 0.0100222 0 0 0.011517 0.0219143 
node 1 1 1 1
node 2 1 1 1
node 3 2 1 1
node 4 1 1 1
node 5 1 1 1
node 6 3 1 1
node 7 2 1 3
node 8 1 0 2
gene 3 1 8 0.667449 0 1 0.667449 1
gene 2 2 8 -3.97624 0 2 -3.97624 0
gene 2 3 8 -5.20764 0 3 -5.20764 1
gene 1 4 8 -8 0 4 -8 1
gene 2 5 8 0.730103 0 5 0.730103 1
gene 2 6 8 2.05372 0 6 2.05372 1
gene 2 7 8 -0.524822 0 7 -0.524822 1
genomeend 44

/* Organism #45 Fitness: 47 Error: 0 */
genomestart 45
trait 1 0.1 0 0 0.0916984 5.17581e-05 0 0 0 
trait 2 0.197793 0.0121969 0.0335538 0.00093791 0 0 0.0035961 0 
trait 3 0.296552 0.0323911 0 0.00751663 0 0 0.00907215 0.0164357 
node 1 1 1 1
node 2 3 1 1
node 3 2 1 1
node 4 1 1 1
node 5 1 1 1
node 6 3 1 1
node 7 2 1 3
node 8 1 0 2
gene 1 1 8 -1.44934 0 1 -1.44934 0
gene 2 2 8 -1.85853 0 2 -1.85853 0
gene 3 3 8 -5.75796 0 3 -5.75796 1
gene 1 4 8 -1.12546 0 4 -1.12546 1
gene 2 5 8 4.22175 0 5 4.22175 1
gene 2 6 8 1.72873 0 6 1.72873 1
gene 2 7 8 -0.929948 0 7 -0.929948 1
genomeend 45

/* Organism #46 Fitness: 43 Error: 0 */
genomestart 46
trait 1 0.1 0 0 0.122265 3.45054e-05 0 0 0 
trait 2 0.198398 0 0.00720784 0.000625273 0 0 0.00305875 0 
trait 3 0.290806 0.0215941 0 0.00501108 0 0 0.00583088 0.0109572 
node 1 1 1 1
node 2 1 1 1
node 3 2 1 1
node 4 1 1 1
node 5 1 1 1
node 6 3 1 1
node 7 2 1 3
node 8 1 0 2
gene 3 1 8 1.1482 0 1 1.1482 1
gene 2 2 8 -2.20929 0 2 -2.20929 0
gene 2 3 8 -4.04026 0 3 -4.04026 1
gene 1 4 8 -1.62177 0 4 -1.62177 1
gene 2 5 8 1.87528 0 5 1.87528 1
gene 2 6 8 2.12941 0 6 2.12941 1
gene 2 7 8 0.28129 0 7 0.28129 1
genomeend 46

/* Organism #47 Fitness: 44 Error: 0 */
genomestart 47
trait 1 0.075 0 0.0563958 0 0.000172527 0 0 0.0905647 
trait 2 0.195801 0.0121969 0.0389565 0 0 0 0.00644818 0 
trait 3 0.295403 0.10797 0 0.0250554 0 0 0.0288648 0.0547858 
node 1 1 1 1
node 2 2 1 1
node 3 2 1 1
node 4 3 1 1
node 5 1 1 1
node 6 2 1 1
node 7 3 1 3
node 8 2 0 2
gene 3 1 8 0.21022 0 1 0.21022 0
gene 3 2 8 1.58716 0 2 1.58716 1
gene 3 3 8 -2.46475 0 3 -2.46475 1
gene 1 4 8 -5.63135 0 4 -5.63135 1
gene 2 5 8 3.10484 0 5 3.10484 1
gene 1 6 8 3.45839 0 6 3.45839 1
gene 2 7 8 -2.63066 0 7 -2.63066 1
genomeend 47

/* Organism #48 Fitness: 58 Error: 0 */
genomestart 48
trait 1 0.1 0 0 0 6.90108e-05 0 0 0 
trait 2 0.196543 0.0243937 0.0609794 0.705882 0 0 0.0254672 0.55571 
trait 3 0.290806 0.0431881 0 0.0100222 0 0 0.0120962 0.0219143 
node 1 1 1 1
node 2 2 1 1
node 3 2 1 1
node 4 2 1 1
node 5 1 1 1
node 6 1 1 1
node 7 1 1 3
node 8 1 0 2
gene 3 1 8 2.69761 0 1 2.69761 0
gene 2 2 8 -0.233995 0 2 -0.233995 0
gene 3 3 8 -0.96767 0 3 -0.96767 1
gene 1 4 8 -8 0 4 -8 1
gene 2 5 8 3.93035 0 5 3.93035 1
gene 2 6 8 2.14123 0 6 2.14123 1
gene 2 7 8 1.05073 0 7 1.05073 1
genomeend 48

/* Organism #49 Fitness: 102 Error: 0 */
genomestart 49
trait 1 0.1 0 0 0 0 0 0 0 
trait 2 0.197656 0 0.00864769 0 0 0 0.00396811 0 
trait 3 0.263223 0 0 0 0 0 0 0 
node 1 1 1 1
node 2 3 1 1
node 3 3 1 1
node 4 2 1 1
node 5 2 1 1
node 6 3 1 1
node 7 1 1 3
node 8 1 0 2
gene 3 1 8 1.27804 0 1 1.27804 0
gene 2 2 8 -0.917543 0 2 -0.917543 1
gene 2 3 8 -3.89442 0 3 -3.89442 1
gene 1 4 8 -4.62985 0 4 -4.62985 1
gene 2 5 8 3.78874 0 5 3.78874 1
gene 2 6 8 0.904342 0 6 0.904342 1
gene 2 7 8 -1.4946 0 7 -1.4946 1
genomeend 49

/* Organism #50 Fitness: 75 Error: 0 */
genomestart 50
trait 1 0.1 0 0 0.0916984 3.45054e-05 0 0 0 
trait 2 0.197812 0.0121969 0.0328325 0.000625273 0 0 0.00338943 0 
trait 3 0.294254 0.0215941 0 0.00501108 0 0 0.00622911 0.0109572 
node 1 1 1 1
node 2 3 1 1
node 3 2 1 1
node 4 1 1 1
node 5 1 1 1
node 6 3 1 1
node 7 2 1 3
node 8 1 0 2
gene 1 1 8 1.18998 0 1 1.18998 1
gene 2 2 8 -0.134664 0 2 -0.134664 0
gene 3 3 8 -7.31897 0 3 -7.31897 1
gene 1 4 8 -8 0 4 -8 1
gene 2 5 8 1.6854 0 5 1.6854 1
gene 2 6 8 1.60494 0 6 1.60494 1
gene 2 7 8 0.869188 0 7 0.869188 1
genomeend 50

/* Organism #51 Fitness: 32 Error: 0 */
genomestart 51
trait 1 0.1 0 0 0 3.45054e-05 0 0 0 
trait 2 0.196777 0.0243937 0.058816 0 0 0 0.00413345 0 
trait 3 0 0.0215941 0 0.00501108 0.598344 0.505527 0.913587 0.0109572 
node 1 1 1 1
node 2 1 1 1
node 3 2 1 1
node 4 1 1 1
node 5 1 1 1
node 6 3 1 1
node 7 2 1 3
node 8 1 0 2
gene 3 1 8 2.20243 0 1 2.20243 0
gene 3 2 8 -2.01952 0 2 -2.01952 1
gene 2 3 8 -0.210027 0 3 -0.210027 1
gene 3 4 8 -4.84618 0 4 -4.84618 1
gene 2 5 8 1.96433 0 5 1.96433 1
gene 2 6 8 3.29821 0 6 3.29821 1
gene 2 7 8 0.906437 0 7 0.906437 1
genomeend 51

/* Organism #52 Fitness: 196 Error: 0 */
genomestart 52
trait 1 0 0 0 0.0305661 0 0 0 0 
trait 2 0.197119 0.0121969 0.0340922 0 0 0 0.00421612 0 
trait 3 0.287358 0.0323911 0 0.00751663 0 0 0.00892734 0.0164357 
node 1 1 1 1
node 2 1 1 1
node 3 2 1 1
node 4 1 1 1
node 5 1 1 1
node 6 3 1 1
node 7 2 1 3
node 8 1 0 2
gene 3 1 8 2.35908 0 1 2.35908 0
gene 3 2 8 -2.51889 0 2 -2.51889 0
gene 2 3 8 -2.28478 0 3 -2.28478 1
gene 1 4 8 -6.41375 0 4 -6.41375 1
gene 2 5 8 1.99273 0 5 1.99273 1
gene 2 6 8 2.31812 0 6 2.31812 1
gene 2 7 8 -0.299263 0 7 -0.299263 1
genomeend 52

/* Organism #53 Fitness: 27 Error: 0 */
genomestart 53
trait 1 0.1 0 0 0 3.45054e-05 0 0 0 
trait 2 0.196777 0.0243937 0.058816 0 0 0 0.00413345 0 
trait 3 0.290806 0.0215941 0 0.00501108 0 0 0.00641013 0.0109572 
node 1 1 1 1
node 2 1 1 1
node 3 2 1 1
node 4 1 1 1
node 5 1 1 1
node 6 3 1 1
node 7 2 1 3
node 8 1 0 2
gene 3 1 8 1.70081 0 1 1.70081 0
gene 3 2 8 0.373124 0 2 0.373124 1
gene 2 3 8 0.16909 0 3 0.16909 1
gene 3 4 8 -0.817556 0 4 -0.817556 1
gene 2 5 8 0.724772 0 5 0.724772 1
gene 2 6 8 2.10114 0 6 2.10114 1
gene 2 7 8 1.11793 0 7 1.11793 1
genomeend 53

/* Organism #54 Fitness: 152 Error: 0 */
genomestart 54
trait 1 0.1 0 0 0.0305661 6.90108e-05 0 0 0 
trait 2 0.197197 0.0121969 0.0344532 0.000312637 0 0 0.00425745 0 
trait 3 0.294254 0.0431881 0 0.0100222 0 0 0.0119152 0.0219143 
node 1 1 1 1
node 2 3 1 1
node 3 2 1 1
node 4 1 1 1
node 5 1 1 1
node 6 3 1 1
node 7 2 1 3
node 8 1 0 2
gene 1 1 8 3.36832 0 1 3.36832 0
gene 2 2 8 -1.72096 0 2 -1.72096 0
gene 3 3 8 -3.41676 0 3 -3.41676 1
gene 3 4 8 -8 0 4 -8 1
gene 1 5 8 2.2504 0 5 2.2504 1
gene 2 6 8 1.17128 0 6 1.17128 1
gene 2 7 8 -1.11098 0 7 -1.11098 1
genomeend 54

/* Organism #55 Fitness: 203 Error: 0 */
genomestart 55
trait 1 0.08125 0 0.0422969 0 0.000146648 0 0 0.0679236 
trait 2 0.196567 0.00914765 0.0315609 0.000625273 0 0 0.00566282 0 
trait 3 0.296552 0.0917748 0 0.0212971 0 0 0.024564 0.0465679 
node 1 1 1 1
node 2 2 1 1
node 3 2 1 1
node 4 3 1 1
node 5 1 1 1
node 6 2 1 1
node 7 3 1 3
node 8 2 0 2
gene 3 1 8 1.20286 0 1 1.20286 0
gene 3 2 8 1.52608 0 2 1.52608 0
gene 3 3 8 -1.96301 0 3 -1.96301 1
gene 1 4 8 -5.2988 0 4 -5.2988 1
gene 2 5 8 3.13039 0 5 3.13039 1
gene 1 6 8 2.09047 0 6 2.09047 1
gene 2 7 8 -0.261543 0 7 -0.261543 1
genomeend 55

/* Organism #56 Fitness: 164 Error: 0 */
genomestart 56
trait 1 0.1 0 0 0.0305661 1.72527e-05 0 0 0 
trait 2 0.197021 0.0243937 0.0579152 0 0 0 0.0037201 0 
trait 3 0.291955 0.010797 0 0.00250554 0 0 0.0036757 0.00547858 
node 1 1 1 1
node 2 1 1 1
node 3 2 1 1
node 4 1 1 1
node 5 1 1 1
node 6 3 1 1
node 7 2 1 3
node 8 1 0 2
gene 3 1 8 1.59601 0 1 1.59601 1
gene 3 2 8 -1.97341 0 2 -1.97341 1
gene 2 3 8 -2.30912 0 3 -2.30912 1
gene 1 4 8 -6.4231 0 4 -6.4231 1
gene 2 5 8 2.10739 0 5 2.10739 1
gene 2 6 8 1.35813 0 6 1.35813 1
gene 2 7 8 0.803727 0 7 0.803727 1
genomeend 56

/* Organism #57 Fitness: 128 Error: 0 */
genomestart 57
trait 1 0.1 0 0 0.0611323 0 0 0 0 
trait 2 0.197754 0.0121969 0.0317501 0 0 0 0.00314142 0 
trait 3 0.28391 0 0 0 0 0 0.000362026 0 
node 1 1 1 1
node 2 1 1 1
node 3 2 1 1
node 4 1 1 1
node 5 1 1 1
node 6 3 1 1
node 7 2 1 3
node 8 1 0 2
gene 3 1 8 1.08291 0 1 1.08291 1
gene 3 2 8 -1.02281 0 2 -1.02281 0
gene 3 3 8 -2.57793 0 3 -2.57793 1
gene 1 4 8 -6.77725 0 4 -6.77725 1
gene 2 5 8 2.084 0 5 2.084 1
gene 2 6 8 1.92204 0 6 1.92204 1
gene 2 7 8 0.342139 0 7 0.342139 1
genomeend 57

/* Organism #58 Fitness: 227 Error: 0 */
genomestart 58
trait 1 0.1 0 0 0.0916984 5.17581e-05 0 0 0 
trait 2 0.197793 0.0121969 0.0335538 0.00093791 0 0 0.0035961 0 
trait 3 0.296552 0.0323911 0 0.00751663 0 0 0.00907215 0.0164357 
node 1 1 1 1
node 2 2 1 1
node 3 2 1 1
node 4 1 1 1
node 5 1 1 1
node 6 3 1 1
node 7 2 1 3
node 8 1 0 2
gene 1 1 8 0.890593 0 1 0.890593 0
gene 2 2 8 -1.82619 0 2 -1.82619 1
gene 3 3 8 -4.66005 0 3 -4.66005 1
gene 3 4 8 -5.8187 0 4 -5.8187 1
gene 2 5 8 3.64645 0 5 3.64645 1
gene 2 6 8 1.95033 0 6 1.95033 1
gene 2 7 8 -0.67279 0 7 -0.67279 1
genomeend 58

/* Organism #59 Fitness: 44 Error: 0 */
genomestart 59
trait 1 0.1 0 0 0.0916984 3.45054e-05 0 0 0 
trait 2 0.198398 0 0.00720784 0.000625273 0 0 0.00305875 0 
trait 3 0.289656 0.0215941 0 0.00501108 0 0 0.00579468 0.0109572 
node 1 1 1 1
node 2 1 1 1
node 3 2 1 1
node 4 1 1 1
node 5 1 1 1
node 6 3 1 1
node 7 2 1 3
node 8 1 0 2
gene 1 1 8 0.324963 0 1 0.324963 1
gene 2 2 8 -2.60292 0 2 -2.60292 0
gene 2 3 8 -4.41742 0 3 -4.41742 1
gene 1 4 8 -8 0 4 -8 1
gene 2 5 8 0.715317 0 5 0.715317 1
gene 2 6 8 2.07063 0 6 2.07063 1
gene 2 7 8 0.616286 0 7 0.616286 1
genomeend 59

/* Organism #60 Fitness: 154 Error: 0 */
genomestart 60
trait 1 0.1 0 0 0.0611323 0 0 0 0 
trait 2 0.198437 0 0.00576512 0 0 0 0.00264541 0 
trait 3 0.28391 0 0 0 0 0 7.24053e-05 0 
node 1 1 1 1
node 2 1 1 1
node 3 2 1 1
node 4 1 1 1
node 5 1 1 1
node 6 3 1 1
node 7 2 1 3
node 8 1 0 2
gene 3 1 8 0.754235 0 1 0.754235 1
gene 2 2 8 -1.0386 0 2 -1.0386 1
gene 2 3 8 -3.16289 0 3 -3.16289 1
gene 1 4 8 -8 0 4 -8 1
gene 2 5 8 1.78871 0 5 1.78871 1
gene 2 6 8 2.14406 0 6 2.14406 1
gene 2 7 8 0.631905 0 7 0.631905 1
genomeend 60

/* Organism #61 Fitness: 5 Error: 0 */
genomestart 61
trait 1 0.1 0 0 0.0916984 1.72527e-05 0 0 0 
trait 2 0.198174 0 0.00738728 0.000312637 0 0 0.00326542 0 
trait 3 0.281611 0.010797 0 0.00250554 0 0 0.00295164 0.00547858 
node 1 1 1 1
node 2 1 1 1
node 3 2 1 1
node 4 1 1 1
node 5 1 1 1
node 6 3 1 1
node 7 2 1 3
node 8 1 0 2
gene 3 1 8 2.44896 0 1 2.44896 0
gene 2 2 8 -0.205475 0 2 -0.205475 0
gene 3 3 8 -2.42212 0 3 -2.42212 1
gene 1 4 8 -8 0 4 -8 1
gene 2 5 8 4.127 0 5 4.127 1
gene 2 6 8 -0.254207 0 6 -0.254207 1
gene 2 7 8 0.271725 0 7 0.271725 1
genomeend 61

/* Organism #62 Fitness: 5 Error: 0 */
genomestart 62
trait 1 0.1 0 0 0.122265 3.45054e-05 0 0 0 
trait 2 0.198398 0 0.00720784 0.000625273 0 0 0.00305875 0 
trait 3 0.290806 0.0215941 0 0.00501108 0 0 0.00583088 0.0109572 
node 1 1 1 1
node 2 1 1 1
node 3 2 1 1
node 4 1 1 1
node 5 1 1 1
node 6 3 1 1
node 7 2 1 3
node 8 1 0 2
gene 3 1 8 -0.255478 0 1 -0.255478 1
gene 2 2 8 -0.625509 0 2 -0.625509 0
gene 3 3 8 -1.82447 0 3 -1.82447 1
gene 1 4 8 -7.94091 0 4 -7.94091 1
gene 2 5 8 0.367298 0 5 0.367298 1
gene 2 6 8 -0.421835 0 6 -0.421835 1
gene 2 7 8 2.59647 0 7 2.59647 1
genomeend 62

/* Organism #63 Fitness: 62 Error: 0 */
genomestart 63
trait 1 0.1 0 0 0.0611323 0 0 0 0 
trait 2 0.197754 0.0121969 0.0317501 0 0 0 0.00314142 0 
trait 3 0.28391 0 0 0 0 0 0.000362026 0 
node 1 1 1 1
node 2 1 1 1
node 3 2 1 1
node 4 1 1 1
node 5 1 1 1
node 6 3 1 1
node 7 2 1 3
node 8 1 0 2
gene 3 1 8 2.78062 0 1 2.78062 0
gene 2 2 8 -0.399481 0 2 -0.399481 0
gene 3 3 8 -3.10713 0 3 -3.10713 1
gene 1 4 8 -6.80878 0 4 -6.80878 1
gene 2 5 8 0.741502 0 5 0.741502 1
gene 2 6 8 1.50782 0 6 1.50782 1
gene 2 7 8 1.18798 0 7 1.18798 1
genomeend 63

/* Organism #64 Fitness: 53 Error: 0 */
genomestart 64
trait 1 0.1 0 0 0.0611323 3.45054e-05 0 0 0 
trait 2 0.197881 0 0.00846824 0.000312637 0 0 0.00376144 0 
trait 3 0.281611 0.0215941 0 0.00501108 0 0 0.00583088 0.0109572 
node 1 1 1 1
node 2 2 1 1
node 3 2 1 1
node 4 2 1 1
node 5 1 1 1
node 6 1 1 1
node 7 1 1 3
node 8 1 0 2
gene 3 1 8 3.42563 0 1 3.42563 0
gene 2 2 8 -4.3467 0 2 -4.3467 0
gene 3 3 8 -2.19343 0 3 -2.19343 1
gene 1 4 8 -7.89314 0 4 -7.89314 1
gene 2 5 8 5.95762 0 5 5.95762 1
gene 2 6 8 2.12873 0 6 2.12873 1
gene 2 7 8 1.31657 0 7 1.31657 1
genomeend 64

/* Organism #65 Fitness: 5 Error: 0 */
genomestart 65
trait 1 0.1 0 0 0.122265 6.90108e-05 0 0 0 
trait 2 0.198359 0 0.00865055 0.00125055 0 0 0.00347209 0 
trait 3 0.295403 0.0431881 0 0.0100222 0 0 0.011517 0.0219143 
node 1 1 1 1
node 2 3 1 1
node 3 2 1 1
node 4 1 1 1
node 5 1 1 1
node 6 3 1 1
node 7 2 1 3
node 8 1 0 2
node 44 1 0 0
gene 1 1 8 2.34281 0 1 2.34281 1
gene 2 2 8 -2.35625 0 2 -2.35625 0
gene 3 3 8 -5.75796 0 3 -5.75796 1
gene 1 4 8 -6.5504 0 4 -6.5504 1
gene 2 5 8 3.43473 0 5 3.43473 1
gene 2 6 8 2.17193 0 6 2.17193 0
gene 2 7 8 -0.908617 0 7 -0.908617 1
gene 2 6 44 1 0 103 0 1
gene 2 44 8 2.17193 0 104 0 1
genomeend 65

/* Organism #66 Fitness: 95 Error: 0 */
genomestart 66
trait 1 0.1 0 0 0.0305661 5.17581e-05 0 0 0 
trait 2 0.154392 0 0.00900801 0 0 0.201767 0.00413345 0 
trait 3 0.281611 0.0323911 0 0.00751663 0 0 0.00863772 0.0164357 
node 1 1 1 1
node 2 1 1 1
node 3 2 1 1
node 4 1 1 1
node 5 1 1 1
node 6 3 1 1
node 7 2 1 3
node 8 1 0 2
gene 3 1 8 1.52505 0 1 1.52505 0
gene 3 2 8 0.922836 0 2 0.922836 0
gene 2 3 8 -1.89516 0 3 -1.89516 1
gene 1 4 8 -8 0 4 -8 1
gene 2 5 8 3.45965 0 5 3.45965 1
gene 2 6 8 1.6819 0 6 1.6819 1
gene 2 7 8 -1.88129 0 7 -1.88129 1
genomeend 66

/* Organism #67 Fitness: 248 Error: 0 */
genomestart 67
trait 1 0.1 0 0 0.0305661 6.90108e-05 0 0 0 
trait 2 0.197178 0.0121969 0.0351746 0.000625273 0 0 0.00446412 0 
trait 3 0.290806 0.0431881 0 0.0100222 0 0 0.0118428 0.0219143 
node 1 1 1 1
node 2 2 1 1
node 3 2 1 1
node 4 2 1 1
node 5 1 1 1
node 6 1 1 1
node 7 1 1 3
node 8 2 0 2
gene 3 1 8 3.48157 0 1 3.48157 1
gene 2 2 8 -3.8759 0 2 -3.8759 0
gene 3 3 8 -5.14641 0 3 -5.14641 1
gene 1 4 8 -6.96991 0 4 -6.96991 1
gene 2 5 8 2.46311 0 5 2.46311 1
gene 2 6 8 1.97555 0 6 1.97555 1
gene 2 7 8 -0.548796 0 7 -0.548796 1
genomeend 67

/* Organism #68 Fitness: 161 Error: 0 */
genomestart 68
trait 1 0.1 0 0 0 6.90108e-05 0 0 0 
trait 2 0.196543 0.0243937 0.0609794 0.000625273 0 0 0.00487747 0 
trait 3 0.290806 0.0431881 0 0.0100222 0 0 0.0120962 0.0219143 
node 1 1 1 1
node 2 2 1 1
node 3 2 1 1
node 4 2 1 1
node 5 1 1 1
node 6 1 1 1
node 7 1 1 3
node 8 1 0 2
gene 3 1 8 1.6238 0 1 1.6238 0
gene 2 2 8 -2.01975 0 2 -2.01975 0
gene 3 3 8 -2.26709 0 3 -2.26709 1
gene 1 4 8 -7.40587 0 4 -7.40587 1
gene 2 5 8 2.93439 0 5 2.93439 1
gene 2 6 8 1.88212 0 6 1.88212 1
gene 2 7 8 -0.87567 0 7 -0.87567 1
genomeend 68

/* Organism #69 Fitness: 44 Error: 0 */
genomestart 69
trait 1 0.1 0 0 0.0611323 0 0 0 0 
trait 2 0.197607 0.0121969 0.0322906 0 0 0 0.00338943 0 
trait 3 0.282761 0 0 0 0 0 0.000506837 0 
node 1 1 1 1
node 2 3 1 1
node 3 2 1 1
node 4 1 1 1
node 5 1 1 1
node 6 3 1 1
node 7 2 1 3
node 8 1 0 2
gene 3 1 8 2.00577 0 1 2.00577 0
gene 2 2 8 -0.561468 0 2 -0.561468 1
gene 2 3 8 -1.60827 0 3 -1.60827 1
gene 1 4 8 -6.03198 0 4 -6.03198 1
gene 2 5 8 1.91176 0 5 1.91176 1
gene 2 6 8 2.61492 0 6 2.61492 1
gene 2 7 8 -1.03657 0 7 -1.03657 1
genomeend 69

/* Organism #70 Fitness: 100001 Error: 0 */
/* ##------$ WINNER 70 SPECIES #1 $------## */
genomestart 70
trait 1 0.1 0 0 0.0611323 0 0 0 0 
trait 2 0.198437 0 0.00576512 0 0 0 0.00264541 0 
trait 3 0.28391 0 0 0 0 0 7.24053e-05 0 
node 1 1 1 1
node 2 1 1 1
node 3 2 1 1
node 4 1 1 1
node 5 1 1 1
node 6 3 1 1
node 7 2 1 3
node 8 1 0 2
gene 3 1 8 -1.46285 0 1 -1.46285 1
gene 3 2 8 -0.348428 0 2 -0.348428 1
gene 2 3 8 -4.46122 0 3 -4.46122 1
gene 1 4 8 -8 0 4 -8 1
gene 2 5 8 3.24601 0 5 3.24601 1
gene 2 6 8 2.14406 0 6 2.14406 1
gene 2 7 8 0.0241757 0 7 0.0241757 1
genomeend 70

/* Organism #71 Fitness: 152 Error: 0 */
genomestart 71
trait 1 0.1 0 0 0.0611323 0 0 0 0 
trait 2 0.197852 0.0121969 0.0313898 0 0 0 0.00297608 0 
trait 3 0.288507 0 0 0 0 0 0.000506837 0 
node 1 1 1 1
node 2 1 1 1
node 3 2 1 1
node 4 1 1 1
node 5 1 1 1
node 6 3 1 1
node 7 2 1 3
node 8 1 0 2
gene 3 1 8 0.458484 0 1 0.458484 0
gene 2 2 8 -3.14335 0 2 -3.14335 1
gene 2 3 8 -2.4052 0 3 -2.4052 1
gene 1 4 8 -7.48633 0 4 -7.48633 1
gene 2 5 8 2.5351 0 5 2.5351 1
gene 2 6 8 1.15721 0 6 1.15721 1
gene 2 7 8 -1.2581 0 7 -1.2581 1
genomeend 71

/* Organism #72 Fitness: 129 Error: 0 */
genomestart 72
trait 1 0.1 0 0 0 0.000103516 0 0 0 
trait 2 0.197168 0 0.0104493 0 0 0 0.0047948 0 
trait 3 0.290806 0.0647822 0 0.0150333 0 0 0.017203 0.0328715 
node 1 1 1 1
node 2 2 1 1
node 3 2 1 1
node 4 3 1 1
node 5 1 1 1
node 6 2 1 1
node 7 3 1 3
node 8 2 0 2
gene 3 1 8 4.29636 0 1 4.29636 1
gene 3 2 8 0.251693 0 2 0.251693 0
gene 2 3 8 -1.55505 0 3 -1.55505 1
gene 1 4 8 -8 0 4 -8 1
gene 2 5 8 3.02091 0 5 3.02091 1
gene 2 6 8 1.50531 0 6 1.50531 1
gene 2 7 8 -0.677146 0 7 -0.677146 1
genomeend 72

/* Organism #73 Fitness: 6 Error: 0 */
genomestart 73
trait 1 0.1 0 0 0.0611323 5.17581e-05 0 0 0 
trait 2 0.197568 0.0121969 0.0337333 0.000625273 0 0 0.00380277 0 
trait 3 0.293104 0.0323911 0 0.00751663 0 0 0.00896354 0.0164357 
node 1 1 1 1
node 2 1 1 1
node 3 2 1 1
node 4 1 1 1
node 5 1 1 1
node 6 3 1 1
node 7 2 1 3
node 8 1 0 2
gene 1 1 8 3.25253 0 1 3.25253 0
gene 2 2 8 -0.274531 0 2 -0.274531 0
gene 2 3 8 -0.880738 0 3 -0.880738 1
gene 1 4 8 -4.8712 0 4 -4.8712 1
gene 2 5 8 5.06619 0 5 5.06619 1
gene 2 6 8 -0.0206436 0 6 -0.0206436 1
gene 2 7 8 -0.340333 0 7 -0.340333 1
genomeend 73

/* Organism #74 Fitness: 60 Error: 0 */
genomestart 74
trait 1 0.1 0 0 0.0611323 0 0 0 0 
trait 2 0.198437 0 0.00576512 0 0 0 0.00264541 0 
trait 3 0.28391 0 0 0 0 0 7.24053e-05 0 
node 1 1 1 1
node 2 1 1 1
node 3 2 1 1
node 4 1 1 1
node 5 1 1 1
node 6 3 1 1
node 7 2 1 3
node 8 1 0 2
gene 3 1 8 -1.99748 0 1 -1.99748 1
gene 2 2 8 -0.191191 0 2 -0.191191 1
gene 2 3 8 -5.17032 0 3 -5.17032 1
gene 1 4 8 -6.86111 0 4 -6.86111 1
gene 2 5 8 1.45146 0 5 1.45146 1
gene 2 6 8 3.33843 0 6 3.33843 1
gene 2 7 8 1.50787 0 7 1.50787 1
genomeend 74

/* Organism #75 Fitness: 29 Error: 0 */
genomestart 75
trait 1 0.0875 0 0.0281979 0 0.000120769 0 0 0.0452824 
trait 2 0.197334 0.00609844 0.0241653 0.00125055 0 0 0.00487747 0 
trait 3 0.297701 0.0755792 0 0.0175388 0 0 0.0202633 0.0383501 
node 1 1 1 1
node 2 2 1 1
node 3 2 1 1
node 4 2 1 1
node 5 1 1 1
node 6 1 1 1
node 7 1 1 3
node 8 1 0 2
node 45 1 0 0
gene 1 1 8 1.09701 0 1 1.09701 0
gene 3 2 8 1.62536 0 2 1.62536 0
gene 3 3 8 -2.12778 0 3 -2.12778 1
gene 1 4 8 -5.2988 0 4 -5.2988 0
gene 2 5 8 3.19475 0 5 3.19475 1
gene 1 6 8 2.39344 0 6 2.39344 1
gene 2 7 8 0.158353 0 7 0.158353 1
gene 1 4 45 1 0 105 0 1
gene 1 45 8 -5.2988 0 106 0 1
genomeend 75

/* Organism #76 Fitness: 99 Error: 0 */
genomestart 76
trait 1 0.1 0 0 0.0611323 5.17581e-05 0 0 0 
trait 2 0.197519 0.0121969 0.0339134 0.000625273 0 0 0.00388544 0 
trait 3 0.294254 0.0323911 0 0.00751663 0 0 0.00910835 0.0164357 
node 1 1 1 1
node 2 2 1 1
node 3 2 1 1
node 4 2 1 1
node 5 1 1 1
node 6 1 1 1
node 7 1 1 3
node 8 1 0 2
gene 3 1 8 2.13659 0 1 2.13659 0
gene 2 2 8 -2.83194 0 2 -2.83194 0
gene 3 3 8 -4.98574 0 3 -4.98574 1
gene 3 4 8 -6.25671 0 4 -6.25671 1
gene 2 5 8 4.33051 0 5 4.33051 1
gene 2 6 8 1.51871 0 6 1.51871 1
gene 2 7 8 -2.50029 0 7 -2.50029 1
genomeend 76

/* Organism #77 Fitness: 96 Error: 0 */
genomestart 77
trait 1 0.1 0 0 0 3.45054e-05 0 0 0 
trait 2 0.196777 0.0243937 0.058816 0 0 0 0.00413345 0 
trait 3 0.290806 0.0215941 0 0.00501108 0 0 0.00641013 0.0109572 
node 1 1 1 1
node 2 1 1 1
node 3 2 1 1
node 4 1 1 1
node 5 1 1 1
node 6 3 1 1
node 7 2 1 3
node 8 1 0 2
gene 3 1 8 -0.0903445 0 1 -0.0903445 0
gene 3 2 8 -0.330271 0 2 -0.330271 1
gene 2 3 8 -0.653261 0 3 -0.653261 1
gene 3 4 8 -7.74249 0 4 -7.74249 1
gene 2 5 8 0.374127 0 5 0.374127 1
gene 2 6 8 1.83414 0 6 1.83414 1
gene 2 7 8 -0.0622763 0 7 -0.0622763 1
genomeend 77

/* Organism #78 Fitness: 31 Error: 0 */
genomestart 78
trait 1 0.1 0 0 0.0611323 0 0 0 0 
trait 2 0.197266 0.0243937 0.0570144 0 0 0 0.00330676 0 
trait 3 0.293104 0 0 0 0 0 0.000941269 0 
node 1 1 1 1
node 2 3 1 1
node 3 2 1 1
node 4 1 1 1
node 5 1 1 1
node 6 3 1 1
node 7 2 1 3
node 8 1 0 2
gene 2 1 8 2.99848 0 1 2.99848 0
gene 2 2 8 0.813933 0 2 0.813933 1
gene 2 3 8 -1.60786 0 3 -1.60786 1
gene 1 4 8 -2.95989 0 4 -2.95989 1
gene 2 5 8 4.27654 0 5 4.27654 1
gene 2 6 8 3.7708 0 6 3.7708 1
gene 2 7 8 1.55934 0 7 1.55934 1
genomeend 78

/* Organism #79 Fitness: 217 Error: 0 */
genomestart 79
trait 1 0.1 0 0 0.0305661 5.17581e-05 0 0 0 
trait 2 0.197119 0.0121969 0.0340922 0 0 0 0.00421612 0 
trait 3 0.287358 0.0323911 0 0.00751663 0 0 0.00892734 0.0164357 
node 1 1 1 1
node 2 1 1 1
node 3 2 1 1
node 4 1 1 1
node 5 1 1 1
node 6 3 1 1
node 7 2 1 3
node 8 1 0 2
gene 3 1 8 2.25763 0 1 2.25763 0
gene 3 2 8 0.268642 0 2 0.268642 1
gene 2 3 8 -2.56993 0 3 -2.56993 1
gene 1 4 8 -6.77725 0 4 -6.77725 1
gene 2 5 8 1.93168 0 5 1.93168 1
gene 2 6 8 1.87687 0 6 1.87687 1
gene 2 7 8 -0.160501 0 7 -0.160501 1
genomeend 79

/* Organism #80 Fitness: 49 Error: 0 */
genomestart 80
trait 1 0.1 0 0 0.0611323 5.17581e-05 0 0 0 
trait 2 0.197519 0.0121969 0.0339134 0.000625273 0 0 0.00388544 0 
trait 3 0.294254 0.0323911 0 0.00751663 0 0 0.00910835 0.0164357 
node 1 1 1 1
node 2 3 1 1
node 3 2 1 1
node 4 1 1 1
node 5 1 1 1
node 6 3 1 1
node 7 2 1 3
node 8 1 0 2
gene 1 1 8 2.36952 0 1 2.36952 0
gene 2 2 8 -1.91753 0 2 -1.91753 0
gene 3 3 8 -2.68094 0 3 -2.68094 1
gene 3 4 8 -0.161696 0 4 -0.161696 1
gene 2 5 8 4.68973 0 5 4.68973 1
gene 2 6 8 0.764816 0 6 0.764816 1
gene 2 7 8 0.282387 0 7 0.282387 1
genomeend 80

/* Organism #81 Fitness: 157 Error: 0 */
genomestart 81
trait 1 0.1 0 0 0 3.45054e-05 0 0 0 
trait 2 0.1971 0.0121969 0.0348135 0.000312637 0 0 0.00442279 0 
trait 3 0.277014 0.0215941 0 0.00501108 0 0 0.0060481 0.0109572 
node 1 1 1 1
node 2 3 1 1
node 3 3 1 1
node 4 2 1 1
node 5 2 1 1
node 6 3 1 1
node 7 1 1 3
node 8 1 0 2
gene 3 1 8 1.6238 0 1 1.6238 0
gene 2 2 8 -2.01975 0 2 -2.01975 0
gene 3 3 8 -2.26709 0 3 -2.26709 1
gene 1 4 8 -7.40587 0 4 -7.40587 1
gene 2 5 8 1.31072 0 5 1.31072 1
gene 2 6 8 1.81472 0 6 1.81472 1
gene 2 7 8 -0.87567 0 7 -0.87567 1
genomeend 81

/* Organism #82 Fitness: 29 Error: 0 */
genomestart 82
trait 1 0.1 0 0 0.0611323 0 0 0 0 
trait 2 0.197607 0.0121969 0.0322906 0 0 0 0.00338943 0 
trait 3 0.282761 0 0 0 0 0 0.000506837 0 
node 1 1 1 1
node 2 3 1 1
node 3 2 1 1
node 4 1 1 1
node 5 1 1 1
node 6 3 1 1
node 7 2 1 3
node 8 1 0 2
gene 3 1 8 4.22427 0 1 4.22427 0
gene 2 2 8 0.694841 0 2 0.694841 1
gene 3 3 8 -3.72995 0 3 -3.72995 1
gene 1 4 8 -8 0 4 -8 1
gene 2 5 8 1.51206 0 5 1.51206 1
gene 2 6 8 3.52997 0 6 3.52997 1
gene 2 7 8 1.59489 0 7 1.59489 1
genomeend 82

/* Organism #83 Fitness: 67 Error: 0 */
genomestart 83
trait 1 0.1 0 0 0.0611323 0 0 0 0 
trait 2 0.197607 0.0121969 0.0322906 0 0 0 0.00338943 0 
trait 3 0.282761 0 0 0 0 0 0.000506837 0 
node 1 1 1 1
node 2 3 1 1
node 3 2 1 1
node 4 1 1 1
node 5 1 1 1
node 6 3 1 1
node 7 2 1 3
node 8 1 0 2
gene 3 1 8 2.04418 0 1 2.04418 0
gene 2 2 8 -0.399294 0 2 -0.399294 1
gene 2 3 8 -1.65081 0 3 -1.65081 1
gene 1 4 8 -7.69429 0 4 -7.69429 1
gene 2 5 8 4.34874 0 5 4.34874 1
gene 2 6 8 2.61797 0 6 2.61797 1
gene 2 7 8 0.885371 0 7 0.885371 1
genomeend 83

/* Organism #84 Fitness: 31 Error: 0 */
genomestart 84
trait 1 0.1 0 0.344347 0.132925 0.171859 0.137183 0.585582 0.00696603 
trait 2 0.2 0 0.105654 0 0.0372422 0.0816038 0.0411657 0.123358 
trait 3 0.3 0.0706249 0.0197547 0.0777929 0.0362818 0.0215984 0 0.0337626 
node 1 3 1 1
node 2 3 1 1
node 3 1 1 1
node 4 1 1 1
node 5 1 1 1
node 6 2 1 1
node 7 1 1 3
node 8 1 0 2
node 9 1 0 0
gene 3 1 8 -0.933892 0 1 -0.933892 1
gene 3 2 8 -0.501501 0 2 -0.501501 1
gene 1 3 8 2.01115 0 3 2.01115 1
gene 3 4 8 -2.27668 0 4 -2.27668 1
gene 1 5 8 2.46667 0 5 2.46667 0
gene 1 6 8 4.39221 0 6 4.39221 1
gene 2 7 8 -2.37021 0 7 -2.37021 1
gene 1 5 9 -1.00571 0 8 -1.00571 1
gene 1 9 8 1.94825 0 9 1.94825 1
genomeend 84

/* Organism #85 Fitness: 31 Error: 0 */
genomestart 85
trait 1 0.1 0 0 0.205399 0 0 0 0.0371522 
trait 2 0.2 0 0 0 0 0 0 0 
trait 3 0.263223 0 0 0 0.0305531 0.0181881 0 0.0284317 
node 1 1 1 1
node 2 3 1 1
node 3 3 1 1
node 4 2 1 1
node 5 2 1 1
node 6 3 1 1
node 7 1 1 3
node 8 1 0 2
node 22 1 0 0
gene 3 1 8 0.10776 0 1 0.10776 0
gene 3 2 8 2.05674 0 2 2.05674 0
gene 2 3 8 2.88693 0 3 2.88693 1
gene 1 4 8 -3.29266 0 4 -3.29266 1
gene 2 5 8 3.48632 0 5 3.48632 1
gene 1 6 8 4.64723 0 6 4.64723 1
gene 1 7 8 -0.0281283 0 7 -0.0281283 1
gene 3 1 22 -1.35657 0 42 -1.35657 1
gene 3 22 8 0.662499 0 43 0.662499 1
genomeend 85

/* Species #2 : (Size 21) (AF 41.1429) (Age 13)  */


/* Organism #86 Fitness: 97 Error: 0 */
genomestart 86
trait 1 0.1 0 0.688694 0 0.162007 0 0 0.00928804 
trait 2 0.2 0 0 0 0 0 0 0 
trait 3 0.3 0.0470833 0.0131698 0.0518619 0.0381914 0.0227352 0 0.0355396 
node 1 3 1 1
node 2 3 1 1
node 3 1 1 1
node 4 1 1 1
node 5 3 1 1
node 6 2 1 1
node 7 1 1 3
node 8 1 0 2
node 9 1 0 0
gene 3 1 8 0.598667 0 1 0.598667 1
gene 3 2 8 3.86468 0 2 3.86468 1
gene 1 3 8 0.744272 0 3 0.744272 1
gene 3 4 8 0.459692 0 4 0.459692 1
gene 1 5 8 0.0521754 0 5 0.0521754 0
gene 1 6 8 3.41923 0 6 3.41923 1
gene 2 7 8 -2.51232 0 7 -2.51232 1
gene 1 5 9 5.30015 0 8 5.30015 1
gene 1 9 8 1.34584 0 9 1.34584 1
genomeend 86

/* Organism #87 Fitness: 5 Error: 0 */
genomestart 87
trait 1 0.1 0 0 0.195297 0.0700573 0 0 0.0185761 
trait 2 0.2 0 0 0 0 0 0 0 
trait 3 0.3 0 0 0 0.0763828 0.0454703 0 0.0710792 
node 1 3 1 1
node 2 3 1 1
node 3 1 1 1
node 4 1 1 1
node 5 3 1 1
node 6 2 1 1
node 7 1 1 3
node 8 3 0 2
node 9 1 0 0
gene 3 1 8 -0.575987 0 1 -0.575987 1
gene 3 2 8 1.09279 0 2 1.09279 1
gene 1 3 8 0.563861 0 3 0.563861 1
gene 3 4 8 -2.90183 0 4 -2.90183 0
gene 2 5 8 -2.03249 0 5 -2.03249 0
gene 1 6 8 -0.0642559 0 6 -0.0642559 1
gene 2 7 8 -3.43521 0 7 -3.43521 1
gene 1 5 9 5.23813 0 8 5.23813 1
gene 1 9 8 0.763224 0 9 0.763224 1
gene 2 1 9 -0.494642 0 50 -0.494642 1
gene 3 4 9 -1.59892 0 78 -1.59892 1
genomeend 87

/* Organism #88 Fitness: 35 Error: 0 */
genomestart 88
trait 1 0.1 0 0 0.26585 0.181711 0 0 0.00464402 
trait 2 0.2 0 0.211308 0 0.0744844 0.163208 0.0823314 0.246716 
trait 3 0.3 0.0941666 0.0263395 0.103724 0.0343723 0.0204616 0 0.0319856 
node 1 3 1 1
node 2 3 1 1
node 3 1 1 1
node 4 1 1 1
node 5 3 1 1
node 6 2 1 1
node 7 1 1 3
node 8 1 0 2
node 9 1 0 0
gene 3 1 8 -2.80369 0 1 -2.80369 1
gene 3 2 8 2.64103 0 2 2.64103 1
gene 3 3 8 1.70924 0 3 1.70924 1
gene 3 4 8 -3.12899 0 4 -3.12899 1
gene 1 5 8 1.82498 0 5 1.82498 0
gene 1 6 8 8 0 6 8 1
gene 2 7 8 -2.43233 0 7 -2.43233 1
gene 1 5 9 4.30758 0 8 4.30758 1
gene 1 9 8 0.220293 0 9 0.220293 1
genomeend 88

/* Organism #89 Fitness: 28 Error: 0 */
genomestart 89
trait 1 0.018227 0 0.688694 0 0.162007 0 0 0.00928804 
trait 2 0.2 0 0 0 0 0 0 0 
trait 3 0.3 0.0470833 0.0131698 0.0518619 0.0381914 0.0227352 0 0.0355396 
node 1 3 1 1
node 2 3 1 1
node 3 1 1 1
node 4 1 1 1
node 5 3 1 1
node 6 2 1 1
node 7 1 1 3
node 8 1 0 2
node 9 1 0 0
gene 3 1 8 2.97638 0 1 2.97638 1
gene 3 2 8 4.78816 0 2 4.78816 1
gene 1 3 8 2.74702 0 3 2.74702 1
gene 3 4 8 -1.82819 0 4 -1.82819 1
gene 1 5 8 -0.598856 0 5 -0.598856 0
gene 1 6 8 1.28162 0 6 1.28162 1
gene 2 7 8 -1.43106 0 7 -1.43106 1
gene 1 5 9 4.81267 0 8 4.81267 1
gene 1 9 8 3.73023 0 9 3.73023 1
genomeend 89

/* Organism #90 Fitness: 35 Error: 0 */
genomestart 90
trait 1 0.1 0 0 0.21771 0.0481644 0 0 0.0278641 
trait 2 0.1 0.179384 0.311069 0 0 0.000829703 0 0.512323 
trait 3 0.3 0.0941666 0.0263395 0.103724 0.0840211 0.0500173 0 0.0781871 
node 1 3 1 1
node 2 3 1 1
node 3 1 1 1
node 4 1 1 1
node 5 3 1 1
node 6 2 1 1
node 7 1 1 3
node 8 3 0 2
node 9 1 0 0
gene 3 1 8 -1.48198 0 1 -1.48198 1
gene 3 2 8 3.51005 0 2 3.51005 1
gene 1 3 8 4.38298 0 3 4.38298 1
gene 3 4 8 -0.71888 0 4 -0.71888 0
gene 1 5 8 -4.81523 0 5 -4.81523 0
gene 1 6 8 7.47257 0 6 7.47257 1
gene 2 7 8 -4.04371 0 7 -4.04371 1
gene 1 5 9 3.91835 0 8 3.91835 1
gene 1 9 8 0.278366 0 9 0.278366 1
gene 2 1 9 2.0472 0 50 2.0472 1
gene 3 4 9 -0.172439 0 78 -0.172439 1
genomeend 90

/* Organism #91 Fitness: 18 Error: 0 */
genomestart 91
trait 1 0.1 0 0.688694 0 0.162007 0 0 0.00928804 
trait 2 0.2 0 0 0 0 0 0 0 
trait 3 0.3 0.0470833 0.0131698 0.0518619 0.0381914 0.0227352 0 0.0355396 
node 1 3 1 1
node 2 3 1 1
node 3 1 1 1
node 4 1 1 1
node 5 1 1 1
node 6 2 1 1
node 7 1 1 3
node 8 1 0 2
node 9 1 0 0
gene 3 1 8 2.69575 0 1 2.69575 1
gene 3 2 8 4.05854 0 2 4.05854 1
gene 1 3 8 2.8006 0 3 2.8006 1
gene 3 4 8 1.7052 0 4 1.7052 1
gene 1 5 8 -0.792705 0 5 -0.792705 0
gene 1 6 8 1.70253 0 6 1.70253 1
gene 2 7 8 -2.9138 0 7 -2.9138 1
gene 1 5 9 5.94752 0 8 5.94752 1
gene 1 9 8 -0.370685 0 9 -0.370685 1
genomeend 91

/* Organism #92 Fitness: 14 Error: 0 */
genomestart 92
trait 1 0.1 0 0 0.259695 0.157629 0 0 0.00928804 
trait 2 0.2 0 0 0 0 0 0 0 
trait 3 0.3 0 0 0 0.0381914 0.0227352 0 0.0355396 
node 1 3 1 1
node 2 3 1 1
node 3 1 1 1
node 4 1 1 1
node 5 3 1 1
node 6 2 1 1
node 7 1 1 3
node 8 1 0 2
node 9 1 0 0
gene 3 1 8 0.0530688 0 1 0.0530688 1
gene 3 2 8 -1.32549 0 2 -1.32549 1
gene 1 3 8 4.49043 0 3 4.49043 1
gene 3 4 8 -2.05247 0 4 -2.05247 0
gene 1 5 8 -1.5289 0 5 -1.5289 0
gene 1 6 8 1.51867 0 6 1.51867 1
gene 2 7 8 0.0881099 0 7 0.0881099 1
gene 1 5 9 1.84354 0 8 1.84354 1
gene 1 9 8 3.24929 0 9 3.24929 1
genomeend 92

/* Organism #93 Fitness: 60 Error: 0 */
genomestart 93
trait 1 0.1 0 0 0.294971 0.213456 0 0 0.00232201 
trait 2 0.2 0 0.105654 0 0.0372422 0.0816038 0.0411657 0.123358 
trait 3 0.3 0.0470833 0.0131698 0.0518619 0.0171861 0.0102308 0 0.0159928 
node 1 3 1 1
node 2 3 1 1
node 3 1 1 1
node 4 1 1 1
node 5 3 1 1
node 6 2 1 1
node 7 1 1 3
node 8 1 0 2
node 9 1 0 0
gene 3 1 8 0.128958 0 1 0.128958 1
gene 3 2 8 2.41034 0 2 2.41034 1
gene 1 3 8 5.49676 0 3 5.49676 1
gene 3 4 8 -1.49689 0 4 -1.49689 1
gene 1 5 8 -0.373624 0 5 -0.373624 0
gene 1 6 8 6.27392 0 6 6.27392 1
gene 2 7 8 -2.1835 0 7 -2.1835 1
gene 1 5 9 1.35028 0 8 1.35028 1
gene 1 9 8 1.77056 0 9 1.77056 1
genomeend 93

/* Organism #94 Fitness: 33 Error: 0 */
genomestart 94
trait 1 0.1 0 0 0.324092 0.2452 0 0 0 
trait 2 0.2 0 0 0 0 0 0 0 
trait 3 0.3 0 0 0 0 0 0 0 
node 1 3 1 1
node 2 3 1 1
node 3 1 1 1
node 4 1 1 1
node 5 3 1 1
node 6 2 1 1
node 7 1 1 3
node 8 1 0 2
node 9 1 0 0
gene 3 1 8 -0.230947 0 1 -0.230947 1
gene 3 2 8 0.580922 0 2 0.580922 1
gene 1 3 8 5.65265 0 3 5.65265 1
gene 3 4 8 -3.39949 0 4 -3.39949 1
gene 1 5 8 -1.9489 0 5 -1.9489 0
gene 1 6 8 3.0478 0 6 3.0478 1
gene 2 7 8 -2.72732 0 7 -2.72732 1
gene 1 5 9 3.63227 0 8 3.63227 1
gene 1 9 8 2.99622 0 9 2.99622 1
genomeend 94

/* Organism #95 Fitness: 28 Error: 0 */
genomestart 95
trait 1 0.1 0 0.344347 0.124955 0.126979 0 0 0.0162541 
trait 2 0.2 0 0 0 0 0 0 0 
trait 3 0.3 0.0706249 0.0197547 0.0777929 0.0515584 0.0306925 0 0.0479785 
node 1 3 1 1
node 2 3 1 1
node 3 1 1 1
node 4 1 1 1
node 5 3 1 1
node 6 2 1 1
node 7 1 1 3
node 8 1 0 2
node 9 1 0 0
gene 3 1 8 -3.23575 0 1 -3.23575 1
gene 3 2 8 1.08513 0 2 1.08513 1
gene 1 3 8 3.89779 0 3 3.89779 1
gene 3 4 8 1.07517 0 4 1.07517 1
gene 1 5 8 0.644739 0 5 0.644739 0
gene 1 6 8 1.41021 0 6 1.41021 1
gene 2 7 8 -1.95517 0 7 -1.95517 1
gene 1 5 9 4.90961 0 8 4.90961 1
gene 1 9 8 1.42948 0 9 1.42948 1
genomeend 95

/* Organism #96 Fitness: 34 Error: 0 */
genomestart 96
trait 1 0.1 0 0 0.259695 0.157629 0 0 0.00928804 
trait 2 0.2 0 0 0 0 0 0 0 
trait 3 0.3 0 0 0 0.0381914 0.0227352 0 0.0355396 
node 1 3 1 1
node 2 3 1 1
node 3 1 1 1
node 4 1 1 1
node 5 3 1 1
node 6 2 1 1
node 7 1 1 3
node 8 3 0 2
node 9 1 0 0
gene 3 1 8 -1.91473 0 1 -1.91473 1
gene 3 2 8 1.55004 0 2 1.55004 1
gene 1 3 8 3.27802 0 3 3.27802 1
gene 3 4 8 -2.80682 0 4 -2.80682 0
gene 1 5 8 -1.90314 0 5 -1.90314 0
gene 1 6 8 1.51867 0 6 1.51867 1
gene 2 7 8 -1.92434 0 7 -1.92434 1
gene 1 5 9 3.20404 0 8 3.20404 1
gene 1 9 8 1.39969 0 9 1.39969 1
genomeend 96

/* Organism #97 Fitness: 34 Error: 0 */
genomestart 97
trait 1 0.1 0 0 0.324092 0.2452 0 0 0 
trait 2 0.2 0 0 0 0 0 0 0 
trait 3 0.3 0 0 0 0 0 0 0 
node 1 3 1 1
node 2 3 1 1
node 3 1 1 1
node 4 1 1 1
node 5 3 1 1
node 6 2 1 1
node 7 1 1 3
node 8 1 0 2
node 9 1 0 0
gene 3 1 8 -1.47689 0 1 -1.47689 1
gene 3 2 8 -1.70598 0 2 -1.70598 1
gene 1 3 8 0.785213 0 3 0.785213 1
gene 3 4 8 -2.5346 0 4 -2.5346 1
gene 1 5 8 -2.833 0 5 -2.833 0
gene 1 6 8 1.88488 0 6 1.88488 1
gene 2 7 8 -1.92434 0 7 -1.92434 1
gene 1 5 9 1.09514 0 8 1.09514 1
gene 1 9 8 0.649389 0 9 0.649389 1
genomeend 97

/* Organism #98 Fitness: 27 Error: 0 */
genomestart 98
trait 1 0.1 0 0 0.287001 0.168575 0 0 0.0116101 
trait 2 0.2 0 0 0 0 0 0 0 
trait 3 0.3 0.0470833 0.0131698 0.0518619 0.0324627 0.0193249 0 0.0302087 
node 1 3 1 1
node 2 3 1 1
node 3 1 1 1
node 4 1 1 1
node 5 3 1 1
node 6 2 1 1
node 7 1 1 3
node 8 1 0 2
node 9 1 0 0
gene 3 1 8 -3.37529 0 1 -3.37529 1
gene 3 2 8 2.10118 0 2 2.10118 1
gene 1 3 8 0.527489 0 3 0.527489 1
gene 3 4 8 0.0176153 0 4 0.0176153 1
gene 1 5 8 -0.213739 0 5 -0.213739 0
gene 1 6 8 4.81352 0 6 4.81352 1
gene 2 7 8 -3.84708 0 7 -3.84708 1
gene 1 5 9 5.64647 0 8 5.64647 1
gene 1 9 8 0.336202 0 9 0.336202 1
genomeend 98

/* Organism #99 Fitness: 37 Error: 0 */
genomestart 99
trait 1 0.1 0 0 0.195297 0.0700573 0 0 0.0185761 
trait 2 0.2 0 0 0 0 0 0 0 
trait 3 0.3 0 0 0 0.0763828 0.0454703 0 0.0710792 
node 1 3 1 1
node 2 3 1 1
node 3 1 1 1
node 4 1 1 1
node 5 3 1 1
node 6 2 1 1
node 7 1 1 3
node 8 3 0 2
node 9 1 0 0
gene 3 1 8 -1.19429 0 1 -1.19429 1
gene 3 2 8 3.37739 0 2 3.37739 1
gene 1 3 8 -0.037417 0 3 -0.037417 1
gene 3 4 8 -2.80682 0 4 -2.80682 0
gene 2 5 8 -1.22006 0 5 -1.22006 0
gene 1 6 8 2.28654 0 6 2.28654 1
gene 2 7 8 -1.91962 0 7 -1.91962 1
gene 1 5 9 3.43544 0 8 3.43544 1
gene 1 9 8 1.91398 0 9 1.91398 1
gene 2 1 9 4.03519 0 50 4.03519 1
gene 3 4 9 -0.172439 0 78 -0.172439 1
genomeend 99

/* Organism #100 Fitness: 71 Error: 0 */
genomestart 100
trait 1 0.1 0 0.344347 0.0976487 0.116032 0 0 0.0139321 
trait 2 0.2 0 0 0 0 0 0 0 
trait 3 0.3 0.0235416 0.00658489 0.025931 0.0572871 0.0341027 0 0.0533094 
node 1 3 1 1
node 2 3 1 1
node 3 1 1 1
node 4 1 1 1
node 5 3 1 1
node 6 2 1 1
node 7 1 1 3
node 8 1 0 2
node 9 1 0 0
node 46 1 0 0
gene 3 1 8 -1.91473 0 1 -1.91473 1
gene 3 2 8 1.55004 0 2 1.55004 1
gene 1 3 8 0.183866 0 3 0.183866 1
gene 3 4 8 -2.80682 0 4 -2.80682 0
gene 1 5 8 0.0521754 0 5 0.0521754 0
gene 1 6 8 1.51867 0 6 1.51867 1
gene 2 7 8 -1.91962 0 7 -1.91962 1
gene 1 5 9 5.30015 0 8 5.30015 1
gene 1 9 8 1.15233 0 9 1.15233 0
gene 1 9 46 1 0 108 0 1
gene 1 46 8 1.15233 0 109 0 1
genomeend 100

/* Organism #101 Fitness: 97 Error: 0 */
genomestart 101
trait 1 0.1 0 0.688694 0 0.162007 0 0 0.00928804 
trait 2 0.2 0 0 0 0 0 0 0 
trait 3 0.3 0.0470833 0.0131698 0.0518619 0.0381914 0.0227352 0 0.0355396 
node 1 3 1 1
node 2 3 1 1
node 3 1 1 1
node 4 1 1 1
node 5 3 1 1
node 6 2 1 1
node 7 1 1 3
node 8 1 0 2
node 9 1 0 0
gene 3 1 8 0.598667 0 1 0.598667 1
gene 3 2 8 3.86468 0 2 3.86468 1
gene 1 3 8 0.744272 0 3 0.744272 1
gene 3 4 8 0.459692 0 4 0.459692 1
gene 1 5 8 0.0521754 0 5 0.0521754 0
gene 1 6 8 3.41923 0 6 3.41923 1
gene 2 7 8 -2.51232 0 7 -2.51232 1
gene 1 5 9 5.30015 0 8 5.30015 1
gene 1 9 8 1.34584 0 9 1.34584 1
genomeend 101

/* Organism #102 Fitness: 14 Error: 0 */
genomestart 102
trait 1 0.1 0 0 0.195297 0.0700573 0 0 0.0185761 
trait 2 0.2 0 0 0 0 0 0 0 
trait 3 0.3 0 0 0 0.0763828 0.0454703 0 0.0710792 
node 1 3 1 1
node 2 3 1 1
node 3 1 1 1
node 4 1 1 1
node 5 3 1 1
node 6 2 1 1
node 7 1 1 3
node 8 3 0 2
node 9 1 0 0
gene 3 1 8 0.430715 0 1 0.430715 1
gene 3 2 8 0.398853 0 2 0.398853 1
gene 1 3 8 1.41009 0 3 1.41009 1
gene 3 4 8 -4.6728 0 4 -4.6728 0
gene 2 5 8 0.44831 0 5 0.44831 0
gene 1 6 8 1.70961 0 6 1.70961 1
gene 2 7 8 -4.26203 0 7 -4.26203 1
gene 1 5 9 3.69717 0 8 3.69717 1
gene 1 9 8 0.531608 0 9 0.531608 1
gene 2 1 9 -0.792197 0 50 -0.792197 1
gene 3 4 9 -0.164193 0 78 -0.164193 1
genomeend 102

/* Organism #103 Fitness: 27 Error: 0 */
genomestart 103
trait 1 0.1 0 0 0.249909 0.0919502 0 0 0.0232201 
trait 2 0.2 0 0 0 0 0 0 0 
trait 3 0.3 0.0941666 0.0263395 0.103724 0.0649254 0.0386498 0 0.0604173 
node 1 3 1 1
node 2 3 1 1
node 3 1 1 1
node 4 1 1 1
node 5 3 1 1
node 6 2 1 1
node 7 1 1 3
node 8 1 0 2
node 9 1 0 0
gene 3 1 8 -1.21192 0 1 -1.21192 1
gene 3 2 8 2.16509 0 2 2.16509 1
gene 1 3 8 4.54961 0 3 4.54961 1
gene 3 4 8 -0.931691 0 4 -0.931691 1
gene 1 5 8 -0.665931 0 5 -0.665931 0
gene 1 6 8 6.03318 0 6 6.03318 1
gene 2 7 8 -3.52948 0 7 -3.52948 1
gene 1 5 9 2.20143 0 8 2.20143 1
gene 1 9 8 -0.619286 0 9 -0.619286 1
gene 2 1 9 1.56653 0 50 1.56653 1
gene 3 4 9 -2.47009 0 78 -2.47009 1
genomeend 103

/* Organism #104 Fitness: 37 Error: 0 */
genomestart 104
trait 1 0.1 0 0 0.259695 0.157629 0 0 0.00928804 
trait 2 0.2 0 0 0 0 0 0 0 
trait 3 0.3 0 0 0 0.0381914 0.0227352 0 0.0355396 
node 1 3 1 1
node 2 3 1 1
node 3 1 1 1
node 4 1 1 1
node 5 3 1 1
node 6 2 1 1
node 7 1 1 3
node 8 3 0 2
node 9 1 0 0
gene 3 1 8 -1.91473 0 1 -1.91473 1
gene 3 2 8 0.692833 0 2 0.692833 1
gene 1 3 8 3.27802 0 3 3.27802 1
gene 3 4 8 -2.80682 0 4 -2.80682 0
gene 1 5 8 -1.90314 0 5 -1.90314 0
gene 1 6 8 1.51867 0 6 1.51867 1
gene 2 7 8 -1.92434 0 7 -1.92434 1
gene 1 5 9 3.59217 0 8 3.59217 1
gene 1 9 8 1.15233 0 9 1.15233 1
genomeend 104

/* Organism #105 Fitness: 56 Error: 0 */
genomestart 105
trait 1 0.1 0 0 0.240123 0.0262715 0 0 0.0371522 
trait 2 0 0 0.622139 0.896775 0 0.697968 0 0 
trait 3 0.3 0.188333 0.0526791 0.207448 0.0916594 0.0545644 0 0.0852951 
node 1 3 1 1
node 2 3 1 1
node 3 1 1 1
node 4 1 1 1
node 5 3 1 1
node 6 2 1 1
node 7 1 1 3
node 8 3 0 2
node 9 1 0 0
gene 3 1 8 -3.71614 0 1 -3.71614 1
gene 3 2 8 3.15204 0 2 3.15204 1
gene 1 3 8 2.61175 0 3 2.61175 1
gene 3 4 8 -0.333382 0 4 -0.333382 1
gene 1 5 8 -3.99196 0 5 -3.99196 0
gene 1 6 8 6.99136 0 6 6.99136 1
gene 2 7 8 -4.72733 0 7 -4.72733 1
gene 1 5 9 2.15059 0 8 2.15059 1
gene 1 9 8 1.96755 0 9 1.96755 1
gene 2 2 9 -2.77537 0 77 -2.77537 1
gene 3 1 9 -0.790124 0 111 -0.790124 1
genomeend 105

/* Organism #106 Fitness: 77 Error: 0 */
genomestart 106
trait 1 0.1 0 0 0.222603 0.0810037 0 0 0.0208981 
trait 2 0.2 0 0 0 0 0 0 0 
trait 3 0.3 0.0470833 0.0131698 0.0518619 0.0706541 0.04206 0 0.0657483 
node 1 3 1 1
node 2 3 1 1
node 3 1 1 1
node 4 1 1 1
node 5 3 1 1
node 6 2 1 1
node 7 1 1 3
node 8 3 0 2
node 9 1 0 0
gene 3 1 8 -2.32868 0 1 -2.32868 1
gene 3 2 8 2.19521 0 2 2.19521 1
gene 1 3 8 2.73197 0 3 2.73197 1
gene 3 4 8 -2.80682 0 4 -2.80682 0
gene 2 5 8 -1.28161 0 5 -1.28161 0
gene 1 6 8 3.75299 0 6 3.75299 1
gene 2 7 8 -1.91962 0 7 -1.91962 1
gene 1 5 9 3.45677 0 8 3.45677 1
gene 1 9 8 1.15233 0 9 1.15233 1
gene 2 1 9 1.56653 0 50 1.56653 1
gene 3 4 9 -0.172439 0 78 -0.172439 1
genomeend 106

/* Species #3 : (Size 21) (AF 39.8095) (Age 6)  */


/* Organism #107 Fitness: 69 Error: 0 */
genomestart 107
trait 1 0.1 0 0 0.205399 0 0 0 0.0371522 
trait 2 0.2 0 0 0 0 0 0 0 
trait 3 0.263223 0 0 0 0.0305531 0.0181881 0 0.0284317 
node 1 1 1 1
node 2 3 1 1
node 3 3 1 1
node 4 2 1 1
node 5 2 1 1
node 6 1 1 1
node 7 1 1 3
node 8 1 0 2
node 22 1 0 0
gene 3 1 8 -2.05458 0 1 -2.05458 0
gene 2 2 8 3.92448 0 2 3.92448 0
gene 2 3 8 3.07483 0 3 3.07483 1
gene 1 4 8 -1.19585 0 4 -1.19585 1
gene 2 5 8 1.9158 0 5 1.9158 1
gene 1 6 8 6.44061 0 6 6.44061 1
gene 2 7 8 -0.744771 0 7 -0.744771 1
gene 3 1 22 -1.11255 0 42 -1.11255 1
gene 3 22 8 0.351136 0 43 0.351136 1
genomeend 107

/* Organism #108 Fitness: 30 Error: 0 */
genomestart 108
trait 1 0.1 0 0 0.205399 0 0 0 0.0371522 
trait 2 0.2 0 0 0 0 0 0 0 
trait 3 0.263223 0 0 0 0.0305531 0.0181881 0 0.0284317 
node 1 1 1 1
node 2 3 1 1
node 3 3 1 1
node 4 2 1 1
node 5 2 1 1
node 6 3 1 1
node 7 1 1 3
node 8 1 0 2
node 22 1 0 0
gene 3 1 8 -1.53951 0 1 -1.53951 0
gene 2 2 8 1.00573 0 2 1.00573 0
gene 2 3 8 -0.588453 0 3 -0.588453 1
gene 1 4 8 2.28147 0 4 2.28147 1
gene 2 5 8 2.35743 0 5 2.35743 1
gene 1 6 8 5.67579 0 6 5.67579 1
gene 2 7 8 -0.83641 0 7 -0.83641 1
gene 3 1 22 0.0848036 0 42 0.0848036 1
gene 3 22 8 3.57175 0 43 3.57175 1
genomeend 108

/* Organism #109 Fitness: 31 Error: 0 */
genomestart 109
trait 1 0.1 0 0 0.205399 0 0 0 0.0371522 
trait 2 0.2 0 0 0 0 0 0 0 
trait 3 0.263223 0 0 0 0.0305531 0.0181881 0 0.0284317 
node 1 1 1 1
node 2 3 1 1
node 3 3 1 1
node 4 2 1 1
node 5 2 1 1
node 6 3 1 1
node 7 1 1 3
node 8 1 0 2
node 22 1 0 0
gene 3 1 8 -3.87221 0 1 -3.87221 0
gene 2 2 8 2.80293 0 2 2.80293 0
gene 2 3 8 1.7041 0 3 1.7041 1
gene 1 4 8 1.37805 0 4 1.37805 1
gene 2 5 8 1.9158 0 5 1.9158 1
gene 1 6 8 6.50418 0 6 6.50418 1
gene 1 7 8 -0.744771 0 7 -0.744771 1
gene 3 1 22 -1.11255 0 42 -1.11255 1
gene 3 22 8 1.12132 0 43 1.12132 1
genomeend 109

/* Organism #110 Fitness: 50 Error: 0 */
genomestart 110
trait 1 0.1 0 0 0.205399 0 0 0 0.0371522 
trait 2 0.2 0 0 0 0 0 0 0 
trait 3 0.263223 0 0 0.0129753 0.0305531 0.0181881 0 0.0284317 
node 1 1 1 1
node 2 3 1 1
node 3 3 1 1
node 4 2 1 1
node 5 2 1 1
node 6 3 1 1
node 7 1 1 3
node 8 1 0 2
node 22 1 0 0
gene 3 1 8 -0.557575 0 1 -0.557575 0
gene 2 2 8 1.75446 0 2 1.75446 0
gene 2 3 8 6.57641 0 3 6.57641 1
gene 1 4 8 -0.824878 0 4 -0.824878 1
gene 2 5 8 4.01825 0 5 4.01825 1
gene 1 6 8 5.68913 0 6 5.68913 1
gene 2 7 8 -3.12956 0 7 -3.12956 1
gene 3 1 22 -3.6913 0 42 -3.6913 1
gene 3 22 8 0.966199 0 43 0.966199 1
genomeend 110

/* Organism #111 Fitness: 5 Error: 0 */
genomestart 111
trait 1 0.1 0 0 0.205399 0 0 0 0.0371522 
trait 2 0.2 0 0 0 0 0 0 0 
trait 3 0.263223 0 0 0 0.0305531 0.0181881 0 0.0284317 
node 1 1 1 1
node 2 3 1 1
node 3 3 1 1
node 4 2 1 1
node 5 2 1 1
node 6 1 1 1
node 7 1 1 3
node 8 1 0 2
node 22 1 0 0
gene 3 1 8 -4.44797 0 1 -4.44797 0
gene 2 2 8 5.92031 0 2 5.92031 0
gene 2 3 8 3.38572 0 3 3.38572 1
gene 1 4 8 0.203926 0 4 0.203926 1
gene 2 5 8 1.81372 0 5 1.81372 1
gene 1 6 8 -0.359053 0 6 -0.359053 1
gene 1 7 8 0.907675 0 7 0.907675 1
gene 3 1 22 -0.532177 0 42 -0.532177 1
gene 3 22 8 1.00105 0 43 1.00105 1
genomeend 111

/* Organism #112 Fitness: 50 Error: 0 */
genomestart 112
trait 1 0.1 0 0 0.205399 0 0 0 0.0371522 
trait 2 0.2 0 0 0 0 0 0 0 
trait 3 0.263223 0 0 0 0.0305531 0.0181881 0 0.0284317 
node 1 1 1 1
node 2 3 1 1
node 3 3 1 1
node 4 2 1 1
node 5 2 1 1
node 6 1 1 1
node 7 1 1 3
node 8 1 0 2
node 22 1 0 0
gene 3 1 8 -2.86965 0 1 -2.86965 0
gene 2 2 8 2.87776 0 2 2.87776 0
gene 2 3 8 1.04361 0 3 1.04361 1
gene 1 4 8 0.49612 0 4 0.49612 0
gene 2 5 8 1.58093 0 5 1.58093 1
gene 1 6 8 5.25804 0 6 5.25804 1
gene 2 7 8 -2.7544 0 7 -2.7544 1
gene 3 1 22 -1.39515 0 42 -1.39515 1
gene 3 22 8 1.81212 0 43 1.81212 1
genomeend 112

/* Organism #113 Fitness: 42 Error: 0 */
genomestart 113
trait 1 0.1 0 0 0.205399 0 0 0 0.0371522 
trait 2 0.2 0 0 0 0 0 0 0 
trait 3 0.263223 0 0 0 0.0305531 0.0181881 0 0.0284317 
node 1 1 1 1
node 2 3 1 1
node 3 3 1 1
node 4 2 1 1
node 5 2 1 1
node 6 1 1 1
node 7 1 1 3
node 8 1 0 2
node 22 1 0 0
gene 3 1 8 -1.53452 0 1 -1.53452 0
gene 2 2 8 4.46516 0 2 4.46516 0
gene 2 3 8 4.31784 0 3 4.31784 1
gene 1 4 8 0.818979 0 4 0.818979 1
gene 2 5 8 2.08872 0 5 2.08872 1
gene 1 6 8 4.36204 0 6 4.36204 1
gene 2 7 8 -2.66881 0 7 -2.66881 1
gene 3 1 22 0.824309 0 42 0.824309 1
gene 3 22 8 0.717578 0 43 0.717578 1
genomeend 113

/* Organism #114 Fitness: 32 Error: 0 */
genomestart 114
trait 1 0.1 0 0 0.205399 0 0 0 0.0371522 
trait 2 0.2 0 0 0 0 0 0 0 
trait 3 0.263223 0 0 0 0.0305531 0.0181881 0 0.0284317 
node 1 1 1 1
node 2 3 1 1
node 3 3 1 1
node 4 2 1 1
node 5 2 1 1
node 6 1 1 1
node 7 1 1 3
node 8 1 0 2
node 22 1 0 0
gene 3 1 8 -0.502921 0 1 -0.502921 0
gene 2 2 8 0.408166 0 2 0.408166 0
gene 2 3 8 4.91398 0 3 4.91398 1
gene 1 4 8 -2.10447 0 4 -2.10447 0
gene 2 5 8 4.27464 0 5 4.27464 1
gene 1 6 8 5.09694 0 6 5.09694 1
gene 2 7 8 -1.47907 0 7 -1.47907 1
gene 3 1 22 -1.11255 0 42 -1.11255 1
gene 3 22 8 -0.578612 0 43 -0.578612 1
gene 1 2 22 1.58189 0 99 1.58189 1
genomeend 114

/* Organism #115 Fitness: 28 Error: 0 */
genomestart 115
trait 1 0.1 0 0 0.205399 0 0 0 0.0371522 
trait 2 0.2 0 0 0 0 0 0 0 
trait 3 0.263223 0 0 0 0.0305531 0.0181881 0 0.0284317 
node 1 1 1 1
node 2 3 1 1
node 3 3 1 1
node 4 2 1 1
node 5 2 1 1
node 6 3 1 1
node 7 1 1 3
node 8 1 0 2
node 22 1 0 0
gene 3 1 8 -2.43305 0 1 -2.43305 0
gene 2 2 8 1.20565 0 2 1.20565 0
gene 2 3 8 1.08461 0 3 1.08461 1
gene 1 4 8 2.7675 0 4 2.7675 1
gene 2 5 8 1.67894 0 5 1.67894 1
gene 1 6 8 4.85597 0 6 4.85597 1
gene 2 7 8 0.325734 0 7 0.325734 1
gene 3 1 22 0.766462 0 42 0.766462 1
gene 3 22 8 -0.504391 0 43 -0.504391 1
gene 1 2 22 -2.25976 0 99 -2.25976 1
genomeend 115

/* Organism #116 Fitness: 38 Error: 0 */
genomestart 116
trait 1 0.1 0 0 0.205399 0 0 0 0.0371522 
trait 2 0.2 0 0 0 0 0 0 0 
trait 3 0.263223 0 0 0 0.0305531 0.0181881 0 0.0284317 
node 1 1 1 1
node 2 3 1 1
node 3 3 1 1
node 4 2 1 1
node 5 2 1 1
node 6 3 1 1
node 7 1 1 3
node 8 1 0 2
node 22 1 0 0
gene 3 1 8 -0.477946 0 1 -0.477946 0
gene 2 2 8 4.35168 0 2 4.35168 0
gene 2 3 8 3.30714 0 3 3.30714 1
gene 1 4 8 -0.697949 0 4 -0.697949 1
gene 2 5 8 3.71111 0 5 3.71111 1
gene 1 6 8 8 0 6 8 1
gene 2 7 8 0.190987 0 7 0.190987 1
gene 3 1 22 0.39825 0 42 0.39825 1
gene 3 22 8 -0.961412 0 43 -0.961412 1
genomeend 116

/* Organism #117 Fitness: 43 Error: 0 */
genomestart 117
trait 1 0.1 0 0 0.205399 0 0 0 0.0371522 
trait 2 0.2 0 0 0 0 0 0 0 
trait 3 0.263223 0 0 0 0.0305531 0.0181881 0 0.0284317 
node 1 1 1 1
node 2 3 1 1
node 3 3 1 1
node 4 2 1 1
node 5 2 1 1
node 6 3 1 1
node 7 1 1 3
node 8 1 0 2
node 22 1 0 0
gene 3 1 8 -1.69706 0 1 -1.69706 0
gene 2 2 8 0.690284 0 2 0.690284 1
gene 2 3 8 2.35673 0 3 2.35673 1
gene 1 4 8 -1.90917 0 4 -1.90917 1
gene 2 5 8 2.24706 0 5 2.24706 1
gene 1 6 8 5.84458 0 6 5.84458 1
gene 2 7 8 -0.258174 0 7 -0.258174 1
gene 3 1 22 -3.77014 0 42 -3.77014 1
gene 3 22 8 1.39811 0 43 1.39811 1
genomeend 117

/* Organism #118 Fitness: 36 Error: 0 */
genomestart 118
trait 1 0.1 0 0 0.205399 0 0 0 0.0371522 
trait 2 0.2 0 0 0 0 0 0 0 
trait 3 0.263223 0 0 0 0.0305531 0.0181881 0 0.0284317 
node 1 1 1 1
node 2 3 1 1
node 3 3 1 1
node 4 2 1 1
node 5 2 1 1
node 6 1 1 1
node 7 1 1 3
node 8 1 0 2
node 22 1 0 0
gene 3 1 8 -3.6925 0 1 -3.6925 0
gene 2 2 8 4.79463 0 2 4.79463 0
gene 2 3 8 3.75621 0 3 3.75621 1
gene 1 4 8 -3.36704 0 4 -3.36704 1
gene 2 5 8 3.41146 0 5 3.41146 1
gene 1 6 8 8 0 6 8 1
gene 2 7 8 -0.294772 0 7 -0.294772 1
gene 3 1 22 0.651043 0 42 0.651043 1
gene 3 22 8 -0.519457 0 43 -0.519457 1
genomeend 118

/* Organism #119 Fitness: 27 Error: 0 */
genomestart 119
trait 1 0.1 0 0 0.205399 0 0 0 0.0371522 
trait 2 0.2 0 0 0 0 0 0 0 
trait 3 0.263223 0 0 0 0.0305531 0.0181881 0 0.0284317 
node 1 1 1 1
node 2 3 1 1
node 3 3 1 1
node 4 2 1 1
node 5 2 1 1
node 6 1 1 1
node 7 1 1 3
node 8 2 0 2
node 22 1 0 0
gene 3 1 8 -2.65384 0 1 -2.65384 0
gene 2 2 8 3.90207 0 2 3.90207 0
gene 2 3 8 3.79988 0 3 3.79988 1
gene 1 4 8 2.28442 0 4 2.28442 0
gene 3 5 8 4.80022 0 5 4.80022 1
gene 1 6 8 4.51226 0 6 4.51226 1
gene 2 7 8 0.341845 0 7 0.341845 1
gene 3 1 22 -1.04605 0 42 -1.04605 1
gene 3 22 8 2.1228 0 43 2.1228 1
gene 1 2 22 -0.467115 0 99 -0.467115 1
genomeend 119

/* Organism #120 Fitness: 36 Error: 0 */
genomestart 120
trait 1 0.1 0 0 0.205399 0 0 0 0.0371522 
trait 2 0.2 0 0 0 0 0 0 0 
trait 3 0.263223 0 0 0 0.0305531 0.0181881 0 0.0284317 
node 1 1 1 1
node 2 3 1 1
node 3 3 1 1
node 4 2 1 1
node 5 2 1 1
node 6 1 1 1
node 7 1 1 3
node 8 1 0 2
node 22 1 0 0
gene 3 1 8 -0.841676 0 1 -0.841676 1
gene 2 2 8 1.6752 0 2 1.6752 0
gene 2 3 8 3.3057 0 3 3.3057 1
gene 1 4 8 -1.70104 0 4 -1.70104 0
gene 2 5 8 0.805529 0 5 0.805529 1
gene 1 6 8 8 0 6 8 1
gene 2 7 8 -2.79505 0 7 -2.79505 1
gene 3 1 22 -1.21545 0 42 -1.21545 1
gene 3 22 8 1.0007 0 43 1.0007 1
genomeend 120

/* Organism #121 Fitness: 74 Error: 0 */
genomestart 121
trait 1 0.1 0 0 0.205399 0 0 0 0.0371522 
trait 2 0.2 0 0 0 0 0 0 0 
trait 3 0.263223 0 0 0 0.0305531 0.0181881 0 0.0284317 
node 1 1 1 1
node 2 3 1 1
node 3 3 1 1
node 4 2 1 1
node 5 2 1 1
node 6 3 1 1
node 7 1 1 3
node 8 1 0 2
node 22 1 0 0
gene 3 1 8 -2.09306 0 1 -2.09306 0
gene 2 2 8 2.80293 0 2 2.80293 0
gene 2 3 8 3.07483 0 3 3.07483 1
gene 1 4 8 -2.10447 0 4 -2.10447 0
gene 2 5 8 1.9158 0 5 1.9158 1
gene 1 6 8 5.97987 0 6 5.97987 1
gene 1 7 8 -0.744771 0 7 -0.744771 1
gene 3 1 22 -1.11255 0 42 -1.11255 1
gene 3 22 8 0.351136 0 43 0.351136 1
genomeend 121

/* Organism #122 Fitness: 33 Error: 0 */
genomestart 122
trait 1 0.1 0 0 0.205399 0 0 0 0.0371522 
trait 2 0.2 0 0 0 0 0 0 0 
trait 3 0.263223 0 0 0 0.0305531 0.0181881 0 0.0284317 
node 1 1 1 1
node 2 3 1 1
node 3 3 1 1
node 4 2 1 1
node 5 2 1 1
node 6 1 1 1
node 7 1 1 3
node 8 2 0 2
node 22 1 0 0
gene 3 1 8 -1.26883 0 1 -1.26883 0
gene 2 2 8 4.75539 0 2 4.75539 0
gene 2 3 8 5.58926 0 3 5.58926 1
gene 1 4 8 -2.77529 0 4 -2.77529 1
gene 3 5 8 1.84335 0 5 1.84335 1
gene 1 6 8 5.92923 0 6 5.92923 1
gene 2 7 8 1.11903 0 7 1.11903 1
gene 3 1 22 -2.83572 0 42 -2.83572 1
gene 3 22 8 -1.91872 0 43 -1.91872 1
genomeend 122

/* Organism #123 Fitness: 25 Error: 0 */
genomestart 123
trait 1 0.1 0 0 0.205399 0 0 0 0.0371522 
trait 2 0.2 0 0 0 0 0 0 0 
trait 3 0 0 0.766744 0 0 0 0 0 
node 1 1 1 1
node 2 3 1 1
node 3 3 1 1
node 4 2 1 1
node 5 2 1 1
node 6 1 1 1
node 7 1 1 3
node 8 1 0 2
node 22 1 0 0
gene 3 1 8 -0.559751 0 1 -0.559751 0
gene 2 2 8 0.450228 0 2 0.450228 0
gene 2 3 8 2.73473 0 3 2.73473 1
gene 1 4 8 -3.2007 0 4 -3.2007 0
gene 2 5 8 -0.39689 0 5 -0.39689 1
gene 1 6 8 5.36824 0 6 5.36824 1
gene 2 7 8 -0.757666 0 7 -0.757666 1
gene 3 1 22 -3.22494 0 42 -3.22494 1
gene 3 22 8 1.67931 0 43 1.67931 1
genomeend 123

/* Organism #124 Fitness: 44 Error: 0 */
genomestart 124
trait 1 0.1 0 0 0.205399 0 0 0 0.0371522 
trait 2 0.2 0 0 0 0 0 0 0 
trait 3 0.263223 0 0 0 0.0305531 0.0181881 0 0.0284317 
node 1 1 1 1
node 2 3 1 1
node 3 3 1 1
node 4 2 1 1
node 5 2 1 1
node 6 1 1 1
node 7 1 1 3
node 8 1 0 2
node 22 1 0 0
gene 3 1 8 -2.91725 0 1 -2.91725 0
gene 2 2 8 0.864924 0 2 0.864924 0
gene 2 3 8 2.23055 0 3 2.23055 1
gene 1 4 8 -3.64503 0 4 -3.64503 0
gene 2 5 8 3.59153 0 5 3.59153 1
gene 1 6 8 5.18731 0 6 5.18731 1
gene 2 7 8 -0.964793 0 7 -0.964793 1
gene 3 1 22 -2.44775 0 42 -2.44775 1
gene 3 22 8 -1.13745 0 43 -1.13745 1
gene 1 2 22 -0.467115 0 99 -0.467115 1
genomeend 124

/* Organism #125 Fitness: 34 Error: 0 */
genomestart 125
trait 1 0.1 0 0 0.205399 0 0 0 0.0371522 
trait 2 0.2 0 0 0 0 0 0 0 
trait 3 0.263223 0 0 0 0.0305531 0.0181881 0 0.0284317 
node 1 1 1 1
node 2 3 1 1
node 3 3 1 1
node 4 2 1 1
node 5 2 1 1
node 6 1 1 1
node 7 1 1 3
node 8 2 0 2
node 22 1 0 0
gene 3 1 8 -1.34523 0 1 -1.34523 0
gene 2 2 8 2.11839 0 2 2.11839 0
gene 2 3 8 4.40214 0 3 4.40214 1
gene 1 4 8 -1.02162 0 4 -1.02162 1
gene 3 5 8 5.8382 0 5 5.8382 1
gene 1 6 8 7.25922 0 6 7.25922 1
gene 2 7 8 -0.630236 0 7 -0.630236 1
gene 3 1 22 -3.4314 0 42 -3.4314 1
gene 3 22 8 -0.85975 0 43 -0.85975 1
genomeend 125

/* Organism #126 Fitness: 33 Error: 0 */
genomestart 126
trait 1 0.1 0 0 0.205399 0 0 0 0.0371522 
trait 2 0.2 0 0 0 0 0 0 0 
trait 3 0.263223 0 0 0 0.0305531 0.0181881 0 0.0284317 
node 1 1 1 1
node 2 3 1 1
node 3 3 1 1
node 4 2 1 1
node 5 2 1 1
node 6 1 1 1
node 7 1 1 3
node 8 2 0 2
node 22 1 0 0
gene 3 1 8 -2.88522 0 1 -2.88522 0
gene 2 2 8 2.42678 0 2 2.42678 0
gene 2 3 8 7.45101 0 3 7.45101 1
gene 1 4 8 3.03333 0 4 3.03333 1
gene 3 5 8 3.24245 0 5 3.24245 1
gene 1 6 8 4.63757 0 6 4.63757 1
gene 2 7 8 -3.31095 0 7 -3.31095 1
gene 3 1 22 -3.72463 0 42 -3.72463 1
gene 3 22 8 -0.212557 0 43 -0.212557 1
genomeend 126

/* Organism #127 Fitness: 76 Error: 0 */
genomestart 127
trait 1 0.1 0 0 0.205399 0 0 0 0.0371522 
trait 2 0.2 0 0 0 0 0 0 0 
trait 3 0.263223 0 0 0 0.0305531 0.0181881 0 0.0284317 
node 1 1 1 1
node 2 3 1 1
node 3 3 1 1
node 4 2 1 1
node 5 2 1 1
node 6 3 1 1
node 7 1 1 3
node 8 1 0 2
node 22 1 0 0
gene 3 1 8 -2.05458 0 1 -2.05458 0
gene 2 2 8 4.42676 0 2 4.42676 0
gene 2 3 8 5.34823 0 3 5.34823 1
gene 1 4 8 -2.10447 0 4 -2.10447 1
gene 3 5 8 3.77583 0 5 3.77583 1
gene 1 6 8 6.97367 0 6 6.97367 1
gene 2 7 8 -2.04066 0 7 -2.04066 1
gene 3 1 22 -1.11255 0 42 -1.11255 1
gene 3 22 8 1.22317 0 43 1.22317 1
genomeend 127

/* Species #4 : (Size 19) (AF 35.4737) (Age 4)  */


/* Organism #128 Fitness: 94 Error: 0 */
genomestart 128
trait 1 0.1 0 0 0.205399 0 0 0 0.0371522 
trait 2 0.2 0 0 0 0 0 0 0 
trait 3 0.263223 0 0 0 0.0305531 0.0181881 0 0.0284317 
node 1 1 1 1
node 2 3 1 1
node 3 3 1 1
node 4 2 1 1
node 5 2 1 1
node 6 3 1 1
node 7 1 1 3
node 8 1 0 2
node 22 1 0 0
node 31 1 0 0
gene 3 1 8 -2.61015 0 1 -2.61015 0
gene 2 2 8 3.479 0 2 3.479 0
gene 2 3 8 0.776627 0 3 0.776627 1
gene 1 4 8 -1.43416 0 4 -1.43416 1
gene 2 5 8 2.11367 0 5 2.11367 1
gene 1 6 8 3.27481 0 6 3.27481 1
gene 2 7 8 -1.06564 0 7 -1.06564 1
gene 3 1 22 -1.37387 0 42 -1.37387 1
gene 3 22 8 -1.36112 0 43 -1.36112 1
gene 2 2 31 1.97109 0 67 1.97109 1
gene 2 31 8 1.53732 0 68 1.53732 1
gene 1 7 22 -0.71041 0 84 -0.71041 1
genomeend 128

/* Organism #129 Fitness: 41 Error: 0 */
genomestart 129
trait 1 0.1 0 0 0.205399 0 0 0 0.0371522 
trait 2 0.0521651 0.395852 0 0 0 0 0 0 
trait 3 0.263223 0 0 0 0.0305531 0.0181881 0 0.0284317 
node 1 1 1 1
node 2 3 1 1
node 3 3 1 1
node 4 2 1 1
node 5 2 1 1
node 6 3 1 1
node 7 1 1 3
node 8 1 0 2
node 22 1 0 0
node 31 1 0 0
gene 3 1 8 0.517274 0 1 0.517274 0
gene 2 2 8 -1.94646 0 2 -1.94646 0
gene 2 3 8 3.45141 0 3 3.45141 1
gene 1 4 8 -0.556781 0 4 -0.556781 1
gene 2 5 8 3.84942 0 5 3.84942 1
gene 1 6 8 3.75348 0 6 3.75348 1
gene 2 7 8 -5.19268 0 7 -5.19268 1
gene 3 1 22 0.465075 0 42 0.465075 1
gene 3 22 8 0.539779 0 43 0.539779 1
gene 2 2 31 1.98641 0 67 1.98641 1
gene 2 31 8 1.43138 0 68 1.43138 1
gene 1 7 22 -1.0197 0 84 -1.0197 1
genomeend 129

/* Organism #130 Fitness: 58 Error: 0 */
genomestart 130
trait 1 0.1 0 0 0.205399 0 0 0 0.0371522 
trait 2 0.2 0 0 0 0 0 0 0 
trait 3 0.263223 0 0 0 0.0305531 0.0181881 0 0.0284317 
node 1 1 1 1
node 2 3 1 1
node 3 3 1 1
node 4 2 1 1
node 5 2 1 1
node 6 3 1 1
node 7 1 1 3
node 8 1 0 2
node 22 1 0 0
node 31 1 0 0
node 47 1 0 0
gene 3 1 8 0.315238 0 1 0.315238 0
gene 2 2 8 0.697839 0 2 0.697839 0
gene 2 3 8 2.30764 0 3 2.30764 1
gene 1 4 8 -2.10387 0 4 -2.10387 1
gene 2 5 8 -0.370198 0 5 -0.370198 1
gene 1 6 8 6.02343 0 6 6.02343 1
gene 2 7 8 -1.24785 0 7 -1.24785 1
gene 3 1 22 -0.980174 0 42 -0.980174 0
gene 3 22 8 -3.13015 0 43 -3.13015 1
gene 2 2 31 1 0 67 1 1
gene 2 31 8 2.30944 0 68 2.30944 1
gene 1 7 22 -1.20538 0 84 -1.20538 1
gene 3 1 47 1 0 112 0 1
gene 3 47 22 -0.980174 0 113 0 1
genomeend 130

/* Organism #131 Fitness: 31 Error: 0 */
genomestart 131
trait 1 0.1 0 0 0.205399 0 0 0 0.0371522 
trait 2 0.2 0 0 0 0 0 0 0 
trait 3 0.263223 0 0 0 0.0305531 0.0181881 0 0.0284317 
node 1 1 1 1
node 2 3 1 1
node 3 3 1 1
node 4 2 1 1
node 5 2 1 1
node 6 3 1 1
node 7 1 1 3
node 8 1 0 2
node 22 1 0 0
node 31 1 0 0
gene 3 1 8 -2.61015 0 1 -2.61015 0
gene 2 2 8 3.479 0 2 3.479 0
gene 2 3 8 0.776627 0 3 0.776627 1
gene 1 4 8 -1.43416 0 4 -1.43416 1
gene 2 5 8 1.51005 0 5 1.51005 1
gene 1 6 8 3.27481 0 6 3.27481 1
gene 2 7 8 -4.98992 0 7 -4.98992 1
gene 3 1 22 0.599448 0 42 0.599448 1
gene 3 22 8 -0.998384 0 43 -0.998384 1
gene 2 2 31 0.487573 0 67 0.487573 1
gene 2 31 8 1.53732 0 68 1.53732 1
gene 1 7 22 -0.71041 0 84 -0.71041 1
genomeend 131

/* Organism #132 Fitness: 54 Error: 0 */
genomestart 132
trait 1 0.1 0 0 0.205399 0 0 0 0.0371522 
trait 2 0.2 0 0 0 0 0 0 0 
trait 3 0.263223 0 0 0 0.0305531 0.0181881 0 0.0284317 
node 1 1 1 1
node 2 3 1 1
node 3 3 1 1
node 4 2 1 1
node 5 2 1 1
node 6 3 1 1
node 7 1 1 3
node 8 1 0 2
node 22 1 0 0
node 31 1 0 0
gene 3 1 8 0.315238 0 1 0.315238 0
gene 2 2 8 0.697839 0 2 0.697839 0
gene 2 3 8 2.30764 0 3 2.30764 1
gene 1 4 8 -2.10387 0 4 -2.10387 1
gene 2 5 8 2.11367 0 5 2.11367 1
gene 1 6 8 6.02343 0 6 6.02343 1
gene 2 7 8 -1.06564 0 7 -1.06564 1
gene 3 1 22 -1.37387 0 42 -1.37387 1
gene 3 22 8 -3.13015 0 43 -3.13015 1
gene 2 2 31 1 0 67 1 1
gene 2 31 8 2.30944 0 68 2.30944 1
gene 1 7 22 -1.20538 0 84 -1.20538 1
genomeend 132

/* Organism #133 Fitness: 6 Error: 0 */
genomestart 133
trait 1 0.1 0 0 0.205399 0 0 0 0.0371522 
trait 2 0.2 0 0 0 0 0 0 0 
trait 3 0.263223 0 0 0 0.0305531 0.0181881 0 0.0284317 
node 1 1 1 1
node 2 3 1 1
node 3 3 1 1
node 4 2 1 1
node 5 2 1 1
node 6 3 1 1
node 7 1 1 3
node 8 1 0 2
node 22 1 0 0
node 31 1 0 0
gene 3 1 8 -3.58114 0 1 -3.58114 1
gene 2 2 8 1.57308 0 2 1.57308 0
gene 2 3 8 -0.98571 0 3 -0.98571 1
gene 1 4 8 -1.34732 0 4 -1.34732 1
gene 2 5 8 0.927263 0 5 0.927263 1
gene 1 6 8 -0.00438688 0 6 -0.00438688 1
gene 2 7 8 -3.33202 0 7 -3.33202 1
gene 3 1 22 -3.13499 0 42 -3.13499 1
gene 3 22 8 -0.952795 0 43 -0.952795 1
gene 2 2 31 -1.35208 0 67 -1.35208 1
gene 2 31 8 4.06645 0 68 4.06645 1
gene 1 7 22 1.76319 0 84 1.76319 1
genomeend 133

/* Organism #134 Fitness: 36 Error: 0 */
genomestart 134
trait 1 0.1 0 0 0.205399 0 0 0 0.0371522 
trait 2 0.2 0 0 0 0 0 0 0 
trait 3 0.263223 0 0 0 0.0305531 0.0181881 0 0.0284317 
node 1 1 1 1
node 2 3 1 1
node 3 3 1 1
node 4 2 1 1
node 5 2 1 1
node 6 3 1 1
node 7 1 1 3
node 8 1 0 2
node 22 1 0 0
node 31 1 0 0
gene 3 1 8 -0.727056 0 1 -0.727056 0
gene 2 2 8 1.20613 0 2 1.20613 1
gene 2 3 8 -0.489082 0 3 -0.489082 1
gene 1 4 8 -2.84971 0 4 -2.84971 1
gene 2 5 8 4.11924 0 5 4.11924 1
gene 1 6 8 1.12335 0 6 1.12335 1
gene 2 7 8 0.338012 0 7 0.338012 1
gene 3 1 22 -3.85347 0 42 -3.85347 1
gene 3 22 8 -0.0798313 0 43 -0.0798313 1
gene 2 2 31 3.83513 0 67 3.83513 1
gene 2 31 8 1.53732 0 68 1.53732 1
gene 1 7 22 -0.473589 0 84 -0.473589 1
genomeend 134

/* Organism #135 Fitness: 29 Error: 0 */
genomestart 135
trait 1 0.1 0 0 0.205399 0 0 0 0.0371522 
trait 2 0.2 0 0 0 0 0 0 0 
trait 3 0.263223 0 0 0 0.0305531 0.0181881 0 0.0284317 
node 1 1 1 1
node 2 3 1 1
node 3 3 1 1
node 4 2 1 1
node 5 2 1 1
node 6 3 1 1
node 7 1 1 3
node 8 1 0 2
node 22 1 0 0
node 31 1 0 0
gene 3 1 8 -1.53639 0 1 -1.53639 0
gene 2 2 8 1.83123 0 2 1.83123 0
gene 2 3 8 1.7929 0 3 1.7929 1
gene 1 4 8 0.221624 0 4 0.221624 1
gene 2 5 8 1.23502 0 5 1.23502 1
gene 1 6 8 3.30306 0 6 3.30306 1
gene 2 7 8 -1.77897 0 7 -1.77897 1
gene 3 1 22 -2.04519 0 42 -2.04519 1
gene 3 22 8 -0.625552 0 43 -0.625552 1
gene 2 2 31 1.6155 0 67 1.6155 1
gene 2 31 8 0.38634 0 68 0.38634 1
gene 1 7 22 0.582332 0 84 0.582332 1
genomeend 135

/* Organism #136 Fitness: 53 Error: 0 */
genomestart 136
trait 1 0.1 0 0 0.205399 0 0 0 0.0371522 
trait 2 0.2 0 0 0 0 0 0 0 
trait 3 0.263223 0 0 0 0.0305531 0.0181881 0 0.0284317 
node 1 1 1 1
node 2 3 1 1
node 3 3 1 1
node 4 2 1 1
node 5 2 1 1
node 6 3 1 1
node 7 1 1 3
node 8 1 0 2
node 22 1 0 0
node 31 1 0 0
gene 3 1 8 -0.812907 0 1 -0.812907 0
gene 2 2 8 2.00847 0 2 2.00847 0
gene 2 3 8 0.262139 0 3 0.262139 1
gene 1 4 8 -0.814074 0 4 -0.814074 1
gene 2 5 8 0.699973 0 5 0.699973 1
gene 1 6 8 1.65309 0 6 1.65309 1
gene 2 7 8 -1.65978 0 7 -1.65978 1
gene 3 1 22 -0.836543 0 42 -0.836543 1
gene 3 22 8 -1.54456 0 43 -1.54456 1
gene 2 2 31 0.0849404 0 67 0.0849404 1
gene 2 31 8 3.47396 0 68 3.47396 1
gene 1 7 22 0.165718 0 84 0.165718 1
genomeend 136

/* Organism #137 Fitness: 46 Error: 0 */
genomestart 137
trait 1 0.1 0 0 0.205399 0 0 0 0.0371522 
trait 2 0.2 0 0 0 0 0 0 0 
trait 3 0.263223 0 0 0 0.0305531 0.0181881 0 0.0284317 
node 1 1 1 1
node 2 3 1 1
node 3 3 1 1
node 4 2 1 1
node 5 2 1 1
node 6 3 1 1
node 7 1 1 3
node 8 1 0 2
node 22 1 0 0
node 31 1 0 0
gene 3 1 8 -1.94105 0 1 -1.94105 0
gene 2 2 8 0.697839 0 2 0.697839 0
gene 2 3 8 0.598983 0 3 0.598983 1
gene 1 4 8 0.221624 0 4 0.221624 1
gene 2 5 8 -0.370198 0 5 -0.370198 1
gene 1 6 8 1.42842 0 6 1.42842 1
gene 2 7 8 -1.24785 0 7 -1.24785 1
gene 3 1 22 -0.980174 0 42 -0.980174 1
gene 3 22 8 -1.72566 0 43 -1.72566 1
gene 2 2 31 0.561378 0 67 0.561378 1
gene 2 31 8 4.63848 0 68 4.63848 1
gene 1 7 22 1.53682 0 84 1.53682 1
genomeend 137

/* Organism #138 Fitness: 5 Error: 0 */
genomestart 138
trait 1 0.1 0 0 0.205399 0 0 0 0.0371522 
trait 2 0.2 0 0 0 0 0 0 0 
trait 3 0.263223 0 0 0 0.0305531 0.0181881 0 0.0284317 
node 1 1 1 1
node 2 3 1 1
node 3 3 1 1
node 4 2 1 1
node 5 2 1 1
node 6 3 1 1
node 7 1 1 3
node 8 1 0 2
node 22 1 0 0
node 31 1 0 0
gene 3 1 8 -0.639087 0 1 -0.639087 0
gene 2 2 8 3.02885 0 2 3.02885 0
gene 2 3 8 0.773387 0 3 0.773387 1
gene 1 4 8 -3.20338 0 4 -3.20338 1
gene 2 5 8 2.76868 0 5 2.76868 1
gene 1 6 8 -0.338988 0 6 -0.338988 1
gene 2 7 8 -2.15206 0 7 -2.15206 1
gene 3 1 22 -3.221 0 42 -3.221 1
gene 3 22 8 -2.6621 0 43 -2.6621 1
gene 2 2 31 1.47411 0 67 1.47411 1
gene 2 31 8 2.30944 0 68 2.30944 1
gene 1 7 22 -0.215125 0 84 -0.215125 1
genomeend 138

/* Organism #139 Fitness: 20 Error: 0 */
genomestart 139
trait 1 0.1 0 0 0.205399 0 0 0 0.0371522 
trait 2 0.2 0 0 0 0 0 0 0 
trait 3 0.263223 0 0 0 0.0305531 0.0181881 0 0.0284317 
node 1 1 1 1
node 2 3 1 1
node 3 3 1 1
node 4 2 1 1
node 5 2 1 1
node 6 3 1 1
node 7 1 1 3
node 8 1 0 2
node 22 1 0 0
node 31 1 0 0
gene 3 1 8 -0.332922 0 1 -0.332922 0
gene 2 2 8 0.697839 0 2 0.697839 0
gene 2 3 8 2.08741 0 3 2.08741 1
gene 1 4 8 -1.96254 0 4 -1.96254 1
gene 2 5 8 -0.78475 0 5 -0.78475 1
gene 1 6 8 1.84107 0 6 1.84107 1
gene 2 7 8 -2.375 0 7 -2.375 1
gene 3 1 22 -2.87178 0 42 -2.87178 1
gene 3 22 8 -3.28692 0 43 -3.28692 1
gene 2 2 31 -0.243617 0 67 -0.243617 1
gene 2 31 8 4.34545 0 68 4.34545 1
gene 1 7 22 -1.90036 0 84 -1.90036 1
genomeend 139

/* Organism #140 Fitness: 32 Error: 0 */
genomestart 140
trait 1 0.1 0 0 0.205399 0 0 0 0.0371522 
trait 2 0.2 0 0 0 0 0 0 0 
trait 3 0.263223 0 0 0 0.0305531 0.0181881 0 0.0284317 
node 1 1 1 1
node 2 3 1 1
node 3 3 1 1
node 4 2 1 1
node 5 2 1 1
node 6 3 1 1
node 7 1 1 3
node 8 1 0 2
node 22 1 0 0
node 31 1 0 0
gene 3 1 8 3.01516 0 1 3.01516 0
gene 2 2 8 0.697839 0 2 0.697839 0
gene 2 3 8 4.10055 0 3 4.10055 1
gene 1 4 8 -1.2285 0 4 -1.2285 1
gene 2 5 8 -0.370198 0 5 -0.370198 1
gene 1 6 8 6.02343 0 6 6.02343 1
gene 2 7 8 -4.98992 0 7 -4.98992 1
gene 3 1 22 0.599448 0 42 0.599448 1
gene 3 22 8 -3.13015 0 43 -3.13015 1
gene 2 2 31 1 0 67 1 1
gene 2 31 8 3.57935 0 68 3.57935 1
gene 1 7 22 -1.0197 0 84 -1.0197 1
genomeend 140

/* Organism #141 Fitness: 40 Error: 0 */
genomestart 141
trait 1 0.1 0 0 0.205399 0 0 0 0.0371522 
trait 2 0.2 0 0 0 0 0 0 0 
trait 3 0.263223 0 0 0 0.0305531 0.0181881 0 0.0284317 
node 1 1 1 1
node 2 3 1 1
node 3 3 1 1
node 4 2 1 1
node 5 2 1 1
node 6 3 1 1
node 7 1 1 3
node 8 1 0 2
node 22 1 0 0
node 31 1 0 0
gene 3 1 8 0.537055 0 1 0.537055 1
gene 2 2 8 1.22214 0 2 1.22214 1
gene 2 3 8 2.01292 0 3 2.01292 1
gene 1 4 8 -1.53914 0 4 -1.53914 1
gene 2 5 8 1.6401 0 5 1.6401 1
gene 1 6 8 3.377 0 6 3.377 1
gene 2 7 8 -3.53082 0 7 -3.53082 1
gene 3 1 22 -0.0467322 0 42 -0.0467322 1
gene 3 22 8 -1.36202 0 43 -1.36202 1
gene 2 2 31 0.0480377 0 67 0.0480377 1
gene 2 31 8 4.10891 0 68 4.10891 1
gene 1 7 22 0.258558 0 84 0.258558 1
gene 1 6 22 0.52724 0 114 0.52724 1
genomeend 141

/* Organism #142 Fitness: 17 Error: 0 */
genomestart 142
trait 1 0.1 0 0 0.205399 0 0 0 0.0371522 
trait 2 0.2 0 0 0 0 0 0 0 
trait 3 0.00587037 0.199226 0 0 0 0.0181881 0.917793 0 
node 1 1 1 1
node 2 3 1 1
node 3 3 1 1
node 4 2 1 1
node 5 2 1 1
node 6 3 1 1
node 7 1 1 3
node 8 1 0 2
node 22 1 0 0
node 31 1 0 0
gene 3 1 8 1.55253 0 1 1.55253 0
gene 2 2 8 1.54876 0 2 1.54876 0
gene 2 3 8 2.33073 0 3 2.33073 1
gene 1 4 8 -0.750228 0 4 -0.750228 1
gene 2 5 8 0.789502 0 5 0.789502 1
gene 1 6 8 3.2489 0 6 3.2489 1
gene 2 7 8 -1.0787 0 7 -1.0787 1
gene 3 1 22 -3.63723 0 42 -3.63723 1
gene 3 22 8 1.11806 0 43 1.11806 1
gene 2 2 31 -1.69207 0 67 -1.69207 1
gene 2 31 8 5.65291 0 68 5.65291 1
gene 3 7 22 0.190372 0 84 0.190372 1
genomeend 142

/* Organism #143 Fitness: 45 Error: 0 */
genomestart 143
trait 1 0.1 0 0 0.205399 0 0 0 0.0371522 
trait 2 0.2 0 0 0 0 0 0 0 
trait 3 0.263223 0 0 0 0.0305531 0.0181881 0 0.0284317 
node 1 1 1 1
node 2 3 1 1
node 3 3 1 1
node 4 2 1 1
node 5 2 1 1
node 6 3 1 1
node 7 1 1 3
node 8 1 0 2
node 22 1 0 0
node 31 1 0 0
gene 3 1 8 -1.94105 0 1 -1.94105 0
gene 2 2 8 3.3191 0 2 3.3191 0
gene 2 3 8 -0.0747046 0 3 -0.0747046 1
gene 1 4 8 -1.84977 0 4 -1.84977 1
gene 2 5 8 1.77014 0 5 1.77014 1
gene 1 6 8 1.42842 0 6 1.42842 1
gene 2 7 8 -2.07171 0 7 -2.07171 1
gene 3 1 22 -0.692912 0 42 -0.692912 1
gene 3 22 8 -1.72566 0 43 -1.72566 1
gene 2 2 31 -0.391497 0 67 -0.391497 1
gene 2 31 8 4.63848 0 68 4.63848 1
gene 1 7 22 1.53682 0 84 1.53682 1
genomeend 143

/* Organism #144 Fitness: 45 Error: 0 */
genomestart 144
trait 1 0.1 0 0 0.205399 0 0 0 0.0371522 
trait 2 0.2 0 0 0 0 0 0 0 
trait 3 0.263223 0 0 0 0.0305531 0.0181881 0 0.0284317 
node 1 1 1 1
node 2 3 1 1
node 3 3 1 1
node 4 2 1 1
node 5 2 1 1
node 6 3 1 1
node 7 1 1 3
node 8 1 0 2
node 22 1 0 0
node 31 1 0 0
gene 3 1 8 4.83888 0 1 4.83888 0
gene 2 2 8 1.37637 0 2 1.37637 0
gene 2 3 8 4.44738 0 3 4.44738 1
gene 1 4 8 -3.68316 0 4 -3.68316 1
gene 2 5 8 -1.56515 0 5 -1.56515 1
gene 1 6 8 4.50322 0 6 4.50322 1
gene 2 7 8 -2.57218 0 7 -2.57218 1
gene 3 1 22 0.924168 0 42 0.924168 1
gene 3 22 8 0.745278 0 43 0.745278 1
gene 2 2 31 3.22458 0 67 3.22458 1
gene 2 31 8 2.30944 0 68 2.30944 1
gene 1 7 22 -1.20538 0 84 -1.20538 1
genomeend 144

/* Organism #145 Fitness: 6 Error: 0 */
genomestart 145
trait 1 0.1 0 0 0.205399 0 0 0 0.0371522 
trait 2 0.2 0 0 0 0 0 0 0 
trait 3 0.263223 0 0 0 0.0305531 0.0181881 0 0.0284317 
node 1 1 1 1
node 2 3 1 1
node 3 3 1 1
node 4 2 1 1
node 5 2 1 1
node 6 3 1 1
node 7 1 1 3
node 8 1 0 2
node 22 1 0 0
node 31 1 0 0
gene 3 1 8 -0.0968005 0 1 -0.0968005 0
gene 2 2 8 3.01422 0 2 3.01422 0
gene 2 3 8 1.2632 0 3 1.2632 1
gene 1 4 8 -3.55684 0 4 -3.55684 1
gene 2 5 8 -1.28184 0 5 -1.28184 1
gene 1 6 8 1.67111 0 6 1.67111 1
gene 2 7 8 -3.2629 0 7 -3.2629 1
gene 3 1 22 -3.08842 0 42 -3.08842 1
gene 3 22 8 -3.7531 0 43 -3.7531 1
gene 2 2 31 1 0 67 1 1
gene 2 31 8 1.70733 0 68 1.70733 1
gene 1 7 22 0.27266 0 84 0.27266 1
genomeend 145

/* Organism #146 Fitness: 16 Error: 0 */
genomestart 146
trait 1 0.1 0 0 0.205399 0 0 0 0.0371522 
trait 2 0.2 0 0 0 0 0 0 0 
trait 3 0 0.897854 0.308764 0 0 0.0181881 0 0.220422 
node 1 1 1 1
node 2 3 1 1
node 3 3 1 1
node 4 2 1 1
node 5 2 1 1
node 6 3 1 1
node 7 1 1 3
node 8 1 0 2
node 22 1 0 0
node 31 1 0 0
gene 3 1 8 1.14656 0 1 1.14656 1
gene 2 2 8 1.46947 0 2 1.46947 1
gene 2 3 8 1.58145 0 3 1.58145 1
gene 1 4 8 -1.04236 0 4 -1.04236 1
gene 2 5 8 0.346579 0 5 0.346579 1
gene 1 6 8 2.42487 0 6 2.42487 1
gene 2 7 8 -3.22185 0 7 -3.22185 1
gene 3 1 22 -1.23028 0 42 -1.23028 1
gene 3 22 8 -0.566807 0 43 -0.566807 1
gene 2 2 31 0.681097 0 67 0.681097 1
gene 2 31 8 -1.06629 0 68 -1.06629 1
gene 1 7 22 1.43984 0 84 1.43984 1
genomeend 146

/* Species #5 : (Size 3) (AF 73.6667) (Age 1)  */


/* Organism #147 Fitness: 86 Error: 0 */
genomestart 147
trait 1 0.1 0 0 0.195297 0.0700573 0 0 0.0185761 
trait 2 0.2 0 0 0 0 0 0 0 
trait 3 0.3 0 0 0 0.0763828 0.0454703 0 0.0710792 
node 1 3 1 1
node 2 3 1 1
node 3 1 1 1
node 4 1 1 1
node 5 3 1 1
node 6 2 1 1
node 7 1 1 3
node 8 3 0 2
node 9 1 0 0
gene 3 1 8 -1.91473 0 1 -1.91473 1
gene 3 2 8 1.55004 0 2 1.55004 1
gene 1 3 8 0.183866 0 3 0.183866 1
gene 3 4 8 -2.80682 0 4 -2.80682 0
gene 2 5 8 -1.28161 0 5 -1.28161 0
gene 1 6 8 1.51867 0 6 1.51867 1
gene 2 7 8 -1.91962 0 7 -1.91962 1
gene 1 5 9 3.59217 0 8 3.59217 1
gene 1 9 8 1.15233 0 9 1.15233 1
gene 2 1 9 1.56653 0 50 1.56653 1
gene 3 4 9 -0.172439 0 78 -0.172439 1
gene 1 3 9 0.397741 0 107 0.397741 1
genomeend 147

/* Organism #148 Fitness: 73 Error: 0 */
genomestart 148
trait 1 0.1 0 0 0.230574 0.125884 0 0 0.0116101 
trait 2 0.2 0 0.105654 0 0.0372422 0.0816038 0.0411657 0.123358 
trait 3 0.3 0.0470833 0.0131698 0.0518619 0.0553775 0.032966 0 0.0515324 
node 1 3 1 1
node 2 3 1 1
node 3 1 1 1
node 4 1 1 1
node 5 3 1 1
node 6 2 1 1
node 7 1 1 3
node 8 3 0 2
node 9 1 0 0
gene 3 1 8 -2.46645 0 1 -2.46645 1
gene 3 2 8 4.3889 0 2 4.3889 1
gene 1 3 8 3.27802 0 3 3.27802 1
gene 3 4 8 -1.35608 0 4 -1.35608 0
gene 1 5 8 1.27947 0 5 1.27947 0
gene 1 6 8 6.27392 0 6 6.27392 1
gene 2 7 8 -1.92434 0 7 -1.92434 1
gene 1 5 9 3.59217 0 8 3.59217 1
gene 1 9 8 1.15233 0 9 1.15233 1
gene 2 1 9 1.56653 0 50 1.56653 1
gene 3 4 9 -0.172439 0 78 -0.172439 1
gene 3 7 9 -0.00659831 0 110 -0.00659831 1
genomeend 148

/* Organism #149 Fitness: 62 Error: 0 */
genomestart 149
trait 1 0.1 0 0 0.21771 0.0481644 0 0 0.0278641 
trait 2 0.1 0 0.311069 0.448388 0 0.348984 0 0 
trait 3 0.3 0.0941666 0.0263395 0.103724 0.0840211 0.0500173 0 0.0781871 
node 1 3 1 1
node 2 3 1 1
node 3 1 1 1
node 4 1 1 1
node 5 3 1 1
node 6 2 1 1
node 7 1 1 3
node 8 3 0 2
node 9 1 0 0
gene 3 1 8 -5.26456 0 1 -5.26456 1
gene 3 2 8 5.24095 0 2 5.24095 1
gene 1 3 8 3.90921 0 3 3.90921 1
gene 3 4 8 1.9635 0 4 1.9635 0
gene 2 5 8 -3.51797 0 5 -3.51797 0
gene 1 6 8 7.682 0 6 7.682 1
gene 2 7 8 -4.11786 0 7 -4.11786 1
gene 1 5 9 0.748219 0 8 0.748219 1
gene 1 9 8 2.1313 0 9 2.1313 1
gene 2 1 9 -0.0824436 0 50 -0.0824436 1
gene 3 4 9 -0.172439 0 78 -0.172439 1
genomeend 149
