
/* Species #1 : (Size 96) (AF 68.9167) (Age 10)  */


/* Organism #0 Fitness: 483 Error: 0 */
genomestart 0
trait 1 0.1 0 0 0 0 0 0 0 
trait 2 0.195312 0 0.0172954 0 0 0 0.00793622 0 
trait 3 0.3 0 0 0 0 0 0 0 
node 1 1 1 1
node 2 3 1 1
node 3 3 1 1
node 4 2 1 1
node 5 2 1 1
node 6 3 1 1
node 7 1 1 3
node 8 1 0 2
gene 3 1 8 1.6238 0 1 1.6238 1
gene 2 2 8 -1.19043 0 2 -1.19043 1
gene 2 3 8 -1.74165 0 3 -1.74165 1
gene 1 4 8 -5.58115 0 4 -5.58115 1
gene 2 5 8 2.86296 0 5 2.86296 1
gene 2 6 8 1.81472 0 6 1.81472 1
gene 2 7 8 -0.137701 0 7 -0.137701 1
genomeend 0

/* Organism #1 Fitness: 5 Error: 0 */
genomestart 1
trait 1 0.1 0 0 0 0.000552086 0 0 0 
trait 2 0.198438 0 0.00576512 0 0 0 0.00264541 0 
trait 3 0.3 0 0 0 0 0 0 0 
node 1 3 1 1
node 2 3 1 1
node 3 2 1 1
node 4 1 1 1
node 5 1 1 1
node 6 3 1 1
node 7 2 1 3
node 8 1 0 2
gene 3 1 8 2.39072 0 1 2.39072 1
gene 2 2 8 -1.06206 0 2 -1.06206 1
gene 3 3 8 -2.68212 0 3 -2.68212 1
gene 1 4 8 -3.39853 0 4 -3.39853 1
gene 2 5 8 1.37028 0 5 1.37028 1
gene 1 6 8 -0.238948 0 6 -0.238948 1
gene 2 7 8 -0.550466 0 7 -0.550466 1
genomeend 1

/* Organism #2 Fitness: 112 Error: 0 */
genomestart 2
trait 1 0.1 0 0 0 0 0 0 0 
trait 2 0.197656 0 0.00864769 0 0 0 0.00396811 0 
trait 3 0.3 0 0 0 0 0 0 0 
node 1 1 1 1
node 2 3 1 1
node 3 2 1 1
node 4 1 1 1
node 5 1 1 1
node 6 3 1 1
node 7 2 1 3
node 8 1 0 2
gene 3 1 8 -0.914984 0 1 -0.914984 1
gene 3 2 8 0.555933 0 2 0.555933 1
gene 3 3 8 -2.30434 0 3 -2.30434 1
gene 1 4 8 -3.64475 0 4 -3.64475 1
gene 2 5 8 2.6426 0 5 2.6426 1
gene 2 6 8 2.06718 0 6 2.06718 1
gene 2 7 8 -0.865553 0 7 -0.865553 1
genomeend 2

/* Organism #3 Fitness: 37 Error: 0 */
genomestart 3
trait 1 0.1 0 0 0 0 0 0 0 
trait 2 0.196094 0 0.0144128 0 0 0 0.00661351 0 
trait 3 0.3 0 0 0 0 0 0 0 
node 1 1 1 1
node 2 3 1 1
node 3 2 1 1
node 4 1 1 1
node 5 1 1 1
node 6 3 1 1
node 7 2 1 3
node 8 1 0 2
gene 3 1 8 0.856146 0 1 0.856146 1
gene 2 2 8 -1.98688 0 2 -1.98688 1
gene 2 3 8 -3.19124 0 3 -3.19124 1
gene 1 4 8 -6.14111 0 4 -6.14111 1
gene 2 5 8 1.46946 0 5 1.46946 1
gene 2 6 8 3.85491 0 6 3.85491 1
gene 2 7 8 -0.894237 0 7 -0.894237 1
genomeend 3

/* Organism #4 Fitness: 31 Error: 0 */
genomestart 4
trait 1 0.1 0 0 0 0 0 0 0 
trait 2 0.2 0 0 0 0 0 0 0 
trait 3 0.226446 0 0 0 0 0 0 0 
node 1 1 1 1
node 2 3 1 1
node 3 3 1 1
node 4 2 1 1
node 5 2 1 1
node 6 3 1 1
node 7 1 1 3
node 8 1 0 2
node 22 1 0 0
gene 3 1 8 -1.68525 0 1 -1.68525 0
gene 2 2 8 -0.762954 0 2 -0.762954 1
gene 2 3 8 -2.15265 0 3 -2.15265 1
gene 1 4 8 -4.87627 0 4 -4.87627 1
gene 2 5 8 -0.259668 0 5 -0.259668 1
gene 1 6 8 1.93875 0 6 1.93875 1
gene 2 7 8 0.759395 0 7 0.759395 1
gene 3 1 22 -0.0214709 0 42 -0.0214709 1
gene 3 22 8 -2.00504 0 43 -2.00504 1
genomeend 4

/* Organism #5 Fitness: 16 Error: 0 */
genomestart 5
trait 1 0.1 0 0 0 0.000276043 0 0 0 
trait 2 0.199219 0 0.00288256 0 0 0 0.0013227 0 
trait 3 0.3 0 0 0 0 0 0 0 
node 1 1 1 1
node 2 3 1 1
node 3 3 1 1
node 4 2 1 1
node 5 2 1 1
node 6 3 1 1
node 7 1 1 3
node 8 1 0 2
gene 3 1 8 -1.82398 0 1 -1.82398 1
gene 2 2 8 -3.92085 0 2 -3.92085 1
gene 3 3 8 -3.74079 0 3 -3.74079 1
gene 1 4 8 -4.04772 0 4 -4.04772 1
gene 2 5 8 -0.113623 0 5 -0.113623 1
gene 1 6 8 3.99182 0 6 3.99182 1
gene 2 7 8 -2.4218 0 7 -2.4218 1
genomeend 5

/* Organism #6 Fitness: 78 Error: 0 */
genomestart 6
trait 1 0.1 0 0 0 0.000276043 0 0 0 
trait 2 0.199219 0 0.00288256 0 0 0 0.0013227 0 
trait 3 0.3 0 0 0 0 0 0 0 
node 1 1 1 1
node 2 2 1 1
node 3 2 1 1
node 4 3 1 1
node 5 1 1 1
node 6 2 1 1
node 7 3 1 3
node 8 2 0 2
gene 3 1 8 -0.731498 0 1 -0.731498 1
gene 3 2 8 2.26766 0 2 2.26766 1
gene 2 3 8 -0.408491 0 3 -0.408491 1
gene 1 4 8 -1.52667 0 4 -1.52667 1
gene 1 5 8 3.73123 0 5 3.73123 1
gene 2 6 8 0.759233 0 6 0.759233 1
gene 2 7 8 -1.38609 0 7 -1.38609 1
genomeend 6

/* Organism #7 Fitness: 5 Error: 0 */
genomestart 7
trait 1 0.1 0 0 0 0 0 0 0 
trait 2 0.198438 0 0.00576512 0 0 0 0.00264541 0 
trait 3 0.3 0 0 0 0 0 0 0 
node 1 1 1 1
node 2 3 1 1
node 3 2 1 1
node 4 1 1 1
node 5 1 1 1
node 6 3 1 1
node 7 2 1 3
node 8 1 0 2
gene 3 1 8 0.785998 0 1 0.785998 1
gene 3 2 8 0.0934338 0 2 0.0934338 1
gene 3 3 8 -4.80204 0 3 -4.80204 1
gene 1 4 8 -5.21319 0 4 -5.21319 1
gene 2 5 8 4.76274 0 5 4.76274 1
gene 2 6 8 -0.0398777 0 6 -0.0398777 1
gene 2 7 8 0.286827 0 7 0.286827 1
genomeend 7

/* Organism #8 Fitness: 32 Error: 0 */
genomestart 8
trait 1 0.1 0 0 0 0 0 0 0 
trait 2 0.198438 0 0.00576512 0 0 0 0.00264541 0 
trait 3 0.263223 0 0 0 0 0 0 0 
node 1 1 1 1
node 2 3 1 1
node 3 3 1 1
node 4 2 1 1
node 5 2 1 1
node 6 3 1 1
node 7 1 1 3
node 8 1 0 2
node 22 1 0 0
gene 3 1 8 -0.297338 0 1 -0.297338 0
gene 3 2 8 0.56887 0 2 0.56887 1
gene 3 3 8 -0.102398 0 3 -0.102398 1
gene 1 4 8 -3.60833 0 4 -3.60833 1
gene 2 5 8 0.60097 0 5 0.60097 1
gene 2 6 8 2.1808 0 6 2.1808 1
gene 2 7 8 -0.167021 0 7 -0.167021 1
gene 3 1 22 1.64831 0 42 1.64831 1
gene 3 22 8 0.9301 0 43 0.9301 1
genomeend 8

/* Organism #9 Fitness: 71 Error: 0 */
genomestart 9
trait 1 0.1 0 0 0 0.000276043 0 0 0 
trait 2 0.194531 0 0.474893 0 0 0.905493 0.00925892 0 
trait 3 0.3 0 0 0 0 0 0.00231697 0 
node 1 1 1 1
node 2 3 1 1
node 3 2 1 1
node 4 1 1 1
node 5 1 1 1
node 6 3 1 1
node 7 2 1 3
node 8 1 0 2
gene 1 1 8 1.20991 0 1 1.20991 1
gene 3 2 8 0.555933 0 2 0.555933 1
gene 2 3 8 -1.40157 0 3 -1.40157 1
gene 1 4 8 -4.20473 0 4 -4.20473 1
gene 1 5 8 3.22189 0 5 3.22189 1
gene 2 6 8 2.88561 0 6 2.88561 1
gene 1 7 8 -0.456532 0 7 -0.456532 1
genomeend 9

/* Organism #10 Fitness: 45 Error: 0 */
genomestart 10
trait 1 0.1 0 0 0 0.000552086 0 0 0 
trait 2 0.198438 0 0.00576512 0 0 0 0.00264541 0 
trait 3 0.3 0 0 0 0 0 0 0 
node 1 1 1 1
node 2 3 1 1
node 3 2 1 1
node 4 1 1 1
node 5 1 1 1
node 6 3 1 1
node 7 2 1 3
node 8 1 0 2
gene 3 1 8 3.14034 0 1 3.14034 1
gene 2 2 8 -1.17641 0 2 -1.17641 1
gene 3 3 8 -3.14671 0 3 -3.14671 1
gene 1 4 8 -5.32628 0 4 -5.32628 1
gene 2 5 8 1.53118 0 5 1.53118 1
gene 1 6 8 3.53144 0 6 3.53144 1
gene 2 7 8 0.23958 0 7 0.23958 1
genomeend 10

/* Organism #11 Fitness: 146 Error: 0 */
genomestart 11
trait 1 0.1 0 0 0 0 0 0 0 
trait 2 0.1875 0.19515 0.421525 0 0 0 0.0105816 0 
trait 3 0.3 0 0 0 0 0 0.00463394 0 
node 1 1 1 1
node 2 3 1 1
node 3 3 1 1
node 4 3 1 1
node 5 2 1 1
node 6 1 1 1
node 7 2 1 3
node 8 3 0 2
gene 3 1 8 0.623026 0 1 0.623026 1
gene 3 2 8 0.454529 0 2 0.454529 0
gene 2 3 8 -0.882684 0 3 -0.882684 1
gene 1 4 8 -3.92474 0 4 -3.92474 1
gene 2 5 8 1.50386 0 5 1.50386 1
gene 1 6 8 2.03427 0 6 2.03427 1
gene 2 7 8 -0.234503 0 7 -0.234503 1
genomeend 11

/* Organism #12 Fitness: 38 Error: 0 */
genomestart 12
trait 1 0.1 0 0 0.205399 0.000276043 0 0 0.0371522 
trait 2 0.199219 0 0.00288256 0 0 0 0.0013227 0 
trait 3 0.3 0 0 0 0.0305531 0.0181881 0 0.0284317 
node 1 3 1 1
node 2 3 1 1
node 3 1 1 1
node 4 1 1 1
node 5 3 1 1
node 6 2 1 1
node 7 1 1 3
node 8 3 0 2
gene 3 1 8 -0.137942 0 1 -0.137942 1
gene 3 2 8 0.885218 0 2 0.885218 1
gene 2 3 8 -1.40157 0 3 -1.40157 1
gene 3 4 8 -1.38107 0 4 -1.38107 1
gene 2 5 8 2.03561 0 5 2.03561 0
gene 1 6 8 2.51694 0 6 2.51694 1
gene 2 7 8 -0.390826 0 7 -0.390826 1
genomeend 12

/* Organism #13 Fitness: 21 Error: 0 */
genomestart 13
trait 1 0.1 0 0 0 0 0 0 0 
trait 2 0.196875 0 0.0115302 0 0 0 0.00529081 0 
trait 3 0.3 0 0 0 0 0 0 0 
node 1 1 1 1
node 2 3 1 1
node 3 2 1 1
node 4 1 1 1
node 5 1 1 1
node 6 3 1 1
node 7 2 1 3
node 8 1 0 2
gene 3 1 8 -0.778938 0 1 -0.778938 1
gene 3 2 8 -0.158652 0 2 -0.158652 1
gene 3 3 8 -2.83571 0 3 -2.83571 1
gene 1 4 8 -3.6872 0 4 -3.6872 1
gene 2 5 8 0.463529 0 5 0.463529 1
gene 2 6 8 0.826626 0 6 0.826626 1
gene 2 7 8 -1.06404 0 7 -1.06404 1
genomeend 13

/* Organism #14 Fitness: 293 Error: 0 */
genomestart 14
trait 1 0.1 0 0 0 0 0 0 0 
trait 2 0.20328 0 0.00867058 0.0100044 0 0 0 0 
trait 3 0.3 0 0 0 0 0 0 0 
node 1 1 1 1
node 2 2 1 1
node 3 2 1 1
node 4 2 1 1
node 5 1 1 1
node 6 1 1 1
node 7 1 1 3
node 8 1 0 2
gene 1 1 8 1.96822 0 1 1.96822 1
gene 2 2 8 -2.05336 0 2 -2.05336 1
gene 2 3 8 -1.75777 0 3 -1.75777 1
gene 1 4 8 -5.46589 0 4 -5.46589 1
gene 2 5 8 0.919169 0 5 0.919169 1
gene 1 6 8 0.771231 0 6 0.771231 1
gene 2 7 8 -0.476022 0 7 -0.476022 1
genomeend 14

/* Organism #15 Fitness: 37 Error: 0 */
genomestart 15
trait 1 0.1 0 0 0 0 0 0 0 
trait 2 0.199296 0 0.012983 0.00500219 0 0 0.00396811 0 
trait 3 0.3 0 0 0 0 0 0 0 
node 1 1 1 1
node 2 3 1 1
node 3 3 1 1
node 4 2 1 1
node 5 2 1 1
node 6 3 1 1
node 7 1 1 3
node 8 1 0 2
gene 3 1 8 2.29984 0 1 2.29984 1
gene 2 2 8 0.473695 0 2 0.473695 1
gene 2 3 8 0.137368 0 3 0.137368 1
gene 1 4 8 -7.498 0 4 -7.498 1
gene 2 5 8 4.12735 0 5 4.12735 1
gene 2 6 8 4.2184 0 6 4.2184 1
gene 3 7 8 -0.194305 0 7 -0.194305 1
genomeend 15

/* Organism #16 Fitness: 42 Error: 0 */
genomestart 16
trait 1 0.1 0 0 0 0 0 0 0 
trait 2 0.200077 0 0.0101004 0.00500219 0 0 0.00264541 0 
trait 3 0.3 0 0 0 0 0 0.00115848 0 
node 1 1 1 1
node 2 3 1 1
node 3 3 1 1
node 4 2 1 1
node 5 2 1 1
node 6 3 1 1
node 7 1 1 3
node 8 1 0 2
gene 1 1 8 0.350199 0 1 0.350199 1
gene 2 2 8 1.20805 0 2 1.20805 1
gene 2 3 8 -1.41589 0 3 -1.41589 1
gene 3 4 8 -2.5684 0 4 -2.5684 1
gene 2 5 8 4.16846 0 5 4.16846 1
gene 1 6 8 1.13914 0 6 1.13914 1
gene 2 7 8 0.852237 0 7 0.852237 1
genomeend 16

/* Organism #17 Fitness: 57 Error: 0 */
genomestart 17
trait 1 0.1 0 0 0 0.000276043 0 0 0 
trait 2 0.197656 0 0.00864769 0 0 0 0.00396811 0 
trait 3 0.3 0 0 0 0 0 0 0 
node 1 1 1 1
node 2 3 1 1
node 3 2 1 1
node 4 1 1 1
node 5 1 1 1
node 6 3 1 1
node 7 2 1 3
node 8 1 0 2
gene 3 1 8 -1.50576 0 1 -1.50576 1
gene 3 2 8 1.05604 0 2 1.05604 1
gene 2 3 8 -3.24458 0 3 -3.24458 1
gene 1 4 8 -3.64475 0 4 -3.64475 1
gene 2 5 8 4.22032 0 5 4.22032 1
gene 2 6 8 1.48472 0 6 1.48472 1
gene 2 7 8 -2.39717 0 7 -2.39717 1
genomeend 17

/* Organism #18 Fitness: 35 Error: 0 */
genomestart 18
trait 1 0.1 0 0 0 0 0 0 0 
trait 2 0.195312 0 0.0172954 0 0 0 0.00793622 0 
trait 3 0.3 0 0 0 0 0 0 0 
node 1 1 1 1
node 2 3 1 1
node 3 3 1 1
node 4 2 1 1
node 5 2 1 1
node 6 3 1 1
node 7 1 1 3
node 8 1 0 2
gene 3 1 8 2.4365 0 1 2.4365 1
gene 2 2 8 -1.27216 0 2 -1.27216 1
gene 2 3 8 -2.69434 0 3 -2.69434 1
gene 1 4 8 -6.60679 0 4 -6.60679 1
gene 2 5 8 -0.844534 0 5 -0.844534 1
gene 2 6 8 3.95392 0 6 3.95392 1
gene 2 7 8 -0.246184 0 7 -0.246184 1
genomeend 18

/* Organism #19 Fitness: 44 Error: 0 */
genomestart 19
trait 1 0.1 0 0 0 0 0 0 0 
trait 2 0.197656 0 0.00864769 0 0 0 0.00396811 0 
trait 3 0.3 0 0 0 0 0 0.00115848 0 
node 1 1 1 1
node 2 3 1 1
node 3 2 1 1
node 4 1 1 1
node 5 1 1 1
node 6 3 1 1
node 7 2 1 3
node 8 1 0 2
gene 3 1 8 -2.2469 0 1 -2.2469 1
gene 2 2 8 -2.77974 0 2 -2.77974 1
gene 3 3 8 -1.58109 0 3 -1.58109 1
gene 1 4 8 -5.8837 0 4 -5.8837 1
gene 1 5 8 0.972098 0 5 0.972098 1
gene 2 6 8 2.06718 0 6 2.06718 1
gene 2 7 8 0.0257772 0 7 0.0257772 1
genomeend 19

/* Organism #20 Fitness: 85 Error: 0 */
genomestart 20
trait 1 0.1 0 0 0 0 0 0 0 
trait 2 0.198438 0 0.00576512 0 0 0 0.00264541 0 
trait 3 0.3 0 0 0 0 0 0.00115848 0 
node 1 1 1 1
node 2 3 1 1
node 3 3 1 1
node 4 2 1 1
node 5 2 1 1
node 6 3 1 1
node 7 1 1 3
node 8 1 0 2
gene 3 1 8 -0.335996 0 1 -0.335996 1
gene 3 2 8 -1.66357 0 2 -1.66357 1
gene 3 3 8 2.08705 0 3 2.08705 1
gene 1 4 8 -4.82449 0 4 -4.82449 1
gene 1 5 8 2.28991 0 5 2.28991 1
gene 1 6 8 1.30722 0 6 1.30722 1
gene 1 7 8 -0.847049 0 7 -0.847049 1
genomeend 20

/* Organism #21 Fitness: 5 Error: 0 */
genomestart 21
trait 1 0.1 0 0 0 0 0 0 0 
trait 2 0.20328 0 0.00867058 0.0100044 0 0 0 0 
trait 3 0.3 0 0 0 0 0 0 0 
node 1 1 1 1
node 2 2 1 1
node 3 2 1 1
node 4 3 1 1
node 5 1 1 1
node 6 2 1 1
node 7 3 1 3
node 8 2 0 2
gene 3 1 8 3.13232 0 1 3.13232 1
gene 2 2 8 0.370984 0 2 0.370984 1
gene 1 3 8 1.57653 0 3 1.57653 1
gene 1 4 8 -2.77319 0 4 -2.77319 1
gene 2 5 8 1.81934 0 5 1.81934 1
gene 1 6 8 0.296583 0 6 0.296583 1
gene 2 7 8 -2.42663 0 7 -2.42663 1
genomeend 21

/* Organism #22 Fitness: 35 Error: 0 */
genomestart 22
trait 1 0.1 0 0 0 0 0 0 0 
trait 2 0.199219 0 0.00288256 0 0 0 0.0013227 0 
trait 3 0.3 0 0 0 0 0 0 0 
node 1 1 1 1
node 2 3 1 1
node 3 2 1 1
node 4 1 1 1
node 5 1 1 1
node 6 3 1 1
node 7 2 1 3
node 8 1 0 2
gene 3 1 8 0.789147 0 1 0.789147 1
gene 3 2 8 -0.39079 0 2 -0.39079 1
gene 3 3 8 -2.70767 0 3 -2.70767 1
gene 3 4 8 0.925595 0 4 0.925595 1
gene 2 5 8 2.6426 0 5 2.6426 1
gene 1 6 8 1.14569 0 6 1.14569 1
gene 2 7 8 -1.62821 0 7 -1.62821 1
genomeend 22

/* Organism #23 Fitness: 36 Error: 0 */
genomestart 23
trait 1 0.1 0 0 0 0 0 0 0 
trait 2 0.196952 0 0.0216307 0.00500219 0 0 0.00793622 0 
trait 3 0.3 0 0 0 0 0 0.00231697 0 
node 1 1 1 1
node 2 2 1 1
node 3 2 1 1
node 4 2 1 1
node 5 1 1 1
node 6 1 1 1
node 7 1 1 3
node 8 1 0 2
gene 1 1 8 1.25394 0 1 1.25394 1
gene 2 2 8 -2.25736 0 2 -2.25736 1
gene 2 3 8 -1.25682 0 3 -1.25682 1
gene 3 4 8 -2.82382 0 4 -2.82382 1
gene 2 5 8 1.66907 0 5 1.66907 1
gene 1 6 8 3.30933 0 6 3.30933 1
gene 1 7 8 0.0196417 0 7 0.0196417 1
genomeend 23

/* Organism #24 Fitness: 127 Error: 0 */
genomestart 24
trait 1 0.1 0 0 0 0 0 0 0 
trait 2 0.2 0 0 0 0 0 0 0 
trait 3 0.3 0 0 0 0 0 0 0 
node 1 1 1 1
node 2 3 1 1
node 3 3 1 1
node 4 2 1 1
node 5 2 1 1
node 6 3 1 1
node 7 1 1 3
node 8 1 0 2
node 26 1 0 0
gene 3 1 8 0.00112991 0 1 0.00112991 0
gene 3 2 8 -1.11687 0 2 -1.11687 1
gene 3 3 8 -1.75391 0 3 -1.75391 1
gene 3 4 8 -4.65089 0 4 -4.65089 1
gene 2 5 8 2.29379 0 5 2.29379 1
gene 1 6 8 0.913728 0 6 0.913728 1
gene 2 7 8 -0.672931 0 7 -0.672931 1
gene 3 1 26 1 0 52 0 1
gene 3 26 8 0.00112991 0 53 0 1
genomeend 24

/* Organism #25 Fitness: 67 Error: 0 */
genomestart 25
trait 1 0.1 0 0 0 0 0 0 0 
trait 2 0.20328 0 0.00867058 0.0100044 0 0 0 0 
trait 3 0.3 0 0 0 0 0 0 0 
node 1 1 1 1
node 2 2 1 1
node 3 2 1 1
node 4 3 1 1
node 5 1 1 1
node 6 2 1 1
node 7 3 1 3
node 8 2 0 2
gene 3 1 8 2.51651 0 1 2.51651 1
gene 2 2 8 2.01744 0 2 2.01744 1
gene 1 3 8 -0.758021 0 3 -0.758021 1
gene 1 4 8 -4.45679 0 4 -4.45679 1
gene 2 5 8 3.22241 0 5 3.22241 1
gene 1 6 8 3.89282 0 6 3.89282 1
gene 2 7 8 0.36285 0 7 0.36285 1
genomeend 25

/* Organism #26 Fitness: 7 Error: 0 */
genomestart 26
trait 1 0.1 0 0 0.205399 0 0 0 0.0371522 
trait 2 0.20164 0 0.00433529 0.00500219 0 0 0 0 
trait 3 0.3 0 0 0 0.0305531 0.0181881 0 0.0284317 
node 1 1 1 1
node 2 2 1 1
node 3 2 1 1
node 4 2 1 1
node 5 1 1 1
node 6 1 1 1
node 7 1 1 3
node 8 1 0 2
gene 3 1 8 0.879057 0 1 0.879057 1
gene 2 2 8 1.09548 0 2 1.09548 1
gene 2 3 8 -2.8654 0 3 -2.8654 1
gene 1 4 8 -1.41926 0 4 -1.41926 1
gene 1 5 8 -3.82074 0 5 -3.82074 0
gene 1 6 8 0.623042 0 6 0.623042 1
gene 2 7 8 -1.22863 0 7 -1.22863 1
genomeend 26

/* Organism #27 Fitness: 46 Error: 0 */
genomestart 27
trait 1 0.1 0 0 0.205399 0.000276043 0 0 0.0371522 
trait 2 0.199219 0 0.00288256 0 0 0 0.0013227 0 
trait 3 0.3 0 0 0 0.0305531 0.0181881 0 0.0284317 
node 1 1 1 1
node 2 2 1 1
node 3 2 1 1
node 4 3 1 1
node 5 1 1 1
node 6 2 1 1
node 7 3 1 3
node 8 2 0 2
gene 3 1 8 -0.137942 0 1 -0.137942 1
gene 3 2 8 0.885218 0 2 0.885218 1
gene 1 3 8 1.77827 0 3 1.77827 1
gene 1 4 8 -4.20473 0 4 -4.20473 1
gene 1 5 8 -2.61894 0 5 -2.61894 0
gene 2 6 8 2.88561 0 6 2.88561 1
gene 2 7 8 -1.10921 0 7 -1.10921 1
genomeend 27

/* Organism #28 Fitness: 6 Error: 0 */
genomestart 28
trait 1 0.1 0 0 0 0 0 0 0 
trait 2 0.2 0 0 0 0 0 0 0 
trait 3 0.3 0 0 0 0 0 0 0 
node 1 1 1 1
node 2 3 1 1
node 3 3 1 1
node 4 2 1 1
node 5 2 1 1
node 6 3 1 1
node 7 1 1 3
node 8 1 0 2
gene 3 1 8 1.24567 0 1 1.24567 1
gene 3 2 8 -0.174162 0 2 -0.174162 1
gene 3 3 8 -0.824463 0 3 -0.824463 1
gene 3 4 8 -2.23391 0 4 -2.23391 1
gene 1 5 8 1.87034 0 5 1.87034 1
gene 1 6 8 -2.49733 0 6 -2.49733 1
gene 1 7 8 -0.0486968 0 7 -0.0486968 1
genomeend 28

/* Organism #29 Fitness: 95 Error: 0 */
genomestart 29
trait 1 0.1 0 0 0 0 0 0 0 
trait 2 0.200859 0 0.00721785 0.00500219 0 0 0.0013227 0 
trait 3 0.3 0 0 0 0 0 0 0 
node 1 1 1 1
node 2 3 1 1
node 3 2 1 1
node 4 1 1 1
node 5 1 1 1
node 6 3 1 1
node 7 2 1 3
node 8 1 0 2
gene 3 1 8 0.470983 0 1 0.470983 1
gene 3 2 8 0.433705 0 2 0.433705 1
gene 3 3 8 -1.43016 0 3 -1.43016 1
gene 1 4 8 -3.68894 0 4 -3.68894 1
gene 2 5 8 2.57444 0 5 2.57444 1
gene 1 6 8 2.08135 0 6 2.08135 1
gene 2 7 8 -0.552779 0 7 -0.552779 1
genomeend 29

/* Organism #30 Fitness: 133 Error: 0 */
genomestart 30
trait 1 0.1 0 0 0 0 0 0 0 
trait 2 0.198438 0 0.00576512 0 0 0 0.00264541 0 
trait 3 0.3 0 0 0 0 0 0.00115848 0 
node 1 1 1 1
node 2 3 1 1
node 3 2 1 1
node 4 1 1 1
node 5 1 1 1
node 6 3 1 1
node 7 2 1 3
node 8 1 0 2
gene 3 1 8 0.351216 0 1 0.351216 1
gene 2 2 8 -0.576895 0 2 -0.576895 1
gene 3 3 8 -0.726629 0 3 -0.726629 1
gene 1 4 8 -4.1277 0 4 -4.1277 1
gene 1 5 8 1.95217 0 5 1.95217 1
gene 2 6 8 1.28128 0 6 1.28128 1
gene 1 7 8 -0.470223 0 7 -0.470223 1
genomeend 30

/* Organism #31 Fitness: 5 Error: 0 */
genomestart 31
trait 1 0.1 0 0 0 0 0 0 0 
trait 2 0.195312 0 0.0172954 0 0 0 0.00793622 0 
trait 3 0.3 0 0 0 0 0 0.00231697 0 
node 1 1 1 1
node 2 3 1 1
node 3 2 1 1
node 4 1 1 1
node 5 1 1 1
node 6 3 1 1
node 7 2 1 3
node 8 1 0 2
gene 3 1 8 -1.01601 0 1 -1.01601 1
gene 3 2 8 -1.383 0 2 -1.383 1
gene 1 3 8 -1.69868 0 3 -1.69868 1
gene 3 4 8 -0.689902 0 4 -0.689902 1
gene 2 5 8 4.78945 0 5 4.78945 1
gene 1 6 8 -0.964286 0 6 -0.964286 1
gene 2 7 8 -0.550474 0 7 -0.550474 1
genomeend 31

/* Organism #32 Fitness: 144 Error: 0 */
genomestart 32
trait 1 0.1 0 0 0 0.000552086 0 0 0 
trait 2 0.198438 0 0.00576512 0 0 0 0.00264541 0 
trait 3 0.3 0 0 0 0 0 0 0 
node 1 1 1 1
node 2 2 1 1
node 3 2 1 1
node 4 3 1 1
node 5 1 1 1
node 6 2 1 1
node 7 3 1 3
node 8 2 0 2
gene 3 1 8 0.833596 0 1 0.833596 1
gene 2 2 8 0.867897 0 2 0.867897 1
gene 3 3 8 -1.62726 0 3 -1.62726 1
gene 1 4 8 -3.57203 0 4 -3.57203 1
gene 2 5 8 2.33218 0 5 2.33218 1
gene 1 6 8 2.45806 0 6 2.45806 1
gene 2 7 8 -0.407253 0 7 -0.407253 1
genomeend 32

/* Organism #33 Fitness: 42 Error: 0 */
genomestart 33
trait 1 0.1 0 0 0.205399 0 0 0 0.0371522 
trait 2 1 0 0.0144128 0 0 0.00724718 0 0.97931 
trait 3 0.3 0.172753 0 0.0400887 0.0305531 0.0181881 0.0454886 0.116089 
node 1 1 1 1
node 2 3 1 1
node 3 2 1 1
node 4 1 1 1
node 5 1 1 1
node 6 3 1 1
node 7 2 1 3
node 8 1 0 2
gene 3 1 8 -0.360074 0 1 -0.360074 1
gene 3 2 8 -0.77511 0 2 -0.77511 0
gene 3 3 8 1.68425 0 3 1.68425 1
gene 1 4 8 -1.92922 0 4 -1.92922 1
gene 1 5 8 -0.844681 0 5 -0.844681 0
gene 2 6 8 1.6868 0 6 1.6868 1
gene 2 7 8 -0.987379 0 7 -0.987379 1
genomeend 33

/* Organism #34 Fitness: 104 Error: 0 */
genomestart 34
trait 1 0.1 0 0 0 0 0 0 0 
trait 2 0.19375 0 0.0230605 0 0 0 0.0105816 0 
trait 3 0.3 0 0 0 0 0 0.00231697 0 
node 1 1 1 1
node 2 3 1 1
node 3 2 1 1
node 4 1 1 1
node 5 1 1 1
node 6 3 1 1
node 7 2 1 3
node 8 1 0 2
gene 1 1 8 0.147463 0 1 0.147463 1
gene 3 2 8 0.555933 0 2 0.555933 1
gene 1 3 8 -2.27961 0 3 -2.27961 1
gene 1 4 8 -2.93933 0 4 -2.93933 1
gene 1 5 8 2.62875 0 5 2.62875 1
gene 2 6 8 1.65059 0 6 1.65059 1
gene 2 7 8 -0.661042 0 7 -0.661042 1
genomeend 34

/* Organism #35 Fitness: 37 Error: 0 */
genomestart 35
trait 1 0.1 0 0 0 0 0 0 0 
trait 2 0.2 0 0 0 0 0 0 0 
trait 3 0.3 0 0 0 0 0 0 0 
node 1 1 1 1
node 2 3 1 1
node 3 3 1 1
node 4 2 1 1
node 5 2 1 1
node 6 3 1 1
node 7 1 1 3
node 8 1 0 2
gene 3 1 8 2.17316 0 1 2.17316 1
gene 3 2 8 -2.6038 0 2 -2.6038 1
gene 3 3 8 -0.926418 0 3 -0.926418 1
gene 3 4 8 -2.91086 0 4 -2.91086 1
gene 2 5 8 1.84727 0 5 1.84727 1
gene 1 6 8 1.0266 0 6 1.0266 1
gene 2 7 8 0.754269 0 7 0.754269 1
genomeend 35

/* Organism #36 Fitness: 119 Error: 0 */
genomestart 36
trait 1 0.1 0 0 0 0 0 0 0 
trait 2 0.196875 0 0.0115302 0 0 0 0.00529081 0 
trait 3 0.3 0 0 0 0 0 0.00115848 0 
node 1 1 1 1
node 2 3 1 1
node 3 2 1 1
node 4 1 1 1
node 5 1 1 1
node 6 3 1 1
node 7 2 1 3
node 8 1 0 2
gene 1 1 8 -0.860483 0 1 -0.860483 1
gene 3 2 8 -0.626348 0 2 -0.626348 1
gene 3 3 8 -1.33407 0 3 -1.33407 1
gene 1 4 8 -3.92474 0 4 -3.92474 1
gene 1 5 8 1.50386 0 5 1.50386 1
gene 2 6 8 1.28305 0 6 1.28305 1
gene 2 7 8 -0.629982 0 7 -0.629982 1
genomeend 36

/* Organism #37 Fitness: 13 Error: 0 */
genomestart 37
trait 1 0.1 0 0 0 0 0 0 0 
trait 2 0.195312 0 0.0172954 0 0 0 0.00793622 0 
trait 3 0.3 0 0 0 0 0 0.00231697 0 
node 1 1 1 1
node 2 3 1 1
node 3 2 1 1
node 4 1 1 1
node 5 1 1 1
node 6 3 1 1
node 7 2 1 3
node 8 1 0 2
gene 3 1 8 -1.20557 0 1 -1.20557 1
gene 3 2 8 -0.225935 0 2 -0.225935 1
gene 2 3 8 -1.91267 0 3 -1.91267 1
gene 3 4 8 1.61107 0 4 1.61107 1
gene 1 5 8 0.677792 0 5 0.677792 1
gene 1 6 8 -0.140499 0 6 -0.140499 1
gene 2 7 8 0.599813 0 7 0.599813 1
genomeend 37

/* Organism #38 Fitness: 5 Error: 0 */
genomestart 38
trait 1 0.1 0 0 0 0.000276043 0 0 0 
trait 2 0.197656 0 0.00864769 0 0.625319 0 0.00396811 0.732649 
trait 3 0.3 0 0 0 0 0 0 0 
node 1 1 1 1
node 2 2 1 1
node 3 2 1 1
node 4 3 1 1
node 5 1 1 1
node 6 2 1 1
node 7 3 1 3
node 8 2 0 2
gene 3 1 8 0.204731 0 1 0.204731 1
gene 3 2 8 1.76868 0 2 1.76868 1
gene 2 3 8 -0.0909126 0 3 -0.0909126 1
gene 1 4 8 -5.31728 0 4 -5.31728 1
gene 2 5 8 0.184414 0 5 0.184414 1
gene 2 6 8 0.216293 0 6 0.216293 1
gene 2 7 8 0.922712 0 7 0.922712 1
genomeend 38

/* Organism #39 Fitness: 7 Error: 0 */
genomestart 39
trait 1 0.1 0 0 0 0 0 0 0 
trait 2 0.195312 0 0.0172954 0 0 0 0.00793622 0 
trait 3 0.263223 0 0 0 0 0 0.00231697 0 
node 1 1 1 1
node 2 3 1 1
node 3 3 1 1
node 4 2 1 1
node 5 2 1 1
node 6 3 1 1
node 7 1 1 3
node 8 1 0 2
gene 3 1 8 1.57548 0 1 1.57548 0
gene 3 2 8 1.87476 0 2 1.87476 1
gene 1 3 8 -1.67027 0 3 -1.67027 1
gene 1 4 8 -5.49945 0 4 -5.49945 1
gene 2 5 8 1.24113 0 5 1.24113 1
gene 1 6 8 -0.432577 0 6 -0.432577 1
gene 2 7 8 0.507845 0 7 0.507845 1
genomeend 39

/* Organism #40 Fitness: 29 Error: 0 */
genomestart 40
trait 1 0.1 0 0 0 0 0 0 0 
trait 2 0.197656 0 0.00864769 0 0 0 0.00396811 0 
trait 3 0.3 0 0 0 0 0 0 0 
node 1 1 1 1
node 2 3 1 1
node 3 3 1 1
node 4 2 1 1
node 5 2 1 1
node 6 3 1 1
node 7 1 1 3
node 8 1 0 2
gene 3 1 8 1.56389 0 1 1.56389 1
gene 2 2 8 1.05118 0 2 1.05118 1
gene 2 3 8 -0.0770001 0 3 -0.0770001 1
gene 1 4 8 -3.60326 0 4 -3.60326 1
gene 2 5 8 1.00498 0 5 1.00498 1
gene 1 6 8 2.9447 0 6 2.9447 1
gene 2 7 8 1.34264 0 7 1.34264 1
genomeend 40

/* Organism #41 Fitness: 42 Error: 0 */
genomestart 41
trait 1 0.1 0 0 0 0 0 0 0 
trait 2 0.2 0 0 0 0 0 0 0 
trait 3 0.263223 0 0 0 0 0 0 0 
node 1 1 1 1
node 2 3 1 1
node 3 3 1 1
node 4 2 1 1
node 5 2 1 1
node 6 3 1 1
node 7 1 1 3
node 8 1 0 2
node 22 1 0 0
gene 3 1 8 -0.641168 0 1 -0.641168 0
gene 2 2 8 0.83973 0 2 0.83973 1
gene 2 3 8 -0.292694 0 3 -0.292694 1
gene 1 4 8 -3.36213 0 4 -3.36213 1
gene 2 5 8 0.154063 0 5 0.154063 1
gene 1 6 8 2.23289 0 6 2.23289 1
gene 2 7 8 -0.370224 0 7 -0.370224 1
gene 3 1 22 1.71485 0 42 1.71485 1
gene 3 22 8 -0.714077 0 43 -0.714077 1
genomeend 41

/* Organism #42 Fitness: 17 Error: 0 */
genomestart 42
trait 1 0.1 0 0 0.205399 0 0 0 0.0371522 
trait 2 0.2 0 0 0 0 0 0 0 
trait 3 0.3 0 0 0 0.0305531 0.0181881 0 0.0284317 
node 1 3 1 1
node 2 3 1 1
node 3 1 1 1
node 4 1 1 1
node 5 3 1 1
node 6 2 1 1
node 7 1 1 3
node 8 3 0 2
gene 3 1 8 -0.137942 0 1 -0.137942 1
gene 3 2 8 1.57833 0 2 1.57833 1
gene 1 3 8 1.77827 0 3 1.77827 1
gene 1 4 8 -5.45654 0 4 -5.45654 1
gene 1 5 8 -2.61894 0 5 -2.61894 0
gene 1 6 8 0.826499 0 6 0.826499 1
gene 2 7 8 -0.745064 0 7 -0.745064 1
genomeend 42

/* Organism #43 Fitness: 713 Error: 0 */
genomestart 43
trait 1 0.1 0 0 0 0 0 0 0 
trait 2 0.197656 0 0.00864769 0 0 0 0.00396811 0 
trait 3 0.263223 0 0 0 0 0 0 0 
node 1 1 1 1
node 2 3 1 1
node 3 3 1 1
node 4 2 1 1
node 5 2 1 1
node 6 3 1 1
node 7 1 1 3
node 8 1 0 2
gene 3 1 8 1.6238 0 1 1.6238 0
gene 2 2 8 -1.19043 0 2 -1.19043 1
gene 2 3 8 -1.74165 0 3 -1.74165 1
gene 1 4 8 -5.45654 0 4 -5.45654 1
gene 2 5 8 1.31072 0 5 1.31072 1
gene 2 6 8 1.81472 0 6 1.81472 1
gene 2 7 8 -0.194413 0 7 -0.194413 1
genomeend 43

/* Organism #44 Fitness: 68 Error: 0 */
genomestart 44
trait 1 0.1 0 0 0 0.000276043 0 0 0 
trait 2 0.194531 0 0.0201779 0 0 0 0.00925892 0 
trait 3 0.3 0 0 0 0 0 0.00231697 0 
node 1 1 1 1
node 2 3 1 1
node 3 2 1 1
node 4 1 1 1
node 5 1 1 1
node 6 3 1 1
node 7 2 1 3
node 8 1 0 2
gene 3 1 8 2.82873 0 1 2.82873 1
gene 2 2 8 3.04736 0 2 3.04736 1
gene 1 3 8 -4.16848 0 3 -4.16848 1
gene 1 4 8 -3.87159 0 4 -3.87159 1
gene 2 5 8 3.39522 0 5 3.39522 1
gene 1 6 8 2.5847 0 6 2.5847 1
gene 2 7 8 -2.42919 0 7 -2.42919 1
genomeend 44

/* Organism #45 Fitness: 113 Error: 0 */
genomestart 45
trait 1 0.1 0 0 0 0 0 0 0 
trait 2 0.19375 0.097575 0.210762 0 0 0 0.00529081 0 
trait 3 0.263223 0 0 0 0 0 0.00231697 0 
node 1 1 1 1
node 2 3 1 1
node 3 3 1 1
node 4 3 1 1
node 5 2 1 1
node 6 1 1 1
node 7 2 1 3
node 8 3 0 2
node 22 1 0 0
gene 3 1 8 1.56504 0 1 1.56504 0
gene 2 2 8 2.42741 0 2 2.42741 0
gene 2 3 8 1.24572 0 3 1.24572 1
gene 1 4 8 -5.14035 0 4 -5.14035 1
gene 2 5 8 0.198634 0 5 0.198634 1
gene 1 6 8 2.20494 0 6 2.20494 1
gene 2 7 8 -0.704331 0 7 -0.704331 1
gene 3 1 22 1 0 42 1 1
gene 3 22 8 0.39428 0 43 0.39428 1
genomeend 45

/* Organism #46 Fitness: 18 Error: 0 */
genomestart 46
trait 1 0.1 0 0 0 0 0 0 0 
trait 2 0.198438 0 0.00576512 0 0 0 0.00264541 0 
trait 3 0.3 0 0 0 0 0 0 0 
node 1 1 1 1
node 2 3 1 1
node 3 2 1 1
node 4 1 1 1
node 5 1 1 1
node 6 3 1 1
node 7 2 1 3
node 8 1 0 2
gene 3 1 8 2.50009 0 1 2.50009 1
gene 3 2 8 -1.57699 0 2 -1.57699 1
gene 3 3 8 -3.17292 0 3 -3.17292 1
gene 3 4 8 -2.56374 0 4 -2.56374 1
gene 2 5 8 4.25991 0 5 4.25991 1
gene 2 6 8 0.0735797 0 6 0.0735797 1
gene 2 7 8 0.713197 0 7 0.713197 1
genomeend 46

/* Organism #47 Fitness: 21 Error: 0 */
genomestart 47
trait 1 0.1 0 0 0.205399 0 0 0 0.0371522 
trait 2 0.198438 0 0.00576512 0 0 0 0.00264541 0 
trait 3 0.3 0 0 0 0.0305531 0.0181881 0 0.0284317 
node 1 3 1 1
node 2 3 1 1
node 3 1 1 1
node 4 1 1 1
node 5 3 1 1
node 6 2 1 1
node 7 1 1 3
node 8 3 0 2
gene 3 1 8 1.76973 0 1 1.76973 1
gene 3 2 8 -1.19475 0 2 -1.19475 1
gene 1 3 8 -0.387668 0 3 -0.387668 1
gene 3 4 8 -3.63638 0 4 -3.63638 1
gene 1 5 8 0.209285 0 5 0.209285 0
gene 2 6 8 4.73045 0 6 4.73045 1
gene 2 7 8 -2.98216 0 7 -2.98216 1
genomeend 47

/* Organism #48 Fitness: 60 Error: 0 */
genomestart 48
trait 1 0.1 0 0 0 0 0 0 0 
trait 2 0.198438 0 0.00576512 0 0 0 0.00264541 0 
trait 3 0.3 0 0 0 0 0 0.00115848 0 
node 1 1 1 1
node 2 3 1 1
node 3 3 1 1
node 4 2 1 1
node 5 2 1 1
node 6 3 1 1
node 7 1 1 3
node 8 1 0 2
gene 3 1 8 -0.307157 0 1 -0.307157 1
gene 2 2 8 0.672062 0 2 0.672062 1
gene 2 3 8 -0.504786 0 3 -0.504786 1
gene 3 4 8 -4.18039 0 4 -4.18039 1
gene 1 5 8 1.55352 0 5 1.55352 1
gene 1 6 8 1.9621 0 6 1.9621 1
gene 2 7 8 -1.26927 0 7 -1.26927 1
genomeend 48

/* Organism #49 Fitness: 63 Error: 0 */
genomestart 49
trait 1 0.1 0 0 0 0 0 0 0 
trait 2 0.199296 0 0.012983 0.00500219 0 0 0.00396811 0 
trait 3 0.3 0 0 0 0 0 0 0 
node 1 1 1 1
node 2 2 1 1
node 3 2 1 1
node 4 3 1 1
node 5 1 1 1
node 6 2 1 1
node 7 3 1 3
node 8 2 0 2
gene 3 1 8 1.85695 0 1 1.85695 1
gene 2 2 8 0.311477 0 2 0.311477 1
gene 1 3 8 -0.555986 0 3 -0.555986 1
gene 1 4 8 -3.73313 0 4 -3.73313 1
gene 2 5 8 2.86296 0 5 2.86296 1
gene 2 6 8 1.81472 0 6 1.81472 1
gene 2 7 8 -0.137701 0 7 -0.137701 1
genomeend 49

/* Organism #50 Fitness: 179 Error: 0 */
genomestart 50
trait 1 0.1 0 0 0 0 0 0 0 
trait 2 0.195312 0 0.0172954 0 0 0 0.00793622 0 
trait 3 0.3 0 0 0 0 0 0.00231697 0 
node 1 1 1 1
node 2 3 1 1
node 3 2 1 1
node 4 1 1 1
node 5 1 1 1
node 6 3 1 1
node 7 2 1 3
node 8 1 0 2
gene 1 1 8 1.20991 0 1 1.20991 1
gene 2 2 8 0.65484 0 2 0.65484 1
gene 1 3 8 -2.25489 0 3 -2.25489 1
gene 3 4 8 -2.23391 0 4 -2.23391 1
gene 1 5 8 2.93224 0 5 2.93224 1
gene 1 6 8 1.23399 0 6 1.23399 1
gene 1 7 8 -0.456532 0 7 -0.456532 1
genomeend 50

/* Organism #51 Fitness: 179 Error: 0 */
genomestart 51
trait 1 0.1 0 0 0 0 0 0 0 
trait 2 0.199219 0 0.00288256 0 0 0 0.0013227 0 
trait 3 0.3 0 0 0 0 0 0 0 
node 1 1 1 1
node 2 3 1 1
node 3 2 1 1
node 4 1 1 1
node 5 1 1 1
node 6 3 1 1
node 7 2 1 3
node 8 1 0 2
gene 3 1 8 0.774965 0 1 0.774965 1
gene 2 2 8 -1.71631 0 2 -1.71631 1
gene 3 3 8 -2.30834 0 3 -2.30834 1
gene 1 4 8 -6.87585 0 4 -6.87585 1
gene 2 5 8 2.33764 0 5 2.33764 1
gene 2 6 8 1.35593 0 6 1.35593 1
gene 2 7 8 0.792727 0 7 0.792727 1
genomeend 51

/* Organism #52 Fitness: 28 Error: 0 */
genomestart 52
trait 1 0.1 0 0 0 0 0 0 0 
trait 2 0.198438 0 0.00576512 0 0 0 0.00264541 0 
trait 3 0.3 0 0 0 0 0 0.00115848 0 
node 1 3 1 1
node 2 3 1 1
node 3 3 1 1
node 4 2 1 1
node 5 2 1 1
node 6 3 1 1
node 7 1 1 3
node 8 1 0 2
gene 1 1 8 -0.775557 0 1 -0.775557 1
gene 2 2 8 -0.689525 0 2 -0.689525 1
gene 3 3 8 -1.81595 0 3 -1.81595 1
gene 3 4 8 -4.92681 0 4 -4.92681 1
gene 2 5 8 -0.274146 0 5 -0.274146 1
gene 1 6 8 1.98472 0 6 1.98472 1
gene 2 7 8 -1.6043 0 7 -1.6043 1
genomeend 52

/* Organism #53 Fitness: 32 Error: 0 */
genomestart 53
trait 1 0.1 0 0 0 0 0 0 0 
trait 2 0.196875 0 0.0115302 0 0 0 0.00529081 0 
trait 3 0.381821 0 0 0 0 0 0.00231697 0 
node 1 1 1 1
node 2 3 1 1
node 3 3 1 1
node 4 2 1 1
node 5 2 1 1
node 6 3 1 1
node 7 1 1 3
node 8 1 0 2
gene 1 1 8 -0.657588 0 1 -0.657588 1
gene 2 2 8 -1.39051 0 2 -1.39051 1
gene 3 3 8 -1.36517 0 3 -1.36517 1
gene 1 4 8 -6.50211 0 4 -6.50211 1
gene 1 5 8 -0.268505 0 5 -0.268505 1
gene 2 6 8 2.91015 0 6 2.91015 1
gene 2 7 8 -1.28032 0 7 -1.28032 1
genomeend 53

/* Organism #54 Fitness: 150 Error: 0 */
genomestart 54
trait 1 0.1 0 0 0 0 0 0 0 
trait 2 0.194531 0 0.0201779 0 0 0 0.00925892 0 
trait 3 0.3 0.172753 0 0.0400887 0 0 0.0466471 0.0876573 
node 1 1 1 1
node 2 3 1 1
node 3 3 1 1
node 4 2 1 1
node 5 2 1 1
node 6 3 1 1
node 7 1 1 3
node 8 1 0 2
gene 3 1 8 1.07928 0 1 1.07928 1
gene 3 2 8 0.555933 0 2 0.555933 0
gene 3 3 8 -2.30434 0 3 -2.30434 1
gene 1 4 8 -5.89799 0 4 -5.89799 1
gene 1 5 8 3.22189 0 5 3.22189 1
gene 1 6 8 1.17541 0 6 1.17541 1
gene 2 7 8 -0.865553 0 7 -0.865553 1
genomeend 54

/* Organism #55 Fitness: 54 Error: 0 */
genomestart 55
trait 1 0.1 0 0 0 0 0 0 0 
trait 2 0.190625 0 0.0345907 0 0 0 0.0158724 0 
trait 3 0.3 0 0 0 0 0 0.00463394 0 
node 1 1 1 1
node 2 3 1 1
node 3 2 1 1
node 4 1 1 1
node 5 1 1 1
node 6 3 1 1
node 7 2 1 3
node 8 1 0 2
gene 1 1 8 -1.1083 0 1 -1.1083 1
gene 3 2 8 0.333367 0 2 0.333367 1
gene 1 3 8 -0.561961 0 3 -0.561961 1
gene 3 4 8 -4.26259 0 4 -4.26259 1
gene 1 5 8 5.5724 0 5 5.5724 1
gene 1 6 8 1.91375 0 6 1.91375 1
gene 1 7 8 0.0694719 0 7 0.0694719 1
genomeend 55

/* Organism #56 Fitness: 27 Error: 0 */
genomestart 56
trait 1 0.1 0 0 0 0 0 0 0 
trait 2 0.200077 0 0.0101004 0.00500219 0 0 0.00264541 0 
trait 3 0.3 0 0 0 0 0 0 0 
node 1 1 1 1
node 2 3 1 1
node 3 2 1 1
node 4 1 1 1
node 5 1 1 1
node 6 3 1 1
node 7 2 1 3
node 8 1 0 2
gene 3 1 8 2.26201 0 1 2.26201 1
gene 3 2 8 -1.30027 0 2 -1.30027 1
gene 1 3 8 -0.555986 0 3 -0.555986 1
gene 1 4 8 -1.28477 0 4 -1.28477 1
gene 2 5 8 3.11061 0 5 3.11061 1
gene 2 6 8 2.48643 0 6 2.48643 1
gene 2 7 8 2.3345 0 7 2.3345 1
genomeend 56

/* Organism #57 Fitness: 43 Error: 0 */
genomestart 57
trait 1 0.1 0 0 0 0 0 0 0 
trait 2 0.2 0 0 0 0 0 0 0 
trait 3 0.3 0 0 0 0 0 0 0 
node 1 1 1 1
node 2 3 1 1
node 3 3 1 1
node 4 2 1 1
node 5 2 1 1
node 6 3 1 1
node 7 1 1 3
node 8 1 0 2
gene 3 1 8 -0.302048 0 1 -0.302048 1
gene 2 2 8 -1.40947 0 2 -1.40947 1
gene 3 3 8 -2.02976 0 3 -2.02976 1
gene 3 4 8 -3.57288 0 4 -3.57288 1
gene 1 5 8 4.98534 0 5 4.98534 1
gene 1 6 8 2.32166 0 6 2.32166 1
gene 1 7 8 -2.91828 0 7 -2.91828 1
genomeend 57

/* Organism #58 Fitness: 29 Error: 0 */
genomestart 58
trait 1 0.1 0 0 0 0 0 0 0 
trait 2 0.197656 0 0.00864769 0 0 0 0.00396811 0 
trait 3 0.3 0 0 0 0 0 0.00115848 0 
node 1 1 1 1
node 2 3 1 1
node 3 2 1 1
node 4 1 1 1
node 5 1 1 1
node 6 3 1 1
node 7 2 1 3
node 8 1 0 2
gene 1 1 8 0.903531 0 1 0.903531 1
gene 2 2 8 -0.636612 0 2 -0.636612 1
gene 3 3 8 -3.25402 0 3 -3.25402 1
gene 1 4 8 -2.48238 0 4 -2.48238 1
gene 1 5 8 -0.0432298 0 5 -0.0432298 1
gene 2 6 8 1.56286 0 6 1.56286 1
gene 2 7 8 1.1315 0 7 1.1315 1
genomeend 58

/* Organism #59 Fitness: 25 Error: 0 */
genomestart 59
trait 1 0.1 0 0 0 0 0 0 0 
trait 2 0.200077 0 0.0101004 0.00500219 0 0 0.00264541 0 
trait 3 0.3 0 0 0 0 0 0 0 
node 1 1 1 1
node 2 3 1 1
node 3 2 1 1
node 4 1 1 1
node 5 1 1 1
node 6 3 1 1
node 7 2 1 3
node 8 1 0 2
gene 3 1 8 0.993268 0 1 0.993268 1
gene 2 2 8 -0.883139 0 2 -0.883139 1
gene 3 3 8 -1.78653 0 3 -1.78653 1
gene 1 4 8 -5.71263 0 4 -5.71263 1
gene 2 5 8 -1.08299 0 5 -1.08299 1
gene 2 6 8 1.48197 0 6 1.48197 1
gene 2 7 8 -0.628578 0 7 -0.628578 1
genomeend 59

/* Organism #60 Fitness: 42 Error: 0 */
genomestart 60
trait 1 0.1 0 0 0 0 0 0 0 
trait 2 0.2 0 0 0 0 0 0 0 
trait 3 0.3 0 0 0 0 0 0 0 
node 1 1 1 1
node 2 3 1 1
node 3 2 1 1
node 4 1 1 1
node 5 1 1 1
node 6 3 1 1
node 7 2 1 3
node 8 1 0 2
gene 3 1 8 3.39356 0 1 3.39356 1
gene 2 2 8 1.4929 0 2 1.4929 1
gene 3 3 8 1.11799 0 3 1.11799 1
gene 1 4 8 -3.48222 0 4 -3.48222 1
gene 1 5 8 2.03327 0 5 2.03327 1
gene 1 6 8 3.89462 0 6 3.89462 1
gene 1 7 8 -2.10173 0 7 -2.10173 1
genomeend 60

/* Organism #61 Fitness: 7 Error: 0 */
genomestart 61
trait 1 0.1 0 0 0 0 0 0 0 
trait 2 0.200077 0 0.0101004 0.00500219 0 0 0.00264541 0 
trait 3 0.3 0 0 0 0 0 0 0 
node 1 1 1 1
node 2 2 1 1
node 3 2 1 1
node 4 2 1 1
node 5 1 1 1
node 6 1 1 1
node 7 1 1 3
node 8 1 0 2
gene 1 1 8 1.30783 0 1 1.30783 1
gene 2 2 8 1.94012 0 2 1.94012 1
gene 3 3 8 -4.38398 0 3 -4.38398 1
gene 1 4 8 -6.18097 0 4 -6.18097 1
gene 2 5 8 1.67721 0 5 1.67721 1
gene 2 6 8 0.0282089 0 6 0.0282089 1
gene 2 7 8 1.29885 0 7 1.29885 1
genomeend 61

/* Organism #62 Fitness: 43 Error: 0 */
genomestart 62
trait 1 0.1 0 0 0 0 0 0 0 
trait 2 0.196094 0 0.0144128 0 0 0 0.00661351 0 
trait 3 0.3 0.172753 0 0.0400887 0 0 0.0454886 0.0876573 
node 1 1 1 1
node 2 3 1 1
node 3 3 1 1
node 4 2 1 1
node 5 2 1 1
node 6 3 1 1
node 7 1 1 3
node 8 1 0 2
gene 3 1 8 -0.153988 0 1 -0.153988 1
gene 2 2 8 -0.327514 0 2 -0.327514 0
gene 3 3 8 -3.4722 0 3 -3.4722 1
gene 1 4 8 -5.73727 0 4 -5.73727 1
gene 2 5 8 4.32651 0 5 4.32651 1
gene 2 6 8 3.28685 0 6 3.28685 1
gene 2 7 8 -2.78783 0 7 -2.78783 1
genomeend 62

/* Organism #63 Fitness: 27 Error: 0 */
genomestart 63
trait 1 0.1 0 0 0.205399 0 0 0 0.0371522 
trait 2 0.196094 0 0.0144128 0 0 0 0.00661351 0 
trait 3 0.3 0.172753 0 0.0400887 0.0305531 0.0181881 0.0454886 0.116089 
node 1 1 1 1
node 2 3 1 1
node 3 2 1 1
node 4 1 1 1
node 5 1 1 1
node 6 3 1 1
node 7 2 1 3
node 8 1 0 2
gene 3 1 8 0.0816371 0 1 0.0816371 1
gene 3 2 8 -1.64733 0 2 -1.64733 0
gene 1 3 8 0.247732 0 3 0.247732 1
gene 3 4 8 -0.325815 0 4 -0.325815 1
gene 1 5 8 -2.33166 0 5 -2.33166 0
gene 1 6 8 4.45535 0 6 4.45535 1
gene 2 7 8 -0.706129 0 7 -0.706129 1
genomeend 63

/* Organism #64 Fitness: 5 Error: 0 */
genomestart 64
trait 1 0.1 0 0 0 0 0 0 0 
trait 2 0.20328 0 0.00867058 0.0100044 0 0 0 0 
trait 3 0.3 0 0 0 0 0 0 0 
node 1 1 1 1
node 2 2 1 1
node 3 2 1 1
node 4 2 1 1
node 5 1 1 1
node 6 1 1 1
node 7 1 1 3
node 8 1 0 2
gene 1 1 8 -0.844575 0 1 -0.844575 1
gene 2 2 8 -0.781521 0 2 -0.781521 1
gene 2 3 8 2.32746 0 3 2.32746 1
gene 1 4 8 -0.114741 0 4 -0.114741 1
gene 2 5 8 1.12776 0 5 1.12776 1
gene 1 6 8 -0.292226 0 6 -0.292226 1
gene 2 7 8 0.113612 0 7 0.113612 1
genomeend 64

/* Organism #65 Fitness: 49 Error: 0 */
genomestart 65
trait 1 0.1 0 0 0 0 0 0 0 
trait 2 0.1875 0.19515 0.421525 0 0 0 0.0105816 0 
trait 3 0.3 0 0 0 0 0 0.00463394 0 
node 1 1 1 1
node 2 3 1 1
node 3 3 1 1
node 4 3 1 1
node 5 2 1 1
node 6 1 1 1
node 7 2 1 3
node 8 3 0 2
gene 3 1 8 -1.83485 0 1 -1.83485 1
gene 3 2 8 -0.887745 0 2 -0.887745 0
gene 2 3 8 -1.74775 0 3 -1.74775 1
gene 1 4 8 -5.2673 0 4 -5.2673 1
gene 2 5 8 1.96574 0 5 1.96574 1
gene 1 6 8 3.24227 0 6 3.24227 1
gene 2 7 8 -0.502232 0 7 -0.502232 1
genomeend 65

/* Organism #66 Fitness: 81 Error: 0 */
genomestart 66
trait 1 0.1 0 0 0 0 0 0 0 
trait 2 0.197656 0 0.00864769 0 0 0 0.00396811 0 
trait 3 0.3 0 0 0 0 0 0 0 
node 1 1 1 1
node 2 3 1 1
node 3 2 1 1
node 4 1 1 1
node 5 1 1 1
node 6 3 1 1
node 7 2 1 3
node 8 1 0 2
gene 3 1 8 2.79139 0 1 2.79139 1
gene 2 2 8 -1.61583 0 2 -1.61583 1
gene 3 3 8 -2.90518 0 3 -2.90518 1
gene 1 4 8 -2.89641 0 4 -2.89641 1
gene 2 5 8 3.2286 0 5 3.2286 1
gene 1 6 8 1.12149 0 6 1.12149 1
gene 1 7 8 0.966219 0 7 0.966219 1
genomeend 66

/* Organism #67 Fitness: 38 Error: 0 */
genomestart 67
trait 1 0.1 0 0 0 0 0 0 0 
trait 2 0.194531 0 0.0201779 0 0 0 0.00925892 0 
trait 3 0.3 0.172753 0 0.0400887 0 0 0.0454886 0.0876573 
node 1 1 1 1
node 2 3 1 1
node 3 2 1 1
node 4 1 1 1
node 5 1 1 1
node 6 3 1 1
node 7 2 1 3
node 8 1 0 2
gene 3 1 8 -2.30716 0 1 -2.30716 1
gene 3 2 8 -1.88858 0 2 -1.88858 0
gene 3 3 8 -4.6777 0 3 -4.6777 1
gene 1 4 8 -2.08076 0 4 -2.08076 1
gene 2 5 8 3.42418 0 5 3.42418 1
gene 2 6 8 3.54631 0 6 3.54631 1
gene 2 7 8 -1.95109 0 7 -1.95109 1
genomeend 67

/* Organism #68 Fitness: 5 Error: 0 */
genomestart 68
trait 1 0.1 0 0 0 0 0 0 0 
trait 2 0.195312 0 0.0172954 0 0 0 0.00793622 0 
trait 3 0.263223 0 0 0 0 0 0.00231697 0 
node 1 1 1 1
node 2 3 1 1
node 3 3 1 1
node 4 2 1 1
node 5 2 1 1
node 6 3 1 1
node 7 1 1 3
node 8 1 0 2
gene 1 1 8 1.28948 0 1 1.28948 1
gene 3 2 8 -1.28044 0 2 -1.28044 1
gene 2 3 8 -0.378772 0 3 -0.378772 1
gene 3 4 8 -1.87936 0 4 -1.87936 1
gene 2 5 8 4.32866 0 5 4.32866 1
gene 1 6 8 -0.866891 0 6 -0.866891 1
gene 2 7 8 -1.77942 0 7 -1.77942 1
genomeend 68

/* Organism #69 Fitness: 5 Error: 0 */
genomestart 69
trait 1 0.1 0 0 0 0 0 0 0 
trait 2 0.190625 0 0.0345907 0 0 0 0.0158724 0 
trait 3 0.3 0 0 0 0 0 0.00463394 0 
node 1 1 1 1
node 2 3 1 1
node 3 2 1 1
node 4 1 1 1
node 5 1 1 1
node 6 3 1 1
node 7 2 1 3
node 8 1 0 2
gene 1 1 8 -0.413138 0 1 -0.413138 1
gene 3 2 8 -0.724097 0 2 -0.724097 1
gene 1 3 8 -2.48887 0 3 -2.48887 1
gene 3 4 8 -1.78422 0 4 -1.78422 1
gene 1 5 8 1.7308 0 5 1.7308 1
gene 1 6 8 -0.919813 0 6 -0.919813 1
gene 1 7 8 -0.456532 0 7 -0.456532 1
genomeend 69

/* Organism #70 Fitness: 5 Error: 0 */
genomestart 70
trait 1 0.1 0 0 0 0 0 0 0 
trait 2 0.2 0 0 0 0 0 0 0 
trait 3 0.3 0 0 0 0 0 0 0 
node 1 1 1 1
node 2 3 1 1
node 3 2 1 1
node 4 1 1 1
node 5 1 1 1
node 6 3 1 1
node 7 2 1 3
node 8 1 0 2
gene 3 1 8 -0.150131 0 1 -0.150131 1
gene 3 2 8 2.79821 0 2 2.79821 1
gene 3 3 8 -3.1972 0 3 -3.1972 1
gene 3 4 8 -3.31939 0 4 -3.31939 1
gene 1 5 8 5.24345 0 5 5.24345 1
gene 1 6 8 -0.18929 0 6 -0.18929 1
gene 1 7 8 -0.634478 0 7 -0.634478 1
genomeend 70

/* Organism #71 Fitness: 6 Error: 0 */
genomestart 71
trait 1 0.1 0 0 0 0 0 0 0 
trait 2 0.196875 0 0.0115302 0 0 0 0.00529081 0 
trait 3 0.3 0 0 0 0 0 0.00231697 0 
node 1 1 1 1
node 2 3 1 1
node 3 3 1 1
node 4 2 1 1
node 5 2 1 1
node 6 3 1 1
node 7 1 1 3
node 8 1 0 2
gene 3 1 8 1.315 0 1 1.315 1
gene 3 2 8 0.555933 0 2 0.555933 1
gene 3 3 8 -1.83493 0 3 -1.83493 1
gene 3 4 8 -3.59041 0 4 -3.59041 1
gene 1 5 8 -0.798661 0 5 -0.798661 1
gene 1 6 8 -0.340664 0 6 -0.340664 1
gene 1 7 8 0.855953 0 7 0.855953 1
genomeend 71

/* Organism #72 Fitness: 106 Error: 0 */
genomestart 72
trait 1 0.1 0 0 0 0 0 0 0 
trait 2 0.197656 0 0.00864769 0 0 0 0.00396811 0 
trait 3 0.3 0 0 0 0 0 0.00115848 0 
node 1 1 1 1
node 2 3 1 1
node 3 2 1 1
node 4 1 1 1
node 5 1 1 1
node 6 3 1 1
node 7 2 1 3
node 8 1 0 2
gene 3 1 8 0.0821486 0 1 0.0821486 1
gene 3 2 8 0.555933 0 2 0.555933 1
gene 3 3 8 -2.30434 0 3 -2.30434 1
gene 3 4 8 -2.93933 0 4 -2.93933 1
gene 1 5 8 2.93224 0 5 2.93224 1
gene 1 6 8 1.6213 0 6 1.6213 1
gene 1 7 8 -0.546034 0 7 -0.546034 1
genomeend 72

/* Organism #73 Fitness: 129 Error: 0 */
genomestart 73
trait 1 0.1 0 0 0 0.000276043 0 0 0 
trait 2 0.199219 0 0.00288256 0 0 0 0.0013227 0 
trait 3 0.3 0 0 0 0 0 0 0 
node 1 1 1 1
node 2 3 1 1
node 3 3 1 1
node 4 2 1 1
node 5 2 1 1
node 6 3 1 1
node 7 1 1 3
node 8 1 0 2
gene 3 1 8 -0.358254 0 1 -0.358254 1
gene 3 2 8 0.885218 0 2 0.885218 1
gene 2 3 8 -1.57044 0 3 -1.57044 1
gene 1 4 8 -4.20473 0 4 -4.20473 1
gene 2 5 8 1.98443 0 5 1.98443 1
gene 1 6 8 0.826499 0 6 0.826499 1
gene 2 7 8 -0.745064 0 7 -0.745064 1
genomeend 73

/* Organism #74 Fitness: 44 Error: 0 */
genomestart 74
trait 1 0.1 0 0 0 0 0 0 0 
trait 2 0.190625 0 0.0345907 0 0 0 0.0158724 0 
trait 3 0.3 0 0 0 0 0 0.00463394 0 
node 1 1 1 1
node 2 3 1 1
node 3 2 1 1
node 4 1 1 1
node 5 1 1 1
node 6 3 1 1
node 7 2 1 3
node 8 1 0 2
gene 1 1 8 -2.23676 0 1 -2.23676 1
gene 3 2 8 0.555933 0 2 0.555933 1
gene 1 3 8 -1.63799 0 3 -1.63799 1
gene 3 4 8 -2.23391 0 4 -2.23391 1
gene 1 5 8 3.22189 0 5 3.22189 1
gene 1 6 8 1.64036 0 6 1.64036 1
gene 1 7 8 -2.14808 0 7 -2.14808 1
genomeend 74

/* Organism #75 Fitness: 103 Error: 0 */
genomestart 75
trait 1 0.1 0 0 0 0 0 0 0 
trait 2 0.20328 0 0.00867058 0.0100044 0 0 0 0 
trait 3 0.3 0 0 0 0 0 0 0 
node 1 1 1 1
node 2 2 1 1
node 3 2 1 1
node 4 3 1 1
node 5 1 1 1
node 6 1 1 1
node 7 3 1 3
node 8 2 0 2
gene 3 1 8 1.85695 0 1 1.85695 1
gene 2 2 8 0.311477 0 2 0.311477 1
gene 1 3 8 -0.555986 0 3 -0.555986 1
gene 1 4 8 -3.73313 0 4 -3.73313 1
gene 2 5 8 2.50627 0 5 2.50627 1
gene 1 6 8 2.09551 0 6 2.09551 1
gene 2 7 8 -0.47002 0 7 -0.47002 1
genomeend 75

/* Organism #76 Fitness: 132 Error: 0 */
genomestart 76
trait 1 0.1 0 0 0 0.000276043 0 0 0 
trait 2 0.195312 0 0.0172954 0 0 0 0.00793622 0 
trait 3 0.3 0.172753 0 0.0400887 0 0 0.0454886 0.0876573 
node 1 1 1 1
node 2 2 1 1
node 3 2 1 1
node 4 3 1 1
node 5 1 1 1
node 6 2 1 1
node 7 3 1 3
node 8 2 0 2
gene 3 1 8 -0.188881 0 1 -0.188881 1
gene 3 2 8 0.85162 0 2 0.85162 0
gene 3 3 8 -1.85295 0 3 -1.85295 1
gene 1 4 8 -5.05136 0 4 -5.05136 1
gene 2 5 8 2.51714 0 5 2.51714 1
gene 2 6 8 2.47639 0 6 2.47639 1
gene 2 7 8 -0.628189 0 7 -0.628189 1
genomeend 76

/* Organism #77 Fitness: 32 Error: 0 */
genomestart 77
trait 1 0.1 0 0 0 0 0 0 0 
trait 2 0.1875 0.19515 0.421525 0 0 0 0.0105816 0 
trait 3 0.3 0 0 0 0 0 0.00463394 0 
node 1 1 1 1
node 2 3 1 1
node 3 3 1 1
node 4 3 1 1
node 5 2 1 1
node 6 1 1 1
node 7 2 1 3
node 8 3 0 2
gene 3 1 8 -1.42422 0 1 -1.42422 1
gene 3 2 8 2.27329 0 2 2.27329 0
gene 2 3 8 1.08877 0 3 1.08877 1
gene 1 4 8 -3.1699 0 4 -3.1699 1
gene 2 5 8 0.830199 0 5 0.830199 1
gene 1 6 8 1.32964 0 6 1.32964 1
gene 2 7 8 0.651324 0 7 0.651324 1
genomeend 77

/* Organism #78 Fitness: 30 Error: 0 */
genomestart 78
trait 1 0.1 0 0 0 0 0 0 0 
trait 2 0.19539 0.097575 0.215098 0.00500219 0 0 0.00529081 0 
trait 3 0 0 0.372536 0.279233 0 0.109409 0 0 
node 1 1 1 1
node 2 2 1 1
node 3 2 1 1
node 4 2 1 1
node 5 1 1 1
node 6 1 1 1
node 7 1 1 3
node 8 1 0 2
gene 3 1 8 1.41617 0 1 1.41617 1
gene 2 2 8 -2.77119 0 2 -2.77119 1
gene 2 3 8 -0.837569 0 3 -0.837569 1
gene 1 4 8 -4.43596 0 4 -4.43596 1
gene 2 5 8 3.61975 0 5 3.61975 1
gene 1 6 8 4.17492 0 6 4.17492 1
gene 2 7 8 1.98796 0 7 1.98796 1
genomeend 78

/* Organism #79 Fitness: 66 Error: 0 */
genomestart 79
trait 1 0.1 0 0 0 0 0 0 0 
trait 2 0.195312 0 0.0172954 0 0 0 0.00793622 0 
trait 3 0.3 0 0 0 0 0 0 0 
node 1 1 1 1
node 2 3 1 1
node 3 3 1 1
node 4 2 1 1
node 5 2 1 1
node 6 3 1 1
node 7 1 1 3
node 8 1 0 2
gene 3 1 8 2.04704 0 1 2.04704 1
gene 2 2 8 0.584973 0 2 0.584973 1
gene 2 3 8 -3.68489 0 3 -3.68489 1
gene 1 4 8 -3.919 0 4 -3.919 1
gene 2 5 8 3.45524 0 5 3.45524 1
gene 2 6 8 1.62769 0 6 1.62769 1
gene 2 7 8 -2.26102 0 7 -2.26102 1
genomeend 79

/* Organism #80 Fitness: 20 Error: 0 */
genomestart 80
trait 1 0.1 0 0 0 0.000276043 0 0 0 
trait 2 0.192969 0.097575 0.213645 0 0 0 0.00661351 0 
trait 3 0.3 0 0 0 0 0 0.00231697 0 
node 1 1 1 1
node 2 2 1 1
node 3 2 1 1
node 4 3 1 1
node 5 1 1 1
node 6 2 1 1
node 7 3 1 3
node 8 2 0 2
gene 3 1 8 0.623026 0 1 0.623026 1
gene 3 2 8 1.34761 0 2 1.34761 0
gene 2 3 8 -1.16866 0 3 -1.16866 1
gene 1 4 8 -3.92474 0 4 -3.92474 1
gene 2 5 8 -0.528913 0 5 -0.528913 1
gene 1 6 8 1.15108 0 6 1.15108 1
gene 2 7 8 1.46698 0 7 1.46698 1
genomeend 80

/* Organism #81 Fitness: 16 Error: 0 */
genomestart 81
trait 1 0.480539 0 0 0.962602 0 0 0 0 
trait 2 0.196875 0 0.0115302 0 0 0 0.00529081 0 
trait 3 0.3 0 0 0 0 0 0.00115848 0 
node 1 1 1 1
node 2 3 1 1
node 3 2 1 1
node 4 1 1 1
node 5 1 1 1
node 6 3 1 1
node 7 2 1 3
node 8 1 0 2
gene 1 1 8 -0.26151 0 1 -0.26151 1
gene 2 2 8 -2.88609 0 2 -2.88609 1
gene 3 3 8 -3.30477 0 3 -3.30477 1
gene 1 4 8 -3.64826 0 4 -3.64826 1
gene 1 5 8 0.219941 0 5 0.219941 1
gene 2 6 8 2.60939 0 6 2.60939 1
gene 2 7 8 -2.22363 0 7 -2.22363 1
genomeend 81

/* Organism #82 Fitness: 17 Error: 0 */
genomestart 82
trait 1 0.1 0 0 0 0 0 0 0 
trait 2 0.191406 0 0.0317082 0 0 0 0.0145497 0 
trait 3 0.3 0.172753 0 0.0400887 0 0 0.0478055 0.0876573 
node 1 1 1 1
node 2 3 1 1
node 3 2 1 1
node 4 1 1 1
node 5 1 1 1
node 6 3 1 1
node 7 2 1 3
node 8 1 0 2
gene 1 1 8 0.480638 0 1 0.480638 1
gene 3 2 8 2.18607 0 2 2.18607 0
gene 3 3 8 -0.324188 0 3 -0.324188 1
gene 1 4 8 -3.24408 0 4 -3.24408 1
gene 2 5 8 3.99907 0 5 3.99907 1
gene 2 6 8 0.355104 0 6 0.355104 1
gene 1 7 8 -0.720224 0 7 -0.720224 1
genomeend 82

/* Organism #83 Fitness: 113 Error: 0 */
genomestart 83
trait 1 0.1 0 0 0 0 0 0 0 
trait 2 0.20164 0 0.00433529 0.00500219 0 0 0 0 
trait 3 0.3 0 0 0 0 0 0 0 
node 1 1 1 1
node 2 3 1 1
node 3 3 1 1
node 4 2 1 1
node 5 2 1 1
node 6 3 1 1
node 7 1 1 3
node 8 1 0 2
gene 1 1 8 0.709049 0 1 0.709049 1
gene 2 2 8 -0.902633 0 2 -0.902633 1
gene 2 3 8 -1.40391 0 3 -1.40391 1
gene 1 4 8 -3.52769 0 4 -3.52769 1
gene 2 5 8 2.17719 0 5 2.17719 1
gene 1 6 8 1.03282 0 6 1.03282 1
gene 2 7 8 -0.600798 0 7 -0.600798 1
genomeend 83

/* Organism #84 Fitness: 7 Error: 0 */
genomestart 84
trait 1 0.1 0 0 0 0.000276043 0 0 0 
trait 2 0.200859 0 0.00721785 0.00500219 0 0 0.0013227 0 
trait 3 0.3 0 0 0 0 0 0 0 
node 1 3 1 1
node 2 2 1 1
node 3 2 1 1
node 4 3 1 1
node 5 1 1 1
node 6 2 1 1
node 7 3 1 3
node 8 2 0 2
gene 3 1 8 3.23683 0 1 3.23683 1
gene 2 2 8 -1.84524 0 2 -1.84524 1
gene 2 3 8 1.07057 0 3 1.07057 1
gene 1 4 8 -1.53354 0 4 -1.53354 1
gene 2 5 8 4.10423 0 5 4.10423 1
gene 1 6 8 -0.0219698 0 6 -0.0219698 1
gene 2 7 8 -2.14891 0 7 -2.14891 1
genomeend 84

/* Organism #85 Fitness: 38 Error: 0 */
genomestart 85
trait 1 0.1 0 0 0 0 0 0 0 
trait 2 0.2 0 0 0 0 0 0 0 
trait 3 0.3 0 0 0 0 0 0 0 
node 1 1 1 1
node 2 3 1 1
node 3 2 1 1
node 4 1 1 1
node 5 1 1 1
node 6 3 1 1
node 7 2 1 3
node 8 1 0 2
node 27 1 0 0
gene 3 1 8 1.07928 0 1 1.07928 1
gene 3 2 8 0.555933 0 2 0.555933 1
gene 3 3 8 -1.08946 0 3 -1.08946 1
gene 3 4 8 -2.23391 0 4 -2.23391 0
gene 1 5 8 3.22189 0 5 3.22189 1
gene 1 6 8 2.06364 0 6 2.06364 1
gene 1 7 8 -0.456532 0 7 -0.456532 1
gene 3 4 27 1 0 54 0 1
gene 3 27 8 -2.23391 0 55 0 1
genomeend 85

/* Organism #86 Fitness: 211 Error: 0 */
genomestart 86
trait 1 0.1 0 0 0 0 0 0 0 
trait 2 0.198438 0 0.00576512 0 0 0 0.00264541 0 
trait 3 0.3 0 0 0 0 0 0.00115848 0 
node 1 1 1 1
node 2 3 1 1
node 3 3 1 1
node 4 2 1 1
node 5 2 1 1
node 6 3 1 1
node 7 1 1 3
node 8 1 0 2
gene 3 1 8 1.07928 0 1 1.07928 1
gene 3 2 8 0.555933 0 2 0.555933 1
gene 3 3 8 -2.30434 0 3 -2.30434 1
gene 1 4 8 -5.45654 0 4 -5.45654 1
gene 2 5 8 1.98443 0 5 1.98443 1
gene 1 6 8 0.826499 0 6 0.826499 1
gene 1 7 8 -0.456532 0 7 -0.456532 1
genomeend 86

/* Organism #87 Fitness: 50 Error: 0 */
genomestart 87
trait 1 0.1 0 0 0 0 0 0 0 
trait 2 0.195312 0 0.0172954 0 0 0 0.00793622 0 
trait 3 0.3 0 0 0 0 0 0 0 
node 1 1 1 1
node 2 3 1 1
node 3 3 1 1
node 4 2 1 1
node 5 2 1 1
node 6 3 1 1
node 7 1 1 3
node 8 1 0 2
gene 3 1 8 1.63415 0 1 1.63415 1
gene 2 2 8 -1.16369 0 2 -1.16369 1
gene 2 3 8 0.0327078 0 3 0.0327078 1
gene 1 4 8 -2.00621 0 4 -2.00621 1
gene 2 5 8 2.2853 0 5 2.2853 1
gene 2 6 8 4.13667 0 6 4.13667 1
gene 2 7 8 -0.0395679 0 7 -0.0395679 1
genomeend 87

/* Organism #88 Fitness: 6 Error: 0 */
genomestart 88
trait 1 0.1 0 0 0 0 0 0 0 
trait 2 0.191406 0 0.0317082 0 0 0 0.0145497 0 
trait 3 0.3 0.172753 0 0.0400887 0 0 0.0478055 0.0876573 
node 1 1 1 1
node 2 3 1 1
node 3 2 1 1
node 4 1 1 1
node 5 1 1 1
node 6 3 1 1
node 7 2 1 3
node 8 1 0 2
gene 3 1 8 -0.914984 0 1 -0.914984 1
gene 3 2 8 -0.921636 0 2 -0.921636 0
gene 3 3 8 -2.30434 0 3 -2.30434 1
gene 3 4 8 -3.75853 0 4 -3.75853 1
gene 1 5 8 1.21848 0 5 1.21848 1
gene 1 6 8 -1.07272 0 6 -1.07272 1
gene 1 7 8 0.448754 0 7 0.448754 1
genomeend 88

/* Organism #89 Fitness: 5 Error: 0 */
genomestart 89
trait 1 0.1 0 0 0 0 0 0 0 
trait 2 0.63567 0.548103 0 0 0 0 0.0105816 0 
trait 3 0.3 0 0 0 0 0 0.00463394 0 
node 1 1 1 1
node 2 3 1 1
node 3 3 1 1
node 4 3 1 1
node 5 2 1 1
node 6 1 1 1
node 7 2 1 3
node 8 3 0 2
gene 3 1 8 0.69305 0 1 0.69305 1
gene 3 2 8 -1.24826 0 2 -1.24826 1
gene 2 3 8 -0.609432 0 3 -0.609432 1
gene 1 4 8 -3.63678 0 4 -3.63678 1
gene 2 5 8 2.19122 0 5 2.19122 1
gene 1 6 8 -0.227987 0 6 -0.227987 1
gene 2 7 8 -2.55873 0 7 -2.55873 1
genomeend 89

/* Organism #90 Fitness: 295 Error: 0 */
genomestart 90
trait 1 0.1 0 0 0 0.000276043 0 0 0 
trait 2 0.199219 0 0.00288256 0 0 0 0.0013227 0 
trait 3 0.3 0 0 0 0 0 0 0 
node 1 1 1 1
node 2 3 1 1
node 3 2 1 1
node 4 1 1 1
node 5 1 1 1
node 6 3 1 1
node 7 2 1 3
node 8 1 0 2
gene 3 1 8 -0.849619 0 1 -0.849619 1
gene 2 2 8 0.811235 0 2 0.811235 1
gene 3 3 8 -3.89104 0 3 -3.89104 1
gene 3 4 8 -4.81421 0 4 -4.81421 1
gene 2 5 8 2.36309 0 5 2.36309 1
gene 1 6 8 2.14421 0 6 2.14421 1
gene 2 7 8 -0.189912 0 7 -0.189912 1
genomeend 90

/* Organism #91 Fitness: 114 Error: 0 */
genomestart 91
trait 1 0.1 0 0 0 0 0 0 0 
trait 2 0.2 0 0 0 0 0 0 0 
trait 3 0.3 0 0 0 0 0 0 0 
node 1 1 1 1
node 2 3 1 1
node 3 2 1 1
node 4 1 1 1
node 5 1 1 1
node 6 3 1 1
node 7 2 1 3
node 8 1 0 2
gene 3 1 8 1.50841 0 1 1.50841 1
gene 2 2 8 0.65484 0 2 0.65484 1
gene 3 3 8 -1.08946 0 3 -1.08946 1
gene 1 4 8 -4.05067 0 4 -4.05067 1
gene 1 5 8 2.93224 0 5 2.93224 1
gene 1 6 8 2.06364 0 6 2.06364 1
gene 1 7 8 -0.546034 0 7 -0.546034 1
genomeend 91

/* Organism #92 Fitness: 20 Error: 0 */
genomestart 92
trait 1 0.1 0 0 0 0.000552086 0 0 0 
trait 2 0.198438 0 0.00576512 0 0 0 0.00264541 0 
trait 3 0.3 0 0 0 0 0 0 0 
node 1 1 1 1
node 2 3 1 1
node 3 2 1 1
node 4 1 1 1
node 5 1 1 1
node 6 3 1 1
node 7 2 1 3
node 8 1 0 2
node 28 1 0 0
gene 3 1 8 1.12997 0 1 1.12997 1
gene 2 2 8 0.850575 0 2 0.850575 1
gene 3 3 8 -1.85295 0 3 -1.85295 1
gene 1 4 8 -2.93933 0 4 -2.93933 1
gene 2 5 8 2.62875 0 5 2.62875 1
gene 1 6 8 2.03051 0 6 2.03051 0
gene 2 7 8 -0.423679 0 7 -0.423679 1
gene 1 6 28 1 0 56 0 1
gene 1 28 8 2.03051 0 57 0 1
genomeend 92

/* Organism #93 Fitness: 92 Error: 0 */
genomestart 93
trait 1 0.1 0 0 0 0 0 0 0 
trait 2 0.197656 0 0.00864769 0 0 0 0.00396811 0 
trait 3 0.3 0 0 0 0 0 0.00115848 0 
node 1 1 1 1
node 2 3 1 1
node 3 2 1 1
node 4 1 1 1
node 5 1 1 1
node 6 3 1 1
node 7 2 1 3
node 8 1 0 2
gene 3 1 8 -0.914984 0 1 -0.914984 1
gene 3 2 8 0.555933 0 2 0.555933 1
gene 3 3 8 -2.30434 0 3 -2.30434 1
gene 3 4 8 -2.23391 0 4 -2.23391 1
gene 2 5 8 2.6426 0 5 2.6426 1
gene 1 6 8 1.17541 0 6 1.17541 1
gene 2 7 8 -0.635537 0 7 -0.635537 1
genomeend 93

/* Organism #94 Fitness: 15 Error: 0 */
genomestart 94
trait 1 0.1 0 0 0.0231494 0.0175143 0 0 0 
trait 2 0.1875 0 0 0 0 0.0619354 0 0 
trait 3 0.3 0 0 0 0.183319 0.109129 0 0.17059 
node 1 3 1 1
node 2 3 1 1
node 3 1 1 1
node 4 1 1 1
node 5 3 1 1
node 6 2 1 1
node 7 1 1 3
node 8 3 0 2
node 9 1 0 0
gene 3 1 8 -2.15019 0 1 -2.15019 1
gene 3 2 8 0.0516389 0 2 0.0516389 1
gene 1 3 8 -1.4677 0 3 -1.4677 1
gene 3 4 8 -1.31257 0 4 -1.31257 1
gene 1 5 8 1.44542 0 5 1.44542 0
gene 1 6 8 2.30881 0 6 2.30881 1
gene 2 7 8 -4.73217 0 7 -4.73217 1
gene 1 5 9 3.465 0 8 3.465 1
gene 1 9 8 0.700071 0 9 0.700071 1
genomeend 94

/* Organism #95 Fitness: 6 Error: 0 */
genomestart 95
trait 1 0.1 0 0 0.410798 0 0 0 0.0743044 
trait 2 0.2 0 0 0 0 0 0 0 
trait 3 0.3 0 0 0 0.0611062 0.0363762 0 0.0568634 
node 1 3 1 1
node 2 3 1 1
node 3 1 1 1
node 4 1 1 1
node 5 3 1 1
node 6 2 1 1
node 7 1 1 3
node 8 3 0 2
node 9 1 0 0
gene 3 1 8 1.16555 0 1 1.16555 1
gene 3 2 8 2.0586 0 2 2.0586 1
gene 1 3 8 -1.98281 0 3 -1.98281 1
gene 3 4 8 -2.57956 0 4 -2.57956 1
gene 1 5 8 -2.14652 0 5 -2.14652 1
gene 1 6 8 -0.719051 0 6 -0.719051 1
gene 2 7 8 0.450702 0 7 0.450702 1
gene 1 5 9 4.87902 0 8 4.87902 1
gene 1 9 8 2.41088 0 9 2.41088 1
genomeend 95

/* Species #2 : (Size 53) (AF 37.2453) (Age 8)  */


/* Organism #96 Fitness: 70 Error: 0 */
genomestart 96
trait 1 0.1 0 0 0.410798 0 0 0 0.0743044 
trait 2 0.2 0 0 0 0 0 0 0 
trait 3 0.3 0 0 0 0.0611062 0.0363762 0 0.0568634 
node 1 3 1 1
node 2 3 1 1
node 3 1 1 1
node 4 1 1 1
node 5 3 1 1
node 6 2 1 1
node 7 1 1 3
node 8 3 0 2
node 9 1 0 0
gene 3 1 8 -0.554468 0 1 -0.554468 1
gene 3 2 8 2.87519 0 2 2.87519 1
gene 1 3 8 -0.19493 0 3 -0.19493 1
gene 3 4 8 -1.33112 0 4 -1.33112 1
gene 1 5 8 -2.20864 0 5 -2.20864 0
gene 1 6 8 0.766321 0 6 0.766321 1
gene 2 7 8 -1.27562 0 7 -1.27562 1
gene 1 5 9 3.13879 0 8 3.13879 1
gene 1 9 8 0.527676 0 9 0.527676 1
genomeend 96

/* Organism #97 Fitness: 91 Error: 0 */
genomestart 97
trait 1 0.1 0 0 0.324092 0.2452 0 0 0 
trait 2 0.2 0 0 0 0 0 0 0 
trait 3 0.3 0 0 0 0 0 0 0 
node 1 3 1 1
node 2 3 1 1
node 3 1 1 1
node 4 1 1 1
node 5 3 1 1
node 6 2 1 1
node 7 1 1 3
node 8 1 0 2
node 9 1 0 0
gene 3 1 8 -2.46645 0 1 -2.46645 1
gene 3 2 8 0.692833 0 2 0.692833 1
gene 1 3 8 3.27802 0 3 3.27802 1
gene 3 4 8 -1.35608 0 4 -1.35608 1
gene 1 5 8 -1.90314 0 5 -1.90314 0
gene 1 6 8 3.72145 0 6 3.72145 1
gene 2 7 8 -1.92434 0 7 -1.92434 1
gene 1 5 9 3.20404 0 8 3.20404 1
gene 1 9 8 1.39969 0 9 1.39969 1
genomeend 97

/* Organism #98 Fitness: 27 Error: 0 */
genomestart 98
trait 1 0.1 0 0 0.138897 0.105086 0 0 0 
trait 2 0.2 0 0 0 0 0 0 0 
trait 3 0.3 0 0 0 0.0611062 0.0363762 0 0.0568634 
node 1 3 1 1
node 2 3 1 1
node 3 1 1 1
node 4 1 1 1
node 5 3 1 1
node 6 2 1 1
node 7 1 1 3
node 8 3 0 2
node 9 1 0 0
gene 3 1 8 -4.31769 0 1 -4.31769 1
gene 3 2 8 -0.207408 0 2 -0.207408 1
gene 1 3 8 5.61943 0 3 5.61943 1
gene 3 4 8 -3.88331 0 4 -3.88331 0
gene 1 5 8 -3.04451 0 5 -3.04451 0
gene 1 6 8 7.44785 0 6 7.44785 1
gene 2 7 8 0.110241 0 7 0.110241 1
gene 1 5 9 4.65246 0 8 4.65246 1
gene 1 9 8 2.20854 0 9 2.20854 1
genomeend 98

/* Organism #99 Fitness: 25 Error: 0 */
genomestart 99
trait 1 0.1 0 0 0.344296 0.105086 0 0 0.0371522 
trait 2 0.2 0 0 0 0 0 0 0 
trait 3 0.3 0 0 0 0.0305531 0.0181881 0 0.0284317 
node 1 3 1 1
node 2 3 1 1
node 3 1 1 1
node 4 1 1 1
node 5 3 1 1
node 6 2 1 1
node 7 1 1 3
node 8 3 0 2
node 9 1 0 0
gene 3 1 8 0.337209 0 1 0.337209 1
gene 3 2 8 1.97361 0 2 1.97361 1
gene 1 3 8 1.58261 0 3 1.58261 1
gene 3 4 8 -1.03683 0 4 -1.03683 1
gene 1 5 8 -2.80543 0 5 -2.80543 0
gene 1 6 8 0.945382 0 6 0.945382 1
gene 2 7 8 0.819611 0 7 0.819611 1
gene 1 5 9 3.98691 0 8 3.98691 1
gene 1 9 8 0.141486 0 9 0.141486 1
genomeend 99

/* Organism #100 Fitness: 31 Error: 0 */
genomestart 100
trait 1 0.1 0 0 0.0925977 0.0700573 0 0 0 
trait 2 0.2 0 0 0 0 0 0 0 
trait 3 0.3 0 0 0 0.0611062 0.0363762 0 0.0568634 
node 1 3 1 1
node 2 3 1 1
node 3 1 1 1
node 4 1 1 1
node 5 3 1 1
node 6 2 1 1
node 7 1 1 3
node 8 3 0 2
node 9 1 0 0
gene 3 1 8 -1.98384 0 1 -1.98384 1
gene 3 2 8 3.21619 0 2 3.21619 1
gene 1 3 8 6.36504 0 3 6.36504 1
gene 3 4 8 -4.28252 0 4 -4.28252 1
gene 1 5 8 0.403611 0 5 0.403611 0
gene 1 6 8 5.76944 0 6 5.76944 1
gene 2 7 8 -1.87789 0 7 -1.87789 1
gene 1 5 9 2.77892 0 8 2.77892 1
gene 1 9 8 0.330117 0 9 0.330117 1
gene 3 4 9 -0.31028 0 58 -0.31028 1
genomeend 100

/* Organism #101 Fitness: 19 Error: 0 */
genomestart 101
trait 1 0.1 0 0 0.115747 0.0875716 0 0 0 
trait 2 0.2 0 0 0 0 0 0 0 
trait 3 0.3 0 0 0 0.122212 0.0727525 0 0.113727 
node 1 3 1 1
node 2 3 1 1
node 3 1 1 1
node 4 1 1 1
node 5 3 1 1
node 6 2 1 1
node 7 1 1 3
node 8 3 0 2
node 9 1 0 0
gene 3 1 8 -6.49586 0 1 -6.49586 1
gene 3 2 8 0.949397 0 2 0.949397 1
gene 1 3 8 0.980396 0 3 0.980396 1
gene 3 4 8 -2.53768 0 4 -2.53768 0
gene 1 5 8 -1.23393 0 5 -1.23393 0
gene 1 6 8 2.7033 0 6 2.7033 1
gene 2 7 8 -5.45305 0 7 -5.45305 1
gene 1 5 9 0.472999 0 8 0.472999 1
gene 1 9 8 1.39969 0 9 1.39969 1
genomeend 101

/* Organism #102 Fitness: 5 Error: 0 */
genomestart 102
trait 1 0.1 0 0 0.205399 0 0 0 0.0371522 
trait 2 0.2 0 0 0 0 0 0 0 
trait 3 0.3 0 0 0 0.152766 0.0909406 0 0.142158 
node 1 3 1 1
node 2 3 1 1
node 3 1 1 1
node 4 1 1 1
node 5 3 1 1
node 6 2 1 1
node 7 1 1 3
node 8 3 0 2
node 9 1 0 0
gene 3 1 8 0.563431 0 1 0.563431 1
gene 3 2 8 0.331038 0 2 0.331038 1
gene 1 3 8 3.92207 0 3 3.92207 1
gene 3 4 8 1.00456 0 4 1.00456 1
gene 1 5 8 -2.35276 0 5 -2.35276 0
gene 1 6 8 -1.05826 0 6 -1.05826 1
gene 2 7 8 -4.3788 0 7 -4.3788 1
gene 1 5 9 5.03557 0 8 5.03557 1
gene 1 9 8 -0.0372703 0 9 -0.0372703 1
genomeend 102

/* Organism #103 Fitness: 6 Error: 0 */
genomestart 103
trait 1 0.1 0 0 0.115747 0.0875716 0 0 0 
trait 2 0.175 0 0 0 0 0.123871 0 0 
trait 3 0.3 0 0 0 0.122212 0.0727525 0 0.113727 
node 1 3 1 1
node 2 3 1 1
node 3 1 1 1
node 4 1 1 1
node 5 3 1 1
node 6 2 1 1
node 7 1 1 3
node 8 3 0 2
node 9 1 0 0
gene 3 1 8 -3.68062 0 1 -3.68062 1
gene 3 2 8 2.7229 0 2 2.7229 1
gene 1 3 8 2.47898 0 3 2.47898 1
gene 3 4 8 -1.11872 0 4 -1.11872 1
gene 1 5 8 -0.460238 0 5 -0.460238 0
gene 1 6 8 -1.59219 0 6 -1.59219 1
gene 2 7 8 -0.891734 0 7 -0.891734 1
gene 1 5 9 5.9533 0 8 5.9533 1
gene 1 9 8 -1.49894 0 9 -1.49894 1
genomeend 103

/* Organism #104 Fitness: 41 Error: 0 */
genomestart 104
trait 1 0.1 0 0 0.0925977 0.0700573 0 0 0 
trait 2 0.1875 0 0 0 0 0.0619354 0 0 
trait 3 0.3 0 0 0 0.0611062 0.0363762 0 0.0568634 
node 1 3 1 1
node 2 3 1 1
node 3 1 1 1
node 4 1 1 1
node 5 3 1 1
node 6 2 1 1
node 7 1 1 3
node 8 3 0 2
node 9 1 0 0
gene 3 1 8 -2.6876 0 1 -2.6876 1
gene 3 2 8 -0.344246 0 2 -0.344246 1
gene 1 3 8 2.81618 0 3 2.81618 1
gene 3 4 8 -1.6434 0 4 -1.6434 1
gene 1 5 8 0.682767 0 5 0.682767 0
gene 1 6 8 5.66329 0 6 5.66329 1
gene 2 7 8 -1.37162 0 7 -1.37162 1
gene 1 5 9 -0.831431 0 8 -0.831431 1
gene 1 9 8 1.6566 0 9 1.6566 1
genomeend 104

/* Organism #105 Fitness: 54 Error: 0 */
genomestart 105
trait 1 0.1 0 0 0 0 0 0 0 
trait 2 0.2 0 0 0 0 0 0.500374 0 
trait 3 0.3 0 0 0 0.183319 0.109129 0 0.17059 
node 1 3 1 1
node 2 3 1 1
node 3 1 1 1
node 4 1 1 1
node 5 3 1 1
node 6 2 1 1
node 7 1 1 3
node 8 3 0 2
node 9 1 0 0
gene 3 1 8 0.465138 0 1 0.465138 1
gene 3 2 8 0.792712 0 2 0.792712 1
gene 1 3 8 3.6468 0 3 3.6468 1
gene 3 4 8 -4.17689 0 4 -4.17689 1
gene 2 5 8 -1.41612 0 5 -1.41612 0
gene 1 6 8 1.80108 0 6 1.80108 1
gene 2 7 8 -4.50357 0 7 -4.50357 1
gene 1 5 9 1.82277 0 8 1.82277 1
gene 1 9 8 1.92853 0 9 1.92853 1
gene 2 1 9 1.42205 0 50 1.42205 1
genomeend 105

/* Organism #106 Fitness: 19 Error: 0 */
genomestart 106
trait 1 0.1 0 0 0.344296 0.105086 0 0 0.0371522 
trait 2 0.2 0 0 0 0 0 0 0 
trait 3 0.3 0 0 0 0.0305531 0.0181881 0 0.0284317 
node 1 3 1 1
node 2 3 1 1
node 3 1 1 1
node 4 1 1 1
node 5 3 1 1
node 6 2 1 1
node 7 1 1 3
node 8 3 0 2
node 9 1 0 0
gene 3 1 8 -3.62488 0 1 -3.62488 1
gene 3 2 8 -0.547903 0 2 -0.547903 1
gene 1 3 8 4.66236 0 3 4.66236 1
gene 3 4 8 0.408452 0 4 0.408452 1
gene 1 5 8 -2.94669 0 5 -2.94669 0
gene 1 6 8 4.18514 0 6 4.18514 1
gene 2 7 8 0.35161 0 7 0.35161 1
gene 1 5 9 0.953267 0 8 0.953267 1
gene 1 9 8 2.16734 0 9 2.16734 1
genomeend 106

/* Organism #107 Fitness: 18 Error: 0 */
genomestart 107
trait 1 0.1 0 0 0.277793 0.210172 0 0 0 
trait 2 0.2 0 0 0 0 0 0 0 
trait 3 0.3 0 0 0 0 0 0 0 
node 1 3 1 1
node 2 3 1 1
node 3 1 1 1
node 4 1 1 1
node 5 3 1 1
node 6 2 1 1
node 7 1 1 3
node 8 3 0 2
node 9 1 0 0
gene 3 1 8 -3.11292 0 1 -3.11292 1
gene 3 2 8 1.99797 0 2 1.99797 1
gene 1 3 8 3.27802 0 3 3.27802 1
gene 3 4 8 0.242788 0 4 0.242788 1
gene 1 5 8 -1.86521 0 5 -1.86521 1
gene 1 6 8 5.22736 0 6 5.22736 1
gene 2 7 8 -3.86664 0 7 -3.86664 1
gene 1 5 9 4.02664 0 8 4.02664 1
gene 1 9 8 -0.129193 0 9 -0.129193 1
genomeend 107

/* Organism #108 Fitness: 8 Error: 0 */
genomestart 108
trait 1 0.1 0 0 0.321146 0.0875716 0 0 0.0371522 
trait 2 0.2 0 0 0 0 0 0 0 
trait 3 0.3 0 0 0 0.0305531 0.0181881 0 0.0284317 
node 1 3 1 1
node 2 3 1 1
node 3 1 1 1
node 4 1 1 1
node 5 3 1 1
node 6 2 1 1
node 7 1 1 3
node 8 3 0 2
node 9 1 0 0
node 24 1 0 0
gene 3 1 8 -2.46645 0 1 -2.46645 1
gene 3 2 8 0.91563 0 2 0.91563 1
gene 1 3 8 -0.19493 0 3 -0.19493 1
gene 3 4 8 -1.35608 0 4 -1.35608 0
gene 1 5 8 -2.20864 0 5 -2.20864 0
gene 1 6 8 0.766321 0 6 0.766321 1
gene 2 7 8 -1.78105 0 7 -1.78105 1
gene 1 5 9 3.13879 0 8 3.13879 1
gene 1 9 8 0.527676 0 9 0.527676 1
gene 3 4 24 1 0 46 0 1
gene 3 24 8 -1.35608 0 47 0 1
genomeend 108

/* Organism #109 Fitness: 18 Error: 0 */
genomestart 109
trait 1 0.1 0 0 0.0925977 0.0700573 0 0 0 
trait 2 0.1875 0 0 0 0 0.0619354 0 0 
trait 3 0.3 0 0 0 0.183319 0.109129 0 0.17059 
node 1 3 1 1
node 2 3 1 1
node 3 1 1 1
node 4 1 1 1
node 5 3 1 1
node 6 2 1 1
node 7 1 1 3
node 8 3 0 2
node 9 1 0 0
gene 3 1 8 -0.393663 0 1 -0.393663 1
gene 3 2 8 -0.0552727 0 2 -0.0552727 1
gene 1 3 8 1.19049 0 3 1.19049 1
gene 3 4 8 0.652614 0 4 0.652614 1
gene 1 5 8 -3.30051 0 5 -3.30051 1
gene 1 6 8 1.83959 0 6 1.83959 1
gene 2 7 8 -0.703708 0 7 -0.703708 1
gene 1 5 9 4.84848 0 8 4.84848 1
gene 1 9 8 -0.665347 0 9 -0.665347 1
genomeend 109

/* Organism #110 Fitness: 7 Error: 0 */
genomestart 110
trait 1 0.1 0 0 0.0694483 0.0525429 0 0 0 
trait 2 0.2 0 0 0 0 0 0 0 
trait 3 0.3 0 0 0 0.122212 0.0727525 0 0.113727 
node 1 3 1 1
node 2 3 1 1
node 3 1 1 1
node 4 1 1 1
node 5 3 1 1
node 6 2 1 1
node 7 1 1 3
node 8 3 0 2
node 9 1 0 0
gene 3 1 8 -4.66892 0 1 -4.66892 1
gene 3 2 8 5.50609 0 2 5.50609 1
gene 1 3 8 2.11451 0 3 2.11451 1
gene 3 4 8 0.669905 0 4 0.669905 1
gene 2 5 8 -5.33182 0 5 -5.33182 0
gene 1 6 8 1.09362 0 6 1.09362 1
gene 2 7 8 -5.36882 0 7 -5.36882 1
gene 1 5 9 -0.522829 0 8 -0.522829 1
gene 1 9 8 0.266507 0 9 0.266507 1
gene 2 1 9 0.933294 0 50 0.933294 1
genomeend 110

/* Organism #111 Fitness: 38 Error: 0 */
genomestart 111
trait 1 0.1 0 0 0 0 0 0 0 
trait 2 0.2 0 0 0 0 0 0 0 
trait 3 0.3 0 0 0 0.244425 0.145505 0 0.227453 
node 1 3 1 1
node 2 3 1 1
node 3 1 1 1
node 4 1 1 1
node 5 3 1 1
node 6 2 1 1
node 7 1 1 3
node 8 3 0 2
node 9 1 0 0
gene 3 1 8 -5.99016 0 1 -5.99016 1
gene 3 2 8 1.45351 0 2 1.45351 1
gene 1 3 8 1.48173 0 3 1.48173 1
gene 3 4 8 -2.68634 0 4 -2.68634 1
gene 1 5 8 -3.27375 0 5 -3.27375 0
gene 1 6 8 2.48813 0 6 2.48813 1
gene 2 7 8 -3.98862 0 7 -3.98862 1
gene 1 5 9 2.13204 0 8 2.13204 1
gene 1 9 8 1.27902 0 9 1.27902 1
gene 2 1 9 -0.467421 0 50 -0.467421 1
genomeend 111

/* Organism #112 Fitness: 39 Error: 0 */
genomestart 112
trait 1 0.1 0 0 0.0925977 0.0700573 0 0 0 
trait 2 0.1875 0 0 0 0 0.0619354 0 0 
trait 3 0.3 0 0 0 0.183319 0.109129 0 0.17059 
node 1 3 1 1
node 2 3 1 1
node 3 1 1 1
node 4 1 1 1
node 5 3 1 1
node 6 2 1 1
node 7 1 1 3
node 8 3 0 2
node 9 1 0 0
gene 3 1 8 -2.92081 0 1 -2.92081 1
gene 3 2 8 4.32195 0 2 4.32195 1
gene 1 3 8 1.2533 0 3 1.2533 1
gene 3 4 8 -1.13536 0 4 -1.13536 1
gene 2 5 8 -4.87835 0 5 -4.87835 0
gene 1 6 8 3.94965 0 6 3.94965 1
gene 2 7 8 -1.17322 0 7 -1.17322 1
gene 1 5 9 4.54673 0 8 4.54673 1
gene 1 9 8 -0.67795 0 9 -0.67795 1
gene 3 4 9 -0.31028 0 58 0 1
genomeend 112

/* Organism #113 Fitness: 26 Error: 0 */
genomestart 113
trait 1 0.1 0 0 0.162046 0.1226 0 0 0 
trait 2 0.1875 0 0 0 0 0.0619354 0 0 
trait 3 0.3 0 0 0 0.0611062 0.0363762 0 0.0568634 
node 1 3 1 1
node 2 3 1 1
node 3 1 1 1
node 4 1 1 1
node 5 3 1 1
node 6 2 1 1
node 7 1 1 3
node 8 3 0 2
node 9 1 0 0
gene 2 1 8 -2.17584 0 1 -2.17584 1
gene 3 2 8 -1.88389 0 2 -1.88389 1
gene 1 3 8 2.17229 0 3 2.17229 1
gene 3 4 8 -0.194479 0 4 -0.194479 1
gene 1 5 8 -0.307301 0 5 -0.307301 0
gene 1 6 8 5.14181 0 6 5.14181 1
gene 2 7 8 0.335003 0 7 0.335003 1
gene 1 5 9 3.31688 0 8 3.31688 1
gene 1 9 8 -0.135115 0 9 -0.135115 1
genomeend 113

/* Organism #114 Fitness: 23 Error: 0 */
genomestart 114
trait 1 0.1 0 0 0.0462989 0.0350286 0 0 0 
trait 2 0.2 0 0 0 0 0 0 0 
trait 3 0.3 0 0 0 0.122212 0.0727525 0 0.113727 
node 1 3 1 1
node 2 3 1 1
node 3 1 1 1
node 4 1 1 1
node 5 3 1 1
node 6 2 1 1
node 7 1 1 3
node 8 3 0 2
node 9 1 0 0
gene 1 1 8 -0.0243912 0 1 -0.0243912 1
gene 3 2 8 2.23452 0 2 2.23452 1
gene 1 3 8 8 0 3 8 1
gene 3 4 8 -3.48903 0 4 -3.48903 1
gene 1 5 8 -1.77628 0 5 -1.77628 1
gene 1 6 8 3.47876 0 6 3.47876 1
gene 2 7 8 -0.670259 0 7 -0.670259 1
gene 1 5 9 5.13693 0 8 5.13693 1
gene 1 9 8 0.375707 0 9 0.375707 1
genomeend 114

/* Organism #115 Fitness: 33 Error: 0 */
genomestart 115
trait 1 0.1 0 0 0.162046 0.1226 0 0 0 
trait 2 0.1875 0 0 0 0 0.0619354 0 0 
trait 3 0.3 0 0 0 0.0611062 0.0363762 0 0.0568634 
node 1 3 1 1
node 2 3 1 1
node 3 1 1 1
node 4 1 1 1
node 5 3 1 1
node 6 2 1 1
node 7 1 1 3
node 8 3 0 2
node 9 1 0 0
gene 3 1 8 -2.76579 0 1 -2.76579 1
gene 3 2 8 1.67773 0 2 1.67773 1
gene 1 3 8 3.64937 0 3 3.64937 1
gene 3 4 8 -2.44046 0 4 -2.44046 1
gene 1 5 8 -1.47382 0 5 -1.47382 0
gene 1 6 8 5.30358 0 6 5.30358 1
gene 2 7 8 -2.22266 0 7 -2.22266 1
gene 1 5 9 0.325017 0 8 0.325017 1
gene 1 9 8 -0.392576 0 9 -0.392576 1
genomeend 115

/* Organism #116 Fitness: 37 Error: 0 */
genomestart 116
trait 1 0.1 0 0 0.138897 0.105086 0 0 0 
trait 2 0.2 0 0 0 0 0 0 0 
trait 3 0.3 0.746634 0 0 0.712125 0 0 0.186102 
node 1 3 1 1
node 2 3 1 1
node 3 1 1 1
node 4 1 1 1
node 5 3 1 1
node 6 2 1 1
node 7 1 1 3
node 8 3 0 2
node 9 1 0 0
gene 3 1 8 -0.806822 0 1 -0.806822 1
gene 3 2 8 -0.130653 0 2 -0.130653 1
gene 1 3 8 2.87656 0 3 2.87656 1
gene 3 4 8 -2.09569 0 4 -2.09569 1
gene 1 5 8 -3.03566 0 5 -3.03566 0
gene 1 6 8 4.66027 0 6 4.66027 1
gene 2 7 8 -1.87789 0 7 -1.87789 1
gene 1 5 9 -0.949139 0 8 -0.949139 1
gene 1 9 8 1.70015 0 9 1.70015 1
genomeend 116

/* Organism #117 Fitness: 5 Error: 0 */
genomestart 117
trait 1 0.1 0 0 0.205399 0 0 0 0.0371522 
trait 2 0.2 0 0 0 0 0 0 0 
trait 3 0.3 0 0 0 0.152766 0.0909406 0 0.142158 
node 1 3 1 1
node 2 3 1 1
node 3 1 1 1
node 4 1 1 1
node 5 3 1 1
node 6 2 1 1
node 7 1 1 3
node 8 3 0 2
node 9 1 0 0
gene 3 1 8 -2.38085 0 1 -2.38085 1
gene 3 2 8 1.45787 0 2 1.45787 1
gene 1 3 8 3.56155 0 3 3.56155 1
gene 3 4 8 -0.52211 0 4 -0.52211 1
gene 1 5 8 -3.76713 0 5 -3.76713 1
gene 1 6 8 -0.634181 0 6 -0.634181 1
gene 2 7 8 -4.62361 0 7 -4.62361 1
gene 1 5 9 3.73312 0 8 3.73312 1
gene 1 9 8 -0.988881 0 9 -0.988881 1
genomeend 117

/* Organism #118 Fitness: 32 Error: 0 */
genomestart 118
trait 1 0.1 0 0 0 0 0 0 0 
trait 2 0.2 0 0 0 0 0 0 0 
trait 3 0.3 0 0 0 0.244425 0.145505 0 0.227453 
node 1 3 1 1
node 2 3 1 1
node 3 1 1 1
node 4 1 1 1
node 5 3 1 1
node 6 2 1 1
node 7 1 1 3
node 8 3 0 2
node 9 1 0 0
gene 3 1 8 -6.80919 0 1 -6.80919 1
gene 3 2 8 3.38625 0 2 3.38625 1
gene 1 3 8 1.04618 0 3 1.04618 1
gene 3 4 8 -1.15688 0 4 -1.15688 1
gene 2 5 8 -3.9676 0 5 -3.9676 0
gene 1 6 8 1.95353 0 6 1.95353 1
gene 2 7 8 -3.32777 0 7 -3.32777 1
gene 1 5 9 3.92884 0 8 3.92884 1
gene 1 9 8 0.325615 0 9 0.325615 1
gene 2 1 9 1.95815 0 50 1.95815 1
genomeend 118

/* Organism #119 Fitness: 88 Error: 0 */
genomestart 119
trait 1 0.1 0 0 0.205399 0 0 0 0.0371522 
trait 2 0.2 0 0 0 0 0 0 0 
trait 3 0.3 0 0 0 0.152766 0.0909406 0 0.142158 
node 1 3 1 1
node 2 3 1 1
node 3 1 1 1
node 4 1 1 1
node 5 3 1 1
node 6 2 1 1
node 7 1 1 3
node 8 3 0 2
node 9 1 0 0
gene 3 1 8 -0.554468 0 1 -0.554468 1
gene 3 2 8 2.27338 0 2 2.27338 1
gene 1 3 8 -0.19493 0 3 -0.19493 1
gene 3 4 8 -1.33112 0 4 -1.33112 1
gene 2 5 8 -3.27375 0 5 -3.27375 0
gene 1 6 8 0.766321 0 6 0.766321 1
gene 2 7 8 -1.27562 0 7 -1.27562 1
gene 1 5 9 3.13879 0 8 3.13879 1
gene 1 9 8 0.527676 0 9 0.527676 1
gene 2 1 9 -0.467421 0 50 -0.467421 1
genomeend 119

/* Organism #120 Fitness: 35 Error: 0 */
genomestart 120
trait 1 0.1 0 0 0 0 0 0 0 
trait 2 0 0 0 0 0 0 0 0.865924 
trait 3 0.3 0 0 0 0.244425 0.145505 0 0.227453 
node 1 3 1 1
node 2 3 1 1
node 3 1 1 1
node 4 1 1 1
node 5 3 1 1
node 6 2 1 1
node 7 1 1 3
node 8 3 0 2
node 9 1 0 0
gene 3 1 8 -3.6071 0 1 -3.6071 1
gene 3 2 8 3.97454 0 2 3.97454 1
gene 1 3 8 -0.204457 0 3 -0.204457 1
gene 3 4 8 -2.06385 0 4 -2.06385 1
gene 2 5 8 -0.743107 0 5 -0.743107 0
gene 1 6 8 4.97012 0 6 4.97012 1
gene 2 7 8 -2.50169 0 7 -2.50169 1
gene 1 5 9 3.83232 0 8 3.83232 1
gene 1 9 8 3.40268 0 9 3.40268 1
gene 2 1 9 1.88703 0 50 1.88703 1
genomeend 120

/* Organism #121 Fitness: 43 Error: 0 */
genomestart 121
trait 1 0.1 0 0 0 0 0 0 0 
trait 2 0.2 0 0 0 0 0 0 0 
trait 3 0.3 0 0 0 0.244425 0.145505 0 0.227453 
node 1 3 1 1
node 2 3 1 1
node 3 1 1 1
node 4 1 1 1
node 5 3 1 1
node 6 2 1 1
node 7 1 1 3
node 8 3 0 2
node 9 1 0 0
gene 3 1 8 -4.22252 0 1 -4.22252 1
gene 3 2 8 5.97905 0 2 5.97905 1
gene 1 3 8 -0.689735 0 3 -0.689735 1
gene 3 4 8 -3.33632 0 4 -3.33632 1
gene 2 5 8 -3.53785 0 5 -3.53785 0
gene 1 6 8 2.81903 0 6 2.81903 1
gene 2 7 8 -4.23426 0 7 -4.23426 1
gene 1 5 9 6.22801 0 8 6.22801 1
gene 1 9 8 3.84703 0 9 3.84703 1
genomeend 121

/* Organism #122 Fitness: 73 Error: 0 */
genomestart 122
trait 1 0.1 0 0 0.0694483 0.0525429 0 0 0 
trait 2 0.2 0 0 0 0 0 0 0 
trait 3 0.3 0.376666 0.105358 0.414896 0.122212 0.0727525 0 0.113727 
node 1 3 1 1
node 2 3 1 1
node 3 1 1 1
node 4 1 1 1
node 5 3 1 1
node 6 2 1 1
node 7 1 1 3
node 8 3 0 2
node 9 1 0 0
gene 3 1 8 -3.47916 0 1 -3.47916 1
gene 3 2 8 4.64147 0 2 4.64147 1
gene 1 3 8 2.25008 0 3 2.25008 1
gene 3 4 8 -1.92993 0 4 -1.92993 1
gene 1 5 8 -4.54737 0 5 -4.54737 0
gene 1 6 8 4.35547 0 6 4.35547 1
gene 2 7 8 -4.9812 0 7 -4.9812 1
gene 1 5 9 3.93974 0 8 3.93974 1
gene 1 9 8 2.76763 0 9 2.76763 1
genomeend 122

/* Organism #123 Fitness: 7 Error: 0 */
genomestart 123
trait 1 0.1 0 0 0.297997 0.0700573 0 0 0.0371522 
trait 2 0.2 0 0 0 0 0 0 0 
trait 3 0.3 0 0 0 0.0916594 0.0545644 0 0.0852951 
node 1 3 1 1
node 2 3 1 1
node 3 1 1 1
node 4 1 1 1
node 5 3 1 1
node 6 2 1 1
node 7 1 1 3
node 8 3 0 2
node 9 1 0 0
gene 3 1 8 -0.901786 0 1 -0.901786 1
gene 3 2 8 0.763583 0 2 0.763583 1
gene 1 3 8 4.82928 0 3 4.82928 1
gene 3 4 8 -2.68719 0 4 -2.68719 1
gene 2 5 8 -4.65135 0 5 -4.65135 0
gene 1 6 8 1.38959 0 6 1.38959 1
gene 2 7 8 0.833497 0 7 0.833497 1
gene 1 5 9 -0.646521 0 8 -0.646521 1
gene 1 9 8 2.96452 0 9 2.96452 1
genomeend 123

/* Organism #124 Fitness: 32 Error: 0 */
genomestart 124
trait 1 0.1 0 0 0.0694483 0.0525429 0 0 0 
trait 2 0.2 0 0 0 0 0 0 0 
trait 3 0.3 0 0 0 0.0611062 0.0363762 0 0.0568634 
node 1 3 1 1
node 2 3 1 1
node 3 1 1 1
node 4 3 1 1
node 5 3 1 1
node 6 2 1 1
node 7 1 1 3
node 8 3 0 2
node 9 1 0 0
gene 3 1 8 -0.348472 0 1 -0.348472 1
gene 3 2 8 5.12987 0 2 5.12987 1
gene 1 3 8 0.857464 0 3 0.857464 1
gene 3 4 8 -3.36902 0 4 -3.36902 1
gene 1 5 8 -0.232003 0 5 -0.232003 0
gene 1 6 8 5.10612 0 6 5.10612 1
gene 2 7 8 -5.26111 0 7 -5.26111 1
gene 1 5 9 -1.44594 0 8 -1.44594 1
gene 1 9 8 3.6376 0 9 3.6376 1
genomeend 124

/* Organism #125 Fitness: 68 Error: 0 */
genomestart 125
trait 1 0.1 0 0 0.0694483 0.0525429 0 0 0 
trait 2 0.2 0 0 0 0 0 0 0 
trait 3 0.3 0.376666 0.105358 0.414896 0.122212 0.0727525 0 0.113727 
node 1 3 1 1
node 2 3 1 1
node 3 1 1 1
node 4 1 1 1
node 5 3 1 1
node 6 2 1 1
node 7 1 1 3
node 8 3 0 2
node 9 1 0 0
gene 3 1 8 -4.19995 0 1 -4.19995 1
gene 3 2 8 3.61718 0 2 3.61718 1
gene 1 3 8 2.83692 0 3 2.83692 1
gene 3 4 8 -1.5006 0 4 -1.5006 1
gene 2 5 8 -3.74507 0 5 -3.74507 0
gene 1 6 8 4.06299 0 6 4.06299 1
gene 2 7 8 -3.98369 0 7 -3.98369 1
gene 1 5 9 1.93019 0 8 1.93019 1
gene 1 9 8 2.26214 0 9 2.26214 1
gene 2 1 9 -0.467421 0 50 -0.467421 1
genomeend 125

/* Organism #126 Fitness: 48 Error: 0 */
genomestart 126
trait 1 0.1 0 0 0.0925977 0.0700573 0 0 0 
trait 2 0.2 0 0 0 0 0 0 0 
trait 3 0.3 0 0 0 0.183319 0.109129 0 0.17059 
node 1 3 1 1
node 2 3 1 1
node 3 1 1 1
node 4 1 1 1
node 5 3 1 1
node 6 2 1 1
node 7 1 1 3
node 8 3 0 2
node 9 1 0 0
gene 3 1 8 -1.85699 0 1 -1.85699 1
gene 3 2 8 0.112356 0 2 0.112356 1
gene 1 3 8 0.882706 0 3 0.882706 1
gene 3 4 8 -0.281712 0 4 -0.281712 1
gene 2 5 8 -1.27497 0 5 -1.27497 0
gene 1 6 8 0.589132 0 6 0.589132 1
gene 2 7 8 -3.57534 0 7 -3.57534 1
gene 1 5 9 1.07718 0 8 1.07718 1
gene 1 9 8 2.75633 0 9 2.75633 1
gene 2 1 9 -0.933592 0 50 -0.933592 1
genomeend 126

/* Organism #127 Fitness: 37 Error: 0 */
genomestart 127
trait 1 0.1 0 0 0.138897 0.105086 0 0 0 
trait 2 0.2 0 0 0 0 0 0 0 
trait 3 0.3 0 0 0 0.122212 0.0727525 0 0.113727 
node 1 3 1 1
node 2 3 1 1
node 3 1 1 1
node 4 1 1 1
node 5 3 1 1
node 6 2 1 1
node 7 1 1 3
node 8 3 0 2
node 9 1 0 0
gene 3 1 8 -5.43588 0 1 -5.43588 1
gene 3 2 8 2.93176 0 2 2.93176 1
gene 1 3 8 5.10487 0 3 5.10487 1
gene 3 4 8 0.0391963 0 4 0.0391963 1
gene 1 5 8 -0.62711 0 5 -0.62711 0
gene 1 6 8 1.93751 0 6 1.93751 1
gene 2 7 8 -3.9001 0 7 -3.9001 1
gene 1 5 9 3.54757 0 8 3.54757 1
gene 1 9 8 2.86794 0 9 2.86794 1
genomeend 127

/* Organism #128 Fitness: 6 Error: 0 */
genomestart 128
trait 1 0.1 0 0 0 0 0 0 0 
trait 2 0.2 0 0 0 0 0 0 0 
trait 3 0.3 0 0 0 0.244425 0.145505 0 0.227453 
node 1 3 1 1
node 2 3 1 1
node 3 1 1 1
node 4 1 1 1
node 5 3 1 1
node 6 2 1 1
node 7 1 1 3
node 8 3 0 2
node 9 1 0 0
gene 3 1 8 -2.35998 0 1 -2.35998 1
gene 3 2 8 2.48364 0 2 2.48364 1
gene 1 3 8 1.92316 0 3 1.92316 1
gene 3 4 8 -2.56938 0 4 -2.56938 1
gene 1 5 8 -2.75435 0 5 -2.75435 0
gene 1 6 8 0.231736 0 6 0.231736 1
gene 2 7 8 -4.56019 0 7 -4.56019 1
gene 1 5 9 4.0331 0 8 4.0331 1
gene 1 9 8 2.83389 0 9 2.83389 1
genomeend 128

/* Organism #129 Fitness: 50 Error: 0 */
genomestart 129
trait 1 0.1 0 0 0 0 0 0 0 
trait 2 0.2 0 0 0 0 0 0 0 
trait 3 0.3 0 0 0 0.122212 0.0727525 0 0.113727 
node 1 3 1 1
node 2 3 1 1
node 3 1 1 1
node 4 1 1 1
node 5 3 1 1
node 6 2 1 1
node 7 1 1 3
node 8 3 0 2
node 9 1 0 0
gene 3 1 8 -6.51878 0 1 -6.51878 1
gene 3 2 8 4.33279 0 2 4.33279 1
gene 1 3 8 3.28058 0 3 3.28058 1
gene 3 4 8 -3.13256 0 4 -3.13256 1
gene 2 5 8 -1.11823 0 5 -1.11823 0
gene 1 6 8 6.36578 0 6 6.36578 1
gene 2 7 8 -3.74391 0 7 -3.74391 1
gene 1 5 9 1.86211 0 8 1.86211 1
gene 1 9 8 1.38503 0 9 1.38503 1
genomeend 129

/* Organism #130 Fitness: 36 Error: 0 */
genomestart 130
trait 1 0.1 0 0 0.228549 0.0175143 0 0 0.0371522 
trait 2 0.1875 0 0 0 0 0.0619354 0 0 
trait 3 0.3 0 0 0 0.0916594 0.0545644 0 0.0852951 
node 1 3 1 1
node 2 3 1 1
node 3 1 1 1
node 4 1 1 1
node 5 3 1 1
node 6 2 1 1
node 7 1 1 3
node 8 3 0 2
node 9 1 0 0
gene 3 1 8 -4.25587 0 1 -4.25587 1
gene 3 2 8 -0.00468682 0 2 -0.00468682 1
gene 1 3 8 -0.375694 0 3 -0.375694 1
gene 3 4 8 -1.26214 0 4 -1.26214 1
gene 1 5 8 -0.801922 0 5 -0.801922 0
gene 1 6 8 3.17271 0 6 3.17271 1
gene 2 7 8 -1.70436 0 7 -1.70436 1
gene 1 5 9 4.11397 0 8 4.11397 1
gene 2 9 8 1.85496 0 9 1.85496 1
genomeend 130

/* Organism #131 Fitness: 42 Error: 0 */
genomestart 131
trait 1 0.1 0 0 0.0694483 0.0525429 0 0 0 
trait 2 0.2 0 0 0 0 0 0 0 
trait 3 0.3 0 0 0 0.122212 0.0727525 0 0.113727 
node 1 3 1 1
node 2 3 1 1
node 3 1 1 1
node 4 1 1 1
node 5 3 1 1
node 6 2 1 1
node 7 1 1 3
node 8 3 0 2
node 9 1 0 0
gene 3 1 8 -3.15505 0 1 -3.15505 1
gene 3 2 8 2.74479 0 2 2.74479 1
gene 1 3 8 1.77094 0 3 1.77094 1
gene 3 4 8 -2.57881 0 4 -2.57881 1
gene 1 5 8 -1.96569 0 5 -1.96569 1
gene 1 6 8 4.44366 0 6 4.44366 1
gene 2 7 8 -2.60283 0 7 -2.60283 1
gene 1 5 9 1.40836 0 8 1.40836 1
gene 1 9 8 1.66921 0 9 1.66921 1
gene 2 1 9 -0.467421 0 50 -0.467421 1
genomeend 131

/* Organism #132 Fitness: 34 Error: 0 */
genomestart 132
trait 1 0.1 0 0 0.231494 0.175143 0 0 0 
trait 2 0.2 0 0 0 0 0 0 0 
trait 3 0.3 0 0 0 0.0611062 0.0363762 0 0.0568634 
node 1 3 1 1
node 2 3 1 1
node 3 1 1 1
node 4 1 1 1
node 5 3 1 1
node 6 2 1 1
node 7 1 1 3
node 8 3 0 2
node 9 1 0 0
gene 3 1 8 -2.22073 0 1 -2.22073 1
gene 3 2 8 -0.00338431 0 2 -0.00338431 1
gene 1 3 8 0.929672 0 3 0.929672 1
gene 3 4 8 0.79415 0 4 0.79415 1
gene 1 5 8 -0.797875 0 5 -0.797875 0
gene 1 6 8 3.42333 0 6 3.42333 1
gene 2 7 8 -3.73784 0 7 -3.73784 1
gene 1 5 9 2.58385 0 8 2.58385 1
gene 1 9 8 3.14144 0 9 3.14144 1
genomeend 132

/* Organism #133 Fitness: 65 Error: 0 */
genomestart 133
trait 1 0.1 0 0 0.205399 0 0 0 0.0371522 
trait 2 0.2 0 0 0 0 0 0 0 
trait 3 0.3 0 0 0 0.152766 0.0909406 0 0.142158 
node 1 3 1 1
node 2 3 1 1
node 3 1 1 1
node 4 1 1 1
node 5 3 1 1
node 6 2 1 1
node 7 1 1 3
node 8 3 0 2
node 9 1 0 0
gene 3 1 8 -1.73764 0 1 -1.73764 1
gene 3 2 8 3.59857 0 2 3.59857 1
gene 1 3 8 0.529185 0 3 0.529185 1
gene 3 4 8 -1.53243 0 4 -1.53243 1
gene 2 5 8 -3.54349 0 5 -3.54349 0
gene 1 6 8 2.02729 0 6 2.02729 1
gene 2 7 8 -3.2992 0 7 -3.2992 1
gene 1 5 9 4.49033 0 8 4.49033 1
gene 1 9 8 1.73359 0 9 1.73359 1
genomeend 133

/* Organism #134 Fitness: 73 Error: 0 */
genomestart 134
trait 1 0.1 0 0 0.0694483 0.0525429 0 0 0 
trait 2 0.2 0 0 0 0 0 0 0 
trait 3 0.3 0.376666 0.105358 0.414896 0.122212 0.0727525 0 0.113727 
node 1 3 1 1
node 2 3 1 1
node 3 1 1 1
node 4 1 1 1
node 5 3 1 1
node 6 2 1 1
node 7 1 1 3
node 8 3 0 2
node 9 1 0 0
gene 3 1 8 -3.47916 0 1 -3.47916 1
gene 3 2 8 4.64147 0 2 4.64147 1
gene 1 3 8 2.25008 0 3 2.25008 1
gene 3 4 8 -1.92993 0 4 -1.92993 1
gene 1 5 8 -4.54737 0 5 -4.54737 0
gene 1 6 8 4.35547 0 6 4.35547 1
gene 2 7 8 -4.9812 0 7 -4.9812 1
gene 1 5 9 3.93974 0 8 3.93974 1
gene 1 9 8 2.76763 0 9 2.76763 1
genomeend 134

/* Organism #135 Fitness: 14 Error: 0 */
genomestart 135
trait 1 0.1 0 0 0.0231494 0.0175143 0 0 0 
trait 2 0.1875 0 0 0 0 0.0619354 0 0 
trait 3 0.3 0 0 0 0.183319 0.109129 0 0.17059 
node 1 3 1 1
node 2 3 1 1
node 3 1 1 1
node 4 1 1 1
node 5 3 1 1
node 6 2 1 1
node 7 1 1 3
node 8 3 0 2
node 9 1 0 0
gene 3 1 8 -2.61348 0 1 -2.61348 1
gene 3 2 8 1.07145 0 2 1.07145 1
gene 1 3 8 1.17601 0 3 1.17601 1
gene 3 4 8 -0.13497 0 4 -0.13497 1
gene 1 5 8 -0.519868 0 5 -0.519868 0
gene 1 6 8 3.29984 0 6 3.29984 1
gene 2 7 8 -5.48609 0 7 -5.48609 1
gene 1 5 9 6.10947 0 8 6.10947 1
gene 1 9 8 -0.668589 0 9 -0.668589 1
genomeend 135

/* Organism #136 Fitness: 34 Error: 0 */
genomestart 136
trait 1 0.1 0 0 0.208345 0.157629 0 0 0 
trait 2 0.2 0 0 0 0 0 0 0 
trait 3 0.3 0 0 0 0 0 0 0 
node 1 3 1 1
node 2 3 1 1
node 3 1 1 1
node 4 1 1 1
node 5 3 1 1
node 6 2 1 1
node 7 1 1 3
node 8 3 0 2
node 9 1 0 0
gene 3 1 8 -0.113966 0 1 -0.113966 1
gene 3 2 8 3.60501 0 2 3.60501 1
gene 1 3 8 1.76538 0 3 1.76538 1
gene 3 4 8 -5.25977 0 4 -5.25977 1
gene 1 5 8 -1.95512 0 5 -1.95512 0
gene 1 6 8 5.71839 0 6 5.71839 1
gene 2 7 8 -0.774159 0 7 -0.774159 1
gene 1 5 9 0.985859 0 8 0.985859 1
gene 1 9 8 -0.478429 0 9 -0.478429 1
genomeend 136

/* Organism #137 Fitness: 13 Error: 0 */
genomestart 137
trait 1 0.1 0 0 0.254644 0.192657 0 0 0 
trait 2 0.1875 0 0 0 0 0.0619354 0 0 
trait 3 0.3 0 0 0 0.0611062 0.0363762 0 0.0568634 
node 1 3 1 1
node 2 3 1 1
node 3 1 1 1
node 4 1 1 1
node 5 3 1 1
node 6 2 1 1
node 7 1 1 3
node 8 1 0 2
node 9 1 0 0
gene 3 1 8 -0.709392 0 1 -0.709392 1
gene 3 2 8 2.1299 0 2 2.1299 1
gene 1 3 8 1.55031 0 3 1.55031 1
gene 3 4 8 0.0466867 0 4 0.0466867 1
gene 1 5 8 -2.44806 0 5 -2.44806 0
gene 1 6 8 3.65101 0 6 3.65101 1
gene 2 7 8 -2.72851 0 7 -2.72851 1
gene 1 5 9 4.48241 0 8 4.48241 1
gene 1 9 8 -3.002 0 9 -3.002 1
genomeend 137

/* Organism #138 Fitness: 21 Error: 0 */
genomestart 138
trait 1 0.1 0 0 0.115747 0.0875716 0 0 0 
trait 2 0.175 0 0 0 0 0.123871 0 0 
trait 3 0.3 0 0 0 0.122212 0.0727525 0 0.113727 
node 1 3 1 1
node 2 3 1 1
node 3 1 1 1
node 4 1 1 1
node 5 3 1 1
node 6 2 1 1
node 7 1 1 3
node 8 3 0 2
node 9 1 0 0
gene 3 1 8 -1.50012 0 1 -1.50012 1
gene 2 2 8 4.47631 0 2 4.47631 1
gene 1 3 8 3.6479 0 3 3.6479 1
gene 3 4 8 0.792604 0 4 0.792604 1
gene 1 5 8 2.06008 0 5 2.06008 0
gene 1 6 8 3.52957 0 6 3.52957 1
gene 2 7 8 1.12685 0 7 1.12685 1
gene 1 5 9 5.20264 0 8 5.20264 1
gene 1 9 8 -0.94449 0 9 -0.94449 1
genomeend 138

/* Organism #139 Fitness: 74 Error: 0 */
genomestart 139
trait 1 0.1 0 0 0 0 0 0 0 
trait 2 0.2 0 0 0 0 0 0 0 
trait 3 0.3 0 0 0 0.244425 0.145505 0 0.227453 
node 1 3 1 1
node 2 3 1 1
node 3 1 1 1
node 4 1 1 1
node 5 3 1 1
node 6 2 1 1
node 7 1 1 3
node 8 3 0 2
node 9 1 0 0
gene 3 1 8 -4.36237 0 1 -4.36237 1
gene 3 2 8 2.27338 0 2 2.27338 1
gene 1 3 8 2.42698 0 3 2.42698 1
gene 3 4 8 -0.875092 0 4 -0.875092 1
gene 1 5 8 -3.27375 0 5 -3.27375 0
gene 1 6 8 2.7033 0 6 2.7033 1
gene 2 7 8 -3.32777 0 7 -3.32777 1
gene 1 5 9 1.82277 0 8 1.82277 1
gene 1 9 8 1.92853 0 9 1.92853 1
genomeend 139

/* Organism #140 Fitness: 58 Error: 0 */
genomestart 140
trait 1 0 0 0 0.115747 0.0875716 0 0 0 
trait 2 0.1875 0 0 0 0 0.0619354 0 0 
trait 3 0.3 0 0 0 0.122212 0.0727525 0 0.113727 
node 1 3 1 1
node 2 3 1 1
node 3 1 1 1
node 4 1 1 1
node 5 3 1 1
node 6 2 1 1
node 7 1 1 3
node 8 3 0 2
node 9 1 0 0
gene 1 1 8 -2.96673 0 1 -2.96673 1
gene 3 2 8 1.54746 0 2 1.54746 1
gene 1 3 8 4.99904 0 3 4.99904 1
gene 3 4 8 -4.08907 0 4 -4.08907 1
gene 1 5 8 2.253 0 5 2.253 1
gene 1 6 8 4.39943 0 6 4.39943 1
gene 2 7 8 -0.985805 0 7 -0.985805 1
gene 1 5 9 1.42341 0 8 1.42341 1
gene 1 9 8 -0.881997 0 9 -0.881997 1
genomeend 140

/* Organism #141 Fitness: 81 Error: 0 */
genomestart 141
trait 1 0.1 0 0 0.277793 0.210172 0 0 0 
trait 2 0.2 0 0 0 0 0 0 0 
trait 3 0.3 0 0 0 0 0 0 0 
node 1 3 1 1
node 2 3 1 1
node 3 1 1 1
node 4 1 1 1
node 5 3 1 1
node 6 2 1 1
node 7 1 1 3
node 8 3 0 2
node 9 1 0 0
gene 3 1 8 -2.46645 0 1 -2.46645 1
gene 3 2 8 0.470037 0 2 0.470037 1
gene 1 3 8 3.27802 0 3 3.27802 1
gene 3 4 8 -1.35608 0 4 -1.35608 1
gene 1 5 8 -1.85476 0 5 -1.85476 1
gene 1 6 8 3.98151 0 6 3.98151 1
gene 2 7 8 -1.87658 0 7 -1.87658 1
gene 1 5 9 3.1668 0 8 3.1668 1
gene 1 9 8 1.39969 0 9 1.39969 1
genomeend 141

/* Organism #142 Fitness: 75 Error: 0 */
genomestart 142
trait 1 0.1 0 0 0.231494 0.175143 0 0 0 
trait 2 0.2 0 0 0 0 0 0 0 
trait 3 0.3 0 0 0 0.0611062 0.0363762 0 0.0568634 
node 1 3 1 1
node 2 3 1 1
node 3 1 1 1
node 4 1 1 1
node 5 3 1 1
node 6 2 1 1
node 7 1 1 3
node 8 3 0 2
node 9 1 0 0
gene 3 1 8 -2.46645 0 1 -2.46645 1
gene 3 2 8 0.470037 0 2 0.470037 1
gene 1 3 8 3.27802 0 3 3.27802 1
gene 3 4 8 -1.35608 0 4 -1.35608 1
gene 1 5 8 -1.85476 0 5 -1.85476 0
gene 1 6 8 3.98151 0 6 3.98151 1
gene 2 7 8 -1.97211 0 7 -1.97211 1
gene 1 5 9 3.1668 0 8 3.1668 1
gene 1 9 8 1.39969 0 9 1.39969 1
genomeend 142

/* Organism #143 Fitness: 31 Error: 0 */
genomestart 143
trait 1 0.1 0 0 0.115747 0.0875716 0 0 0 
trait 2 0.2 0 0 0 0 0 0 0 
trait 3 0.3 0 0 0 0.122212 0.0727525 0 0.113727 
node 1 3 1 1
node 2 3 1 1
node 3 1 1 1
node 4 1 1 1
node 5 3 1 1
node 6 2 1 1
node 7 1 1 3
node 8 3 0 2
node 9 1 0 0
gene 3 1 8 -5.321 0 1 -5.321 1
gene 3 2 8 -2.36443 0 2 -2.36443 1
gene 1 3 8 5.50961 0 3 5.50961 1
gene 3 4 8 -0.790789 0 4 -0.790789 0
gene 2 5 8 -6.01635 0 5 -6.01635 0
gene 1 6 8 6.01393 0 6 6.01393 1
gene 2 7 8 -1.78105 0 7 -1.78105 1
gene 1 5 9 4.22026 0 8 4.22026 1
gene 1 9 8 2.93951 0 9 2.93951 1
genomeend 143

/* Organism #144 Fitness: 49 Error: 0 */
genomestart 144
trait 1 0.1 0 0 0 0 0 0 0 
trait 2 0.2 0 0 0 0 0 0 0 
trait 3 0.3 0 0.878315 0 0.244425 0 0 0.0339771 
node 1 3 1 1
node 2 3 1 1
node 3 1 1 1
node 4 1 1 1
node 5 3 1 1
node 6 2 1 1
node 7 1 1 3
node 8 3 0 2
node 9 1 0 0
gene 3 1 8 -5.39704 0 1 -5.39704 1
gene 3 2 8 0.367065 0 2 0.367065 1
gene 1 3 8 1.89967 0 3 1.89967 1
gene 3 4 8 -2.27467 0 4 -2.27467 1
gene 2 5 8 -1.25164 0 5 -1.25164 0
gene 1 6 8 5.09087 0 6 5.09087 1
gene 2 7 8 -1.41217 0 7 -1.41217 1
gene 1 5 9 2.61436 0 8 2.61436 1
gene 1 9 8 1.96427 0 9 1.96427 1
gene 2 1 9 -0.467421 0 50 -0.467421 1
genomeend 144

/* Organism #145 Fitness: 13 Error: 0 */
genomestart 145
trait 1 0.1 0 0 0.185195 0.140115 0 0 0 
trait 2 0.175 0 0 0 0 0.123871 0 0 
trait 3 0.3 0 0 0 0.122212 0.0727525 0 0.113727 
node 1 3 1 1
node 2 3 1 1
node 3 1 1 1
node 4 1 1 1
node 5 3 1 1
node 6 2 1 1
node 7 1 1 3
node 8 3 0 2
node 9 1 0 0
gene 3 1 8 -6.10674 0 1 -6.10674 1
gene 3 2 8 3.77545 0 2 3.77545 1
gene 1 3 8 2.7445 0 3 2.7445 1
gene 3 4 8 0.964667 0 4 0.964667 1
gene 1 5 8 -2.15505 0 5 -2.15505 0
gene 1 6 8 2.37182 0 6 2.37182 1
gene 2 7 8 -2.00606 0 7 -2.00606 1
gene 1 5 9 3.34481 0 8 3.34481 1
gene 1 9 8 -2.09555 0 9 -2.09555 1
genomeend 145

/* Organism #146 Fitness: 67 Error: 0 */
genomestart 146
trait 1 0.1 0 0 0.185195 0.140115 0 0 0 
trait 2 0.2 0 0 0 0 0 0 0 
trait 3 0.3 0 0 0 0 0 0 0 
node 1 3 1 1
node 2 3 1 1
node 3 1 1 1
node 4 1 1 1
node 5 3 1 1
node 6 2 1 1
node 7 1 1 3
node 8 3 0 2
node 9 1 0 0
gene 3 1 8 -1.94773 0 1 -1.94773 1
gene 3 2 8 0.91563 0 2 0.91563 1
gene 1 3 8 3.27802 0 3 3.27802 1
gene 3 4 8 -4.28252 0 4 -4.28252 0
gene 1 5 8 -1.95152 0 5 -1.95152 0
gene 1 6 8 6.18403 0 6 6.18403 1
gene 2 7 8 -1.78105 0 7 -1.78105 1
gene 1 5 9 0.993962 0 8 0.993962 1
gene 1 9 8 1.39969 0 9 1.39969 1
genomeend 146

/* Organism #147 Fitness: 28 Error: 0 */
genomestart 147
trait 1 0.1 0 0 0.0925977 0.0700573 0 0 0 
trait 2 0.1875 0 0 0 0 0.0619354 0 0 
trait 3 0.3 0 0 0 0.183319 0.109129 0 0.17059 
node 1 3 1 1
node 2 3 1 1
node 3 1 1 1
node 4 1 1 1
node 5 3 1 1
node 6 2 1 1
node 7 1 1 3
node 8 3 0 2
node 9 1 0 0
gene 3 1 8 -4.11194 0 1 -4.11194 1
gene 3 2 8 1.41007 0 2 1.41007 1
gene 1 3 8 3.68257 0 3 3.68257 1
gene 3 4 8 -2.00107 0 4 -2.00107 1
gene 2 5 8 -1.71487 0 5 -1.71487 0
gene 1 6 8 4.76677 0 6 4.76677 1
gene 2 7 8 -0.215321 0 7 -0.215321 1
gene 1 5 9 5.67799 0 8 5.67799 1
gene 1 9 8 0.979914 0 9 0.979914 1
gene 2 1 9 1.50155 0 50 1.50155 1
genomeend 147

/* Organism #148 Fitness: 7 Error: 0 */
genomestart 148
trait 1 0.1 0 0 0.115747 0.0875716 0 0 0 
trait 2 0.2 0 0 0 0 0 0 0 
trait 3 0.3 0 0 0 0.122212 0.0727525 0 0.113727 
node 1 3 1 1
node 2 3 1 1
node 3 1 1 1
node 4 1 1 1
node 5 3 1 1
node 6 2 1 1
node 7 1 1 3
node 8 3 0 2
node 9 1 0 0
gene 3 1 8 -4.51612 0 1 -4.51612 1
gene 3 2 8 -1.02638 0 2 -1.02638 1
gene 1 3 8 2.84683 0 3 2.84683 1
gene 3 4 8 1.14183 0 4 1.14183 0
gene 1 5 8 -3.84617 0 5 -3.84617 0
gene 1 6 8 -0.0800387 0 6 -0.0800387 1
gene 2 7 8 -1.78105 0 7 -1.78105 1
gene 1 5 9 1.47924 0 8 1.47924 1
gene 1 9 8 3.16832 0 9 3.16832 1
gene 2 1 9 -2.39793 0 50 -2.39793 1
genomeend 148

/* Species #3 : (Size 1) (AF 30) (Age 1)  */


/* Organism #149 Fitness: 30 Error: 0 */
genomestart 149
trait 1 0.1 0 0 0.205399 0 0 0 0.0371522 
trait 2 0.2 0 0 0 0 0 0 0 
trait 3 0.263223 0 0 0 0.0305531 0.0181881 0 0.0284317 
node 1 1 1 1
node 2 3 1 1
node 3 3 1 1
node 4 2 1 1
node 5 2 1 1
node 6 3 1 1
node 7 1 1 3
node 8 1 0 2
node 22 1 0 0
gene 3 1 8 -0.555201 0 1 -0.555201 0
gene 2 2 8 2.80293 0 2 2.80293 1
gene 2 3 8 1.07115 0 3 1.07115 1
gene 1 4 8 -2.10447 0 4 -2.10447 1
gene 2 5 8 -0.370198 0 5 -0.370198 1
gene 1 6 8 4.15896 0 6 4.15896 1
gene 2 7 8 -2.16154 0 7 -2.16154 1
gene 3 1 22 -0.431922 0 42 -0.431922 1
gene 3 22 8 -1.58604 0 43 -1.58604 1
genomeend 149
