
/* Species #1 : (Size 26) (AF 55.0385) (Age 12)  */


/* Organism #0 Fitness: 278 Error: 0 */
genomestart 0
trait 1 0.303604 0.121437 0.112949 0 0 0.208007 0 0 
trait 2 0.2 0 0 0 0 0 0 0 
trait 3 0.3 0 0 0 0 0 0 0 
node 1 1 1 1
node 2 2 1 1
node 3 1 1 1
node 4 1 1 1
node 5 1 1 1
node 6 2 1 1
node 7 3 1 3
node 8 3 0 2
node 11 1 0 0
gene 3 1 8 1.4395 0 1 1.4395 1
gene 2 2 8 0.437848 0 2 0.437848 1
gene 2 3 8 -3.15087 0 3 -3.15087 1
gene 3 4 8 -2.26457 0 4 -2.26457 1
gene 1 5 8 2.83395 0 5 2.83395 1
gene 1 6 8 1.21615 0 6 1.21615 1
gene 2 7 8 -0.545838 0 7 -0.545838 1
gene 3 4 11 4.73024 0 12 4.73024 1
gene 3 11 8 0.281652 0 13 0.281652 1
genomeend 0

/* Organism #1 Fitness: 65 Error: 0 */
genomestart 1
trait 1 0.297242 0.117642 0.109419 0 0 0.201507 0 0 
trait 2 0.2 0 0 0 0 0 0 0 
trait 3 0.3 0.217344 0 0 0 0 0.292615 0.179342 
node 1 1 1 1
node 2 2 1 1
node 3 1 1 1
node 4 1 1 1
node 5 1 1 1
node 6 2 1 1
node 7 3 1 3
node 8 3 0 2
node 11 1 0 0
gene 3 1 8 2.01852 0 1 2.01852 1
gene 2 2 8 -1.48697 0 2 -1.48697 0
gene 2 3 8 -2.68283 0 3 -2.68283 1
gene 3 4 8 -1.24295 0 4 -1.24295 0
gene 1 5 8 4.83471 0 5 4.83471 1
gene 3 6 8 1.55229 0 6 1.55229 1
gene 2 7 8 -1.58206 0 7 -1.58206 1
gene 3 4 11 4.50565 0 12 4.50565 1
gene 3 11 8 1.02461 0 13 1.02461 1
gene 2 1 11 -0.507007 0 91 -0.507007 1
genomeend 1

/* Organism #2 Fitness: 6 Error: 0 */
genomestart 2
trait 1 0.284516 0.110052 0.10236 0 0 0.188506 0 0 
trait 2 0.2 0 0 0 0 0 0 0 
trait 3 0.3 0.289791 0 0 0 0 0.390154 0.314591 
node 1 1 1 1
node 2 2 1 1
node 3 1 1 1
node 4 1 1 1
node 5 1 1 1
node 6 2 1 1
node 7 3 1 3
node 8 3 0 2
node 11 1 0 0
gene 3 1 8 1.26357 0 1 1.26357 1
gene 2 2 8 0.745266 0 2 0.745266 1
gene 2 3 8 -3.76063 0 3 -3.76063 1
gene 3 4 8 -1.45742 0 4 -1.45742 0
gene 1 5 8 4.21566 0 5 4.21566 1
gene 3 6 8 0.483865 0 6 0.483865 1
gene 2 7 8 -1.45734 0 7 -1.45734 1
gene 3 4 11 5.55033 0 12 5.55033 1
gene 3 11 8 -1.7508 0 13 -1.7508 1
gene 1 1 11 -1.69778 0 91 -1.69778 1
genomeend 2

/* Organism #3 Fitness: 5 Error: 0 */
genomestart 3
trait 1 0.290879 0.113847 0.10589 0 0 0.195007 0 0 
trait 2 0.2 0 0 0 0 0 0 0 
trait 3 0.3 0.144896 0 0 0 0 0.195077 0.19503 
node 1 1 1 1
node 2 2 1 1
node 3 1 1 1
node 4 1 1 1
node 5 1 1 1
node 6 2 1 1
node 7 3 1 3
node 8 3 0 2
node 11 1 0 0
gene 3 1 8 1.56531 0 1 1.56531 1
gene 2 2 8 -1.39174 0 2 -1.39174 1
gene 2 3 8 -3.29945 0 3 -3.29945 1
gene 3 4 8 -0.527478 0 4 -0.527478 1
gene 1 5 8 -1.53386 0 5 -1.53386 1
gene 1 6 8 0.308448 0 6 0.308448 1
gene 2 7 8 -1.39318 0 7 -1.39318 1
gene 3 4 11 3.13852 0 12 3.13852 1
gene 3 11 8 -1.5312 0 13 -1.5312 1
genomeend 3

/* Organism #4 Fitness: 32 Error: 0 */
genomestart 4
trait 1 0.297242 0.117642 0.109419 0 0 0.201507 0 0 
trait 2 0.2 0 0 0 0 0 0 0 
trait 3 0.3 0.144896 0 0 0 0 0.195077 0.119562 
node 1 1 1 1
node 2 2 1 1
node 3 1 1 1
node 4 1 1 1
node 5 1 1 1
node 6 2 1 1
node 7 3 1 3
node 8 3 0 2
node 11 1 0 0
gene 3 1 8 -2.08479 0 1 -2.08479 1
gene 2 2 8 -0.686151 0 2 -0.686151 1
gene 2 3 8 -5.2694 0 3 -5.2694 1
gene 3 4 8 -4.33939 0 4 -4.33939 0
gene 1 5 8 4.52451 0 5 4.52451 1
gene 3 6 8 0.349765 0 6 0.349765 1
gene 2 7 8 1.2412 0 7 1.2412 1
gene 3 4 11 4.20639 0 12 4.20639 1
gene 3 11 8 1.16408 0 13 1.16408 1
genomeend 4

/* Organism #5 Fitness: 26 Error: 0 */
genomestart 5
trait 1 0.239978 0.068441 0.0494151 0 0 0.143005 0 0 
trait 2 0.2 0 0 0 0 0 0 0 
trait 3 0.34375 0.144896 0 0 0.056253 0 0.195077 0.246257 
node 1 1 1 1
node 2 2 1 1
node 3 1 1 1
node 4 1 1 1
node 5 2 1 1
node 6 2 1 1
node 7 3 1 3
node 8 3 0 2
node 11 1 0 0
gene 3 1 8 -0.672544 0 1 -0.672544 1
gene 2 2 8 -2.74052 0 2 -2.74052 1
gene 2 3 8 -5.9422 0 3 -5.9422 1
gene 3 4 8 1.51417 0 4 1.51417 1
gene 1 5 8 1.08556 0 5 1.08556 1
gene 1 6 8 1.24496 0 6 1.24496 1
gene 1 7 8 2.40801 0 7 2.40801 1
gene 3 4 11 -1.58011 0 12 -1.58011 1
gene 3 11 8 0.297811 0 13 0.297811 1
gene 2 1 11 0.969398 0 76 0.969398 1
genomeend 5

/* Organism #6 Fitness: 49 Error: 0 */
genomestart 6
trait 1 0.252703 0.0760308 0.0564744 0 0 0.156005 0 0 
trait 2 0.2 0 0 0 0 0 0 0 
trait 3 0.34375 0.0724478 0 0 0.056253 0 0.0975384 0.111008 
node 1 1 1 1
node 2 2 1 1
node 3 1 1 1
node 4 1 1 1
node 5 1 1 1
node 6 2 1 1
node 7 3 1 3
node 8 3 0 2
gene 3 1 8 -1.87294 0 1 -1.87294 1
gene 2 2 8 -1.52464 0 2 -1.52464 1
gene 2 3 8 -3.15907 0 3 -3.15907 1
gene 3 4 8 -2.4351 0 4 -2.4351 1
gene 1 5 8 5.81975 0 5 5.81975 1
gene 2 6 8 1.74787 0 6 1.74787 1
gene 2 7 8 -1.6841 0 7 -1.6841 1
genomeend 6

/* Organism #7 Fitness: 6 Error: 0 */
genomestart 7
trait 1 0.278154 0.106257 0.0988302 0 0 0.182006 0 0 
trait 2 0.2 0 0 0 0 0 0 0 
trait 3 0.3 0.289791 0 0 0 0 0.390154 0.159755 
node 1 1 1 1
node 2 2 1 1
node 3 1 1 1
node 4 1 1 1
node 5 1 1 1
node 6 2 1 1
node 7 3 1 3
node 8 3 0 2
node 11 1 0 0
gene 3 1 8 0.942139 0 1 0.942139 1
gene 2 2 8 -0.295969 0 2 -0.295969 1
gene 2 3 8 -2.68217 0 3 -2.68217 1
gene 3 4 8 1.09709 0 4 1.09709 1
gene 1 5 8 3.65599 0 5 3.65599 1
gene 1 6 8 -0.481585 0 6 -0.481585 1
gene 2 7 8 1.57913 0 7 1.57913 1
gene 3 4 11 6.37968 0 12 6.37968 1
gene 3 11 8 -1.10166 0 13 -1.10166 1
gene 2 1 11 -1.17172 0 76 -1.17172 1
genomeend 7

/* Organism #8 Fitness: 55 Error: 0 */
genomestart 8
trait 1 0.239978 0.068441 0.0494151 0 0 0.143005 0 0 
trait 2 0.2 0 0 0 0 0 0 0 
trait 3 0.34375 0.144896 0 0 0.056253 0 0.195077 0.246257 
node 1 1 1 1
node 2 2 1 1
node 3 1 1 1
node 4 1 1 1
node 5 1 1 1
node 6 2 1 1
node 7 3 1 3
node 8 3 0 2
gene 3 1 8 -4.89694 0 1 -4.89694 1
gene 3 2 8 3.25042 0 2 3.25042 1
gene 2 3 8 -4.54868 0 3 -4.54868 1
gene 3 4 8 -1.47086 0 4 -1.47086 1
gene 2 5 8 5.07149 0 5 5.07149 1
gene 2 6 8 1.25014 0 6 1.25014 1
gene 1 7 8 -2.50789 0 7 -2.50789 1
genomeend 8

/* Organism #9 Fitness: 109 Error: 0 */
genomestart 9
trait 1 0.284516 0.110052 0.10236 0 0 0.188506 0 0 
trait 2 0.2 0 0 0 0 0 0 0 
trait 3 0.3 0.289791 0 0 0 0 0.390154 0.314591 
node 1 1 1 1
node 2 2 1 1
node 3 1 1 1
node 4 1 1 1
node 5 1 1 1
node 6 2 1 1
node 7 3 1 3
node 8 3 0 2
node 11 1 0 0
gene 3 1 8 1.6327 0 1 1.6327 1
gene 2 2 8 0.238782 0 2 0.238782 1
gene 2 3 8 -2.93661 0 3 -2.93661 1
gene 3 4 8 -0.370897 0 4 -0.370897 0
gene 1 5 8 2.65657 0 5 2.65657 1
gene 1 6 8 1.16431 0 6 1.16431 1
gene 2 7 8 0.0050668 0 7 0.0050668 1
gene 3 4 11 4.13213 0 12 4.13213 0
gene 3 11 8 0.00801217 0 13 0.00801217 1
gene 2 1 11 -0.837653 0 76 -0.837653 1
genomeend 9

/* Organism #10 Fitness: 193 Error: 0 */
genomestart 10
trait 1 0.252703 0.0760308 0.0564744 0 0 0.156005 0 0 
trait 2 0.2 0 0 0 0 0 0 0 
trait 3 0.34375 0.0724478 0 0 0.056253 0 0.0975384 0.111008 
node 1 1 1 1
node 2 2 1 1
node 3 1 1 1
node 4 1 1 1
node 5 1 1 1
node 6 2 1 1
node 7 3 1 3
node 8 3 0 2
gene 3 1 8 1.4395 0 1 1.4395 1
gene 3 2 8 -1.7892 0 2 -1.7892 0
gene 2 3 8 -3.15087 0 3 -3.15087 1
gene 3 4 8 -5.17332 0 4 -5.17332 1
gene 2 5 8 4.3032 0 5 4.3032 1
gene 2 6 8 1.91256 0 6 1.91256 1
gene 2 7 8 -0.545838 0 7 -0.545838 1
genomeend 10

/* Organism #11 Fitness: 31 Error: 0 */
genomestart 11
trait 1 0.303604 0.121437 0.112949 0 0 0.208007 0 0 
trait 2 0.2 0 0 0 0 0 0 0 
trait 3 0.3 0 0 0 0 0 0 0 
node 1 1 1 1
node 2 2 1 1
node 3 1 1 1
node 4 1 1 1
node 5 1 1 1
node 6 2 1 1
node 7 3 1 3
node 8 3 0 2
node 11 1 0 0
gene 3 1 8 1.4395 0 1 1.4395 1
gene 2 2 8 0.437848 0 2 0.437848 1
gene 2 3 8 -3.16053 0 3 -3.16053 1
gene 3 4 8 -1.49353 0 4 -1.49353 1
gene 1 5 8 2.69263 0 5 2.69263 1
gene 1 6 8 1.74149 0 6 1.74149 1
gene 2 7 8 1.14414 0 7 1.14414 1
gene 3 4 11 -1.9387 0 12 -1.9387 1
gene 3 11 8 1.72643 0 13 1.72643 1
genomeend 11

/* Organism #12 Fitness: 43 Error: 0 */
genomestart 12
trait 1 0.297242 0.117642 0.109419 0 0 0.201507 0 0 
trait 2 0.2 0 0 0 0 0 0 0 
trait 3 0.3 0.144896 0 0 0 0 0.195077 0.119562 
node 1 1 1 1
node 2 2 1 1
node 3 1 1 1
node 4 1 1 1
node 5 1 1 1
node 6 2 1 1
node 7 3 1 3
node 8 3 0 2
node 11 1 0 0
gene 3 1 8 2.55749 0 1 2.55749 1
gene 2 2 8 2.86045 0 2 2.86045 1
gene 2 3 8 -3.09816 0 3 -3.09816 1
gene 3 4 8 -0.075553 0 4 -0.075553 0
gene 1 5 8 2.17232 0 5 2.17232 1
gene 1 6 8 3.40722 0 6 3.40722 1
gene 2 7 8 -0.582057 0 7 -0.582057 1
gene 3 4 11 6.41815 0 12 6.41815 0
gene 3 11 8 0.824543 0 13 0.824543 1
genomeend 12

/* Organism #13 Fitness: 29 Error: 0 */
genomestart 13
trait 1 0.290879 0.113847 0.10589 0 0 0.195007 0 0 
trait 2 0.2 0 0 0 0 0 0 0 
trait 3 0.3 0.289791 0 0 0 0 0.390154 0.239123 
node 1 1 1 1
node 2 2 1 1
node 3 1 1 1
node 4 1 1 1
node 5 1 1 1
node 6 2 1 1
node 7 3 1 3
node 8 3 0 2
node 11 1 0 0
node 36 1 0 0
gene 3 1 8 -0.0919974 0 1 -0.0919974 1
gene 2 2 8 0.174547 0 2 0.174547 1
gene 2 3 8 -1.80918 0 3 -1.80918 1
gene 3 4 8 1.15977 0 4 1.15977 0
gene 1 5 8 2.75363 0 5 2.75363 1
gene 1 6 8 3.05086 0 6 3.05086 1
gene 2 7 8 1.72537 0 7 1.72537 1
gene 3 4 11 2.46483 0 12 2.46483 0
gene 3 11 8 0.281652 0 13 0.281652 1
gene 3 4 36 -0.697437 0 87 -0.697437 1
gene 3 36 11 2.14069 0 88 2.14069 1
genomeend 13

/* Organism #14 Fitness: 40 Error: 0 */
genomestart 14
trait 1 0.297242 0.117642 0.109419 0 0 0.201507 0 0 
trait 2 0.2 0 0 0 0 0 0 0 
trait 3 0.3 0.144896 0 0 0 0 0.195077 0.119562 
node 1 1 1 1
node 2 2 1 1
node 3 1 1 1
node 4 1 1 1
node 5 1 1 1
node 6 2 1 1
node 7 3 1 3
node 8 3 0 2
node 11 1 0 0
node 40 1 0 0
gene 3 1 8 1.4395 0 1 1.4395 1
gene 2 2 8 0.437848 0 2 0.437848 1
gene 2 3 8 -2.78802 0 3 -2.78802 1
gene 3 4 8 0.507548 0 4 0.507548 0
gene 1 5 8 2.83395 0 5 2.83395 0
gene 3 6 8 1.21104 0 6 1.21104 1
gene 2 7 8 -0.545838 0 7 -0.545838 1
gene 3 4 11 4.38494 0 12 4.38494 1
gene 3 11 8 -0.853384 0 13 -0.853384 1
gene 1 5 40 1 0 98 0 1
gene 1 40 8 2.83395 0 99 0 1
genomeend 14

/* Organism #15 Fitness: 30 Error: 0 */
genomestart 15
trait 1 0.290879 0.113847 0.10589 0 0 0.195007 0 0 
trait 2 0.2 0 0 0 0 0 0 0 
trait 3 0.3 0.217344 0 0 0 0 0.292615 0.25481 
node 1 1 1 1
node 2 2 1 1
node 3 1 1 1
node 4 1 1 1
node 5 1 1 1
node 6 2 1 1
node 7 3 1 3
node 8 3 0 2
node 11 1 0 0
gene 3 1 8 3.74567 0 1 3.74567 1
gene 2 2 8 -0.00973437 0 2 -0.00973437 0
gene 2 3 8 -2.34042 0 3 -2.34042 1
gene 3 4 8 1.79497 0 4 1.79497 1
gene 1 5 8 1.93913 0 5 1.93913 1
gene 1 6 8 1.25708 0 6 1.25708 1
gene 2 7 8 0.216866 0 7 0.216866 1
gene 3 4 11 4.93033 0 12 4.93033 1
gene 3 11 8 1.15033 0 13 1.15033 1
gene 2 1 11 -0.679512 0 76 -0.679512 1
genomeend 15

/* Organism #16 Fitness: 5 Error: 0 */
genomestart 16
trait 1 0.290879 0.113847 0.10589 0 0 0.195007 0 0 
trait 2 0.2 0 0 0 0 0 0 0 
trait 3 0.3 0.144896 0 0 0 0 0.195077 0.19503 
node 1 1 1 1
node 2 2 1 1
node 3 1 1 1
node 4 1 1 1
node 5 1 1 1
node 6 2 1 1
node 7 3 1 3
node 8 3 0 2
node 11 1 0 0
gene 3 1 8 2.12571 0 1 2.12571 1
gene 2 2 8 2.52264 0 2 2.52264 1
gene 2 3 8 -1.93385 0 3 -1.93385 1
gene 3 4 8 -1.75431 0 4 -1.75431 1
gene 1 5 8 2.65657 0 5 2.65657 1
gene 1 6 8 -2.47187 0 6 -2.47187 1
gene 2 7 8 -0.306529 0 7 -0.306529 1
gene 3 4 11 5.99543 0 12 5.99543 1
gene 3 11 8 -0.887366 0 13 -0.887366 1
genomeend 16

/* Organism #17 Fitness: 84 Error: 0 */
genomestart 17
trait 1 0.24634 0.0722359 0.0529448 0 0 0.149505 0 0 
trait 2 0.2 0 0 0 0 0 0 0 
trait 3 0.34375 0.144896 0 0 0.056253 0 0.195077 0.170789 
node 1 1 1 1
node 2 2 1 1
node 3 1 1 1
node 4 1 1 1
node 5 1 1 1
node 6 2 1 1
node 7 3 1 3
node 8 3 0 2
gene 3 1 8 1.67476 0 1 1.67476 1
gene 3 2 8 0.752978 0 2 0.752978 1
gene 2 3 8 -5.74255 0 3 -5.74255 1
gene 3 4 8 0.507548 0 4 0.507548 0
gene 2 5 8 4.82974 0 5 4.82974 1
gene 3 6 8 1.21104 0 6 1.21104 1
gene 2 7 8 0.82957 0 7 0.82957 1
genomeend 17

/* Organism #18 Fitness: 30 Error: 0 */
genomestart 18
trait 1 0.24634 0.0722359 0.0529448 0 0 0.149505 0 0 
trait 2 0.2 0 0 0 0 0 0 0 
trait 3 0.34375 0.144896 0 0 0.056253 0 0.195077 0.170789 
node 1 1 1 1
node 2 2 1 1
node 3 1 1 1
node 4 1 1 1
node 5 1 1 1
node 6 2 1 1
node 7 3 1 3
node 8 3 0 2
gene 3 1 8 3.84248 0 1 3.84248 1
gene 3 2 8 1.46522 0 2 1.46522 1
gene 2 3 8 -2.13152 0 3 -2.13152 1
gene 3 4 8 -8 0 4 -8 0
gene 2 5 8 3.27889 0 5 3.27889 1
gene 1 6 8 2.59652 0 6 2.59652 1
gene 1 7 8 1.50939 0 7 1.50939 1
genomeend 18

/* Organism #19 Fitness: 32 Error: 0 */
genomestart 19
trait 1 0.290879 0.113847 0.10589 0 0 0.195007 0 0 
trait 2 0.2 0 0 0 0 0 0 0 
trait 3 0.3 0.289791 0 0 0 0 0.390154 0.239123 
node 1 1 1 1
node 2 2 1 1
node 3 1 1 1
node 4 1 1 1
node 5 1 1 1
node 6 2 1 1
node 7 3 1 3
node 8 3 0 2
node 11 1 0 0
node 36 1 0 0
gene 3 1 8 1.4395 0 1 1.4395 1
gene 2 2 8 0.437848 0 2 0.437848 1
gene 2 3 8 -3.57443 0 3 -3.57443 1
gene 3 4 8 0.707654 0 4 0.707654 0
gene 1 5 8 2.83395 0 5 2.83395 1
gene 1 6 8 0.860939 0 6 0.860939 1
gene 2 7 8 -2.42801 0 7 -2.42801 1
gene 3 4 11 4.46529 0 12 4.46529 0
gene 3 11 8 -0.544621 0 13 -0.544621 1
gene 3 4 36 -0.47359 0 87 -0.47359 1
gene 3 36 11 -0.213972 0 88 -0.213972 1
genomeend 19

/* Organism #20 Fitness: 33 Error: 0 */
genomestart 20
trait 1 0.185896 0.0181834 0 0.00585819 0 0.0919533 0.0554268 0.0742482 
trait 2 0.18125 0 0 0 0.00198758 0 0.0516457 0.0626762 
trait 3 0.356445 0 0 0.0147695 0.100201 0 0 0.0912484 
node 1 2 1 1
node 2 2 1 1
node 3 2 1 1
node 4 2 1 1
node 5 1 1 1
node 6 1 1 1
node 7 1 1 3
node 8 3 0 2
gene 3 1 8 -6.05594 0 1 -6.05594 1
gene 3 2 8 0.332216 0 2 0.332216 1
gene 2 3 8 -5.86907 0 3 -5.86907 1
gene 3 4 8 -4.22938 0 4 -4.22938 1
gene 2 5 8 2.90801 0 5 2.90801 1
gene 2 6 8 3.80307 0 6 3.80307 1
gene 3 7 8 -2.88851 0 7 -2.88851 1
genomeend 20

/* Organism #21 Fitness: 5 Error: 0 */
genomestart 21
trait 1 0.185896 0.0181834 0 0.00585819 0 0.0919533 0.0554268 0.0742482 
trait 2 0.18125 0 0 0 0.00198758 0 0.0516457 0.0626762 
trait 3 0.356445 0 0 0.0147695 0.100201 0 0 0.0912484 
node 1 2 1 1
node 2 2 1 1
node 3 1 1 1
node 4 1 1 1
node 5 1 1 1
node 6 2 1 1
node 7 2 1 3
node 8 3 0 2
gene 3 1 8 -2.51505 0 1 -2.51505 1
gene 3 2 8 2.66498 0 2 2.66498 1
gene 2 3 8 -8 0 3 -8 1
gene 3 4 8 -4.21867 0 4 -4.21867 1
gene 2 5 8 5.84216 0 5 5.84216 1
gene 2 6 8 0.420466 0 6 0.420466 1
gene 3 7 8 -1.12787 0 7 -1.12787 1
genomeend 21

/* Organism #22 Fitness: 71 Error: 0 */
genomestart 22
trait 1 0.185896 0.0181834 0 0.00585819 0 0.0919533 0.0554268 0.0742482 
trait 2 0.18125 0 0 0 0.00198758 0 0.0516457 0.0626762 
trait 3 0.356445 0 0 0.0147695 0.100201 0 0 0.0912484 
node 1 2 1 1
node 2 2 1 1
node 3 2 1 1
node 4 2 1 1
node 5 1 1 1
node 6 1 1 1
node 7 1 1 3
node 8 3 0 2
gene 1 1 8 -0.660314 0 1 -0.660314 1
gene 3 2 8 2.53679 0 2 2.53679 1
gene 2 3 8 -6.68713 0 3 -6.68713 1
gene 3 4 8 -2.66576 0 4 -2.66576 1
gene 2 5 8 6.48072 0 5 6.48072 1
gene 2 6 8 0.949304 0 6 0.949304 1
gene 1 7 8 0.487721 0 7 0.487721 1
genomeend 22

/* Organism #23 Fitness: 30 Error: 0 */
genomestart 23
trait 1 0.189077 0.0191404 0 0 0 0.0910031 0.0554268 0.0742482 
trait 2 0.18125 0 0 0 0.00198758 0 0.0344304 0.0626762 
trait 3 0.360547 0 0 0.0147695 0.105474 0 0 0.096051 
node 1 2 1 1
node 2 2 1 1
node 3 1 1 1
node 4 1 1 1
node 5 1 1 1
node 6 2 1 1
node 7 2 1 3
node 8 3 0 2
gene 3 1 8 -4.45213 0 1 -4.45213 1
gene 3 2 8 -0.811615 0 2 -0.811615 1
gene 2 3 8 -7.48897 0 3 -7.48897 1
gene 3 4 8 -3.01007 0 4 -3.01007 1
gene 2 5 8 4.21519 0 5 4.21519 1
gene 1 6 8 1.97275 0 6 1.97275 1
gene 1 7 8 -3.51455 0 7 -3.51455 1
genomeend 23

/* Organism #24 Fitness: 37 Error: 0 */
genomestart 24
trait 1 0.189077 0.0191404 0 0 0 0.0910031 0.0554268 0.0742482 
trait 2 0.18125 0 0 0 0.00198758 0 0.0344304 0.0626762 
trait 3 0.360547 0 0 0.0147695 0.105474 0 0 0.096051 
node 1 2 1 1
node 2 2 1 1
node 3 1 1 1
node 4 1 1 1
node 5 1 1 1
node 6 2 1 1
node 7 2 1 3
node 8 3 0 2
gene 3 1 8 -3.95905 0 1 -3.95905 1
gene 3 2 8 -1.74069 0 2 -1.74069 1
gene 2 3 8 -8 0 3 -8 1
gene 3 4 8 -0.795792 0 4 -0.795792 1
gene 2 5 8 3.88834 0 5 3.88834 1
gene 2 6 8 1.54628 0 6 1.54628 1
gene 1 7 8 -0.47102 0 7 -0.47102 1
genomeend 24

/* Organism #25 Fitness: 107 Error: 0 */
genomestart 25
trait 1 0.195439 0.0287106 0 0.0117164 0 0.105904 0 0 
trait 2 0.2 0 0 0 0 0 0.0344304 0 
trait 3 0.379297 0 0 0 0.101959 0 0 0.0928493 
node 1 1 1 1
node 2 2 1 1
node 3 1 1 1
node 4 1 1 1
node 5 1 1 1
node 6 2 1 1
node 7 3 1 3
node 8 3 0 2
gene 3 1 8 -3.39069 0 1 -3.39069 1
gene 1 2 8 3.9751 0 2 3.9751 1
gene 2 3 8 -8 0 3 -8 1
gene 3 4 8 -2.22585 0 4 -2.22585 1
gene 2 5 8 4.95458 0 5 4.95458 1
gene 2 6 8 2.63034 0 6 2.63034 1
gene 1 7 8 0.151352 0 7 0.151352 1
genomeend 25

/* Species #3 : (Size 23) (AF 4389.48) (Age 10)  */


/* Organism #26 Fitness: 28 Error: 0 */
genomestart 26
trait 1 0.201802 0 0 0 0 0.104004 0.221707 0.296993 
trait 2 0.2 0 0 0 0 0 0 0 
trait 3 0.3875 0 0 0 0.112506 0 0 0.102454 
node 1 1 1 1
node 2 2 1 1
node 3 1 1 1
node 4 1 1 1
node 5 1 1 1
node 6 2 1 1
node 7 3 1 3
node 8 3 0 2
gene 3 1 8 -4.17365 0 1 -4.17365 1
gene 3 2 8 -0.249467 0 2 -0.249467 1
gene 2 3 8 -7.55848 0 3 -7.55848 1
gene 3 4 8 -6.87191 0 4 -6.87191 1
gene 2 5 8 2.917 0 5 2.917 1
gene 2 6 8 2.52433 0 6 2.52433 1
gene 3 7 8 -2.06898 0 7 -2.06898 1
genomeend 26

/* Organism #27 Fitness: 95 Error: 0 */
genomestart 27
trait 1 0.176352 0.0229685 0 0.0468655 0 0.111605 0 0 
trait 2 0.2 0 0 0 0 0 0.137722 0 
trait 3 0.354687 0 0 0 0.0703163 0 0 0.064034 
node 1 2 1 1
node 2 2 1 1
node 3 2 1 1
node 4 2 1 1
node 5 1 1 1
node 6 1 1 1
node 7 1 1 3
node 8 3 0 2
gene 3 1 8 -6.00788 0 1 -6.00788 1
gene 1 2 8 7.15992 0 2 7.15992 1
gene 2 3 8 -3.40696 0 3 -3.40696 1
gene 3 4 8 0.242205 0 4 0.242205 1
gene 1 5 8 8 0 5 8 1
gene 2 6 8 2.2589 0 6 2.2589 1
gene 1 7 8 -2.46152 0 7 -2.46152 1
genomeend 27

/* Organism #28 Fitness: 95 Error: 0 */
genomestart 28
trait 1 0.189077 0.0114843 0 0.0234328 0 0.107804 0.110854 0.148496 
trait 2 0.2 0 0 0 0 0 0.0688609 0 
trait 3 0.371094 0 0 0 0.0914112 0 0 0.0832442 
node 1 1 1 1
node 2 2 1 1
node 3 1 1 1
node 4 1 1 1
node 5 1 1 1
node 6 2 1 1
node 7 3 1 3
node 8 3 0 2
gene 3 1 8 -6.74367 0 1 -6.74367 1
gene 1 2 8 7.31675 0 2 7.31675 1
gene 2 3 8 -6.25167 0 3 -6.25167 1
gene 3 4 8 -1.72179 0 4 -1.72179 1
gene 1 5 8 7.2068 0 5 7.2068 1
gene 2 6 8 3.25598 0 6 3.25598 1
gene 3 7 8 -1.71628 0 7 -1.71628 1
genomeend 28

/* Organism #29 Fitness: 5 Error: 0 */
genomestart 29
trait 1 0.163626 0.0191404 0 0.0234328 0 0.0818034 0 0 
trait 2 0.1625 0 0 0 0.00397516 0 0.137722 0.125352 
trait 3 0.317187 0 0 0.0295391 0.0773479 0 0 0.0704374 
node 1 2 1 1
node 2 2 1 1
node 3 2 1 1
node 4 2 1 1
node 5 1 1 1
node 6 1 1 1
node 7 1 1 3
node 8 3 0 2
gene 1 1 8 -3.20068 0 1 -3.20068 1
gene 1 2 8 5.91549 0 2 5.91549 1
gene 2 3 8 -2.26681 0 3 -2.26681 1
gene 3 4 8 0.28797 0 4 0.28797 1
gene 3 5 8 6.45904 0 5 6.45904 1
gene 1 6 8 2.90301 0 6 2.90301 0
gene 1 7 8 -3.49102 0 7 -3.49102 1
genomeend 29

/* Organism #30 Fitness: 31 Error: 0 */
genomestart 30
trait 1 0.163626 0.0191404 0 0.0234328 0 0.0818034 0 0 
trait 2 0.1625 0 0 0 0.00397516 0 0.137722 0.125352 
trait 3 0.317187 0 0 0.0295391 0.0773479 0 0 0.0704374 
node 1 2 1 1
node 2 2 1 1
node 3 2 1 1
node 4 2 1 1
node 5 1 1 1
node 6 1 1 1
node 7 1 1 3
node 8 3 0 2
gene 3 1 8 -3.91213 0 1 -3.91213 1
gene 1 2 8 8 0 2 8 1
gene 2 3 8 1.93186 0 3 1.93186 1
gene 3 4 8 0.589409 0 4 0.589409 1
gene 1 5 8 8 0 5 8 1
gene 2 6 8 3.55457 0 6 3.55457 1
gene 1 7 8 1.99485 0 7 1.99485 1
genomeend 30

/* Organism #31 Fitness: 79 Error: 0 */
genomestart 31
trait 1 0.150901 0.0153123 0 0 0 0.0520018 0 0 
trait 2 0.125 0 0 0 0.00795033 0 0.137722 0.250705 
trait 3 0.279687 0 0 0.0590782 0.0843795 0 0 0.0768408 
node 1 2 1 1
node 2 2 1 1
node 3 1 1 1
node 4 1 1 1
node 5 1 1 1
node 6 2 1 1
node 7 3 1 3
node 8 3 0 2
node 23 1 0 0
gene 1 1 8 -0.393489 0 1 -0.393489 1
gene 1 2 8 4.67106 0 2 4.67106 1
gene 2 3 8 -1.12667 0 3 -1.12667 1
gene 3 4 8 0.333735 0 4 0.333735 1
gene 3 5 8 4.91807 0 5 4.91807 1
gene 1 6 8 3.54711 0 6 3.54711 0
gene 1 7 8 -4.52053 0 7 -4.52053 1
gene 1 6 23 1.12463 0 42 1.12463 1
gene 1 23 8 4.21873 0 43 4.21873 1
genomeend 31

/* Organism #32 Fitness: 115 Error: 0 */
genomestart 32
trait 1 0.195439 0.0287106 0 0.0117164 0 0.105904 0 0 
trait 2 0.2 0 0 0 0 0 0.0344304 0 
trait 3 0.379297 0 0 0 0.101959 0 0 0.0928493 
node 1 1 1 1
node 2 2 1 1
node 3 1 1 1
node 4 1 1 1
node 5 1 1 1
node 6 2 1 1
node 7 3 1 3
node 8 3 0 2
gene 3 1 8 -5.43346 0 1 -5.43346 1
gene 1 2 8 3.48041 0 2 3.48041 1
gene 2 3 8 -8 0 3 -8 1
gene 3 4 8 -4.63058 0 4 -4.63058 1
gene 2 5 8 4.04553 0 5 4.04553 1
gene 2 6 8 2.4587 0 6 2.4587 1
gene 1 7 8 -1.76277 0 7 -1.76277 1
genomeend 32

/* Organism #33 Fitness: 5 Error: 0 */
genomestart 33
trait 1 0.198621 0.0296677 0 0.00585819 0 0.104954 0 0 
trait 2 0.2 0 0 0 0 0 0.0172152 0 
trait 3 0.383398 0 0 0 0.107232 0 0 0.0976518 
node 1 1 1 1
node 2 2 1 1
node 3 1 1 1
node 4 1 1 1
node 5 1 1 1
node 6 2 1 1
node 7 3 1 3
node 8 3 0 2
gene 3 1 8 -7.31606 0 1 -7.31606 1
gene 1 2 8 1.05332 0 2 1.05332 1
gene 2 3 8 -8 0 3 -8 1
gene 3 4 8 -5.34103 0 4 -5.34103 1
gene 2 5 8 3.58754 0 5 3.58754 1
gene 2 6 8 -0.201467 0 6 -0.201467 1
gene 1 7 8 -1.95299 0 7 -1.95299 1
genomeend 33

/* Organism #34 Fitness: 29 Error: 0 */
genomestart 34
trait 1 0.185896 0.0181834 0 0.00585819 0 0.0919533 0.0554268 0.0742482 
trait 2 0.18125 0 0 0 0.00198758 0 0.0516457 0.0626762 
trait 3 0.356445 0 0 0.0147695 0.100201 0 0 0.0912484 
node 1 2 1 1
node 2 2 1 1
node 3 1 1 1
node 4 1 1 1
node 5 1 1 1
node 6 2 1 1
node 7 2 1 3
node 8 3 0 2
gene 1 1 8 -3.14998 0 1 -3.14998 1
gene 3 2 8 2.20288 0 2 2.20288 1
gene 2 3 8 1.71784 0 3 1.71784 1
gene 3 4 8 -0.324151 0 4 -0.324151 1
gene 2 5 8 6.5252 0 5 6.5252 1
gene 2 6 8 1.66044 0 6 1.66044 1
gene 1 7 8 2.7304 0 7 2.7304 1
genomeend 34

/* Organism #35 Fitness: 100001 Error: 0 */
/* ##------$ WINNER 35 SPECIES #3 $------## */
genomestart 35
trait 1 0.189077 0.0191404 0 0 0 0.0910031 0.0554268 0.0742482 
trait 2 0.18125 0 0 0 0.00198758 0 0.0344304 0.0626762 
trait 3 0.360547 0 0 0.0147695 0.105474 0 0 0.096051 
node 1 2 1 1
node 2 2 1 1
node 3 1 1 1
node 4 1 1 1
node 5 1 1 1
node 6 2 1 1
node 7 2 1 3
node 8 3 0 2
gene 3 1 8 -4.17365 0 1 -4.17365 1
gene 3 2 8 -1.37376 0 2 -1.37376 1
gene 2 3 8 -7.41946 0 3 -7.41946 1
gene 3 4 8 -6.53778 0 4 -6.53778 1
gene 2 5 8 5.51339 0 5 5.51339 1
gene 1 6 8 2.38071 0 6 2.38071 1
gene 1 7 8 -2.14322 0 7 -2.14322 1
genomeend 35

/* Organism #36 Fitness: 17 Error: 0 */
genomestart 36
trait 1 0.189077 0.0191404 0 0 0 0.0910031 0.0554268 0.0742482 
trait 2 0.18125 0 0 0 0.00198758 0 0.0344304 0.0626762 
trait 3 0.360547 0 0 0.0147695 0.105474 0 0 0.096051 
node 1 1 1 1
node 2 2 1 1
node 3 1 1 1
node 4 1 1 1
node 5 1 1 1
node 6 2 1 1
node 7 3 1 3
node 8 3 0 2
gene 3 1 8 -5.51552 0 1 -5.51552 1
gene 3 2 8 -1.99859 0 2 -1.99859 1
gene 2 3 8 -8 0 3 -8 1
gene 3 4 8 -0.695074 0 4 -0.695074 1
gene 2 5 8 2.08689 0 5 2.08689 1
gene 2 6 8 2.44145 0 6 2.44145 1
gene 1 7 8 -2.44807 0 7 -2.44807 1
genomeend 36

/* Organism #37 Fitness: 5 Error: 0 */
genomestart 37
trait 1 0.189077 0.0191404 0 0 0 0.0910031 0.0554268 0.0742482 
trait 2 0.18125 0 0 0 0.00198758 0 0.0344304 0.0626762 
trait 3 0.360547 0 0 0.0147695 0.105474 0 0 0.096051 
node 1 1 1 1
node 2 2 1 1
node 3 1 1 1
node 4 1 1 1
node 5 1 1 1
node 6 2 1 1
node 7 3 1 3
node 8 3 0 2
gene 1 1 8 -1.24451 0 1 -1.24451 1
gene 3 2 8 0.728693 0 2 0.728693 1
gene 2 3 8 -8 0 3 -8 1
gene 3 4 8 -8 0 4 -8 1
gene 2 5 8 0.416972 0 5 0.416972 1
gene 2 6 8 1.27035 0 6 1.27035 1
gene 3 7 8 -2.32333 0 7 -2.32333 1
genomeend 37

/* Organism #38 Fitness: 89 Error: 0 */
genomestart 38
trait 1 0.201802 0.0306247 0 0 0 0.104004 0 0 
trait 2 0.2 0 0 0 0 0 0 0 
trait 3 0.3875 0 0 0 0.112506 0 0 0.102454 
node 1 1 1 1
node 2 2 1 1
node 3 1 1 1
node 4 1 1 1
node 5 1 1 1
node 6 2 1 1
node 7 3 1 3
node 8 3 0 2
gene 3 1 8 -2.93265 0 1 -2.93265 1
gene 3 2 8 0.844515 0 2 0.844515 1
gene 2 3 8 -6.31874 0 3 -6.31874 1
gene 3 4 8 -6.70645 0 4 -6.70645 1
gene 2 5 8 5.43228 0 5 5.43228 1
gene 2 6 8 2.80223 0 6 2.80223 1
gene 1 7 8 -3.54094 0 7 -3.54094 1
genomeend 38

/* Organism #39 Fitness: 68 Error: 0 */
genomestart 39
trait 1 0.195439 0.0287106 0 0.0117164 0 0.105904 0 0 
trait 2 0.2 0 0 0 0 0 0.0344304 0 
trait 3 0.379297 0 0 0 0.101959 0 0 0.0928493 
node 1 2 1 1
node 2 2 1 1
node 3 2 1 1
node 4 2 1 1
node 5 1 1 1
node 6 1 1 1
node 7 1 1 3
node 8 3 0 2
gene 3 1 8 -4.73494 0 1 -4.73494 1
gene 3 2 8 3.70692 0 2 3.70692 1
gene 2 3 8 -8 0 3 -8 1
gene 3 4 8 -4.27438 0 4 -4.27438 1
gene 2 5 8 8 0 5 8 1
gene 2 6 8 2.49314 0 6 2.49314 1
gene 1 7 8 1.12287 0 7 1.12287 1
genomeend 39

/* Organism #40 Fitness: 29 Error: 0 */
genomestart 40
trait 1 0.185896 0.0181834 0 0.00585819 0 0.0919533 0.0554268 0.0742482 
trait 2 0.18125 0 0 0 0.00198758 0 0.0516457 0.0626762 
trait 3 0.356445 0 0 0.0147695 0.100201 0 0 0.0912484 
node 1 2 1 1
node 2 2 1 1
node 3 2 1 1
node 4 2 1 1
node 5 1 1 1
node 6 1 1 1
node 7 1 1 3
node 8 3 0 2
gene 3 1 8 -6.22164 0 1 -6.22164 1
gene 3 2 8 2.06707 0 2 2.06707 1
gene 2 3 8 -8 0 3 -8 1
gene 3 4 8 -1.76999 0 4 -1.76999 1
gene 2 5 8 4.09833 0 5 4.09833 1
gene 1 6 8 4.4042 0 6 4.4042 1
gene 1 7 8 -6.11046 0 7 -6.11046 1
genomeend 40

/* Organism #41 Fitness: 56 Error: 0 */
genomestart 41
trait 1 0.198621 0.0296677 0 0.00585819 0 0.104954 0 0 
trait 2 0.2 0 0 0 0 0 0.0172152 0 
trait 3 0.383398 0 0 0 0.107232 0 0 0.0976518 
node 1 2 1 1
node 2 2 1 1
node 3 2 1 1
node 4 2 1 1
node 5 1 1 1
node 6 1 1 1
node 7 1 1 3
node 8 3 0 2
gene 3 1 8 -7.2687 0 1 -7.2687 1
gene 3 2 8 -1.83071 0 2 -1.83071 1
gene 2 3 8 -5.89449 0 3 -5.89449 1
gene 3 4 8 -2.14211 0 4 -2.14211 1
gene 2 5 8 5.98427 0 5 5.98427 1
gene 2 6 8 3.08053 0 6 3.08053 1
gene 1 7 8 -0.206608 0 7 -0.206608 1
genomeend 41

/* Organism #42 Fitness: 23 Error: 0 */
genomestart 42
trait 1 0.185896 0.0181834 0 0.00585819 0 0.0919533 0.0554268 0.0742482 
trait 2 0.18125 0 0 0 0.00198758 0 0.0516457 0.0626762 
trait 3 0.356445 0 0 0.0147695 0.100201 0 0 0.0912484 
node 1 1 1 1
node 2 2 1 1
node 3 1 1 1
node 4 1 1 1
node 5 1 1 1
node 6 2 1 1
node 7 2 1 3
node 8 3 0 2
gene 3 1 8 -0.958523 0 1 -0.958523 1
gene 3 2 8 3.56983 0 2 3.56983 1
gene 2 3 8 -5.834 0 3 -5.834 1
gene 3 4 8 -6.22015 0 4 -6.22015 1
gene 2 5 8 1.25677 0 5 1.25677 1
gene 2 6 8 2.61267 0 6 2.61267 1
gene 3 7 8 -4.06242 0 7 -4.06242 1
genomeend 42

/* Organism #43 Fitness: 5 Error: 0 */
genomestart 43
trait 1 0.185896 0.0181834 0 0.00585819 0 0.0919533 0.0554268 0.0742482 
trait 2 0.18125 0 0 0 0.00198758 0 0.0516457 0.0626762 
trait 3 0.356445 0 0 0.0147695 0.100201 0 0 0.0912484 
node 1 3 1 1
node 2 2 1 1
node 3 1 1 1
node 4 1 1 1
node 5 1 1 1
node 6 2 1 1
node 7 3 1 3
node 8 3 0 2
gene 3 1 8 -3.93699 0 1 -3.93699 1
gene 1 2 8 3.7063 0 2 3.7063 1
gene 2 3 8 -8 0 3 -8 1
gene 3 4 8 -1.12921 0 4 -1.12921 1
gene 2 5 8 2.43912 0 5 2.43912 1
gene 1 6 8 0.0355205 0 6 0.0355205 1
gene 1 7 8 -5.5274 0 7 -5.5274 1
genomeend 43

/* Organism #44 Fitness: 32 Error: 0 */
genomestart 44
trait 1 0.185896 0.0181834 0 0.00585819 0 0.0919533 0.0554268 0.0742482 
trait 2 0.18125 0 0 0 0.00198758 0 0.0516457 0.0626762 
trait 3 0.356445 0 0 0.0147695 0.100201 0 0 0.0912484 
node 1 1 1 1
node 2 2 1 1
node 3 1 1 1
node 4 1 1 1
node 5 1 1 1
node 6 2 1 1
node 7 3 1 3
node 8 3 0 2
gene 3 1 8 -4.0854 0 1 -4.0854 1
gene 1 2 8 1.41444 0 2 1.41444 1
gene 2 3 8 -8 0 3 -8 1
gene 3 4 8 -6.66279 0 4 -6.66279 1
gene 2 5 8 0.987186 0 5 0.987186 1
gene 2 6 8 4.10985 0 6 4.10985 1
gene 1 7 8 -0.666534 0 7 -0.666534 1
genomeend 44

/* Organism #45 Fitness: 34 Error: 0 */
genomestart 45
trait 1 0.195439 0.0287106 0 0.0117164 0 0.105904 0 0 
trait 2 0.2 0 0 0 0 0 0.0344304 0 
trait 3 0.379297 0 0 0 0.101959 0 0 0.0928493 
node 1 2 1 1
node 2 2 1 1
node 3 2 1 1
node 4 2 1 1
node 5 1 1 1
node 6 1 1 1
node 7 1 1 3
node 8 3 0 2
gene 3 1 8 -7.33924 0 1 -7.33924 1
gene 3 2 8 0.716084 0 2 0.716084 1
gene 2 3 8 -8 0 3 -8 1
gene 3 4 8 -2.53059 0 4 -2.53059 1
gene 2 5 8 4.22182 0 5 4.22182 1
gene 2 6 8 2.74227 0 6 2.74227 1
gene 1 7 8 -1.90739 0 7 -1.90739 1
genomeend 45

/* Organism #46 Fitness: 5 Error: 0 */
genomestart 46
trait 1 0.195439 0.0287106 0 0.0117164 0 0.105904 0 0 
trait 2 0.2 0 0 0 0 0 0.0344304 0 
trait 3 0.379297 0 0 0 0.101959 0 0 0.0928493 
node 1 2 1 1
node 2 2 1 1
node 3 2 1 1
node 4 2 1 1
node 5 1 1 1
node 6 1 1 1
node 7 1 1 3
node 8 3 0 2
gene 3 1 8 -6.51069 0 1 -6.51069 1
gene 3 2 8 2.51385 0 2 2.51385 1
gene 2 3 8 -6.68713 0 3 -6.68713 1
gene 3 4 8 -2.22216 0 4 -2.22216 1
gene 2 5 8 -2.33358 0 5 -2.33358 1
gene 2 6 8 -1.61868 0 6 -1.61868 1
gene 1 7 8 -0.530781 0 7 -0.530781 1
genomeend 46

/* Organism #47 Fitness: 5 Error: 0 */
genomestart 47
trait 1 0.185896 0.0181834 0 0.00585819 0 0.0919533 0.0554268 0.0742482 
trait 2 0.18125 0 0 0 0.00198758 0 0.0516457 0.0626762 
trait 3 0.356445 0 0 0.0147695 0.100201 0 0 0.0912484 
node 1 2 1 1
node 2 2 1 1
node 3 1 1 1
node 4 1 1 1
node 5 1 1 1
node 6 2 1 1
node 7 2 1 3
node 8 3 0 2
gene 1 1 8 -2.95089 0 1 -2.95089 1
gene 3 2 8 2.15591 0 2 2.15591 1
gene 2 3 8 -7.34357 0 3 -7.34357 1
gene 3 4 8 1.10472 0 4 1.10472 1
gene 2 5 8 0.746893 0 5 0.746893 1
gene 2 6 8 -0.182303 0 6 -0.182303 1
gene 1 7 8 -1.20039 0 7 -1.20039 1
genomeend 47

/* Organism #48 Fitness: 107 Error: 0 */
genomestart 48
trait 1 0.201802 0.0306247 0 0 0 0.104004 0 0 
trait 2 0.2 0 0 0 0 0 0 0 
trait 3 0.3875 0 0 0 0.112506 0 0 0.102454 
node 1 1 1 1
node 2 2 1 1
node 3 1 1 1
node 4 1 1 1
node 5 1 1 1
node 6 2 1 1
node 7 3 1 3
node 8 3 0 2
gene 3 1 8 -4.7306 0 1 -4.7306 1
gene 3 2 8 -1.37376 0 2 -1.37376 1
gene 2 3 8 -7.41946 0 3 -7.41946 1
gene 3 4 8 -6.53778 0 4 -6.53778 1
gene 2 5 8 5.51339 0 5 5.51339 1
gene 2 6 8 1.56479 0 6 1.56479 1
gene 1 7 8 -2.14322 0 7 -2.14322 1
genomeend 48

/* Species #4 : (Size 14) (AF 47.2857) (Age 8)  */


/* Organism #49 Fitness: 121 Error: 0 */
genomestart 49
trait 1 0.1 0 0 0 0 0 0 0 
trait 2 0.2 0 0 0 0 0 0 0 
trait 3 0.3 0 0 0 0 0 0 0 
node 1 1 1 1
node 2 2 1 1
node 3 1 1 1
node 4 1 1 1
node 5 1 1 1
node 6 2 1 1
node 7 3 1 3
node 8 3 0 2
node 18 1 0 0
gene 2 1 8 -0.116927 0 1 -0.116927 0
gene 3 2 8 1.87197 0 2 1.87197 1
gene 2 3 8 -0.954484 0 3 -0.954484 1
gene 1 4 8 -3.91667 0 4 -3.91667 1
gene 1 5 8 1.86416 0 5 1.86416 1
gene 2 6 8 0.805355 0 6 0.805355 1
gene 3 7 8 0.688848 0 7 0.688848 1
gene 2 1 18 2.25093 0 30 2.25093 1
gene 2 18 8 -1.40074 0 31 -1.40074 1
genomeend 49

/* Organism #50 Fitness: 66 Error: 0 */
genomestart 50
trait 1 0.144538 0.0133983 0 0.0820147 0 0.104305 0 0 
trait 2 0.19375 0 0 0 0.000662527 0 0.0918145 0.0208921 
trait 3 0.321875 0 0 0 0.0281265 0 0 0.0256136 
node 1 2 1 1
node 2 2 1 1
node 3 2 1 1
node 4 2 1 1
node 5 1 1 1
node 6 1 1 1
node 7 1 1 3
node 8 3 0 2
node 18 1 0 0
gene 2 1 8 -5.57663 0 1 -5.57663 0
gene 3 2 8 3.01879 0 2 3.01879 1
gene 2 3 8 -3.02888 0 3 -3.02888 1
gene 1 4 8 -1.37537 0 4 -1.37537 1
gene 1 5 8 6.98873 0 5 6.98873 1
gene 1 6 8 3.2298 0 6 3.2298 1
gene 3 7 8 -0.974342 0 7 -0.974342 1
gene 2 1 18 0.403049 0 30 0.403049 1
gene 2 18 8 -0.228706 0 31 -0.228706 1
gene 1 2 18 0.812658 0 47 0.812658 1
genomeend 50

/* Organism #51 Fitness: 40 Error: 0 */
genomestart 51
trait 1 0.144538 0.0133983 0 0.0820147 0 0.104305 0 0 
trait 2 0.19375 0 0 0 0.000662527 0 0.0918145 0.0208921 
trait 3 0.321875 0 0 0 0.0281265 0 0 0.0256136 
node 1 2 1 1
node 2 2 1 1
node 3 2 1 1
node 4 2 1 1
node 5 1 1 1
node 6 1 1 1
node 7 1 1 3
node 8 3 0 2
node 18 1 0 0
gene 2 1 8 -4.36439 0 1 -4.36439 0
gene 3 2 8 1.93672 0 2 1.93672 1
gene 2 3 8 -4.17122 0 3 -4.17122 1
gene 1 4 8 -1.78839 0 4 -1.78839 1
gene 1 5 8 2.39935 0 5 2.39935 1
gene 1 6 8 7.17558 0 6 7.17558 1
gene 3 7 8 -1.85158 0 7 -1.85158 1
gene 2 1 18 2.60137 0 30 2.60137 1
gene 2 18 8 -0.47582 0 31 -0.47582 1
gene 1 2 18 0.361526 0 47 0.361526 1
genomeend 51

/* Organism #52 Fitness: 34 Error: 0 */
genomestart 52
trait 1 0.125451 0.00765617 0 0.0468655 0 0.0596031 0 0 
trait 2 0.2 0 0 0 0 0 0.0459073 0 
trait 3 0.310937 0 0 0 0.0140633 0 0 0.0128068 
node 1 1 1 1
node 2 2 1 1
node 3 1 1 1
node 4 1 1 1
node 5 1 1 1
node 6 2 1 1
node 7 3 1 3
node 8 3 0 2
node 18 1 0 0
gene 2 1 8 -2.25214 0 1 -2.25214 0
gene 3 2 8 2.5723 0 2 2.5723 1
gene 2 3 8 -3.18372 0 3 -3.18372 1
gene 1 4 8 -1.67469 0 4 -1.67469 1
gene 1 5 8 1.66586 0 5 1.66586 1
gene 2 6 8 5.27825 0 6 5.27825 1
gene 3 7 8 -0.171859 0 7 -0.171859 1
gene 2 1 18 3.85758 0 30 3.85758 1
gene 2 18 8 -2.2572 0 31 -2.2572 1
genomeend 52

/* Organism #53 Fitness: 5 Error: 0 */
genomestart 53
trait 1 0.119088 0.00574213 0 0.0351492 0 0.0447024 0 0 
trait 2 0.19375 0 0 0 0.000662527 0 0.0459073 0.0208921 
trait 3 0 0 0.247279 0.415501 0.0140633 0 0 0.0128068 
node 1 1 1 1
node 2 2 1 1
node 3 1 1 1
node 4 1 1 1
node 5 1 1 1
node 6 2 1 1
node 7 3 1 3
node 8 3 0 2
node 18 1 0 0
gene 2 1 8 -2.4843 0 1 -2.4843 0
gene 3 2 8 4.74111 0 2 4.74111 1
gene 2 3 8 -5.55235 0 3 -5.55235 1
gene 1 4 8 -3.13113 0 4 -3.13113 1
gene 1 5 8 2.81121 0 5 2.81121 1
gene 2 6 8 -1.61994 0 6 -1.61994 1
gene 3 7 8 2.92219 0 7 2.92219 1
gene 2 1 18 3.44212 0 30 3.44212 1
gene 2 18 8 0.104818 0 31 0.104818 1
genomeend 53

/* Organism #54 Fitness: 72 Error: 0 */
genomestart 54
trait 1 0.150901 0.0153123 0 0.0937311 0 0.119206 0 0 
trait 2 0.2 0 0 0 0 0 0.0918145 0 
trait 3 0.321875 0 0 0 0.0281265 0 0 0.0256136 
node 1 2 1 1
node 2 2 1 1
node 3 2 1 1
node 4 2 1 1
node 5 1 1 1
node 6 1 1 1
node 7 1 1 3
node 8 3 0 2
node 18 1 0 0
gene 2 1 8 -2.52249 0 1 -2.52249 1
gene 3 2 8 1.75419 0 2 1.75419 1
gene 2 3 8 -5.69813 0 3 -5.69813 1
gene 1 4 8 -5.15618 0 4 -5.15618 1
gene 1 5 8 5.18282 0 5 5.18282 1
gene 1 6 8 6.43072 0 6 6.43072 1
gene 3 7 8 1.16054 0 7 1.16054 1
gene 2 1 18 5.99237 0 30 5.99237 1
gene 2 18 8 -1.89009 0 31 -1.89009 1
gene 1 2 18 -0.524245 0 47 -0.524245 1
genomeend 54

/* Organism #55 Fitness: 28 Error: 0 */
genomestart 55
trait 1 0.150901 0.0153123 0 0.0937311 0 0.119206 0 0 
trait 2 0.2 0 0 0 0 0 0.0918145 0 
trait 3 0.321875 0 0 0 0.0281265 0 0 0.0256136 
node 1 2 1 1
node 2 2 1 1
node 3 2 1 1
node 4 2 1 1
node 5 1 1 1
node 6 1 1 1
node 7 1 1 3
node 8 3 0 2
node 18 1 0 0
gene 2 1 8 -3.04767 0 1 -3.04767 1
gene 3 2 8 0.222915 0 2 0.222915 1
gene 2 3 8 -5.71477 0 3 -5.71477 1
gene 1 4 8 -4.73807 0 4 -4.73807 1
gene 1 5 8 1.31848 0 5 1.31848 1
gene 1 6 8 5.53133 0 6 5.53133 1
gene 3 7 8 2.50758 0 7 2.50758 1
gene 2 1 18 5.9953 0 30 5.9953 1
gene 2 18 8 2.45568 0 31 2.45568 1
gene 1 2 18 0.79299 0 47 0.79299 1
genomeend 55

/* Organism #56 Fitness: 39 Error: 0 */
genomestart 56
trait 1 0.119088 0.00574213 0 0.0351492 0 0.0447024 0 0 
trait 2 0.19375 0 0 0 0.000662527 0 0.0459073 0.0208921 
trait 3 0.310937 0 0 0 0.0140633 0 0 0.0128068 
node 1 2 1 1
node 2 2 1 1
node 3 2 1 1
node 4 2 1 1
node 5 1 1 1
node 6 1 1 1
node 7 1 1 3
node 8 3 0 2
node 18 1 0 0
gene 2 1 8 -2.12089 0 1 -2.12089 0
gene 3 2 8 3.86839 0 2 3.86839 1
gene 2 3 8 -1.54461 0 3 -1.54461 1
gene 1 4 8 -3.83916 0 4 -3.83916 1
gene 1 5 8 4.57481 0 5 4.57481 1
gene 2 6 8 0.958071 0 6 0.958071 1
gene 3 7 8 -0.897052 0 7 -0.897052 1
gene 2 1 18 3.25289 0 30 3.25289 1
gene 2 18 8 2.98 0 31 2.98 1
genomeend 56

/* Organism #57 Fitness: 62 Error: 0 */
genomestart 57
trait 1 0.150901 0.0153123 0 0.0937311 0 0.119206 0 0 
trait 2 0.2 0 0 0 0 0 0.0918145 0 
trait 3 0.321875 0 0 0 0.0281265 0 0 0.0256136 
node 1 2 1 1
node 2 2 1 1
node 3 2 1 1
node 4 2 1 1
node 5 1 1 1
node 6 1 1 1
node 7 1 1 3
node 8 3 0 2
node 18 1 0 0
gene 2 1 8 -2.63758 0 1 -2.63758 1
gene 3 2 8 2.15751 0 2 2.15751 1
gene 2 3 8 -4.31881 0 3 -4.31881 1
gene 1 4 8 -5.23845 0 4 -5.23845 1
gene 1 5 8 6.69718 0 5 6.69718 1
gene 1 6 8 3.64585 0 6 3.64585 1
gene 3 7 8 -2.03916 0 7 -2.03916 1
gene 2 1 18 1.9072 0 30 1.9072 1
gene 2 18 8 -1.37914 0 31 -1.37914 1
gene 1 2 18 -2.5287 0 47 -2.5287 1
genomeend 57

/* Organism #58 Fitness: 28 Error: 0 */
genomestart 58
trait 1 0.150901 0.0153123 0 0.0937311 0 0.119206 0 0 
trait 2 0.2 0 0 0 0 0 0.0918145 0 
trait 3 0.321875 0 0 0 0.0281265 0 0 0.0256136 
node 1 2 1 1
node 2 2 1 1
node 3 2 1 1
node 4 2 1 1
node 5 1 1 1
node 6 1 1 1
node 7 1 1 3
node 8 3 0 2
node 18 1 0 0
gene 2 1 8 -1.51165 0 1 -1.51165 1
gene 3 2 8 2.41565 0 2 2.41565 1
gene 2 3 8 -4.01857 0 3 -4.01857 1
gene 1 4 8 0.654836 0 4 0.654836 1
gene 1 5 8 6.03742 0 5 6.03742 1
gene 1 6 8 6.01792 0 6 6.01792 1
gene 3 7 8 3.3118 0 7 3.3118 1
gene 2 1 18 3.881 0 30 3.881 1
gene 2 18 8 1.82405 0 31 1.82405 1
gene 1 2 18 -1.69576 0 47 -1.69576 1
genomeend 58

/* Organism #59 Fitness: 45 Error: 0 */
genomestart 59
trait 1 0.150901 0.0153123 0 0.0937311 0 0.119206 0 0 
trait 2 0.2 0 0 0 0 0 0.0918145 0 
trait 3 0.321875 0 0 0 0.0281265 0 0 0.0256136 
node 1 2 1 1
node 2 2 1 1
node 3 2 1 1
node 4 2 1 1
node 5 1 1 1
node 6 1 1 1
node 7 1 1 3
node 8 3 0 2
node 18 1 0 0
gene 2 1 8 -5.78117 0 1 -5.78117 1
gene 3 2 8 0.712117 0 2 0.712117 1
gene 2 3 8 -3.48542 0 3 -3.48542 1
gene 1 4 8 1.84569 0 4 1.84569 1
gene 1 5 8 4.71887 0 5 4.71887 1
gene 1 6 8 3.26887 0 6 3.26887 1
gene 3 7 8 0.284515 0 7 0.284515 1
gene 2 1 18 3.10097 0 30 3.10097 1
gene 2 18 8 -1.84876 0 31 -1.84876 1
gene 1 2 18 -0.358613 0 47 -0.358613 1
genomeend 59

/* Organism #60 Fitness: 5 Error: 0 */
genomestart 60
trait 1 0.125451 0.00765617 0 0.0468655 0 0.0596031 0 0 
trait 2 0.2 0 0 0 0 0 0.0459073 0 
trait 3 0.310937 0 0 0 0.0140633 0 0 0.0128068 
node 1 1 1 1
node 2 2 1 1
node 3 1 1 1
node 4 1 1 1
node 5 1 1 1
node 6 2 1 1
node 7 3 1 3
node 8 3 0 2
node 18 1 0 0
gene 2 1 8 -0.116927 0 1 -0.116927 0
gene 3 2 8 2.41454 0 2 2.41454 1
gene 2 3 8 -7.08886 0 3 -7.08886 1
gene 1 4 8 -1.8329 0 4 -1.8329 1
gene 1 5 8 -0.251116 0 5 -0.251116 1
gene 2 6 8 -1.00656 0 6 -1.00656 1
gene 3 7 8 3.32887 0 7 3.32887 1
gene 2 1 18 5.65966 0 30 5.65966 1
gene 2 18 8 -2.45127 0 31 -2.45127 1
genomeend 60

/* Organism #61 Fitness: 76 Error: 0 */
genomestart 61
trait 1 0.144538 0.0133983 0 0.0820147 0 0.104305 0 0 
trait 2 0.19375 0 0 0 0.000662527 0 0.0918145 0.0208921 
trait 3 0.321875 0 0 0 0.0281265 0 0 0.0256136 
node 1 2 1 1
node 2 2 1 1
node 3 2 1 1
node 4 2 1 1
node 5 1 1 1
node 6 1 1 1
node 7 1 1 3
node 8 3 0 2
node 18 1 0 0
gene 2 1 8 -3.08172 0 1 -3.08172 0
gene 3 2 8 2.75221 0 2 2.75221 1
gene 2 3 8 -4.5773 0 3 -4.5773 1
gene 1 4 8 -3.35862 0 4 -3.35862 1
gene 1 5 8 4.65799 0 5 4.65799 1
gene 1 6 8 2.71686 0 6 2.71686 1
gene 3 7 8 -0.380109 0 7 -0.380109 1
gene 2 1 18 2.54789 0 30 2.54789 1
gene 2 18 8 0.413389 0 31 0.413389 1
gene 1 2 18 -0.0960123 0 47 -0.0960123 1
genomeend 61

/* Organism #62 Fitness: 41 Error: 0 */
genomestart 62
trait 1 0.150901 0.0153123 0 0.0937311 0 0.119206 0 0 
trait 2 0.2 0 0 0 0 0 0.0918145 0 
trait 3 0.321875 0 0 0 0.0281265 0 0 0.0256136 
node 1 2 1 1
node 2 2 1 1
node 3 2 1 1
node 4 2 1 1
node 5 1 1 1
node 6 1 1 1
node 7 1 1 3
node 8 3 0 2
node 18 1 0 0
gene 2 1 8 -3.13023 0 1 -3.13023 1
gene 3 2 8 4.81318 0 2 4.81318 1
gene 2 3 8 -1.24084 0 3 -1.24084 1
gene 1 4 8 -2.93062 0 4 -2.93062 1
gene 1 5 8 3.0249 0 5 3.0249 1
gene 1 6 8 6.04443 0 6 6.04443 1
gene 3 7 8 1.73677 0 7 1.73677 1
gene 2 1 18 2.59084 0 30 2.59084 1
gene 2 18 8 -1.8889 0 31 -1.8889 1
gene 1 2 18 -3.51832 0 47 -3.51832 1
genomeend 62

/* Species #5 : (Size 7) (AF 16.7143) (Age 8)  */


/* Organism #63 Fitness: 28 Error: 0 */
genomestart 63
trait 1 0.1 0 0 0 0 0 0 0 
trait 2 0.1 0 0 0 0.0106004 0 0.183629 0.334273 
trait 3 0.34375 0 0 0 0.056253 0 0 0.0512272 
node 1 2 1 1
node 2 2 1 1
node 3 1 1 1
node 4 1 1 1
node 5 1 1 1
node 6 2 1 1
node 7 3 1 3
node 8 3 0 2
node 23 1 0 0
node 28 1 0 0
gene 1 1 8 0.322313 0 1 0.322313 1
gene 1 2 8 3.98218 0 2 3.98218 1
gene 3 3 8 1.57954 0 3 1.57954 1
gene 3 4 8 2.05163 0 4 2.05163 1
gene 3 5 8 -0.776859 0 5 -0.776859 1
gene 1 6 8 7.18236 0 6 7.18236 1
gene 1 7 8 -5.54654 0 7 -5.54654 1
gene 1 6 23 -1.03164 0 42 -1.03164 0
gene 1 23 8 2.98992 0 43 2.98992 1
gene 1 1 23 -4.3368 0 50 -4.3368 1
gene 1 6 28 2.34763 0 62 2.34763 1
gene 1 28 23 3.45757 0 63 3.45757 1
gene 1 4 23 1.76448 0 80 1.76448 1
genomeend 63

/* Organism #64 Fitness: 33 Error: 0 */
genomestart 64
trait 1 0.1 0 0 0 0 0 0 0 
trait 2 0.1 0 0 0 0.0106004 0 0.183629 0.334273 
trait 3 0.34375 0 0 0 0.056253 0 0 0.0512272 
node 1 2 1 1
node 2 2 1 1
node 3 1 1 1
node 4 1 1 1
node 5 1 1 1
node 6 3 1 1
node 7 3 1 3
node 8 3 0 2
node 23 1 0 0
node 28 1 0 0
gene 1 1 8 -1.63367 0 1 -1.63367 1
gene 1 2 8 5.89306 0 2 5.89306 1
gene 3 3 8 3.47551 0 3 3.47551 1
gene 3 4 8 4.4858 0 4 4.4858 1
gene 3 5 8 -1.39765 0 5 -1.39765 1
gene 1 6 8 5.78246 0 6 5.78246 1
gene 1 7 8 -6.64444 0 7 -6.64444 1
gene 1 6 23 0.762847 0 42 0.762847 0
gene 1 23 8 2.22726 0 43 2.22726 1
gene 1 1 23 -5.32255 0 50 -5.32255 1
gene 1 6 28 0.787143 0 62 0.787143 1
gene 1 28 23 1.49465 0 63 1.49465 1
gene 1 4 23 0.922206 0 80 0.922206 1
genomeend 64

/* Organism #65 Fitness: 5 Error: 0 */
genomestart 65
trait 1 0.1 0 0 0 0 0 0 0 
trait 2 0.1 0 0 0 0.0106004 0 0.183629 0.334273 
trait 3 0.34375 0 0 0 0.056253 0 0 0.0512272 
node 1 2 1 1
node 2 2 1 1
node 3 1 1 1
node 4 1 1 1
node 5 1 1 1
node 6 2 1 1
node 7 3 1 3
node 8 3 0 2
node 23 1 0 0
node 28 1 0 0
gene 1 1 8 -0.0340633 0 1 -0.0340633 1
gene 1 2 8 2.06537 0 2 2.06537 1
gene 2 3 8 -1.16853 0 3 -1.16853 1
gene 3 4 8 5.30982 0 4 5.30982 1
gene 3 5 8 5.16644 0 5 5.16644 1
gene 1 6 8 -1.26445 0 6 -1.26445 0
gene 1 7 8 2.43705 0 7 2.43705 1
gene 1 6 23 1.92078 0 42 1.92078 0
gene 1 23 8 6.24593 0 43 6.24593 1
gene 1 1 23 -2.62535 0 50 -2.62535 1
gene 1 6 28 3.71908 0 62 3.71908 1
gene 1 28 23 2.20171 0 63 2.20171 1
genomeend 65

/* Organism #66 Fitness: 15 Error: 0 */
genomestart 66
trait 1 0.1 0 0 0 0 0 0 0 
trait 2 0.1 0 0.200439 0 0 0.0676042 0.0217316 0.334273 
trait 3 0.34375 0 0 0 0.056253 0 0 0.0512272 
node 1 2 1 1
node 2 2 1 1
node 3 1 1 1
node 4 1 1 1
node 5 1 1 1
node 6 2 1 1
node 7 3 1 3
node 8 3 0 2
node 23 1 0 0
node 28 1 0 0
gene 1 1 8 1.13626 0 1 1.13626 1
gene 1 2 8 1.81844 0 2 1.81844 1
gene 3 3 8 0.64306 0 3 0.64306 1
gene 3 4 8 3.0051 0 4 3.0051 1
gene 3 5 8 6.46896 0 5 6.46896 1
gene 1 6 8 6.12393 0 6 6.12393 0
gene 1 7 8 -7.82131 0 7 -7.82131 1
gene 1 6 23 0.294493 0 42 0.294493 0
gene 1 23 8 4.29362 0 43 4.29362 1
gene 1 1 23 -2.62767 0 50 -2.62767 1
gene 1 6 28 -0.313136 0 62 -0.313136 1
gene 1 28 23 5.85446 0 63 5.85446 1
genomeend 66

/* Organism #67 Fitness: 16 Error: 0 */
genomestart 67
trait 1 0.1 0 0 0 0 0 0 0 
trait 2 0.1 0 0 0 0.0106004 0 0.183629 0.334273 
trait 3 0.34375 0 0 0 0.056253 0 0 0.0512272 
node 1 2 1 1
node 2 2 1 1
node 3 1 1 1
node 4 1 1 1
node 5 1 1 1
node 6 2 1 1
node 7 3 1 3
node 8 3 0 2
node 23 1 0 0
node 28 1 0 0
gene 1 1 8 0.322313 0 1 0.322313 1
gene 1 2 8 3.98218 0 2 3.98218 1
gene 3 3 8 0.953883 0 3 0.953883 1
gene 3 4 8 3.74529 0 4 3.74529 1
gene 3 5 8 4.08885 0 5 4.08885 1
gene 1 6 8 7.18236 0 6 7.18236 0
gene 1 7 8 -5.54654 0 7 -5.54654 1
gene 1 6 23 -1.03164 0 42 -1.03164 0
gene 1 23 8 4.72799 0 43 4.72799 1
gene 1 1 23 -2.62535 0 50 -2.62535 1
gene 1 6 28 2.34763 0 62 2.34763 1
gene 1 28 23 3.36246 0 63 3.36246 1
gene 1 4 23 1.76448 0 80 1.76448 1
genomeend 67

/* Organism #68 Fitness: 7 Error: 0 */
genomestart 68
trait 1 0.1 0 0 0 0 0 0 0 
trait 2 0.1 0 0 0 0.0106004 0 0.183629 0.334273 
trait 3 0.34375 0 0 0 0.056253 0 0 0.0512272 
node 1 2 1 1
node 2 2 1 1
node 3 1 1 1
node 4 1 1 1
node 5 1 1 1
node 6 2 1 1
node 7 3 1 3
node 8 3 0 2
node 23 1 0 0
node 28 1 0 0
gene 1 1 8 -2.97517 0 1 -2.97517 1
gene 1 2 8 0.423602 0 2 0.423602 1
gene 3 3 8 2.55988 0 3 2.55988 1
gene 3 4 8 -1.09876 0 4 -1.09876 1
gene 3 5 8 -2.42215 0 5 -2.42215 1
gene 1 6 8 6.94868 0 6 6.94868 0
gene 1 7 8 -4.35628 0 7 -4.35628 1
gene 1 6 23 0.548325 0 42 0.548325 0
gene 1 23 8 6.46755 0 43 6.46755 1
gene 1 1 23 -2.30107 0 50 -2.30107 1
gene 1 6 28 4.16014 0 62 4.16014 1
gene 1 28 23 -2.43859 0 63 -2.43859 1
genomeend 68

/* Organism #69 Fitness: 13 Error: 0 */
genomestart 69
trait 1 0.1 0 0 0 0 0 0 0 
trait 2 0.1 0 0 0 0.0106004 0 0.183629 0.334273 
trait 3 0.34375 0 0 0 0.056253 0 0 0.0512272 
node 1 2 1 1
node 2 2 1 1
node 3 1 1 1
node 4 1 1 1
node 5 1 1 1
node 6 2 1 1
node 7 3 1 3
node 8 3 0 2
node 23 1 0 0
node 28 1 0 0
gene 1 1 8 -0.253008 0 1 -0.253008 1
gene 1 2 8 3.47847 0 2 3.47847 1
gene 3 3 8 1.26671 0 3 1.26671 1
gene 3 4 8 2.89846 0 4 2.89846 1
gene 3 5 8 1.656 0 5 1.656 1
gene 1 6 8 6.85596 0 6 6.85596 0
gene 1 7 8 -5.62663 0 7 -5.62663 1
gene 1 6 23 0.44457 0 42 0.44457 0
gene 1 23 8 3.85895 0 43 3.85895 1
gene 1 1 23 -3.48108 0 50 -3.48108 1
gene 1 6 28 2.8002 0 62 2.8002 1
gene 1 28 23 3.41002 0 63 3.41002 1
gene 1 4 23 1.76448 0 80 1.76448 1
gene 2 7 23 -0.444292 0 103 -0.444292 1
genomeend 69

/* Species #6 : (Size 16) (AF 38.875) (Age 7)  */


/* Organism #70 Fitness: 114 Error: 0 */
genomestart 70
trait 1 0.1 0 0.204272 0.0110785 0 0 0 0 
trait 2 0.2 0 0 0 0 0 0 0 
trait 3 0.3875 0 0 0 0.112506 0 0 0.102454 
node 1 1 1 1
node 2 2 1 1
node 3 1 1 1
node 4 1 1 1
node 5 1 1 1
node 6 2 1 1
node 7 3 1 3
node 8 3 0 2
node 11 1 0 0
node 20 1 0 0
node 29 1 0 0
gene 3 1 8 -1.89801 0 1 -1.89801 1
gene 2 2 8 0.740094 0 2 0.740094 0
gene 2 3 8 -1.32337 0 3 -1.32337 1
gene 3 4 8 -4.29587 0 4 -4.29587 0
gene 1 5 8 2.32256 0 5 2.32256 1
gene 1 6 8 0.600236 0 6 0.600236 1
gene 2 7 8 -2.24463 0 7 -2.24463 1
gene 3 4 11 1.22682 0 12 0.726817 1
gene 3 11 8 0.0586191 0 13 0.00127694 1
gene 3 2 11 0.930528 0 29 0.930528 0
gene 3 2 20 1 0 36 0 1
gene 3 20 11 0.930528 0 37 0 1
gene 2 2 29 1 0 64 0 1
gene 2 29 8 1.56001 0 65 1.56001 1
genomeend 70

/* Organism #71 Fitness: 34 Error: 0 */
genomestart 71
trait 1 0.1 0 0 0 0 0 0 0 
trait 2 0.2 0 0 0 0 0 0 0 
trait 3 0.3875 0 0 0 0.112506 0 0 0.102454 
node 1 1 1 1
node 2 2 1 1
node 3 1 1 1
node 4 1 1 1
node 5 1 1 1
node 6 2 1 1
node 7 3 1 3
node 8 3 0 2
node 11 1 0 0
node 20 1 0 0
node 29 1 0 0
gene 3 1 8 -0.921924 0 1 -0.921924 1
gene 2 2 8 0.112269 0 2 0.112269 0
gene 2 3 8 -4.6217 0 3 -4.6217 1
gene 3 4 8 -2.17714 0 4 -2.17714 0
gene 1 5 8 3.00034 0 5 3.00034 1
gene 1 6 8 2.36758 0 6 2.36758 1
gene 2 7 8 1.68069 0 7 1.68069 1
gene 3 4 11 2.79209 0 12 2.79209 1
gene 3 11 8 -0.44324 0 13 -0.44324 1
gene 3 2 11 -2.09039 0 29 -2.09039 0
gene 3 2 20 3.71201 0 36 3.71201 1
gene 3 20 11 3.14763 0 37 3.14763 1
gene 2 2 29 2.38844 0 64 2.38844 1
gene 2 29 8 0.435669 0 65 0.435669 1
gene 3 29 20 0.200965 0 94 0.200965 1
genomeend 71

/* Organism #72 Fitness: 102 Error: 0 */
genomestart 72
trait 1 0.1 0 0.102136 0.00553923 0 0 0 0 
trait 2 0.2 0 0 0 0 0 0 0 
trait 3 0.3875 0 0 0 0.112506 0 0 0.102454 
node 1 1 1 1
node 2 2 1 1
node 3 1 1 1
node 4 1 1 1
node 5 1 1 1
node 6 2 1 1
node 7 3 1 3
node 8 3 0 2
node 11 1 0 0
node 20 1 0 0
node 29 1 0 0
gene 3 1 8 0.0248674 0 1 0.0248674 1
gene 2 2 8 -0.354831 0 2 -0.354831 0
gene 2 3 8 -1.79196 0 3 -1.79196 1
gene 3 4 8 -3.40447 0 4 -3.40447 0
gene 1 5 8 2.05154 0 5 2.05154 1
gene 1 6 8 0.702647 0 6 0.702647 1
gene 2 7 8 -0.315985 0 7 -0.315985 1
gene 3 4 11 1.74768 0 12 1.49768 1
gene 3 11 8 -0.320785 0 13 -0.349456 1
gene 3 2 11 -0.150313 0 29 -0.150313 1
gene 3 2 20 1.37417 0 36 0.874169 1
gene 3 20 11 1.06278 0 37 0.597521 1
gene 2 2 29 1 0 64 0.5 1
gene 2 29 8 0.738578 0 65 0.738578 1
genomeend 72

/* Organism #73 Fitness: 17 Error: 0 */
genomestart 73
trait 1 0.1 0 0.204272 0.0110785 0 0 0 0 
trait 2 0.2 0 0 0 0 0 0 0 
trait 3 0.3875 0 0 0 0.112506 0 0 0.102454 
node 1 1 1 1
node 2 2 1 1
node 3 1 1 1
node 4 1 1 1
node 5 1 1 1
node 6 2 1 1
node 7 3 1 3
node 8 3 0 2
node 11 1 0 0
node 20 1 0 0
node 29 1 0 0
gene 3 1 8 -1.80189 0 1 -1.80189 1
gene 2 2 8 0.504248 0 2 0.504248 0
gene 2 3 8 -2.02295 0 3 -2.02295 1
gene 3 4 8 -5.92214 0 4 -5.92214 0
gene 1 5 8 2.05075 0 5 2.05075 1
gene 1 6 8 2.42165 0 6 2.42165 1
gene 2 7 8 -0.908452 0 7 -0.908452 1
gene 3 4 11 1.36981 0 12 1.36981 1
gene 3 11 8 -2.31351 0 13 -2.31351 1
gene 3 2 11 1.13026 0 29 1.13026 0
gene 3 2 20 2.95033 0 36 2.95033 1
gene 3 20 11 3.28052 0 37 3.28052 1
gene 2 2 29 1 0 64 1 1
gene 2 29 8 0.960133 0 65 0.960133 1
genomeend 73

/* Organism #74 Fitness: 38 Error: 0 */
genomestart 74
trait 1 0.1 0 0.204272 0.0110785 0 0 0 0 
trait 2 0.2 0 0 0 0 0 0 0 
trait 3 0.3875 0 0 0 0.112506 0 0 0.102454 
node 1 1 1 1
node 2 2 1 1
node 3 1 1 1
node 4 1 1 1
node 5 1 1 1
node 6 2 1 1
node 7 3 1 3
node 8 3 0 2
node 11 1 0 0
node 20 1 0 0
node 29 1 0 0
gene 3 1 8 -0.31194 0 1 -0.31194 1
gene 2 2 8 -0.231255 0 2 -0.231255 0
gene 2 3 8 0.800636 0 3 0.800636 1
gene 3 4 8 -5.66212 0 4 -5.66212 0
gene 1 5 8 2.26071 0 5 2.26071 1
gene 1 6 8 2.00736 0 6 2.00736 1
gene 2 7 8 -2.62136 0 7 -2.62136 1
gene 3 4 11 0.975179 0 12 0.975179 1
gene 3 11 8 -0.501043 0 13 -0.501043 1
gene 3 2 11 1.45419 0 29 1.45419 0
gene 3 2 20 0.0452315 0 36 0.0452315 1
gene 3 20 11 2.95346 0 37 2.95346 1
gene 2 2 29 -1.08479 0 64 -1.08479 1
gene 2 29 8 1.56001 0 65 1.56001 1
genomeend 74

/* Organism #75 Fitness: 5 Error: 0 */
genomestart 75
trait 1 0.1 0 0 0 0 0 0 0 
trait 2 0.2 0 0 0 0 0 0 0 
trait 3 0.3875 0 0 0 0.112506 0 0 0.102454 
node 1 1 1 1
node 2 2 1 1
node 3 1 1 1
node 4 1 1 1
node 5 1 1 1
node 6 2 1 1
node 7 3 1 3
node 8 3 0 2
node 11 1 0 0
node 20 1 0 0
node 29 1 0 0
gene 3 1 8 -0.486016 0 1 -0.486016 1
gene 2 2 8 0.0887597 0 2 0.0887597 0
gene 2 3 8 -2.78438 0 3 -2.78438 1
gene 3 4 8 -1.16255 0 4 -1.16255 0
gene 1 5 8 1.31153 0 5 1.31153 1
gene 1 6 8 -0.809722 0 6 -0.809722 1
gene 2 7 8 -2.07019 0 7 -2.07019 1
gene 3 4 11 2.3648 0 12 2.3648 1
gene 3 11 8 0.45566 0 13 0.45566 1
gene 3 2 11 -3.12741 0 29 -3.12741 0
gene 3 2 20 2.80877 0 36 2.80877 1
gene 3 20 11 1.87367 0 37 1.87367 1
gene 2 2 29 3.47431 0 64 3.47431 1
gene 2 29 8 0.435669 0 65 0.435669 1
gene 3 29 20 -1.41849 0 94 -1.41849 1
genomeend 75

/* Organism #76 Fitness: 30 Error: 0 */
genomestart 76
trait 1 0.1 0 0 0 0 0 0 0 
trait 2 0.2 0 0 0 0 0 0 0 
trait 3 0.3875 0 0 0 0.112506 0 0 0.102454 
node 1 1 1 1
node 2 2 1 1
node 3 1 1 1
node 4 1 1 1
node 5 1 1 1
node 6 2 1 1
node 7 3 1 3
node 8 3 0 2
node 11 1 0 0
node 20 1 0 0
node 29 1 0 0
gene 3 1 8 -0.520003 0 1 -0.520003 1
gene 2 2 8 0.589446 0 2 0.589446 0
gene 2 3 8 -3.51974 0 3 -3.51974 1
gene 3 4 8 -2.51307 0 4 -2.51307 0
gene 1 5 8 1.39734 0 5 1.39734 1
gene 1 6 8 0.805057 0 6 0.805057 1
gene 2 7 8 -0.200601 0 7 -0.200601 1
gene 3 4 11 2.26854 0 12 2.26854 1
gene 3 11 8 -0.70019 0 13 -0.70019 1
gene 3 2 11 -1.23115 0 29 -1.23115 1
gene 3 2 20 1.74834 0 36 1.74834 1
gene 3 20 11 1.19504 0 37 1.19504 1
gene 2 2 29 1 0 64 1 1
gene 2 29 8 0.435669 0 65 0.435669 1
gene 3 29 20 0.242842 0 94 0.242842 1
genomeend 76

/* Organism #77 Fitness: 58 Error: 0 */
genomestart 77
trait 1 0.1 0 0 0 0 0 0 0 
trait 2 0.2 0 0 0 0 0 0 0 
trait 3 0.3875 0 0 0 0.112506 0 0 0.102454 
node 1 1 1 1
node 2 2 1 1
node 3 1 1 1
node 4 1 1 1
node 5 1 1 1
node 6 2 1 1
node 7 3 1 3
node 8 3 0 2
node 11 1 0 0
node 20 1 0 0
node 29 1 0 0
gene 3 1 8 -2.71177 0 1 -2.71177 1
gene 2 2 8 2.30679 0 2 2.30679 0
gene 2 3 8 -4.02342 0 3 -4.02342 1
gene 3 4 8 -0.337169 0 4 -0.337169 0
gene 1 5 8 0.866121 0 5 0.866121 1
gene 1 6 8 1.56254 0 6 1.56254 1
gene 2 7 8 -0.283779 0 7 -0.283779 1
gene 3 4 11 0.171603 0 12 0.171603 1
gene 3 11 8 -0.17335 0 13 -0.17335 1
gene 3 2 11 0.59279 0 29 0.59279 0
gene 3 2 20 3.22392 0 36 3.22392 1
gene 3 20 11 1.96214 0 37 1.96214 1
gene 2 2 29 -0.0616316 0 64 -0.0616316 1
gene 2 29 8 2.25478 0 65 2.25478 1
gene 3 29 20 1.37 0 94 1.37 1
genomeend 77

/* Organism #78 Fitness: 10 Error: 0 */
genomestart 78
trait 1 0.1 0 0 0 0 0 0 0 
trait 2 0.2 0 0 0 0 0 0 0 
trait 3 0.3875 0 0 0 0.112506 0 0 0.102454 
node 1 1 1 1
node 2 2 1 1
node 3 1 1 1
node 4 1 1 1
node 5 1 1 1
node 6 2 1 1
node 7 3 1 3
node 8 3 0 2
node 11 1 0 0
node 20 1 0 0
node 29 1 0 0
gene 3 1 8 0.575199 0 1 0.575199 1
gene 2 2 8 1.4806 0 2 1.4806 0
gene 2 3 8 -0.433638 0 3 -0.433638 1
gene 3 4 8 1.49716 0 4 1.49716 0
gene 1 5 8 -0.995031 0 5 -0.995031 1
gene 1 6 8 1.26426 0 6 1.26426 1
gene 2 7 8 2.05797 0 7 2.05797 1
gene 3 4 11 0.775508 0 12 0.775508 1
gene 3 11 8 1.85987 0 13 1.85987 1
gene 3 2 11 -2.08502 0 29 -2.08502 0
gene 3 2 20 3.00699 0 36 3.00699 1
gene 3 20 11 2.94982 0 37 2.94982 1
gene 2 2 29 1 0 64 1 1
gene 2 29 8 -1.92857 0 65 -1.92857 1
genomeend 78

/* Organism #79 Fitness: 5 Error: 0 */
genomestart 79
trait 1 0.1 0 0.204272 0.0110785 0 0 0 0 
trait 2 0.2 0 0 0 0 0 0 0 
trait 3 0.3875 0 0 0 0.112506 0 0 0.102454 
node 1 1 1 1
node 2 2 1 1
node 3 1 1 1
node 4 1 1 1
node 5 1 1 1
node 6 2 1 1
node 7 3 1 3
node 8 3 0 2
node 11 1 0 0
node 20 1 0 0
node 29 1 0 0
gene 3 1 8 -2.14335 0 1 -2.14335 1
gene 2 2 8 -0.594197 0 2 -0.594197 1
gene 2 3 8 -0.894277 0 3 -0.894277 1
gene 3 4 8 1.21011 0 4 1.21011 0
gene 1 5 8 1.58092 0 5 1.58092 1
gene 1 6 8 0.109519 0 6 0.109519 1
gene 2 7 8 -0.598876 0 7 -0.598876 1
gene 3 4 11 5.21409 0 12 5.21409 1
gene 3 11 8 -1.88113 0 13 -1.88113 1
gene 3 2 11 1.38633 0 29 1.38633 1
gene 3 2 20 0.623616 0 36 0.623616 1
gene 3 20 11 0.0410546 0 37 0.0410546 1
gene 2 2 29 1.66014 0 64 1.66014 1
gene 2 29 8 1.1533 0 65 1.1533 1
genomeend 79

/* Organism #80 Fitness: 104 Error: 0 */
genomestart 80
trait 1 0.1 0 0 0 0 0 0 0 
trait 2 0.2 0 0 0 0 0 0 0 
trait 3 0.3875 0 0 0 0.112506 0 0 0.102454 
node 1 1 1 1
node 2 2 1 1
node 3 1 1 1
node 4 1 1 1
node 5 1 1 1
node 6 2 1 1
node 7 3 1 3
node 8 3 0 2
node 11 1 0 0
node 20 1 0 0
node 29 1 0 0
gene 3 1 8 1.94774 0 1 1.94774 1
gene 2 2 8 -1.44976 0 2 -1.44976 0
gene 2 3 8 -2.26055 0 3 -2.26055 1
gene 3 4 8 -2.51307 0 4 -2.51307 0
gene 1 5 8 1.78052 0 5 1.78052 1
gene 1 6 8 0.805057 0 6 0.805057 1
gene 2 7 8 1.61266 0 7 1.61266 1
gene 3 4 11 2.26854 0 12 2.26854 1
gene 3 11 8 -0.70019 0 13 -0.70019 1
gene 3 2 11 -1.23115 0 29 -1.23115 0
gene 3 2 20 1.74834 0 36 1.74834 1
gene 3 20 11 1.19504 0 37 1.19504 1
gene 2 2 29 1 0 64 1 1
gene 2 29 8 -0.0828498 0 65 -0.0828498 1
gene 2 5 11 0.113202 0 104 0.113202 1
genomeend 80

/* Organism #81 Fitness: 5 Error: 0 */
genomestart 81
trait 1 0.1 0 0.204272 0.0110785 0 0 0 0 
trait 2 0.2 0 0 0 0 0 0 0 
trait 3 0.3875 0 0 0 0.112506 0 0 0.102454 
node 1 1 1 1
node 2 2 1 1
node 3 1 1 1
node 4 1 1 1
node 5 1 1 1
node 6 2 1 1
node 7 3 1 3
node 8 3 0 2
node 11 1 0 0
node 20 1 0 0
node 29 1 0 0
gene 3 1 8 -2.47989 0 1 -2.47989 1
gene 2 2 8 1.39674 0 2 1.39674 0
gene 2 3 8 -2.12425 0 3 -2.12425 1
gene 3 4 8 -2.53251 0 4 -2.53251 0
gene 1 5 8 3.56435 0 5 3.56435 1
gene 1 6 8 -1.32686 0 6 -1.32686 1
gene 2 7 8 -3.74772 0 7 -3.74772 1
gene 3 4 11 -1.03687 0 12 -1.03687 1
gene 2 11 8 -0.543348 0 13 -0.543348 1
gene 3 2 11 1.25511 0 29 1.25511 0
gene 3 2 20 2.29211 0 36 2.29211 1
gene 3 20 11 3.00907 0 37 3.00907 1
gene 2 2 29 -0.820328 0 64 -0.820328 1
gene 2 29 8 1.56001 0 65 1.56001 1
genomeend 81

/* Organism #82 Fitness: 19 Error: 0 */
genomestart 82
trait 1 0.1 0 0 0 0 0 0 0 
trait 2 0.2 0 0 0 0 0 0 0 
trait 3 0.3875 0 0 0 0.112506 0 0 0.102454 
node 1 1 1 1
node 2 2 1 1
node 3 1 1 1
node 4 1 1 1
node 5 1 1 1
node 6 2 1 1
node 7 3 1 3
node 8 3 0 2
node 11 1 0 0
node 20 1 0 0
gene 3 1 8 -0.652186 0 1 -0.652186 1
gene 2 2 8 -1.68119 0 2 -1.68119 1
gene 2 3 8 -1.66109 0 3 -1.66109 1
gene 3 4 8 2.58457 0 4 2.58457 0
gene 1 5 8 -1.93356 0 5 -1.93356 1
gene 1 6 8 6.82947 0 6 6.82947 1
gene 2 7 8 -2.40706 0 7 -2.40706 1
gene 3 4 11 1.16537 0 12 1.16537 1
gene 3 11 8 0.208289 0 13 0.208289 1
gene 3 2 11 -2.05539 0 29 -2.05539 0
gene 3 2 20 -3.14681 0 36 -3.14681 1
gene 3 20 11 -1.6715 0 37 -1.6715 1
genomeend 82

/* Organism #83 Fitness: 29 Error: 0 */
genomestart 83
trait 1 0.1 0 0 0 0 0 0 0 
trait 2 0.2 0 0 0 0 0 0 0 
trait 3 0.3875 0 0 0 0.112506 0 0 0.102454 
node 1 1 1 1
node 2 2 1 1
node 3 1 1 1
node 4 1 1 1
node 5 1 1 1
node 6 2 1 1
node 7 3 1 3
node 8 3 0 2
node 11 1 0 0
node 20 1 0 0
gene 3 1 8 -2.62299 0 1 -2.62299 1
gene 2 2 8 1.4019 0 2 1.4019 1
gene 2 3 8 -1.48334 0 3 -1.48334 1
gene 3 4 8 -0.159693 0 4 -0.159693 0
gene 1 5 8 0.933305 0 5 0.933305 1
gene 1 6 8 7.69853 0 6 7.69853 1
gene 2 7 8 2.10744 0 7 2.10744 1
gene 3 4 11 1.53204 0 12 1.53204 1
gene 3 11 8 2.00391 0 13 2.00391 1
gene 3 2 11 -2.44987 0 29 -2.44987 0
gene 3 2 20 -0.494703 0 36 -0.494703 1
gene 3 20 11 -3.85384 0 37 -3.85384 1
genomeend 83

/* Organism #84 Fitness: 20 Error: 0 */
genomestart 84
trait 1 0.1 0 0 0 0 0 0 0 
trait 2 0.2 0 0 0 0 0 0 0 
trait 3 0.3875 0 0 0 0.112506 0 0 0.102454 
node 1 1 1 1
node 2 2 1 1
node 3 1 1 1
node 4 1 1 1
node 5 1 1 1
node 6 2 1 1
node 7 3 1 3
node 8 3 0 2
node 11 1 0 0
node 20 1 0 0
gene 3 1 8 -1.51191 0 1 -1.51191 1
gene 2 2 8 -1.57818 0 2 -1.57818 1
gene 2 3 8 -1.3472 0 3 -1.3472 1
gene 3 4 8 -0.289041 0 4 -0.289041 0
gene 1 5 8 1.64259 0 5 1.64259 1
gene 1 6 8 8 0 6 8 1
gene 2 7 8 2.3237 0 7 2.3237 1
gene 3 4 11 -0.164084 0 12 -0.164084 1
gene 3 11 8 3.25619 0 13 3.25619 1
gene 3 2 11 -0.678479 0 29 -0.678479 0
gene 3 2 20 -3.35997 0 36 -3.35997 1
gene 3 20 11 0.0202982 0 37 0.0202982 1
genomeend 84

/* Organism #85 Fitness: 32 Error: 0 */
genomestart 85
trait 1 0.1 0 0 0 0 0 0 0 
trait 2 0.2 0 0 0 0 0 0 0 
trait 3 1 0 0 0 0.619979 0 0 0.102454 
node 1 1 1 1
node 2 2 1 1
node 3 1 1 1
node 4 1 1 1
node 5 1 1 1
node 6 2 1 1
node 7 3 1 3
node 8 3 0 2
node 11 1 0 0
node 20 1 0 0
gene 3 1 8 -0.897851 0 1 -0.897851 1
gene 2 2 8 -1.0305 0 2 -1.0305 1
gene 2 3 8 -0.165068 0 3 -0.165068 1
gene 3 4 8 1.84651 0 4 1.84651 0
gene 1 5 8 0.052334 0 5 0.052334 1
gene 1 6 8 6.88111 0 6 6.88111 1
gene 2 7 8 0.101973 0 7 0.101973 1
gene 3 4 11 2.44965 0 12 2.44965 1
gene 3 11 8 0.0620493 0 13 0.0620493 1
gene 3 2 11 -1.5012 0 29 -1.5012 0
gene 3 2 20 0.690829 0 36 0.690829 1
gene 3 20 11 -3.07883 0 37 -3.07883 1
genomeend 85

/* Species #7 : (Size 4) (AF 34.75) (Age 5)  */


/* Organism #86 Fitness: 5 Error: 0 */
genomestart 86
trait 1 0.176352 0.00765617 0 0 0 0.0780027 0.110854 0.148496 
trait 2 0.1625 0 0 0 0.00397516 0 0.0688609 0.125352 
trait 3 0.333594 0 0 0.0295391 0.0984428 0 0 0.0896476 
node 1 2 1 1
node 2 2 1 1
node 3 1 1 1
node 4 1 1 1
node 5 1 1 1
node 6 2 1 1
node 7 2 1 3
node 8 3 0 2
node 23 1 0 0
gene 1 1 8 -0.660314 0 1 -0.660314 1
gene 3 2 8 1.77502 0 2 1.77502 1
gene 2 3 8 -8 0 3 -8 1
gene 3 4 8 -8 0 4 -8 1
gene 2 5 8 1.75274 0 5 1.75274 1
gene 2 6 8 0.949304 0 6 0.949304 1
gene 3 7 8 -2.88851 0 7 -2.88851 1
gene 1 6 23 -0.628869 0 42 -0.628869 1
gene 1 23 8 4.77278 0 43 4.77278 1
genomeend 86

/* Organism #87 Fitness: 31 Error: 0 */
genomestart 87
trait 1 0.176352 0.00765617 0 0 0 0.0780027 0.110854 0.148496 
trait 2 0.1625 0 0 0 0.00397516 0 0.0688609 0.125352 
trait 3 0.333594 0 0 0.0295391 0.0984428 0 0 0.0896476 
node 1 2 1 1
node 2 2 1 1
node 3 1 1 1
node 4 1 1 1
node 5 1 1 1
node 6 2 1 1
node 7 2 1 3
node 8 3 0 2
node 23 1 0 0
gene 3 1 8 -4.17365 0 1 -4.17365 1
gene 3 2 8 -0.249467 0 2 -0.249467 1
gene 2 3 8 -7.55848 0 3 -7.55848 1
gene 3 4 8 0.517646 0 4 0.517646 1
gene 2 5 8 2.917 0 5 2.917 1
gene 1 6 8 2.38071 0 6 2.38071 1
gene 1 7 8 -4.88588 0 7 -4.88588 1
gene 1 6 23 -0.0690329 0 42 -0.0690329 1
gene 1 23 8 3.81213 0 43 3.81213 1
genomeend 87

/* Organism #88 Fitness: 5 Error: 0 */
genomestart 88
trait 1 0.176352 0.00765617 0 0 0 0.0780027 0.110854 0.148496 
trait 2 0.1625 0 0 0 0.00397516 0 0.0688609 0.125352 
trait 3 0.333594 0 0 0.0295391 0.0984428 0 0 0.0896476 
node 1 2 1 1
node 2 2 1 1
node 3 1 1 1
node 4 1 1 1
node 5 1 1 1
node 6 2 1 1
node 7 2 1 3
node 8 3 0 2
node 23 1 0 0
gene 1 1 8 -1.98921 0 1 -1.98921 1
gene 3 2 8 1.88852 0 2 1.88852 1
gene 2 3 8 -6.91416 0 3 -6.91416 1
gene 3 4 8 -8 0 4 -8 1
gene 2 5 8 0.439092 0 5 0.439092 1
gene 2 6 8 -0.155541 0 6 -0.155541 1
gene 1 7 8 -2.93562 0 7 -2.93562 1
gene 1 6 23 1.60998 0 42 1.60998 1
gene 1 23 8 2.59447 0 43 2.59447 1
genomeend 88

/* Organism #89 Fitness: 98 Error: 0 */
genomestart 89
trait 1 0.185896 0.0181834 0 0.00585819 0 0.0919533 0.0554268 0.0742482 
trait 2 0.18125 0 0 0 0.00198758 0 0.0516457 0.0626762 
trait 3 0.356445 0 0 0.0147695 0.100201 0 0 0.0912484 
node 1 2 1 1
node 2 2 1 1
node 3 1 1 1
node 4 1 1 1
node 5 1 1 1
node 6 2 1 1
node 7 2 1 3
node 8 3 0 2
node 42 1 0 0
gene 1 1 8 -0.660314 0 1 -0.660314 0
gene 1 2 8 3.48041 0 2 3.48041 1
gene 2 3 8 -8 0 3 -8 1
gene 3 4 8 -4.63058 0 4 -4.63058 1
gene 2 5 8 4.04553 0 5 4.04553 1
gene 2 6 8 2.4587 0 6 2.4587 1
gene 1 7 8 -1.76277 0 7 -1.76277 1
gene 1 1 42 1 0 105 0 1
gene 1 42 8 -0.660314 0 106 0 1
genomeend 89

/* Species #10 : (Size 10) (AF 10.7) (Age 4)  */


/* Organism #90 Fitness: 5 Error: 0 */
genomestart 90
trait 1 0.1 0 0 0.989851 0.0879056 0 0.44431 0 
trait 2 0.1 0 0 0 0.0106004 0 0.183629 0.334273 
trait 3 0.34375 0 0 0 0.056253 0 0 0.0512272 
node 1 2 1 1
node 2 2 1 1
node 3 1 1 1
node 4 1 1 1
node 5 1 1 1
node 6 2 1 1
node 7 3 1 3
node 8 3 0 2
node 23 1 0 0
node 30 1 0 0
gene 1 1 8 -3.14703 0 1 -3.14703 0
gene 1 2 8 3.1426 0 2 3.1426 1
gene 3 3 8 -0.488348 0 3 -0.488348 1
gene 3 4 8 4.59476 0 4 4.59476 1
gene 3 5 8 1.62262 0 5 1.62262 1
gene 1 6 8 -1.00759 0 6 -1.00759 0
gene 1 7 8 -5.27322 0 7 -5.27322 1
gene 1 6 23 1.79973 0 42 1.79973 1
gene 1 23 8 -2.15181 0 43 -2.15181 1
gene 1 1 23 2.9105 0 50 2.9105 1
gene 1 1 30 2.21368 0 67 2.21368 1
gene 1 30 8 -1.86143 0 68 -1.86143 1
genomeend 90

/* Organism #91 Fitness: 7 Error: 0 */
genomestart 91
trait 1 0.1 0 0 0.989851 0.0879056 0 0.44431 0 
trait 2 0.1 0 0 0 0.0106004 0 0.183629 0.334273 
trait 3 0.34375 0 0 0 0.056253 0 0 0.0512272 
node 1 2 1 1
node 2 2 1 1
node 3 1 1 1
node 4 1 1 1
node 5 1 1 1
node 6 2 1 1
node 7 3 1 3
node 8 3 0 2
node 23 1 0 0
node 30 1 0 0
gene 1 1 8 -3.72437 0 1 -3.72437 0
gene 1 2 8 2.62962 0 2 2.62962 1
gene 3 3 8 -2.95109 0 3 -2.95109 1
gene 3 4 8 3.66862 0 4 3.66862 1
gene 3 5 8 -1.58402 0 5 -1.58402 1
gene 1 6 8 4.87951 0 6 4.87951 0
gene 1 7 8 -4.87725 0 7 -4.87725 1
gene 1 6 23 2.73972 0 42 2.73972 1
gene 1 23 8 5.37443 0 43 5.37443 1
gene 1 1 23 3.33292 0 50 3.33292 1
gene 1 1 30 1.81038 0 67 1.81038 1
gene 1 30 8 -3.80874 0 68 -3.80874 1
genomeend 91

/* Organism #92 Fitness: 6 Error: 0 */
genomestart 92
trait 1 0.1 0 0 0.989851 0.0879056 0 0.44431 0 
trait 2 0.1 0 0 0 0.0106004 0 0.183629 0.334273 
trait 3 0.34375 0 0 0 0.056253 0 0 0.0512272 
node 1 2 1 1
node 2 2 1 1
node 3 1 1 1
node 4 1 1 1
node 5 1 1 1
node 6 2 1 1
node 7 3 1 3
node 8 3 0 2
node 23 1 0 0
node 30 1 0 0
gene 1 1 8 -4.70451 0 1 -4.70451 0
gene 1 2 8 1.18012 0 2 1.18012 1
gene 3 3 8 1.91099 0 3 1.91099 1
gene 3 4 8 3.87053 0 4 3.87053 1
gene 3 5 8 -1.92231 0 5 -1.92231 1
gene 1 6 8 3.04012 0 6 3.04012 0
gene 1 7 8 -6.09957 0 7 -6.09957 1
gene 1 6 23 2.87549 0 42 2.87549 1
gene 1 23 8 5.04422 0 43 5.04422 1
gene 1 1 23 3.22571 0 50 3.22571 1
gene 1 1 30 -0.21551 0 67 -0.21551 1
gene 1 30 8 -5.27384 0 68 -5.27384 1
genomeend 92

/* Organism #93 Fitness: 23 Error: 0 */
genomestart 93
trait 1 0.1 0 0 0.989851 0.0879056 0 0.44431 0 
trait 2 0.1 0 0 0 0.0106004 0 0.183629 0.334273 
trait 3 0.34375 0 0 0 0.056253 0 0 0.0512272 
node 1 2 1 1
node 2 2 1 1
node 3 1 1 1
node 4 1 1 1
node 5 1 1 1
node 6 2 1 1
node 7 3 1 3
node 8 3 0 2
node 23 1 0 0
node 30 1 0 0
gene 1 1 8 -3.01634 0 1 -3.01634 0
gene 1 2 8 4.88573 0 2 4.88573 1
gene 3 3 8 -0.10592 0 3 -0.10592 1
gene 3 4 8 -0.114233 0 4 -0.114233 1
gene 3 5 8 -1.44789 0 5 -1.44789 1
gene 1 6 8 4.99408 0 6 4.99408 0
gene 1 7 8 -4.24695 0 7 -4.24695 1
gene 1 6 23 2.79099 0 42 2.79099 1
gene 1 23 8 8 0 43 8 1
gene 1 1 23 -0.468488 0 50 -0.468488 1
gene 1 1 30 2.3362 0 67 2.3362 1
gene 1 30 8 -3.02543 0 68 -3.02543 1
genomeend 93

/* Organism #94 Fitness: 18 Error: 0 */
genomestart 94
trait 1 0.1 0 0 0.989851 0.0879056 0 0.44431 0 
trait 2 0 0 0 0 0 0 0 0.0898067 
trait 3 0.34375 0 0 0 0.056253 0 0 0.0512272 
node 1 2 1 1
node 2 2 1 1
node 3 1 1 1
node 4 1 1 1
node 5 1 1 1
node 6 2 1 1
node 7 3 1 3
node 8 3 0 2
node 23 1 0 0
node 30 1 0 0
gene 1 1 8 -4.59154 0 1 -4.59154 0
gene 1 2 8 4.15806 0 2 4.15806 1
gene 3 3 8 0.151169 0 3 0.151169 1
gene 3 4 8 4.35726 0 4 4.35726 1
gene 3 5 8 -1.02255 0 5 -1.02255 1
gene 1 6 8 1.24847 0 6 1.24847 0
gene 1 7 8 -3.94374 0 7 -3.94374 1
gene 1 6 23 3.17477 0 42 3.17477 1
gene 1 23 8 6.26865 0 43 6.26865 1
gene 1 1 23 -0.291287 0 50 -0.291287 1
gene 1 1 30 2.53057 0 67 2.53057 1
gene 1 30 8 -3.02543 0 68 -3.02543 1
genomeend 94

/* Organism #95 Fitness: 15 Error: 0 */
genomestart 95
trait 1 0.1 0 0 0.163516 0 0 0 0 
trait 2 0.1 0 0 0 0.0106004 0 0.183629 0.334273 
trait 3 0.34375 0 0 0 0.056253 0 0 0.0512272 
node 1 2 1 1
node 2 2 1 1
node 3 1 1 1
node 4 1 1 1
node 5 1 1 1
node 6 2 1 1
node 7 3 1 3
node 8 3 0 2
node 23 1 0 0
node 30 1 0 0
gene 1 1 8 -1.60487 0 1 -1.60487 0
gene 1 2 8 -0.473126 0 2 -0.473126 1
gene 3 3 8 -1.78766 0 3 -1.78766 1
gene 3 4 8 4.5663 0 4 4.5663 1
gene 3 5 8 2.11612 0 5 2.11612 0
gene 1 6 8 4.70604 0 6 4.70604 0
gene 1 7 8 -4.17346 0 7 -4.17346 1
gene 1 6 23 2.21332 0 42 2.21332 1
gene 1 23 8 6.04274 0 43 6.04274 1
gene 1 1 23 3.76141 0 50 3.76141 1
gene 1 1 30 3.19981 0 67 3.19981 1
gene 1 30 8 -4.42745 0 68 -4.42745 1
genomeend 95

/* Organism #96 Fitness: 5 Error: 0 */
genomestart 96
trait 1 0.1 0 0 0.163516 0 0 0 0 
trait 2 0.1 0 0 0 0.0106004 0 0.183629 0.334273 
trait 3 0.34375 0 0 0 0.056253 0 0 0.0512272 
node 1 2 1 1
node 2 2 1 1
node 3 1 1 1
node 4 1 1 1
node 5 1 1 1
node 6 1 1 1
node 7 3 1 3
node 8 3 0 2
node 23 1 0 0
node 30 1 0 0
gene 1 1 8 -5.17289 0 1 -5.17289 0
gene 1 2 8 -0.744644 0 2 -0.744644 1
gene 3 3 8 -0.952714 0 3 -0.952714 1
gene 3 4 8 6.50007 0 4 6.50007 1
gene 3 5 8 -1.39262 0 5 -1.39262 0
gene 1 6 8 6.35705 0 6 6.35705 0
gene 1 7 8 -4.62586 0 7 -4.62586 1
gene 1 6 23 -1.59488 0 42 -1.59488 1
gene 1 23 8 4.77739 0 43 4.77739 1
gene 1 1 23 2.16437 0 50 2.16437 1
gene 1 1 30 1.55073 0 67 1.55073 1
gene 1 30 8 -7.08883 0 68 -7.08883 1
genomeend 96

/* Organism #97 Fitness: 8 Error: 0 */
genomestart 97
trait 1 0.1 0 0 0.163516 0 0 0 0 
trait 2 0.1 0 0 0 0.0106004 0 0.183629 0.334273 
trait 3 0.34375 0 0 0 0.056253 0 0 0.0512272 
node 1 2 1 1
node 2 2 1 1
node 3 1 1 1
node 4 1 1 1
node 5 1 1 1
node 6 2 1 1
node 7 3 1 3
node 8 3 0 2
node 23 1 0 0
node 30 1 0 0
gene 1 1 8 -2.75702 0 1 -2.75702 0
gene 1 2 8 0.0558055 0 2 0.0558055 1
gene 3 3 8 -3.68668 0 3 -3.68668 1
gene 3 4 8 5.01699 0 4 5.01699 1
gene 3 5 8 -0.633535 0 5 -0.633535 0
gene 1 6 8 5.02737 0 6 5.02737 0
gene 1 7 8 -1.85225 0 7 -1.85225 1
gene 1 6 23 0.0229175 0 42 0.0229175 1
gene 1 23 8 6.78396 0 43 6.78396 1
gene 1 1 23 1.24708 0 50 1.24708 1
gene 1 1 30 1.19763 0 67 1.19763 1
gene 1 30 8 -5.9001 0 68 -5.9001 1
genomeend 97

/* Organism #98 Fitness: 11 Error: 0 */
genomestart 98
trait 1 0.1 0 0 0.163516 0 0 0 0 
trait 2 0.1 0 0 0 0.0106004 0 0.183629 0.334273 
trait 3 0.34375 0 0 0 0.056253 0 0 0.0512272 
node 1 2 1 1
node 2 2 1 1
node 3 1 1 1
node 4 1 1 1
node 5 1 1 1
node 6 2 1 1
node 7 3 1 3
node 8 3 0 2
node 23 1 0 0
node 30 1 0 0
gene 1 1 8 -3.38177 0 1 -3.38177 0
gene 1 2 8 -2.00305 0 2 -2.00305 1
gene 3 3 8 -4.66913 0 3 -4.66913 1
gene 3 4 8 3.81688 0 4 3.81688 1
gene 3 5 8 -0.387526 0 5 -0.387526 0
gene 1 6 8 3.77441 0 6 3.77441 0
gene 1 7 8 -2.82626 0 7 -2.82626 1
gene 1 6 23 2.32504 0 42 2.32504 1
gene 1 23 8 5.17085 0 43 5.17085 1
gene 1 1 23 1.39698 0 50 1.39698 1
gene 1 1 30 2.86507 0 67 2.86507 1
gene 1 30 8 -4.94597 0 68 -4.94597 1
genomeend 98

/* Organism #99 Fitness: 9 Error: 0 */
genomestart 99
trait 1 0.1 0 0 0.163516 0 0 0 0 
trait 2 0.1 0 0 0 0.0106004 0 0.183629 0.334273 
trait 3 0.34375 0 0 0 0.056253 0 0 0.0512272 
node 1 2 1 1
node 2 2 1 1
node 3 1 1 1
node 4 1 1 1
node 5 1 1 1
node 6 2 1 1
node 7 3 1 3
node 8 3 0 2
node 23 1 0 0
node 30 1 0 0
gene 1 1 8 -6.8631 0 1 -6.8631 0
gene 1 2 8 -3.30032 0 2 -3.30032 1
gene 3 3 8 -3.87008 0 3 -3.87008 1
gene 3 4 8 5.7397 0 4 5.7397 1
gene 3 5 8 2.72574 0 5 2.72574 0
gene 1 6 8 3.48889 0 6 3.48889 0
gene 1 7 8 -4.23012 0 7 -4.23012 1
gene 1 6 23 1.24527 0 42 1.24527 1
gene 1 23 8 5.30608 0 43 5.30608 1
gene 1 1 23 1.0033 0 50 1.0033 1
gene 1 1 30 3.19981 0 67 3.19981 1
gene 1 30 8 -5.69259 0 68 -5.69259 1
genomeend 99

/* Species #11 : (Size 21) (AF 47.4762) (Age 4)  */


/* Organism #100 Fitness: 98 Error: 0 */
genomestart 100
trait 1 0.138176 0.0114843 0 0.0702983 0 0.0894047 0 0 
trait 2 0.2 0 0 0 0 0 0.0688609 0 
trait 3 0.316406 0 0 0 0.0210949 0 0 0.0192102 
node 1 3 1 1
node 2 2 1 1
node 3 1 1 1
node 4 1 1 1
node 5 2 1 1
node 6 2 1 1
node 7 3 1 3
node 8 3 0 2
node 18 1 0 0
node 27 1 0 0
gene 2 1 8 -1.82868 0 1 -1.82868 0
gene 3 2 8 2.74189 0 2 2.74189 1
gene 2 3 8 -3.48983 0 3 -3.48983 1
gene 1 4 8 -2.5475 0 4 -2.5475 1
gene 1 5 8 5.88065 0 5 5.88065 1
gene 1 6 8 7.34884 0 6 7.34884 1
gene 3 7 8 -0.394437 0 7 -0.394437 1
gene 2 1 18 3.0527 0 30 3.0527 1
gene 2 18 8 2.62963 0 31 2.62963 1
gene 1 2 18 -2.20785 0 47 -2.20785 0
gene 1 2 27 1.99298 0 60 1.99298 1
gene 1 27 18 -1.89462 0 61 -1.89462 1
genomeend 100

/* Organism #101 Fitness: 76 Error: 0 */
genomestart 101
trait 1 0.138176 0.0114843 0 0.0702983 0 0.0894047 0 0 
trait 2 0.2 0 0 0 0 0 0.0688609 0 
trait 3 0.316406 0 0 0 0.0210949 0 0 0.0192102 
node 1 3 1 1
node 2 2 1 1
node 3 1 1 1
node 4 1 1 1
node 5 1 1 1
node 6 2 1 1
node 7 3 1 3
node 8 3 0 2
node 18 1 0 0
node 27 1 0 0
gene 2 1 8 -1.77086 0 1 -1.77086 0
gene 3 2 8 2.29607 0 2 2.29607 1
gene 1 3 8 -3.15413 0 3 -3.15413 1
gene 1 4 8 -3.67192 0 4 -3.67192 1
gene 1 5 8 4.18843 0 5 4.18843 1
gene 1 6 8 7.76272 0 6 7.76272 1
gene 3 7 8 0.407709 0 7 0.407709 1
gene 2 1 18 -0.779371 0 30 -0.779371 1
gene 2 18 8 2.49729 0 31 2.49729 1
gene 1 2 18 0.94571 0 47 0.94571 0
gene 1 2 27 1.74473 0 60 1.74473 1
gene 1 27 18 -1.27135 0 61 -1.27135 1
genomeend 101

/* Organism #102 Fitness: 37 Error: 0 */
genomestart 102
trait 1 0.138176 0.0114843 0 0.0702983 0 0.0894047 0 0 
trait 2 0.2 0 0 0 0 0 0.0688609 0 
trait 3 0.316406 0 0 0 0.0210949 0 0 0.0192102 
node 1 3 1 1
node 2 2 1 1
node 3 1 1 1
node 4 1 1 1
node 5 1 1 1
node 6 2 1 1
node 7 3 1 3
node 8 3 0 2
node 18 1 0 0
node 27 1 0 0
gene 2 1 8 -1.25055 0 1 -1.25055 0
gene 3 2 8 3.65689 0 2 3.65689 1
gene 2 3 8 -3.42896 0 3 -3.42896 1
gene 1 4 8 -2.05872 0 4 -2.05872 1
gene 1 5 8 4.25926 0 5 4.25926 1
gene 1 6 8 6.73364 0 6 6.73364 1
gene 3 7 8 -0.525467 0 7 -0.525467 1
gene 2 1 18 2.17047 0 30 2.17047 1
gene 2 18 8 1.94499 0 31 1.94499 1
gene 1 2 18 -1.03207 0 47 -1.03207 1
gene 1 2 27 0.736647 0 60 0.486647 1
gene 1 27 18 -1.06356 0 61 -1.11159 1
genomeend 102

/* Organism #103 Fitness: 53 Error: 0 */
genomestart 103
trait 1 0.138176 0.0114843 0 0.0702983 0 0.0894047 0 0 
trait 2 0.2 0 0 0 0 0 0.0688609 0 
trait 3 0.316406 0 0 0 0.0210949 0 0 0.0192102 
node 1 3 1 1
node 2 2 1 1
node 3 1 1 1
node 4 1 1 1
node 5 1 1 1
node 6 2 1 1
node 7 3 1 3
node 8 3 0 2
node 18 1 0 0
node 27 1 0 0
gene 2 1 8 -0.788064 0 1 -0.788064 0
gene 3 2 8 2.74189 0 2 2.74189 1
gene 2 3 8 -3.91461 0 3 -3.91461 1
gene 1 4 8 -2.5475 0 4 -2.5475 1
gene 1 5 8 3.67454 0 5 3.67454 1
gene 1 6 8 7.07845 0 6 7.07845 1
gene 3 7 8 -0.282066 0 7 -0.282066 1
gene 2 1 18 3.0527 0 30 3.0527 1
gene 2 18 8 2.62963 0 31 2.62963 1
gene 1 2 18 -2.20785 0 47 -2.20785 0
gene 1 2 27 1.99298 0 60 1.99298 1
gene 1 27 18 -1.27586 0 61 -1.27586 1
genomeend 103

/* Organism #104 Fitness: 44 Error: 0 */
genomestart 104
trait 1 0.138176 0.0114843 0 0.0702983 0 0.0894047 0 0 
trait 2 0.2 0 0 0 0 0 0.0688609 0 
trait 3 0.316406 0 0 0 0.0210949 0 0 0.0192102 
node 1 3 1 1
node 2 2 1 1
node 3 1 1 1
node 4 1 1 1
node 5 2 1 1
node 6 2 1 1
node 7 3 1 3
node 8 3 0 2
node 18 1 0 0
node 27 1 0 0
gene 2 1 8 -1.74818 0 1 -1.74818 0
gene 3 2 8 5.04142 0 2 5.04142 1
gene 2 3 8 -5.06328 0 3 -5.06328 1
gene 1 4 8 -0.88985 0 4 -0.88985 1
gene 1 5 8 3.49632 0 5 3.49632 1
gene 1 6 8 7.30137 0 6 7.30137 1
gene 3 7 8 -1.8921 0 7 -1.8921 1
gene 2 1 18 2.56664 0 30 2.56664 1
gene 2 18 8 3.21359 0 31 3.21359 1
gene 1 2 18 -1.8351 0 47 -1.8351 0
gene 1 2 27 1.99298 0 60 1.99298 1
gene 1 27 18 -2.39261 0 61 -2.39261 1
genomeend 104

/* Organism #105 Fitness: 39 Error: 0 */
genomestart 105
trait 1 0.138176 0.0114843 0 0.0702983 0 0.0894047 0 0 
trait 2 0.2 0 0 0 0 0 0.0688609 0 
trait 3 0.316406 0 0 0 0.0210949 0 0 0.0192102 
node 1 3 1 1
node 2 2 1 1
node 3 1 1 1
node 4 1 1 1
node 5 2 1 1
node 6 2 1 1
node 7 3 1 3
node 8 3 0 2
node 18 1 0 0
node 27 1 0 0
gene 2 1 8 -1.61858 0 1 -1.61858 0
gene 3 2 8 1.35253 0 2 1.35253 1
gene 2 3 8 -3.17164 0 3 -3.17164 1
gene 1 4 8 -2.42785 0 4 -2.42785 1
gene 1 5 8 8 0 5 8 1
gene 1 6 8 6.96172 0 6 6.96172 1
gene 3 7 8 0.87764 0 7 0.87764 1
gene 2 1 18 4.98327 0 30 4.98327 1
gene 2 18 8 2.44049 0 31 2.44049 1
gene 1 2 18 -2.83738 0 47 -2.83738 0
gene 1 2 27 1.99298 0 60 1.99298 1
gene 1 27 18 -1.89462 0 61 -1.89462 1
genomeend 105

/* Organism #106 Fitness: 62 Error: 0 */
genomestart 106
trait 1 0.138176 0.0114843 0 0.0702983 0 0.0894047 0 0 
trait 2 0.2 0 0 0 0 0 0.0688609 0 
trait 3 0.316406 0 0 0 0.0210949 0 0 0.0192102 
node 1 3 1 1
node 2 2 1 1
node 3 1 1 1
node 4 1 1 1
node 5 2 1 1
node 6 2 1 1
node 7 3 1 3
node 8 3 0 2
node 18 1 0 0
node 27 1 0 0
gene 2 1 8 0.844668 0 1 0.844668 0
gene 3 2 8 0.856625 0 2 0.856625 1
gene 2 3 8 -4.89351 0 3 -4.89351 1
gene 1 4 8 -3.98537 0 4 -3.98537 1
gene 1 5 8 4.6719 0 5 4.6719 1
gene 1 6 8 6.58303 0 6 6.58303 1
gene 3 7 8 0.237503 0 7 0.237503 1
gene 2 1 18 2.50535 0 30 2.50535 1
gene 2 18 8 3.24767 0 31 3.24767 1
gene 1 2 18 1.64807 0 47 1.64807 0
gene 1 2 27 1.74473 0 60 1.74473 1
gene 1 27 18 -2.60779 0 61 -2.60779 1
genomeend 106

/* Organism #107 Fitness: 25 Error: 0 */
genomestart 107
trait 1 0.138176 0.0114843 0 0.0702983 0 0.0894047 0 0 
trait 2 0.2 0 0 0 0 0 0.0688609 0 
trait 3 0.316406 0 0 0 0.0210949 0 0 0.0192102 
node 1 3 1 1
node 2 2 1 1
node 3 1 1 1
node 4 1 1 1
node 5 2 1 1
node 6 2 1 1
node 7 3 1 3
node 8 3 0 2
node 18 1 0 0
node 27 1 0 0
gene 2 1 8 -2.19535 0 1 -2.19535 0
gene 3 2 8 2.08923 0 2 2.08923 1
gene 2 3 8 -0.0135668 0 3 -0.0135668 1
gene 1 4 8 -2.59141 0 4 -2.59141 1
gene 1 5 8 6.88121 0 5 6.88121 1
gene 1 6 8 6.11553 0 6 6.11553 1
gene 3 7 8 0.986534 0 7 0.986534 1
gene 2 1 18 1.96905 0 30 1.96905 1
gene 2 18 8 5.00941 0 31 5.00941 1
gene 1 2 18 -2.98435 0 47 -2.98435 0
gene 1 2 27 -0.499394 0 60 -0.499394 1
gene 1 27 18 2.26871 0 61 2.26871 1
genomeend 107

/* Organism #108 Fitness: 39 Error: 0 */
genomestart 108
trait 1 0.138176 0.0114843 0 0.0702983 0 0.0894047 0 0 
trait 2 0.2 0 0 0 0 0 0.0688609 0 
trait 3 0.316406 0 0 0 0.0210949 0 0 0.0192102 
node 1 3 1 1
node 2 2 1 1
node 3 1 1 1
node 4 1 1 1
node 5 2 1 1
node 6 2 1 1
node 7 3 1 3
node 8 3 0 2
node 18 1 0 0
node 27 1 0 0
gene 2 1 8 -3.83139 0 1 -3.83139 0
gene 3 2 8 2.27782 0 2 2.27782 1
gene 2 3 8 -2.70408 0 3 -2.70408 1
gene 1 4 8 -2.32972 0 4 -2.32972 1
gene 1 5 8 6.0495 0 5 6.0495 1
gene 1 6 8 7.36179 0 6 7.36179 1
gene 3 7 8 1.75729 0 7 1.75729 1
gene 2 1 18 1.068 0 30 1.068 1
gene 2 18 8 5.04024 0 31 5.04024 1
gene 1 2 18 -0.232573 0 47 -0.232573 0
gene 1 2 27 1.73196 0 60 1.73196 1
gene 1 27 18 -1.89462 0 61 -1.89462 1
genomeend 108

/* Organism #109 Fitness: 44 Error: 0 */
genomestart 109
trait 1 0.138176 0.0114843 0 0.0702983 0 0.0894047 0 0 
trait 2 0.2 0 0 0 0 0 0.0688609 0 
trait 3 0.316406 0 0 0 0.0210949 0 0 0.0192102 
node 1 3 1 1
node 2 2 1 1
node 3 1 1 1
node 4 1 1 1
node 5 2 1 1
node 6 2 1 1
node 7 3 1 3
node 8 3 0 2
node 18 1 0 0
node 27 1 0 0
gene 2 1 8 -1.14902 0 1 -1.14902 0
gene 3 2 8 5.74985 0 2 5.74985 1
gene 2 3 8 -2.17279 0 3 -2.17279 1
gene 1 4 8 -3.08911 0 4 -3.08911 1
gene 1 5 8 3.52778 0 5 3.52778 1
gene 1 6 8 8 0 6 8 1
gene 3 7 8 -1.82451 0 7 -1.82451 1
gene 2 1 18 1.81807 0 30 1.81807 1
gene 1 18 8 0.139408 0 31 0.139408 1
gene 1 2 18 -0.105116 0 47 -0.105116 0
gene 1 2 27 -0.216166 0 60 -0.216166 1
gene 1 27 18 -1.95393 0 61 -1.95393 1
genomeend 109

/* Organism #110 Fitness: 35 Error: 0 */
genomestart 110
trait 1 0.138176 0.0114843 0 0.0702983 0 0.0894047 0 0 
trait 2 0.2 0 0 0 0 0 0.0688609 0 
trait 3 0.316406 0 0 0 0.0210949 0 0 0.0192102 
node 1 3 1 1
node 2 2 1 1
node 3 1 1 1
node 4 1 1 1
node 5 2 1 1
node 6 2 1 1
node 7 3 1 3
node 8 3 0 2
node 18 1 0 0
node 27 1 0 0
gene 2 1 8 0.397985 0 1 0.397985 0
gene 3 2 8 3.2741 0 2 3.2741 1
gene 2 3 8 -5.4232 0 3 -5.4232 1
gene 1 4 8 -2.50931 0 4 -2.50931 1
gene 1 5 8 5.80946 0 5 5.80946 1
gene 1 6 8 4.3637 0 6 4.3637 1
gene 3 7 8 1.92491 0 7 1.92491 1
gene 2 1 18 2.54066 0 30 2.54066 1
gene 2 18 8 2.58832 0 31 2.58832 1
gene 1 2 18 2.54426 0 47 2.54426 0
gene 1 2 27 1.99298 0 60 1.99298 1
gene 1 27 18 -1.50864 0 61 -1.50864 1
genomeend 110

/* Organism #111 Fitness: 36 Error: 0 */
genomestart 111
trait 1 0.138176 0.0114843 0 0.0702983 0 0.0894047 0 0 
trait 2 0.2 0 0 0 0 0 0.0688609 0 
trait 3 0.316406 0 0 0 0.0210949 0 0 0.0192102 
node 1 3 1 1
node 2 2 1 1
node 3 1 1 1
node 4 1 1 1
node 5 2 1 1
node 6 2 1 1
node 7 3 1 3
node 8 3 0 2
node 18 1 0 0
node 27 1 0 0
gene 2 1 8 -3.17607 0 1 -3.17607 0
gene 3 2 8 3.89436 0 2 3.89436 1
gene 2 3 8 -2.94742 0 3 -2.94742 1
gene 1 4 8 -0.379465 0 4 -0.379465 1
gene 1 5 8 6.39387 0 5 6.39387 1
gene 1 6 8 8 0 6 8 1
gene 3 7 8 -1.21657 0 7 -1.21657 1
gene 2 1 18 3.8607 0 30 3.8607 1
gene 2 18 8 2.53562 0 31 2.53562 1
gene 1 2 18 0.907747 0 47 0.907747 0
gene 1 2 27 3.41622 0 60 3.41622 1
gene 1 27 18 -0.851261 0 61 -0.851261 1
genomeend 111

/* Organism #112 Fitness: 31 Error: 0 */
genomestart 112
trait 1 0.138176 0.0114843 0 0.0702983 0 0.0894047 0 0 
trait 2 0.2 0 0 0 0 0 0.0688609 0 
trait 3 0.316406 0 0 0 0.0210949 0 0 0.0192102 
node 1 3 1 1
node 2 2 1 1
node 3 1 1 1
node 4 1 1 1
node 5 1 1 1
node 6 2 1 1
node 7 3 1 3
node 8 3 0 2
node 18 1 0 0
node 27 1 0 0
gene 2 1 8 -2.17322 0 1 -2.17322 0
gene 3 2 8 2.07425 0 2 2.07425 1
gene 2 3 8 -4.96558 0 3 -4.96558 1
gene 1 4 8 -1.37376 0 4 -1.37376 1
gene 1 5 8 5.41876 0 5 5.41876 1
gene 1 6 8 8 0 6 8 1
gene 3 7 8 -0.0553531 0 7 -0.0553531 1
gene 2 1 18 -2.03513 0 30 -2.03513 1
gene 2 18 8 3.56016 0 31 3.56016 1
gene 1 2 18 -3.95351 0 47 -3.95351 0
gene 1 2 27 2.46021 0 60 2.46021 1
gene 1 27 18 0.952036 0 61 0.952036 1
genomeend 112

/* Organism #113 Fitness: 42 Error: 0 */
genomestart 113
trait 1 0.138176 0.0114843 0 0.0702983 0 0.0894047 0 0 
trait 2 0.2 0 0 0 0 0 0.0688609 0 
trait 3 0.316406 0 0 0 0.0210949 0 0 0.0192102 
node 1 3 1 1
node 2 2 1 1
node 3 1 1 1
node 4 1 1 1
node 5 1 1 1
node 6 2 1 1
node 7 3 1 3
node 8 3 0 2
node 18 1 0 0
node 27 1 0 0
gene 2 1 8 -0.959526 0 1 -0.959526 0
gene 3 2 8 3.81515 0 2 3.81515 1
gene 2 3 8 -3.07428 0 3 -3.07428 1
gene 1 4 8 -0.907472 0 4 -0.907472 1
gene 1 5 8 4.02121 0 5 4.02121 1
gene 1 6 8 4.8923 0 6 4.8923 1
gene 3 7 8 -2.55018 0 7 -2.55018 1
gene 2 1 18 2.13052 0 30 2.13052 1
gene 2 18 8 3.92176 0 31 3.92176 1
gene 1 2 18 1.50104 0 47 1.50104 0
gene 1 2 27 3.81424 0 60 3.81424 1
gene 1 27 18 -2.22643 0 61 -2.22643 1
genomeend 113

/* Organism #114 Fitness: 117 Error: 0 */
genomestart 114
trait 1 0.138176 0.0114843 0 0.0702983 0 0.0894047 0 0 
trait 2 0.2 0 0 0 0 0 0.0688609 0 
trait 3 0.316406 0 0 0 0.0210949 0 0 0.0192102 
node 1 3 1 1
node 2 2 1 1
node 3 1 1 1
node 4 1 1 1
node 5 2 1 1
node 6 2 1 1
node 7 3 1 3
node 8 3 0 2
node 18 1 0 0
node 27 1 0 0
gene 2 1 8 0.25255 0 1 0.25255 0
gene 3 2 8 2.74189 0 2 2.74189 1
gene 2 3 8 -3.48983 0 3 -3.48983 1
gene 1 4 8 -2.17217 0 4 -2.17217 1
gene 1 5 8 5.88065 0 5 5.88065 1
gene 1 6 8 6.80807 0 6 6.80807 1
gene 3 7 8 -0.394437 0 7 -0.394437 1
gene 2 1 18 3.0527 0 30 3.0527 1
gene 2 18 8 1.90923 0 31 1.90923 1
gene 1 2 18 0.0953236 0 47 0.0953236 0
gene 1 2 27 1.99298 0 60 1.99298 1
gene 1 27 18 -1.89462 0 61 -1.89462 1
gene 1 3 18 -0.248661 0 107 -0.248661 1
genomeend 114

/* Organism #115 Fitness: 33 Error: 0 */
genomestart 115
trait 1 0.138176 0.0114843 0 0.0702983 0 0.0894047 0 0 
trait 2 0.2 0 0 0 0 0 0.0688609 0 
trait 3 0.316406 0 0 0 0.0210949 0 0 0.0192102 
node 1 3 1 1
node 2 2 1 1
node 3 1 1 1
node 4 1 1 1
node 5 1 1 1
node 6 2 1 1
node 7 3 1 3
node 8 3 0 2
node 18 1 0 0
node 27 1 0 0
gene 2 1 8 1.48704 0 1 1.48704 0
gene 3 2 8 4.42897 0 2 4.42897 1
gene 2 3 8 -2.6394 0 3 -2.6394 1
gene 1 4 8 -3.14478 0 4 -3.14478 1
gene 1 5 8 6.11037 0 5 6.11037 1
gene 1 6 8 6.77849 0 6 6.77849 1
gene 3 7 8 1.56608 0 7 1.56608 1
gene 2 1 18 0.283085 0 30 0.283085 1
gene 1 18 8 0.47561 0 31 0.47561 1
gene 1 2 18 -1.96913 0 47 -1.96913 0
gene 1 2 27 1.49649 0 60 1.49649 1
gene 1 27 18 -2.66264 0 61 -2.66264 1
genomeend 115

/* Organism #116 Fitness: 5 Error: 0 */
genomestart 116
trait 1 0.138176 0.0114843 0 0.0702983 0 0.0894047 0 0 
trait 2 0.2 0 0 0 0 0 0.0688609 0 
trait 3 0.316406 0 0 0 0.0210949 0 0 0.0192102 
node 1 3 1 1
node 2 2 1 1
node 3 1 1 1
node 4 1 1 1
node 5 2 1 1
node 6 2 1 1
node 7 3 1 3
node 8 3 0 2
node 18 1 0 0
node 27 1 0 0
gene 2 1 8 -1.18453 0 1 -1.18453 0
gene 3 2 8 1.29479 0 2 1.29479 1
gene 2 3 8 -2.85345 0 3 -2.85345 1
gene 1 4 8 -0.183742 0 4 -0.183742 1
gene 1 5 8 -0.939291 0 5 -0.939291 1
gene 1 6 8 -1.92903 0 6 -1.92903 1
gene 3 7 8 1.64111 0 7 1.64111 1
gene 2 1 18 0.894 0 30 0.894 1
gene 2 18 8 4.77891 0 31 4.77891 1
gene 1 2 18 -0.828487 0 47 -0.828487 0
gene 1 2 27 -0.924328 0 60 -0.924328 1
gene 1 27 18 0.480183 0 61 0.480183 1
genomeend 116

/* Organism #117 Fitness: 94 Error: 0 */
genomestart 117
trait 1 0.138176 0.0114843 0 0.0702983 0 0.0894047 0 0 
trait 2 0.2 0 0 0 0 0 0.0688609 0 
trait 3 0.316406 0 0 0 0.0210949 0 0 0.0192102 
node 1 3 1 1
node 2 2 1 1
node 3 1 1 1
node 4 1 1 1
node 5 2 1 1
node 6 2 1 1
node 7 3 1 3
node 8 3 0 2
node 18 1 0 0
node 27 1 0 0
gene 2 1 8 -1.82868 0 1 -1.82868 0
gene 3 2 8 3.04929 0 2 3.04929 1
gene 2 3 8 -2.94331 0 3 -2.94331 1
gene 1 4 8 -2.5475 0 4 -2.5475 1
gene 1 5 8 5.88065 0 5 5.88065 1
gene 1 6 8 7.34884 0 6 7.34884 1
gene 3 7 8 -0.768868 0 7 -0.768868 1
gene 2 1 18 2.52998 0 30 2.52998 1
gene 2 18 8 1.62055 0 31 1.62055 1
gene 1 2 18 -1.00788 0 47 -1.00788 0
gene 1 2 27 1.49649 0 60 0.996489 1
gene 1 27 18 -1.89462 0 61 -1.89462 1
genomeend 117

/* Organism #118 Fitness: 31 Error: 0 */
genomestart 118
trait 1 0.138176 0.0114843 0 0.0702983 0 0.0894047 0 0 
trait 2 0.2 0 0 0 0 0 0.0688609 0 
trait 3 0.316406 0 0 0 0.0210949 0 0 0.0192102 
node 1 3 1 1
node 2 2 1 1
node 3 1 1 1
node 4 1 1 1
node 5 2 1 1
node 6 2 1 1
node 7 3 1 3
node 8 3 0 2
node 18 1 0 0
node 27 1 0 0
gene 2 1 8 0.856767 0 1 0.856767 0
gene 3 2 8 2.18674 0 2 2.18674 1
gene 2 3 8 -1.9196 0 3 -1.9196 1
gene 1 4 8 -0.199865 0 4 -0.199865 1
gene 1 5 8 5.10587 0 5 5.10587 1
gene 1 6 8 5.1008 0 6 5.1008 1
gene 3 7 8 0.191406 0 7 0.191406 1
gene 2 1 18 3.56691 0 30 3.56691 1
gene 2 18 8 3.40604 0 31 3.40604 1
gene 1 2 18 2.52147 0 47 2.52147 0
gene 1 2 27 0.496604 0 60 0.496604 1
gene 1 27 18 2.33152 0 61 2.33152 1
genomeend 118

/* Organism #119 Fitness: 23 Error: 0 */
genomestart 119
trait 1 0.138176 0.0114843 0 0.0702983 0 0.0894047 0 0 
trait 2 0.2 0 0 0 0 0 0.0688609 0 
trait 3 0.316406 0 0 0 0.0210949 0 0 0.0192102 
node 1 3 1 1
node 2 2 1 1
node 3 1 1 1
node 4 1 1 1
node 5 1 1 1
node 6 2 1 1
node 7 3 1 3
node 8 3 0 2
node 18 1 0 0
node 27 1 0 0
node 43 1 0 0
gene 2 1 8 -1.82868 0 1 -1.82868 0
gene 3 2 8 2.74189 0 2 2.74189 1
gene 2 3 8 -3.48983 0 3 -3.48983 1
gene 1 4 8 -2.5475 0 4 -2.5475 1
gene 1 5 8 5.88065 0 5 5.88065 1
gene 1 6 8 6.80807 0 6 6.80807 0
gene 3 7 8 -0.169695 0 7 -0.169695 1
gene 2 1 18 0.569221 0 30 0.569221 1
gene 2 18 8 1.90923 0 31 1.90923 1
gene 1 2 18 -2.20785 0 47 -2.20785 0
gene 1 2 27 1.99298 0 60 1.99298 1
gene 1 27 18 -1.89462 0 61 -1.89462 1
gene 1 6 43 1 0 108 0 1
gene 1 43 8 6.80807 0 109 0 1
genomeend 119

/* Organism #120 Fitness: 33 Error: 0 */
genomestart 120
trait 1 0.138176 0.0114843 0 0.0702983 0 0.0894047 0 0 
trait 2 0.2 0 0 0 0 0 0.0688609 0 
trait 3 0.316406 0 0 0 0.0210949 0 0 0.0192102 
node 1 3 1 1
node 2 2 1 1
node 3 1 1 1
node 4 1 1 1
node 5 1 1 1
node 6 2 1 1
node 7 3 1 3
node 8 3 0 2
node 18 1 0 0
node 27 1 0 0
gene 2 1 8 -3.15599 0 1 -3.15599 0
gene 3 2 8 6.73191 0 2 6.73191 1
gene 2 3 8 -3.06078 0 3 -3.06078 1
gene 1 4 8 -0.830064 0 4 -0.830064 1
gene 1 5 8 2.14063 0 5 2.14063 1
gene 1 6 8 7.87519 0 6 7.87519 1
gene 3 7 8 -1.17652 0 7 -1.17652 1
gene 2 1 18 1.32832 0 30 1.32832 1
gene 1 18 8 2.24258 0 31 2.24258 1
gene 1 2 18 -1.06094 0 47 -1.06094 0
gene 1 2 27 0.858508 0 60 0.858508 1
gene 1 27 18 0.551585 0 61 0.551585 1
genomeend 120

/* Species #12 : (Size 16) (AF 62.5) (Age 3)  */


/* Organism #121 Fitness: 85 Error: 0 */
genomestart 121
trait 1 0.150901 0.0153123 0 0.0937311 0 0.119206 0 0 
trait 2 0.2 0 0 0 0 0 0.0918145 0 
trait 3 0.321875 0 0 0 0.0281265 0 0 0.0256136 
node 1 2 1 1
node 2 2 1 1
node 3 2 1 1
node 4 2 1 1
node 5 1 1 1
node 6 1 1 1
node 7 1 1 3
node 8 3 0 2
node 18 1 0 0
node 33 1 0 0
gene 2 1 8 -0.282191 0 1 -0.282191 1
gene 3 2 8 0.851836 0 2 0.851836 1
gene 2 3 8 -2.56261 0 3 -2.56261 1
gene 1 4 8 -0.995688 0 4 -0.995688 1
gene 1 5 8 4.01865 0 5 4.01865 1
gene 1 6 8 4.46986 0 6 4.46986 1
gene 3 7 8 0.253285 0 7 0.253285 1
gene 2 1 18 4.77179 0 30 4.77179 0
gene 2 18 8 -0.125638 0 31 -0.125638 1
gene 1 2 18 0.534833 0 47 0.534833 1
gene 2 1 33 3.16698 0 77 3.16698 1
gene 2 33 18 5.6987 0 78 5.6987 1
genomeend 121

/* Organism #122 Fitness: 35 Error: 0 */
genomestart 122
trait 1 0.150901 0.0153123 0 0.0937311 0 0.119206 0 0 
trait 2 0.2 0 0 0 0 0 0.0918145 0 
trait 3 0.321875 0 0 0 0.0281265 0 0 0.0256136 
node 1 2 1 1
node 2 2 1 1
node 3 2 1 1
node 4 2 1 1
node 5 1 1 1
node 6 1 1 1
node 7 1 1 3
node 8 3 0 2
node 18 1 0 0
node 33 1 0 0
gene 2 1 8 -1.39393 0 1 -1.39393 1
gene 3 2 8 4.00789 0 2 4.00789 1
gene 2 3 8 -2.20995 0 3 -2.20995 1
gene 1 4 8 -2.6346 0 4 -2.6346 1
gene 1 5 8 2.3989 0 5 2.3989 1
gene 1 6 8 2.70713 0 6 2.70713 1
gene 3 7 8 -0.824028 0 7 -0.824028 1
gene 2 1 18 2.3302 0 30 2.3302 0
gene 2 18 8 -1.69621 0 31 -1.69621 1
gene 1 2 18 -1.41239 0 47 -1.41239 1
gene 2 1 33 -1.45856 0 77 -1.45856 1
gene 2 33 18 5.3705 0 78 5.3705 1
genomeend 122

/* Organism #123 Fitness: 84 Error: 0 */
genomestart 123
trait 1 0.150901 0.0153123 0 0.0937311 0 0.119206 0 0 
trait 2 0.2 0 0 0 0 0 0.0918145 0 
trait 3 0.321875 0 0 0 0.0281265 0 0 0.0256136 
node 1 2 1 1
node 2 2 1 1
node 3 2 1 1
node 4 2 1 1
node 5 1 1 1
node 6 1 1 1
node 7 1 1 3
node 8 3 0 2
node 18 1 0 0
node 33 1 0 0
gene 2 1 8 -2.36283 0 1 -2.36283 1
gene 3 2 8 5.86452 0 2 5.86452 1
gene 2 3 8 -4.74647 0 3 -4.74647 1
gene 1 4 8 -3.91773 0 4 -3.91773 1
gene 1 5 8 3.72994 0 5 3.72994 1
gene 1 6 8 4.70202 0 6 4.70202 1
gene 3 7 8 -1.01732 0 7 -1.01732 1
gene 2 1 18 6.78609 0 30 6.78609 0
gene 2 18 8 -0.534407 0 31 -0.534407 1
gene 1 2 18 -0.745762 0 47 -0.745762 1
gene 2 1 33 -0.462591 0 77 -0.462591 1
gene 2 33 18 6.51244 0 78 6.51244 1
genomeend 123

/* Organism #124 Fitness: 58 Error: 0 */
genomestart 124
trait 1 0.150901 0.0153123 0 0.0937311 0 0.119206 0 0 
trait 2 0.2 0 0 0 0 0 0.0918145 0 
trait 3 0.321875 0 0 0 0.0281265 0 0 0.0256136 
node 1 2 1 1
node 2 2 1 1
node 3 2 1 1
node 4 2 1 1
node 5 1 1 1
node 6 1 1 1
node 7 1 1 3
node 8 3 0 2
node 18 1 0 0
node 33 1 0 0
gene 2 1 8 -1.02012 0 1 -1.02012 1
gene 3 2 8 1.77427 0 2 1.77427 1
gene 2 3 8 -3.00848 0 3 -3.00848 1
gene 1 4 8 -0.884704 0 4 -0.884704 1
gene 1 5 8 4.57661 0 5 4.57661 1
gene 1 6 8 5.10869 0 6 5.10869 1
gene 3 7 8 -0.814667 0 7 -0.814667 1
gene 2 1 18 3.81562 0 30 3.81562 0
gene 2 18 8 0.170351 0 31 0.170351 1
gene 1 2 18 -0.752366 0 47 -0.752366 1
gene 2 1 33 2.06391 0 77 2.06391 1
gene 2 33 18 5.3705 0 78 5.3705 1
genomeend 124

/* Organism #125 Fitness: 127 Error: 0 */
genomestart 125
trait 1 0.150901 0.0153123 0 0.0937311 0 0.119206 0 0 
trait 2 0.2 0 0 0 0 0 0.0918145 0 
trait 3 0.321875 0 0 0 0.0281265 0 0 0.0256136 
node 1 2 1 1
node 2 2 1 1
node 3 2 1 1
node 4 2 1 1
node 5 1 1 1
node 6 1 1 1
node 7 1 1 3
node 8 3 0 2
node 18 1 0 0
node 33 1 0 0
gene 2 1 8 -3.14786 0 1 -3.14786 1
gene 3 2 8 2.69671 0 2 2.69671 1
gene 2 3 8 -4.33828 0 3 -4.33828 1
gene 1 4 8 -2.12959 0 4 -2.12959 1
gene 1 5 8 5.13458 0 5 5.13458 1
gene 1 6 8 7.71118 0 6 7.71118 1
gene 3 7 8 -1.12123 0 7 -1.12123 1
gene 2 1 18 2.85946 0 30 2.85946 0
gene 2 18 8 0.797193 0 31 0.797193 1
gene 1 2 18 4.397 0 47 4.397 1
gene 2 1 33 0.960845 0 77 0.960845 1
gene 2 33 18 0.675448 0 78 0.675448 1
genomeend 125

/* Organism #126 Fitness: 78 Error: 0 */
genomestart 126
trait 1 0.150901 0.0153123 0 0.0937311 0 0.119206 0 0 
trait 2 0.2 0 0 0 0 0 0.0918145 0 
trait 3 0.321875 0 0 0 0.0281265 0 0 0.0256136 
node 1 2 1 1
node 2 2 1 1
node 3 2 1 1
node 4 2 1 1
node 5 1 1 1
node 6 1 1 1
node 7 1 1 3
node 8 3 0 2
node 18 1 0 0
node 33 1 0 0
gene 2 1 8 -2.28085 0 1 -2.28085 1
gene 3 2 8 2.53597 0 2 2.53597 1
gene 2 3 8 -2.65459 0 3 -2.65459 1
gene 1 4 8 -4.62431 0 4 -4.62431 1
gene 1 5 8 5.76739 0 5 5.76739 1
gene 1 6 8 7.28364 0 6 7.28364 1
gene 3 7 8 -1.21536 0 7 -1.21536 1
gene 2 1 18 3.42084 0 30 3.42084 0
gene 2 18 8 0.194771 0 31 0.194771 1
gene 1 2 18 4.11661 0 47 4.11661 1
gene 2 1 33 2.36363 0 77 2.36363 1
gene 2 33 18 0.675448 0 78 0.675448 1
genomeend 126

/* Organism #127 Fitness: 41 Error: 0 */
genomestart 127
trait 1 0.150901 0.0153123 0 0.0937311 0 0.119206 0 0 
trait 2 0.2 0 0 0 0 0 0.0918145 0 
trait 3 0.321875 0 0 0 0.0281265 0 0 0.0256136 
node 1 2 1 1
node 2 2 1 1
node 3 2 1 1
node 4 2 1 1
node 5 1 1 1
node 6 1 1 1
node 7 1 1 3
node 8 3 0 2
node 18 1 0 0
node 33 1 0 0
gene 2 1 8 -2.58999 0 1 -2.58999 1
gene 3 2 8 5.47253 0 2 5.47253 1
gene 2 3 8 -0.852675 0 3 -0.852675 1
gene 1 4 8 -4.06191 0 4 -4.06191 1
gene 1 5 8 2.86626 0 5 2.86626 1
gene 1 6 8 6.12931 0 6 6.12931 1
gene 3 7 8 -0.344927 0 7 -0.344927 1
gene 2 1 18 2.83319 0 30 2.83319 0
gene 2 18 8 1.65645 0 31 1.65645 1
gene 1 2 18 3.11828 0 47 3.11828 1
gene 2 1 33 0.453876 0 77 0.453876 1
gene 2 33 18 4.90846 0 78 4.90846 1
genomeend 127

/* Organism #128 Fitness: 63 Error: 0 */
genomestart 128
trait 1 0.150901 0.0153123 0 0.0937311 0 0.119206 0 0 
trait 2 0.2 0 0 0 0 0 0.0918145 0 
trait 3 0.321875 0 0 0 0.0281265 0 0 0.0256136 
node 1 2 1 1
node 2 2 1 1
node 3 2 1 1
node 4 2 1 1
node 5 1 1 1
node 6 1 1 1
node 7 1 1 3
node 8 3 0 2
node 18 1 0 0
node 33 1 0 0
gene 2 1 8 -3.8016 0 1 -3.8016 1
gene 3 2 8 5.0903 0 2 5.0903 1
gene 2 3 8 -1.96674 0 3 -1.96674 1
gene 1 4 8 -2.06838 0 4 -2.06838 1
gene 1 5 8 1.82756 0 5 1.82756 1
gene 1 6 8 6.39347 0 6 6.39347 1
gene 3 7 8 0.15793 0 7 0.15793 1
gene 2 1 18 5.90245 0 30 5.90245 0
gene 2 18 8 -0.826003 0 31 -0.826003 1
gene 1 2 18 4.36222 0 47 4.36222 1
gene 2 1 33 1 0 77 1 1
gene 2 33 18 4.90846 0 78 4.90846 1
gene 3 7 33 0.468317 0 110 0.468317 1
genomeend 128

/* Organism #129 Fitness: 37 Error: 0 */
genomestart 129
trait 1 0.150901 0.0153123 0 0.0937311 0 0.119206 0 0 
trait 2 0.2 0 0 0 0 0 0.0918145 0 
trait 3 0.321875 0 0 0 0.0281265 0 0 0.0256136 
node 1 2 1 1
node 2 2 1 1
node 3 2 1 1
node 4 2 1 1
node 5 1 1 1
node 6 1 1 1
node 7 1 1 3
node 8 3 0 2
node 18 1 0 0
node 33 1 0 0
gene 2 1 8 -3.65392 0 1 -3.65392 1
gene 3 2 8 5.35202 0 2 5.35202 1
gene 2 3 8 -3.04019 0 3 -3.04019 1
gene 1 4 8 0.239372 0 4 0.239372 1
gene 1 5 8 2.14444 0 5 2.14444 1
gene 1 6 8 8 0 6 8 1
gene 3 7 8 -2.49417 0 7 -2.49417 1
gene 2 1 18 1.17656 0 30 1.17656 0
gene 2 18 8 0.278651 0 31 0.278651 1
gene 1 2 18 4.42643 0 47 4.42643 1
gene 2 1 33 2.13766 0 77 2.13766 1
gene 2 33 18 2.00859 0 78 2.00859 1
genomeend 129

/* Organism #130 Fitness: 89 Error: 0 */
genomestart 130
trait 1 0.150901 0.0153123 0 0.0937311 0 0.119206 0 0 
trait 2 0.2 0 0 0 0 0 0.0918145 0 
trait 3 0.321875 0 0 0 0.0281265 0 0 0.0256136 
node 1 2 1 1
node 2 2 1 1
node 3 2 1 1
node 4 2 1 1
node 5 1 1 1
node 6 1 1 1
node 7 1 1 3
node 8 3 0 2
node 18 1 0 0
node 33 1 0 0
node 44 1 0 0
gene 2 1 8 -1.75805 0 1 -1.75805 1
gene 3 2 8 5.0903 0 2 5.0903 1
gene 2 3 8 -3.45436 0 3 -3.45436 1
gene 1 4 8 -0.773719 0 4 -0.773719 1
gene 1 5 8 5.13458 0 5 5.13458 1
gene 1 6 8 6.39347 0 6 6.39347 1
gene 3 7 8 -1.88262 0 7 -1.88262 1
gene 2 1 18 5.90245 0 30 5.90245 0
gene 2 18 8 0.46634 0 31 0.46634 1
gene 1 2 18 -2.03957 0 47 -2.03957 1
gene 2 1 33 0.960845 0 77 0.960845 0
gene 2 33 18 4.90846 0 78 4.90846 1
gene 2 1 44 1 0 111 0 1
gene 2 44 33 0.960845 0 112 0 1
genomeend 130

/* Organism #131 Fitness: 37 Error: 0 */
genomestart 131
trait 1 0.150901 0.0153123 0 0.0937311 0 0.119206 0 0 
trait 2 0.2 0 0 0 0 0 0.0918145 0 
trait 3 0.321875 0 0 0 0.0281265 0 0 0.0256136 
node 1 2 1 1
node 2 2 1 1
node 3 2 1 1
node 4 2 1 1
node 5 1 1 1
node 6 1 1 1
node 7 1 1 3
node 8 3 0 2
node 18 1 0 0
node 33 1 0 0
gene 2 1 8 -3.14786 0 1 -3.14786 1
gene 3 2 8 2.69671 0 2 2.69671 1
gene 2 3 8 -3.45436 0 3 -3.45436 1
gene 1 4 8 -0.773719 0 4 -0.773719 1
gene 1 5 8 4.50347 0 5 4.50347 1
gene 1 6 8 7.71118 0 6 7.71118 1
gene 3 7 8 -1.12123 0 7 -1.12123 1
gene 2 1 18 2.85946 0 30 2.85946 0
gene 2 18 8 0.46634 0 31 0.46634 1
gene 1 2 18 4.397 0 47 4.397 1
gene 2 1 33 2.36363 0 77 2.36363 1
gene 2 33 18 5.04229 0 78 5.04229 1
genomeend 131

/* Organism #132 Fitness: 70 Error: 0 */
genomestart 132
trait 1 0.845948 0 0 0 0 0.119206 0 0.636202 
trait 2 0.2 0 0 0 0 0 0.0918145 0 
trait 3 0.321875 0 0 0 0.0281265 0 0 0.0256136 
node 1 2 1 1
node 2 2 1 1
node 3 2 1 1
node 4 2 1 1
node 5 1 1 1
node 6 1 1 1
node 7 1 1 3
node 8 3 0 2
node 18 1 0 0
node 33 1 0 0
gene 2 1 8 -5.28895 0 1 -5.28895 1
gene 3 2 8 3.19286 0 2 3.19286 1
gene 2 3 8 0.486619 0 3 0.486619 1
gene 1 4 8 -3.95673 0 4 -3.95673 1
gene 1 5 8 1.82756 0 5 1.82756 1
gene 1 6 8 6.62389 0 6 6.62389 1
gene 3 7 8 0.497295 0 7 0.497295 1
gene 2 1 18 0.961392 0 30 0.961392 0
gene 2 18 8 -1.49691 0 31 -1.49691 1
gene 1 2 18 0.419432 0 47 0.419432 1
gene 2 1 33 -0.963198 0 77 -0.963198 1
gene 2 33 18 7.35429 0 78 7.35429 1
genomeend 132

/* Organism #133 Fitness: 30 Error: 0 */
genomestart 133
trait 1 0.150901 0.0153123 0 0.0937311 0 0.119206 0 0 
trait 2 0.2 0 0 0 0 0 0.0918145 0 
trait 3 0.321875 0 0 0 0.0281265 0 0 0.0256136 
node 1 2 1 1
node 2 2 1 1
node 3 2 1 1
node 4 2 1 1
node 5 1 1 1
node 6 1 1 1
node 7 1 1 3
node 8 3 0 2
node 18 1 0 0
node 33 1 0 0
gene 2 1 8 -0.00584966 0 1 -0.00584966 1
gene 3 2 8 2.33279 0 2 2.33279 1
gene 2 3 8 -5.71637 0 3 -5.71637 1
gene 1 4 8 -0.0892736 0 4 -0.0892736 1
gene 1 5 8 4.05865 0 5 4.05865 1
gene 1 6 8 1.72634 0 6 1.72634 1
gene 3 7 8 1.4581 0 7 1.4581 1
gene 2 1 18 -0.825775 0 30 -0.825775 0
gene 2 18 8 1.30506 0 31 1.30506 1
gene 1 2 18 0.484273 0 47 0.484273 1
gene 2 1 33 1.5071 0 77 1.5071 1
gene 2 33 18 6.86118 0 78 6.86118 1
genomeend 133

/* Organism #134 Fitness: 35 Error: 0 */
genomestart 134
trait 1 0.150901 0.0153123 0 0.0937311 0 0.119206 0 0 
trait 2 0.2 0 0 0 0 0 0.0918145 0 
trait 3 0.321875 0 0 0 0.0281265 0 0 0.0256136 
node 1 2 1 1
node 2 2 1 1
node 3 2 1 1
node 4 2 1 1
node 5 1 1 1
node 6 1 1 1
node 7 1 1 3
node 8 3 0 2
node 18 1 0 0
node 33 1 0 0
gene 2 1 8 -3.3584 0 1 -3.3584 1
gene 3 2 8 1.60265 0 2 1.60265 1
gene 2 3 8 -3.00848 0 3 -3.00848 1
gene 1 4 8 1.73571 0 4 1.73571 1
gene 2 5 8 3.3912 0 5 3.3912 1
gene 1 6 8 7.55364 0 6 7.55364 1
gene 3 7 8 -0.0277457 0 7 -0.0277457 1
gene 2 1 18 -0.736176 0 30 -0.736176 0
gene 2 18 8 0.968839 0 31 0.968839 1
gene 1 2 18 0.989283 0 47 0.989283 1
gene 2 1 33 -0.0178976 0 77 -0.0178976 1
gene 2 33 18 7.48996 0 78 7.48996 1
genomeend 134

/* Organism #135 Fitness: 48 Error: 0 */
genomestart 135
trait 1 0.150901 0.0153123 0 0.0937311 0 0.119206 0 0 
trait 2 0.2 0 0 0 0 0 0.0918145 0 
trait 3 0.321875 0 0 0 0.0281265 0 0 0.0256136 
node 1 2 1 1
node 2 2 1 1
node 3 2 1 1
node 4 2 1 1
node 5 1 1 1
node 6 1 1 1
node 7 1 1 3
node 8 3 0 2
node 18 1 0 0
node 33 1 0 0
gene 2 1 8 -1.75805 0 1 -1.75805 1
gene 3 2 8 2.06349 0 2 2.06349 1
gene 2 3 8 -3.81634 0 3 -3.81634 1
gene 1 4 8 2.10363 0 4 2.10363 1
gene 1 5 8 7.2561 0 5 7.2561 1
gene 1 6 8 7.48851 0 6 7.48851 1
gene 2 7 8 -1.37669 0 7 -1.37669 1
gene 2 1 18 0.136899 0 30 0.136899 0
gene 2 18 8 0.109407 0 31 0.109407 1
gene 1 2 18 0.190655 0 47 0.190655 1
gene 2 1 33 -1.14639 0 77 -1.14639 1
gene 2 33 18 5.04229 0 78 5.04229 1
genomeend 135

/* Organism #136 Fitness: 83 Error: 0 */
genomestart 136
trait 1 0.150901 0.0153123 0 0.0937311 0 0.119206 0 0 
trait 2 0.2 0 0 0 0 0 0.0918145 0 
trait 3 0.321875 0 0 0 0.0281265 0 0 0.0256136 
node 1 2 1 1
node 2 2 1 1
node 3 2 1 1
node 4 2 1 1
node 5 1 1 1
node 6 1 1 1
node 7 1 1 3
node 8 3 0 2
node 18 1 0 0
node 33 1 0 0
gene 2 1 8 -0.87875 0 1 -0.87875 1
gene 3 2 8 4.89449 0 2 4.89449 1
gene 2 3 8 -4.93973 0 3 -4.93973 1
gene 1 4 8 -0.750265 0 4 -0.750265 1
gene 1 5 8 3.22286 0 5 3.22286 1
gene 1 6 8 3.44712 0 6 3.44712 1
gene 3 7 8 -0.129741 0 7 -0.129741 1
gene 2 1 18 4.29498 0 30 4.29498 0
gene 2 18 8 -0.456298 0 31 -0.456298 1
gene 1 2 18 -0.324526 0 47 -0.324526 1
gene 2 1 33 1.66125 0 77 1.66125 1
gene 2 33 18 6.5641 0 78 6.5641 1
genomeend 136

/* Species #13 : (Size 6) (AF 29.3333) (Age 3)  */


/* Organism #137 Fitness: 30 Error: 0 */
genomestart 137
trait 1 0.1 0 0 0 0 0 0 0 
trait 2 0.2 0 0 0 0 0 0 0 
trait 3 0.3875 0 0 0 0.112506 0 0 0.102454 
node 1 1 1 1
node 2 2 1 1
node 3 1 1 1
node 4 1 1 1
node 5 1 1 1
node 6 2 1 1
node 7 3 1 3
node 8 3 0 2
node 11 1 0 0
node 20 1 0 0
gene 3 1 8 -0.897851 0 1 -0.897851 1
gene 2 2 8 -1.0305 0 2 -1.0305 1
gene 2 3 8 -0.165068 0 3 -0.165068 1
gene 3 4 8 1.84651 0 4 1.84651 0
gene 1 5 8 -0.19683 0 5 -0.19683 1
gene 1 6 8 7.65439 0 6 7.65439 1
gene 2 7 8 -0.167314 0 7 -0.167314 1
gene 3 4 11 2.09857 0 12 2.09857 1
gene 3 11 8 0.961125 0 13 0.961125 1
gene 3 2 11 -0.773445 0 29 -0.773445 0
gene 3 2 20 -2.08287 0 36 -2.08287 1
gene 3 20 11 -3.85384 0 37 -3.85384 1
genomeend 137

/* Organism #138 Fitness: 30 Error: 0 */
genomestart 138
trait 1 0.1 0 0 0 0 0 0 0 
trait 2 0.2 0 0 0 0 0 0 0 
trait 3 0.3875 0 0 0 0.112506 0 0 0.102454 
node 1 1 1 1
node 2 2 1 1
node 3 1 1 1
node 4 1 1 1
node 5 1 1 1
node 6 2 1 1
node 7 3 1 3
node 8 3 0 2
node 11 1 0 0
node 20 1 0 0
node 40 1 0 0
gene 3 1 8 -0.897851 0 1 -0.897851 1
gene 2 2 8 -1.0305 0 2 -1.0305 1
gene 2 3 8 -0.165068 0 3 -0.165068 1
gene 3 4 8 1.84651 0 4 1.84651 0
gene 1 5 8 -0.19683 0 5 -0.19683 0
gene 1 6 8 7.65439 0 6 7.65439 1
gene 2 7 8 -0.167314 0 7 -0.167314 1
gene 3 4 11 2.09857 0 12 2.09857 1
gene 3 11 8 0.961125 0 13 0.961125 1
gene 3 2 11 -0.773445 0 29 -0.773445 0
gene 3 2 20 -2.08287 0 36 -2.08287 1
gene 3 20 11 -3.85384 0 37 -3.85384 1
gene 1 5 40 1 0 98 0 1
gene 1 40 8 -0.19683 0 99 0 1
genomeend 138

/* Organism #139 Fitness: 30 Error: 0 */
genomestart 139
trait 1 0.1 0 0 0 0 0 0 0 
trait 2 0.2 0 0 0 0 0 0 0 
trait 3 0.3875 0 0 0 0.112506 0 0 0.102454 
node 1 1 1 1
node 2 2 1 1
node 3 1 1 1
node 4 1 1 1
node 5 1 1 1
node 6 2 1 1
node 7 3 1 3
node 8 3 0 2
node 11 1 0 0
node 20 1 0 0
gene 3 1 8 -0.897851 0 1 -0.897851 1
gene 2 2 8 -1.0305 0 2 -1.0305 1
gene 2 3 8 -0.165068 0 3 -0.165068 1
gene 3 4 8 1.84651 0 4 1.84651 0
gene 1 5 8 -0.19683 0 5 -0.19683 1
gene 1 6 8 7.65439 0 6 7.65439 1
gene 2 7 8 -0.167314 0 7 -0.167314 1
gene 3 4 11 2.09857 0 12 2.09857 1
gene 3 11 8 0.961125 0 13 0.961125 1
gene 3 2 11 -0.773445 0 29 -0.773445 0
gene 3 2 20 -2.08287 0 36 -2.08287 1
gene 3 20 11 -3.85384 0 37 -3.85384 1
gene 1 7 11 0.399466 0 113 0.399466 1
genomeend 139

/* Organism #140 Fitness: 22 Error: 0 */
genomestart 140
trait 1 0.1 0 0 0 0 0 0 0 
trait 2 0.2 0 0 0 0 0 0 0 
trait 3 0.3875 0 0 0 0.112506 0 0 0.102454 
node 1 1 1 1
node 2 2 1 1
node 3 1 1 1
node 4 1 1 1
node 5 1 1 1
node 6 2 1 1
node 7 3 1 3
node 8 3 0 2
node 11 1 0 0
node 20 1 0 0
gene 3 1 8 -1.37563 0 1 -1.37563 1
gene 2 2 8 -2.98275 0 2 -2.98275 1
gene 2 3 8 0.868313 0 3 0.868313 1
gene 3 4 8 1.98209 0 4 1.98209 0
gene 1 5 8 -2.65662 0 5 -2.65662 1
gene 1 6 8 5.858 0 6 5.858 1
gene 2 7 8 0.478174 0 7 0.478174 1
gene 3 4 11 2.04093 0 12 2.04093 1
gene 3 11 8 1.89647 0 13 1.89647 1
gene 3 2 11 -0.719324 0 29 -0.719324 0
gene 3 2 20 -0.995372 0 36 -0.995372 1
gene 3 20 11 -2.95929 0 37 -2.95929 1
genomeend 140

/* Organism #141 Fitness: 34 Error: 0 */
genomestart 141
trait 1 0.1 0 0 0 0 0 0 0 
trait 2 0.2 0 0 0 0 0 0 0 
trait 3 0.3875 0 0 0 0.112506 0 0 0.102454 
node 1 1 1 1
node 2 2 1 1
node 3 1 1 1
node 4 1 1 1
node 5 1 1 1
node 6 2 1 1
node 7 3 1 3
node 8 3 0 2
node 11 1 0 0
node 20 1 0 0
gene 3 1 8 0.0694605 0 1 0.0694605 1
gene 2 2 8 -0.271643 0 2 -0.271643 1
gene 2 3 8 1.03131 0 3 1.03131 1
gene 3 4 8 0.591777 0 4 0.591777 0
gene 1 5 8 0.276722 0 5 0.276722 1
gene 1 6 8 8 0 6 8 1
gene 2 7 8 -0.608244 0 7 -0.608244 1
gene 3 4 11 4.23018 0 12 4.23018 1
gene 3 11 8 -0.575559 0 13 -0.575559 1
gene 3 2 11 -0.0531538 0 29 -0.0531538 0
gene 3 2 20 -3.99954 0 36 -3.99954 1
gene 3 20 11 -3.85384 0 37 -3.85384 1
genomeend 141

/* Organism #142 Fitness: 30 Error: 0 */
genomestart 142
trait 1 0.1 0 0 0 0 0 0 0 
trait 2 0.2 0 0 0 0 0 0 0 
trait 3 0.3875 0 0 0 0.112506 0 0 0.102454 
node 1 1 1 1
node 2 2 1 1
node 3 1 1 1
node 4 1 1 1
node 5 1 1 1
node 6 2 1 1
node 7 3 1 3
node 8 3 0 2
node 11 1 0 0
node 20 1 0 0
gene 3 1 8 -0.897851 0 1 -0.897851 1
gene 2 2 8 -1.0305 0 2 -1.0305 1
gene 2 3 8 -0.165068 0 3 -0.165068 1
gene 3 4 8 1.84651 0 4 1.84651 0
gene 1 5 8 -0.19683 0 5 -0.19683 1
gene 1 6 8 7.65439 0 6 7.65439 1
gene 2 7 8 -0.167314 0 7 -0.167314 1
gene 3 4 11 2.09857 0 12 2.09857 1
gene 3 11 8 0.961125 0 13 0.961125 1
gene 3 2 11 -0.773445 0 29 -0.773445 0
gene 3 2 20 -2.08287 0 36 -2.08287 1
