
/* Species #1 : (Size 5) (AF 0) (Age 1)  */


/* Organism #2433 Fitness: 169 Error: 0 */
genomestart 2433
trait 1 0.1 0 0 0 0 0 0 0 
trait 2 0.2 0 0 0 0 0 0 0 
trait 3 0.3 0 0 0 0 0 0 0 
node 1 1 1 1
node 2 3 1 1
node 3 1 1 1
node 4 1 1 1
node 5 1 1 1
node 6 2 1 1
node 7 3 1 3
node 8 2 0 2
gene 3 1 8 1.94345 0 1 1.94345 1
gene 1 2 8 0.261557 0 2 0.261557 1
gene 2 3 8 -2.609 0 3 -2.609 1
gene 3 4 8 -1.47662 0 4 -1.47662 1
gene 2 5 8 1.63819 0 5 1.63819 1
gene 1 6 8 0.923201 0 6 0.923201 1
gene 3 7 8 -0.267544 0 7 -0.267544 1
genomeend 2433

/* Organism #2407 Fitness: 169 Error: 0 */
genomestart 2407
trait 1 0.1 0 0 0 0 0 0 0 
trait 2 0.2 0.10223 0 0 0 0 0.104144 0 
trait 3 0.3 0 0.0626067 0 0 0 0 0 
node 1 1 1 1
node 2 3 1 1
node 3 1 1 1
node 4 1 1 1
node 5 1 1 1
node 6 2 1 1
node 7 3 1 3
node 8 2 0 2
gene 3 1 8 1.94345 0 1 1.94345 1
gene 1 2 8 0.261557 0 2 0.261557 1
gene 2 3 8 -2.609 0 3 -2.609 1
gene 3 4 8 -1.47662 0 4 -1.47662 1
gene 2 5 8 1.63819 0 5 1.63819 1
gene 1 6 8 0.923201 0 6 0.923201 1
gene 3 7 8 -0.267544 0 7 -0.267544 1
genomeend 2407

/* Organism #2437 Fitness: 169 Error: 0 */
genomestart 2437
trait 1 0.1 0 0 0 0 0 0 0 
trait 2 0.2 0 0 0 0 0 0 0 
trait 3 0.3 0 0 0 0 0 0 0 
node 1 1 1 1
node 2 3 1 1
node 3 1 1 1
node 4 1 1 1
node 5 1 1 1
node 6 2 1 1
node 7 3 1 3
node 8 2 0 2
gene 3 1 8 1.94345 0 1 1.94345 1
gene 1 2 8 0.261557 0 2 0.261557 1
gene 2 3 8 -2.609 0 3 -2.609 1
gene 3 4 8 -1.47662 0 4 -1.47662 1
gene 2 5 8 1.63819 0 5 1.63819 1
gene 1 6 8 0.923201 0 6 0.923201 1
gene 3 7 8 -0.267544 0 7 -0.267544 1
genomeend 2437

/* Organism #2474 Fitness: 169 Error: 0 */
genomestart 2474
trait 1 0.1 0 0 0 0 0 0 0 
trait 2 0.2 0 0 0 0 0 0 0 
trait 3 0.3 0 0 0 0 0 0 0 
node 1 1 1 1
node 2 3 1 1
node 3 1 1 1
node 4 1 1 1
node 5 1 1 1
node 6 2 1 1
node 7 3 1 3
node 8 2 0 2
gene 3 1 8 1.94345 0 1 1.94345 1
gene 1 2 8 0.261557 0 2 0.261557 1
gene 2 3 8 -2.609 0 3 -2.609 1
gene 3 4 8 -1.47662 0 4 -1.47662 1
gene 2 5 8 1.63819 0 5 1.63819 1
gene 1 6 8 0.923201 0 6 0.923201 1
gene 3 7 8 -0.267544 0 7 -0.267544 1
genomeend 2474

/* Organism #2685 Fitness: 169 Error: 0 */
genomestart 2685
trait 1 0.1 0 0 0 0 0 0 0 
trait 2 0.2 0 0 0 0 0 0 0 
trait 3 0.3 0 0 0 0 0 0 0 
node 1 2 1 1
node 2 3 1 1
node 3 1 1 1
node 4 1 1 1
node 5 1 1 1
node 6 2 1 1
node 7 3 1 3
node 8 2 0 2
gene 3 1 8 1.94345 0 1 1.94345 1
gene 1 2 8 0.261557 0 2 0.261557 1
gene 2 3 8 -2.609 0 3 -2.609 1
gene 2 4 8 -1.47662 0 4 -1.47662 1
gene 2 5 8 1.63819 0 5 1.63819 1
gene 1 6 8 0.923201 0 6 0.923201 1
gene 3 7 8 -0.267544 0 7 -0.267544 1
genomeend 2685

/* Species #2 : (Size 3) (AF 0) (Age 1)  */


/* Organism #2607 Fitness: 131 Error: 0 */
genomestart 2607
trait 1 0.710028 0 0 0 0 0 0.275689 0 
trait 2 0.2 0 0 0 0 0 0 0 
trait 3 1 0 0.932385 0 0.210011 0.737111 0 0 
node 1 3 1 1
node 2 2 1 1
node 3 1 1 1
node 4 3 1 1
node 5 2 1 1
node 6 2 1 1
node 7 3 1 3
node 8 1 0 2
node 9 1 0 0
node 11 2 0 0
gene 1 1 8 1.51217 0 1 1.51217 1
gene 3 2 8 2.6768 0 2 2.6768 1
gene 3 3 8 3.2088 0 3 3.2088 0
gene 1 4 8 3.44138 0 4 3.44138 0
gene 2 5 8 6.54035 0 5 6.54035 1
gene 2 6 8 1.72936 0 6 1.72936 1
gene 1 7 8 1.0081 0 7 1.0081 1
gene 1 4 9 2.85232 0 8 2.85232 1
gene 1 9 8 -2.30118 0 9 -2.30118 1
gene 2 3 11 2.60887 0 12 2.60887 1
gene 3 11 8 -1.41882 0 13 -1.41882 1
genomeend 2607

/* Organism #3149 Fitness: 129 Error: 0 */
genomestart 3149
trait 1 0.710028 0 0 0 0 0 0.275689 0 
trait 2 0.2 0 0 0 0 0 0 0 
trait 3 1 0 0.932385 0 0.210011 0.737111 0 0 
node 1 3 1 1
node 2 2 1 1
node 3 1 1 1
node 4 3 1 1
node 5 2 1 1
node 6 2 1 1
node 7 3 1 3
node 8 1 0 2
node 9 1 0 0
node 11 2 0 0
gene 1 1 8 -0.781982 0 1 -0.781982 1
gene 3 2 8 4.07354 0 2 4.07354 1
gene 3 3 8 3.67042 0 3 3.67042 0
gene 1 4 8 5.05034 0 4 5.05034 0
gene 2 5 8 5.01611 0 5 5.01611 1
gene 2 6 8 2.6502 0 6 2.6502 1
gene 1 7 8 2.24509 0 7 2.24509 1
gene 1 4 9 2.79612 0 8 2.79612 1
gene 1 9 8 -3.48912 0 9 -3.48912 1
gene 2 3 11 2.69354 0 12 2.69354 1
gene 3 11 8 -1.41882 0 13 -1.41882 1
genomeend 3149

/* Organism #2642 Fitness: 104 Error: 0 */
genomestart 2642
trait 1 0.710028 0 0 0 0 0 0.275689 0 
trait 2 0.2 0 0 0 0 0 0 0 
trait 3 1 0 0.932385 0 0.210011 0.737111 0 0 
node 1 3 1 1
node 2 2 1 1
node 3 1 1 1
node 4 3 1 1
node 5 2 1 1
node 6 2 1 1
node 7 3 1 3
node 8 1 0 2
node 9 1 0 0
node 11 2 0 0
gene 1 1 8 -5.85958 0 1 -5.85958 1
gene 3 2 8 4.33722 0 2 4.33722 1
gene 3 3 8 2.63409 0 3 2.63409 0
gene 1 4 8 3.98659 0 4 3.98659 0
gene 2 5 8 5.67798 0 5 5.67798 1
gene 2 6 8 2.31787 0 6 2.31787 1
gene 1 7 8 0.654828 0 7 0.654828 1
gene 1 4 9 0.766582 0 8 0.766582 1
gene 1 9 8 -0.46259 0 9 -0.46259 1
gene 2 3 11 2.60887 0 12 2.60887 1
gene 3 11 8 -1.76435 0 13 -1.76435 1
genomeend 2642

/* Species #3 : (Size 3) (AF 0) (Age 1)  */


/* Organism #2341 Fitness: 130 Error: 0 */
genomestart 2341
trait 1 0.1 0 0 0 0 0 0 0 
trait 2 0.387762 0 0.0231419 0 0.228381 0.0767079 0.410357 0 
trait 3 0.15 0 0.479758 0.319504 0 0 0 0 
node 1 3 1 1
node 2 3 1 1
node 3 1 1 1
node 4 3 1 1
node 5 3 1 1
node 6 1 1 1
node 7 1 1 3
node 8 1 0 2
node 10 1 0 0
node 25 1 0 0
node 27 1 0 0
gene 1 1 8 1.41471 0 1 1.41471 1
gene 1 2 8 1.3256 0 2 1.3256 0
gene 2 3 8 -1.33533 0 3 -1.33533 1
gene 2 4 8 -2.56435 0 4 -2.56435 1
gene 2 5 8 2.1587 0 5 2.1587 1
gene 2 6 8 1.41762 0 6 1.41762 1
gene 3 7 8 -0.0923201 0 7 -0.0923201 1
gene 1 2 10 0.399404 0 10 0.399404 1
gene 1 10 8 0.0436444 0 11 0.0436444 1
gene 3 1 10 0.399819 0 14 0.399819 1
gene 2 4 10 -0.386581 0 22 -0.386581 1
gene 3 5 10 -1.0339 0 25 -1.0339 0
gene 3 5 25 1 0 62 0 1
gene 3 25 10 -1.0339 0 63 0 1
gene 3 5 27 1 0 71 0 1
gene 3 27 25 1 0 72 0 1
gene 3 1 25 0.552451 0 73 0.552451 1
genomeend 2341

/* Organism #2460 Fitness: 130 Error: 0 */
genomestart 2460
trait 1 0.1 0 0 0 0 0 0 0 
trait 2 0.387762 0 0.0231419 0 0.228381 0.0767079 0.410357 0 
trait 3 0.15 0 0.479758 0.319504 0 0 0 0 
node 1 3 1 1
node 2 3 1 1
node 3 1 1 1
node 4 3 1 1
node 5 3 1 1
node 6 1 1 1
node 7 1 1 3
node 8 1 0 2
node 10 1 0 0
node 25 1 0 0
node 27 1 0 0
gene 1 1 8 1.41471 0 1 1.41471 1
gene 1 2 8 1.3256 0 2 1.3256 0
gene 2 3 8 -1.33533 0 3 -1.33533 1
gene 2 4 8 -2.56435 0 4 -2.56435 1
gene 2 5 8 2.1587 0 5 2.1587 1
gene 2 6 8 1.41762 0 6 1.41762 1
gene 3 7 8 -0.0923201 0 7 -0.0923201 1
gene 1 2 10 0.399404 0 10 0.399404 1
gene 1 10 8 0.0436444 0 11 0.0436444 1
gene 3 1 10 0.399819 0 14 0.399819 1
gene 2 4 10 -0.386581 0 22 -0.386581 1
gene 3 5 10 -1.0339 0 25 -1.0339 0
gene 3 5 25 1 0 62 0 0
gene 3 25 10 -1.0339 0 63 0 1
gene 3 5 27 1 0 71 0 1
gene 3 27 25 1 0 72 0 1
gene 3 1 25 0.552451 0 73 0.552451 1
genomeend 2460

/* Organism #2847 Fitness: 130 Error: 0 */
genomestart 2847
trait 1 0.1 0 0 0 0 0 0 0 
trait 2 0.387762 0 0.0231419 0 0.228381 0.0767079 0.410357 0 
trait 3 0.15 0 0.479758 0.319504 0 0 0 0 
node 1 3 1 1
node 2 3 1 1
node 3 1 1 1
node 4 3 1 1
node 5 3 1 1
node 6 1 1 1
node 7 1 1 3
node 8 1 0 2
node 10 1 0 0
node 25 1 0 0
node 27 1 0 0
gene 1 1 8 1.41471 0 1 1.41471 1
gene 1 2 8 1.3256 0 2 1.3256 0
gene 2 3 8 -1.33533 0 3 -1.33533 1
gene 2 4 8 -2.56435 0 4 -2.56435 1
gene 2 5 8 2.1587 0 5 2.1587 1
gene 2 6 8 1.41762 0 6 1.41762 1
gene 3 7 8 -0.0923201 0 7 -0.0923201 1
gene 1 2 10 0.399404 0 10 0.399404 1
gene 1 10 8 0.0436444 0 11 0.0436444 1
gene 3 1 10 0.399819 0 14 0.399819 1
gene 2 4 10 -0.386581 0 22 -0.386581 1
gene 3 5 10 -1.0339 0 25 -1.0339 0
gene 3 5 25 1 0 62 0 1
gene 3 25 10 -1.0339 0 63 0 1
gene 3 5 27 1 0 71 0 1
gene 3 27 25 1 0 72 0 1
gene 3 1 25 0.552451 0 73 0.552451 1
genomeend 2847

/* Species #8 : (Size 102) (AF 0) (Age 1)  */


/* Organism #3089 Fitness: 78024 Error: 0 */
genomestart 3089
trait 1 0.1 0 0 0 0 0.458581 0.212084 0 
trait 2 0.2 0.0610381 0 0 0 0 0 0 
trait 3 0.92427 0 0 0 0.857846 0 0.823984 0.256942 
node 1 3 1 1
node 2 2 1 1
node 3 1 1 1
node 4 3 1 1
node 5 3 1 1
node 6 1 1 1
node 7 1 1 3
node 8 1 0 2
node 10 1 0 0
node 20 1 0 0
gene 1 1 8 -1.86617 0 1 -1.86617 1
gene 3 2 8 -5.0998 0 2 -5.0998 0
gene 3 3 8 -2.69427 0 3 -2.69427 1
gene 2 4 8 -3.72816 0 4 -3.72816 1
gene 2 5 8 1.94085 0 5 1.94085 1
gene 2 6 8 1.19882 0 6 1.19882 1
gene 3 7 8 -0.019512 0 7 -0.019512 1
gene 1 2 10 1.84258 0 10 1.84258 1
gene 1 10 8 -1.18431 0 11 -1.18431 1
gene 1 3 10 1.73992 0 18 1.73992 1
gene 2 4 10 0.716175 0 22 0.716175 0
gene 2 4 20 0.727434 0 43 0.727434 1
gene 2 20 10 -1.63962 0 44 -1.63962 1
gene 1 5 20 2.32682 0 51 2.32682 1
gene 1 3 20 1.27711 0 70 1.27711 1
genomeend 3089

/* Organism #3037 Fitness: 78024 Error: 0 */
genomestart 3037
trait 1 0.1 0 0 0 0 0.458581 0.212084 0 
trait 2 0.2 0.0610381 0 0 0 0 0 0 
trait 3 0.92427 0 0 0 0.857846 0 0.823984 0.256942 
node 1 3 1 1
node 2 2 1 1
node 3 1 1 1
node 4 3 1 1
node 5 3 1 1
node 6 1 1 1
node 7 1 1 3
node 8 1 0 2
node 10 1 0 0
node 20 1 0 0
gene 1 1 8 -1.86617 0 1 -1.86617 1
gene 3 2 8 -5.0998 0 2 -5.0998 0
gene 3 3 8 -2.69427 0 3 -2.69427 1
gene 2 4 8 -3.72816 0 4 -3.72816 1
gene 2 5 8 1.94085 0 5 1.94085 1
gene 2 6 8 1.19882 0 6 1.19882 1
gene 3 7 8 -0.019512 0 7 -0.019512 1
gene 1 2 10 1.84258 0 10 1.84258 1
gene 1 10 8 -1.18431 0 11 -1.18431 1
gene 1 3 10 1.73992 0 18 1.73992 1
gene 2 4 10 0.716175 0 22 0.716175 0
gene 2 4 20 0.727434 0 43 0.727434 1
gene 2 20 10 -1.63962 0 44 -1.63962 1
gene 1 5 20 2.32682 0 51 2.32682 1
gene 1 3 20 1.27711 0 70 1.27711 1
genomeend 3037

/* Organism #3242 Fitness: 78024 Error: 0 */
genomestart 3242
trait 1 0.1 0 0 0 0 0.458581 0.212084 0 
trait 2 0.2 0.0610381 0 0 0 0 0 0 
trait 3 0.92427 0 0 0 0.857846 0 0.823984 0.256942 
node 1 3 1 1
node 2 2 1 1
node 3 1 1 1
node 4 3 1 1
node 5 3 1 1
node 6 1 1 1
node 7 1 1 3
node 8 1 0 2
node 10 1 0 0
node 20 1 0 0
gene 1 1 8 -1.86617 0 1 -1.86617 1
gene 3 2 8 -5.0998 0 2 -5.0998 0
gene 3 3 8 -2.69427 0 3 -2.69427 1
gene 2 4 8 -3.72816 0 4 -3.72816 1
gene 2 5 8 1.94085 0 5 1.94085 1
gene 2 6 8 1.19882 0 6 1.19882 1
gene 3 7 8 -0.019512 0 7 -0.019512 1
gene 1 2 10 1.84258 0 10 1.84258 1
gene 3 10 8 -1.18431 0 11 -1.18431 1
gene 1 3 10 1.73992 0 18 1.73992 1
gene 2 4 10 0.716175 0 22 0.716175 0
gene 2 4 20 0.727434 0 43 0.727434 1
gene 2 20 10 -1.63962 0 44 -1.63962 1
gene 1 5 20 2.32682 0 51 2.32682 1
gene 1 3 20 1.27711 0 70 1.27711 1
genomeend 3242

/* Organism #2927 Fitness: 3441 Error: 0 */
genomestart 2927
trait 1 0.1 0 0 0 0 0.343936 0.159063 0 
trait 2 0.185492 0.0457786 0 0.0264826 0.211088 0 0 0 
trait 3 0.92245 0 0 0 0.857846 0 0.822362 0.256942 
node 1 3 1 1
node 2 2 1 1
node 3 1 1 1
node 4 3 1 1
node 5 3 1 1
node 6 1 1 1
node 7 1 1 3
node 8 1 0 2
node 10 1 0 0
node 20 1 0 0
gene 1 1 8 -0.190108 0 1 -0.190108 1
gene 3 2 8 -4.0958 0 2 -4.0958 0
gene 3 3 8 -5.14685 0 3 -5.14685 1
gene 2 4 8 -6.06162 0 4 -6.06162 1
gene 2 5 8 1.94085 0 5 1.94085 1
gene 2 6 8 1.19882 0 6 1.19882 1
gene 3 7 8 -0.019512 0 7 -0.019512 1
gene 1 2 10 0.17174 0 10 0.17174 1
gene 1 10 8 -0.270343 0 11 -0.270343 1
gene 1 3 10 -0.915927 0 18 -0.915927 0
gene 2 4 10 0.606976 0 22 0.606976 0
gene 2 4 20 -5.28619 0 43 -5.28619 1
gene 2 20 10 -1.47032 0 44 -1.47032 1
gene 1 5 20 -0.522445 0 51 0 1
gene 1 3 20 -0.57644 0 70 0 1
gene 3 7 20 0.463175 0 90 0.463175 1
genomeend 2927

/* Organism #3252 Fitness: 3436 Error: 0 */
genomestart 3252
trait 1 0.1 0 0.122187 0 0 0.404251 0.100243 0 
trait 2 0.16196 0.0856873 0 0.0787437 0.263861 0 0 0 
trait 3 0.922194 0 0 0 0.857846 0 0.822134 0.256942 
node 1 3 1 1
node 2 2 1 1
node 3 1 1 1
node 4 3 1 1
node 5 3 1 1
node 6 1 1 1
node 7 1 1 3
node 8 1 0 2
node 10 1 0 0
node 20 2 0 0
gene 1 1 8 -0.190108 0 1 -0.190108 1
gene 1 2 8 -4.0958 0 2 -4.0958 0
gene 2 3 8 -5.14685 0 3 -5.14685 1
gene 2 4 8 -6.06162 0 4 -6.06162 1
gene 2 5 8 1.94085 0 5 1.94085 1
gene 2 6 8 1.19882 0 6 1.19882 1
gene 3 7 8 -0.019512 0 7 -0.019512 1
gene 1 2 10 0.17174 0 10 0.17174 1
gene 1 10 8 -0.270343 0 11 -0.270343 1
gene 1 3 10 -0.915927 0 18 -0.915927 0
gene 2 4 10 0.606976 0 22 0.606976 1
gene 2 4 20 -5.28619 0 43 -5.28619 1
gene 2 20 10 -1.47032 0 44 -1.47032 1
gene 1 5 20 -0.522445 0 51 0 1
gene 1 3 20 -0.57644 0 70 0 1
genomeend 3252

/* Organism #3022 Fitness: 3434 Error: 0 */
genomestart 3022
trait 1 0.1 0 0.162916 0 0 0.472125 0.102728 0 
trait 2 0.105872 0.218765 0 0.209044 0.211088 0 0 0 
trait 3 0.922564 0 0 0 0.857846 0 0.822464 0.256942 
node 1 3 1 1
node 2 2 1 1
node 3 1 1 1
node 4 3 1 1
node 5 3 1 1
node 6 1 1 1
node 7 1 1 3
node 8 1 0 2
node 10 1 0 0
node 20 2 0 0
gene 1 1 8 -0.190108 0 1 -0.190108 1
gene 3 2 8 -4.0958 0 2 -4.0958 0
gene 3 3 8 -5.14685 0 3 -5.14685 1
gene 2 4 8 -6.06162 0 4 -6.06162 1
gene 2 5 8 1.94085 0 5 1.94085 1
gene 2 6 8 1.19882 0 6 1.19882 1
gene 3 7 8 -0.019512 0 7 -0.019512 1
gene 1 2 10 0.17174 0 10 0.17174 1
gene 1 10 8 -0.270343 0 11 -0.270343 1
gene 1 3 10 -0.915927 0 18 -0.915927 0
gene 2 4 10 0.606976 0 22 0.606976 0
gene 2 4 20 -5.28619 0 43 -5.28619 1
gene 2 20 10 -1.47032 0 44 -1.47032 1
gene 1 5 20 -0.522445 0 51 0 1
gene 1 3 20 -0.57644 0 70 0 1
genomeend 3022

/* Organism #3082 Fitness: 3434 Error: 0 */
genomestart 3082
trait 1 0.1 0 0.244373 0 0 0.593543 0.101071 0 
trait 2 0.152936 0.14022 0 0.104522 0.105544 0 0 0 
trait 3 0.92353 0 0 0 0.857846 0 0.823326 0.256942 
node 1 3 1 1
node 2 2 1 1
node 3 1 1 1
node 4 3 1 1
node 5 3 1 1
node 6 1 1 1
node 7 1 1 3
node 8 1 0 2
node 10 1 0 0
node 20 2 0 0
gene 1 1 8 -0.190108 0 1 -0.190108 1
gene 3 2 8 -4.0958 0 2 -4.0958 0
gene 3 3 8 -5.14685 0 3 -5.14685 1
gene 2 4 8 -6.06162 0 4 -6.06162 1
gene 2 5 8 1.94085 0 5 1.94085 1
gene 2 6 8 1.19882 0 6 1.19882 1
gene 3 7 8 -0.019512 0 7 -0.019512 1
gene 1 2 10 0.17174 0 10 0.17174 1
gene 1 10 8 -0.270343 0 11 -0.270343 1
gene 1 3 10 -0.915927 0 18 -0.915927 0
gene 2 4 10 0.606976 0 22 0.606976 0
gene 2 4 20 -5.28619 0 43 -5.28619 1
gene 2 20 10 -1.47032 0 44 -1.47032 1
gene 1 5 20 -0.522445 0 51 0 1
gene 1 3 20 -0.57644 0 70 0 1
genomeend 3082

/* Organism #3100 Fitness: 3434 Error: 0 */
genomestart 3100
trait 1 0.1 0 0.325831 0 0 0.614645 0.053021 0 
trait 2 0.185492 0.0457786 0 0.0264826 0.211088 0 0 0 
trait 3 0.92245 0 0 0 0.857846 0 0.822362 0.256942 
node 1 3 1 1
node 2 2 1 1
node 3 1 1 1
node 4 3 1 1
node 5 3 1 1
node 6 1 1 1
node 7 1 1 3
node 8 1 0 2
node 10 1 0 0
node 20 1 0 0
gene 1 1 8 -0.190108 0 1 -0.190108 1
gene 1 2 8 -4.0958 0 2 -4.0958 0
gene 3 3 8 -5.14685 0 3 -5.14685 1
gene 2 4 8 -6.06162 0 4 -6.06162 1
gene 2 5 8 1.94085 0 5 1.94085 1
gene 2 6 8 1.19882 0 6 1.19882 1
gene 3 7 8 -0.019512 0 7 -0.019512 1
gene 1 2 10 0.17174 0 10 0.17174 1
gene 1 10 8 -0.270343 0 11 -0.270343 1
gene 1 3 10 -0.915927 0 18 -0.915927 0
gene 2 4 10 0.606976 0 22 0.606976 0
gene 2 4 20 -5.28619 0 43 -5.28619 1
gene 2 20 10 -1.47032 0 44 -1.47032 1
gene 1 5 20 -0.522445 0 51 0 1
gene 1 3 20 -0.57644 0 70 0 1
genomeend 3100

/* Organism #3159 Fitness: 3434 Error: 0 */
genomestart 3159
trait 1 0.1 0 0 0 0 0.222125 0.102728 0 
trait 2 0.170985 0.030837 0 0.0529653 0.422177 0 0 0 
trait 3 0.920744 0 0 0 0.857846 0 0.820842 0.256942 
node 1 3 1 1
node 2 2 1 1
node 3 3 1 1
node 4 3 1 1
node 5 3 1 1
node 6 1 1 1
node 7 1 1 3
node 8 1 0 2
node 10 1 0 0
node 20 2 0 0
gene 1 1 8 -0.190108 0 1 -0.190108 1
gene 3 2 8 -4.0958 0 2 -4.0958 0
gene 2 3 8 -5.14685 0 3 -5.14685 1
gene 2 4 8 -6.06162 0 4 -6.06162 1
gene 2 5 8 1.94085 0 5 1.94085 1
gene 2 6 8 1.19882 0 6 1.19882 1
gene 3 7 8 -0.019512 0 7 -0.019512 1
gene 1 2 10 0.17174 0 10 0.17174 1
gene 1 10 8 -0.270343 0 11 -0.270343 1
gene 1 3 10 -0.915927 0 18 -0.915927 0
gene 2 4 10 0.606976 0 22 0.606976 0
gene 2 4 20 -5.28619 0 43 -5.28619 1
gene 2 20 10 -1.47032 0 44 -1.47032 1
gene 1 5 20 -0.522445 0 51 0 1
gene 1 3 20 -0.57644 0 70 0 1
genomeend 3159

/* Organism #3161 Fitness: 3434 Error: 0 */
genomestart 3161
trait 1 0.1 0 0.162916 0 0 0.472125 0.102728 0 
trait 2 0.105872 0.218765 0 0.209044 0.211088 0 0 0 
trait 3 0.922564 0 0 0 0.857846 0 0.822464 0.256942 
node 1 3 1 1
node 2 2 1 1
node 3 1 1 1
node 4 3 1 1
node 5 3 1 1
node 6 1 1 1
node 7 1 1 3
node 8 1 0 2
node 10 1 0 0
node 20 2 0 0
gene 1 1 8 -0.190108 0 1 -0.190108 1
gene 3 2 8 -4.0958 0 2 -4.0958 0
gene 3 3 8 -5.14685 0 3 -5.14685 1
gene 2 4 8 -6.06162 0 4 -6.06162 1
gene 2 5 8 1.94085 0 5 1.94085 1
gene 2 6 8 1.19882 0 6 1.19882 1
gene 3 7 8 -0.019512 0 7 -0.019512 1
gene 1 2 10 0.17174 0 10 0.17174 1
gene 1 10 8 -0.270343 0 11 -0.270343 1
gene 1 3 10 -0.915927 0 18 -0.915927 0
gene 2 4 10 0.606976 0 22 0.606976 0
gene 2 4 20 -5.28619 0 43 -5.28619 1
gene 2 20 10 -1.47032 0 44 -1.47032 1
gene 1 5 20 -0.522445 0 51 0 1
gene 1 3 20 -0.57644 0 70 0 1
genomeend 3161

/* Organism #2783 Fitness: 3422 Error: 0 */
genomestart 2783
trait 1 0.1 0 0 0 0 0.44425 0.205456 0 
trait 2 0.2 0.061674 0 0 0 0 0 0 
trait 3 0.924497 0 0 0 0.857846 0 0.824187 0.256942 
node 1 3 1 1
node 2 2 1 1
node 3 1 1 1
node 4 3 1 1
node 5 3 1 1
node 6 1 1 1
node 7 1 1 3
node 8 1 0 2
node 10 1 0 0
node 20 2 0 0
gene 1 1 8 -0.190108 0 1 -0.190108 1
gene 3 2 8 -4.0958 0 2 -4.0958 0
gene 3 3 8 -5.14685 0 3 -5.14685 1
gene 2 4 8 -6.06162 0 4 -6.06162 1
gene 2 5 8 1.94085 0 5 1.94085 1
gene 2 6 8 1.19882 0 6 1.19882 1
gene 3 7 8 -0.019512 0 7 -0.019512 1
gene 1 2 10 0.17174 0 10 0.17174 1
gene 1 10 8 -0.270343 0 11 -0.270343 1
gene 1 7 10 -0.694549 0 16 0 1
gene 1 3 10 -0.915927 0 18 -0.915927 1
gene 2 4 10 0.606976 0 22 0.606976 0
gene 2 4 20 -5.28619 0 43 -5.28619 1
gene 2 20 10 -1.47032 0 44 -1.47032 1
gene 1 3 20 -0.57644 0 70 0 1
gene 3 6 20 0.800227 0 82 0 1
genomeend 2783

/* Organism #3269 Fitness: 3421 Error: 0 */
genomestart 3269
trait 1 0.1 0 0 0 0 0.229291 0.106042 0 
trait 2 0.0117434 0.375857 0 0.418089 0.422177 0 0 0 
trait 3 0.920631 0 0 0 0.857846 0 0.82074 0.256942 
node 1 3 1 1
node 2 2 1 1
node 3 1 1 1
node 4 3 1 1
node 5 3 1 1
node 6 1 1 1
node 7 1 1 3
node 8 1 0 2
node 10 1 0 0
node 20 1 0 0
gene 1 1 8 -0.190108 0 1 -0.190108 1
gene 1 2 8 -4.0958 0 2 -4.0958 0
gene 3 3 8 -5.14685 0 3 -5.14685 1
gene 2 4 8 -6.06162 0 4 -6.06162 1
gene 2 5 8 1.94085 0 5 1.94085 1
gene 2 6 8 1.19882 0 6 1.19882 1
gene 1 7 8 -0.019512 0 7 -0.019512 1
gene 1 2 10 0.17174 0 10 0.17174 1
gene 1 10 8 -0.270343 0 11 -0.270343 1
gene 1 3 10 -0.915927 0 18 -0.915927 0
gene 2 4 10 0.606976 0 22 0.606976 0
gene 1 6 10 -0.205699 0 26 0 1
gene 2 4 20 -5.28619 0 43 -5.28619 1
gene 2 20 10 -1.47032 0 44 -1.47032 1
gene 1 5 20 -0.522445 0 51 0 1
gene 1 3 20 -0.57644 0 70 0 1
genomeend 3269

/* Organism #2834 Fitness: 3421 Error: 0 */
genomestart 2834
trait 1 0.1 0 0 0 0 0.229291 0.106042 0 
trait 2 0.0117434 0.375857 0 0.418089 0.422177 0 0 0 
trait 3 0.920631 0 0 0 0.857846 0 0.82074 0.256942 
node 1 3 1 1
node 2 2 1 1
node 3 1 1 1
node 4 3 1 1
node 5 3 1 1
node 6 1 1 1
node 7 1 1 3
node 8 1 0 2
node 10 1 0 0
node 20 1 0 0
gene 1 1 8 -0.190108 0 1 -0.190108 1
gene 1 2 8 -4.0958 0 2 -4.0958 0
gene 3 3 8 -5.14685 0 3 -5.14685 1
gene 2 4 8 -6.06162 0 4 -6.06162 1
gene 2 5 8 1.94085 0 5 1.94085 1
gene 2 6 8 1.19882 0 6 1.19882 1
gene 1 7 8 -0.019512 0 7 -0.019512 1
gene 1 2 10 0.17174 0 10 0.17174 1
gene 1 10 8 -0.270343 0 11 -0.270343 1
gene 1 3 10 -0.915927 0 18 -0.915927 0
gene 2 4 10 0.606976 0 22 0.606976 0
gene 1 6 10 -0.205699 0 26 0 1
gene 2 4 20 -5.28619 0 43 -5.28619 1
gene 2 20 10 -1.47032 0 44 -1.47032 1
gene 1 5 20 -0.522445 0 51 0 1
gene 1 3 20 -0.57644 0 70 0 1
genomeend 2834

/* Organism #2803 Fitness: 3421 Error: 0 */
genomestart 2803
trait 1 0.1 0 0 0 0 0.229291 0.106042 0 
trait 2 0.170985 0.0305191 0 0.0529653 0.422177 0 0 0 
trait 3 0.920631 0 0 0 0.857846 0 0.82074 0.256942 
node 1 3 1 1
node 2 2 1 1
node 3 1 1 1
node 4 3 1 1
node 5 3 1 1
node 6 1 1 1
node 7 1 1 3
node 8 1 0 2
node 10 1 0 0
node 20 1 0 0
gene 1 1 8 -0.190108 0 1 -0.190108 1
gene 1 2 8 -4.0958 0 2 -4.0958 0
gene 3 3 8 -5.14685 0 3 -5.14685 1
gene 2 4 8 -6.06162 0 4 -6.06162 1
gene 2 5 8 1.94085 0 5 1.94085 1
gene 2 6 8 1.19882 0 6 1.19882 1
gene 1 7 8 -0.019512 0 7 -0.019512 1
gene 1 2 10 0.17174 0 10 0.17174 1
gene 1 10 8 -0.270343 0 11 -0.270343 1
gene 1 3 10 -0.915927 0 18 -0.915927 0
gene 2 4 10 0.606976 0 22 0.606976 0
gene 1 6 10 -0.205699 0 26 0 1
gene 2 4 20 -5.28619 0 43 -5.28619 1
gene 2 20 10 -1.47032 0 44 -1.47032 1
gene 1 5 20 -0.522445 0 51 0 1
gene 1 3 20 -0.57644 0 70 0 1
genomeend 2803

/* Organism #3254 Fitness: 3421 Error: 0 */
genomestart 3254
trait 1 0.1 0 0 0 0 0.286613 0.132552 0 
trait 2 0.178239 0.0381488 0 0.039724 0.316633 0 0 0.337569 
trait 3 0.92154 0 0 0 0.857846 0 0.821551 0.256942 
node 1 3 1 1
node 2 2 1 1
node 3 1 1 1
node 4 3 1 1
node 5 3 1 1
node 6 1 1 1
node 7 1 1 3
node 8 1 0 2
node 10 1 0 0
node 20 1 0 0
gene 1 1 8 -0.190108 0 1 -0.190108 1
gene 1 2 8 -4.0958 0 2 -4.0958 0
gene 3 3 8 -5.14685 0 3 -5.14685 1
gene 2 4 8 -6.06162 0 4 -6.06162 1
gene 2 5 8 1.94085 0 5 1.94085 1
gene 2 6 8 1.19882 0 6 1.19882 1
gene 1 7 8 -0.019512 0 7 -0.019512 1
gene 1 2 10 0.17174 0 10 0.17174 1
gene 1 10 8 -0.270343 0 11 -0.270343 1
gene 1 3 10 -0.915927 0 18 -0.915927 0
gene 2 4 10 0.606976 0 22 0.606976 0
gene 1 6 10 -0.205699 0 26 0 1
gene 2 4 20 -5.28619 0 43 -5.28619 1
gene 2 20 10 -1.47032 0 44 -1.47032 1
gene 1 5 20 -0.522445 0 51 0 1
gene 1 3 20 -0.57644 0 70 0 1
genomeend 3254

/* Organism #3078 Fitness: 3421 Error: 0 */
genomestart 3078
trait 1 0.1 0 0 0 0 0.286613 0.132552 0 
trait 2 0.098618 0.210818 0 0.222286 0.316633 0 0 0 
trait 3 0.92154 0 0 0 0.857846 0 0.821551 0.256942 
node 1 3 1 1
node 2 2 1 1
node 3 1 1 1
node 4 3 1 1
node 5 3 1 1
node 6 1 1 1
node 7 1 1 3
node 8 1 0 2
node 10 1 0 0
node 20 1 0 0
gene 1 1 8 -0.190108 0 1 -0.190108 1
gene 3 2 8 -4.0958 0 2 -4.0958 0
gene 3 3 8 -5.14685 0 3 -5.14685 1
gene 2 4 8 -6.06162 0 4 -6.06162 1
gene 2 5 8 1.94085 0 5 1.94085 1
gene 2 6 8 1.19882 0 6 1.19882 1
gene 1 7 8 -0.019512 0 7 -0.019512 1
gene 1 2 10 0.17174 0 10 0.17174 1
gene 1 10 8 -0.270343 0 11 -0.270343 1
gene 1 3 10 -0.915927 0 18 -0.915927 0
gene 2 4 10 0.606976 0 22 0.606976 0
gene 1 6 10 -0.205699 0 26 0 1
gene 2 4 20 -5.28619 0 43 -5.28619 1
gene 2 20 10 -1.47032 0 44 -1.47032 1
gene 1 5 20 -0.522445 0 51 0 1
gene 1 3 20 -0.57644 0 70 0 1
genomeend 3078

/* Organism #3035 Fitness: 3419 Error: 0 */
genomestart 3035
trait 1 0.1 0 0 0 0 0.394093 0.18226 0 
trait 2 0.192746 0.0537263 0 0.0132413 0.105544 0 0 0 
trait 3 0.923474 0 0 0 0.857846 0 0.823275 0.256942 
node 1 3 1 1
node 2 2 1 1
node 3 1 1 1
node 4 3 1 1
node 5 3 1 1
node 6 1 1 1
node 7 1 1 3
node 8 1 0 2
node 10 1 0 0
node 20 1 0 0
gene 1 1 8 -0.190108 0 1 -0.190108 1
gene 1 2 8 -4.0958 0 2 -4.0958 0
gene 3 3 8 -5.14685 0 3 -5.14685 1
gene 2 4 8 -6.06162 0 4 -6.06162 1
gene 2 5 8 1.94085 0 5 1.94085 1
gene 2 6 8 1.19882 0 6 1.19882 1
gene 3 7 8 -0.019512 0 7 -0.019512 1
gene 1 2 10 0.17174 0 10 0.17174 1
gene 1 10 8 -0.270343 0 11 -0.270343 1
gene 1 7 10 -0.694549 0 16 0 1
gene 1 3 10 -0.915927 0 18 -0.915927 0
gene 2 4 10 0.606976 0 22 0.606976 0
gene 2 4 20 -5.28619 0 43 -5.28619 1
gene 2 20 10 -1.47032 0 44 -1.47032 1
gene 1 3 20 -0.57644 0 70 0 1
genomeend 3035

/* Organism #3177 Fitness: 3419 Error: 0 */
genomestart 3177
trait 1 0.1 0 0.203644 0 0 0.582991 0.125096 0 
trait 2 0.176468 0.101106 0 0.0522611 0.0527721 0 0 0 
trait 3 0.924071 0 0 0 0.857846 0 0.823807 0.256942 
node 1 3 1 1
node 2 2 1 1
node 3 1 1 1
node 4 3 1 1
node 5 3 1 1
node 6 1 1 1
node 7 1 1 3
node 8 1 0 2
node 10 1 0 0
node 20 2 0 0
gene 1 1 8 -0.190108 0 1 -0.190108 1
gene 3 2 8 -4.0958 0 2 -4.0958 0
gene 3 3 8 -5.14685 0 3 -5.14685 1
gene 2 4 8 -6.06162 0 4 -6.06162 1
gene 2 5 8 1.94085 0 5 1.94085 1
gene 2 6 8 1.19882 0 6 1.19882 1
gene 3 7 8 -0.019512 0 7 -0.019512 1
gene 1 2 10 0.17174 0 10 0.17174 1
gene 1 10 8 -0.270343 0 11 -0.270343 1
gene 1 7 10 -0.694549 0 16 0 1
gene 1 3 10 -0.915927 0 18 -0.915927 0
gene 2 4 10 0.606976 0 22 0.606976 0
gene 2 4 20 -5.28619 0 43 -5.28619 1
gene 2 20 10 -1.47032 0 44 -1.47032 1
gene 1 3 20 -0.57644 0 70 0 1
genomeend 3177

/* Organism #3172 Fitness: 3419 Error: 0 */
genomestart 3172
trait 1 0.1 0 0.122187 0 0 0.493818 0.141665 0 
trait 2 0.152936 0.14014 0 0.104522 0.105544 0 0 0 
trait 3 0.923502 0 0 0 0.857846 0 0.8233 0.256942 
node 1 3 1 1
node 2 2 1 1
node 3 1 1 1
node 4 3 1 1
node 5 3 1 1
node 6 1 1 1
node 7 1 1 3
node 8 1 0 2
node 10 1 0 0
node 20 2 0 0
gene 1 1 8 -0.190108 0 1 -0.190108 1
gene 3 2 8 -4.0958 0 2 -4.0958 0
gene 3 3 8 -5.14685 0 3 -5.14685 1
gene 2 4 8 -6.06162 0 4 -6.06162 1
gene 2 5 8 1.94085 0 5 1.94085 1
gene 2 6 8 1.19882 0 6 1.19882 1
gene 3 7 8 -0.019512 0 7 -0.019512 1
gene 1 2 10 0.17174 0 10 0.17174 1
gene 1 10 8 -0.270343 0 11 -0.270343 1
gene 1 7 10 -0.694549 0 16 0 1
gene 1 3 10 -0.915927 0 18 -0.915927 0
gene 2 4 10 0.606976 0 22 0.606976 0
gene 2 4 20 -5.28619 0 43 -5.28619 1
gene 2 20 10 -1.47032 0 44 -1.47032 1
gene 1 3 20 -0.57644 0 70 0 1
genomeend 3172

/* Organism #3239 Fitness: 3419 Error: 0 */
genomestart 3239
trait 1 0.1 0 0.18328 0 0 0.54368 0.121368 0 
trait 2 0.152936 0.14018 0 0.104522 0.105544 0 0 0 
trait 3 0.923516 0 0 0 0.857846 0 0.823313 0.256942 
node 1 3 1 1
node 2 2 1 1
node 3 1 1 1
node 4 3 1 1
node 5 3 1 1
node 6 1 1 1
node 7 1 1 3
node 8 1 0 2
node 10 1 0 0
node 20 2 0 0
gene 1 1 8 -0.190108 0 1 -0.190108 1
gene 3 2 8 -4.0958 0 2 -4.0958 0
gene 3 3 8 -5.14685 0 3 -5.14685 1
gene 2 4 8 -6.06162 0 4 -6.06162 1
gene 2 5 8 1.94085 0 5 1.94085 1
gene 2 6 8 1.19882 0 6 1.19882 1
gene 3 7 8 -0.019512 0 7 -0.019512 1
gene 1 2 10 0.17174 0 10 0.17174 1
gene 1 10 8 -0.270343 0 11 -0.270343 1
gene 1 7 10 -0.694549 0 16 0 1
gene 1 3 10 -0.915927 0 18 -0.915927 0
gene 2 4 10 0.606976 0 22 0.606976 0
gene 2 4 20 -5.28619 0 43 -5.28619 1
gene 2 20 10 -1.47032 0 44 -1.47032 1
gene 1 3 20 -0.57644 0 70 0 1
genomeend 3239

/* Organism #3261 Fitness: 3414 Error: 0 */
genomestart 3261
trait 1 0.1 0 0 0 0 0.42992 0.198829 0 
trait 2 0.2 0.0623098 0 0 0 0 0 0 
trait 3 0.924724 0 0 0 0.857846 0 0.82439 0.256942 
node 1 3 1 1
node 2 2 1 1
node 3 1 1 1
node 4 3 1 1
node 5 3 1 1
node 6 1 1 1
node 7 1 1 3
node 8 1 0 2
node 10 1 0 0
node 20 2 0 0
gene 1 1 8 -0.190108 0 1 -0.190108 1
gene 3 2 8 -4.0958 0 2 -4.0958 0
gene 3 3 8 -5.14685 0 3 -5.14685 1
gene 2 4 8 -6.06162 0 4 -6.06162 1
gene 2 5 8 1.94085 0 5 1.94085 1
gene 2 6 8 1.19882 0 6 1.19882 1
gene 3 7 8 -0.019512 0 7 -0.019512 1
gene 1 2 10 0.17174 0 10 0.17174 1
gene 1 10 8 -0.270343 0 11 -0.270343 1
gene 1 7 10 -0.694549 0 16 0 1
gene 1 3 10 -0.915927 0 18 -0.915927 1
gene 2 4 10 0.606976 0 22 0.606976 1
gene 2 4 20 -5.28619 0 43 -5.28619 1
gene 2 20 10 -1.47032 0 44 -1.47032 1
gene 1 3 20 -0.57644 0 70 0 1
genomeend 3261

/* Organism #2695 Fitness: 3414 Error: 0 */
genomestart 2695
trait 1 0.1 0 0 0 0 0.42992 0.198829 0 
trait 2 0.2 0.0623098 0 0 0 0 0 0 
trait 3 0.924724 0 0 0 0.857846 0 0.82439 0.256942 
node 1 3 1 1
node 2 2 1 1
node 3 1 1 1
node 4 3 1 1
node 5 3 1 1
node 6 1 1 1
node 7 1 1 3
node 8 1 0 2
node 10 1 0 0
node 20 2 0 0
gene 1 1 8 -0.190108 0 1 -0.190108 1
gene 3 2 8 -4.0958 0 2 -4.0958 0
gene 3 3 8 -5.14685 0 3 -5.14685 1
gene 2 4 8 -6.06162 0 4 -6.06162 1
gene 2 5 8 1.94085 0 5 1.94085 1
gene 2 6 8 1.19882 0 6 1.19882 1
gene 3 7 8 -0.019512 0 7 -0.019512 1
gene 1 2 10 0.17174 0 10 0.17174 1
gene 1 10 8 -0.270343 0 11 -0.270343 1
gene 1 7 10 -0.694549 0 16 0 1
gene 1 3 10 -0.915927 0 18 -0.915927 1
gene 2 4 10 0.606976 0 22 0.606976 1
gene 2 4 20 -5.28619 0 43 -5.28619 1
gene 2 20 10 -1.47032 0 44 -1.47032 1
gene 1 3 20 -0.57644 0 70 0 1
genomeend 2695

/* Organism #3186 Fitness: 3414 Error: 0 */
genomestart 3186
trait 1 0.1 0 0 0 0 0.21496 0.0994143 0 
trait 2 0.170985 0.0311549 0 0.0529653 0.422177 0 0 0 
trait 3 0.920858 0 0 0 0.857846 0 0.820943 0.256942 
node 1 3 1 1
node 2 2 1 1
node 3 1 1 1
node 4 3 1 1
node 5 3 1 1
node 6 1 1 1
node 7 1 1 3
node 8 1 0 2
node 10 1 0 0
node 20 2 0 0
gene 1 1 8 -0.190108 0 1 -0.190108 1
gene 1 2 8 -4.0958 0 2 -4.0958 0
gene 2 3 8 -5.14685 0 3 -5.14685 1
gene 2 4 8 -6.06162 0 4 -6.06162 1
gene 2 5 8 1.94085 0 5 1.94085 1
gene 2 6 8 1.19882 0 6 1.19882 1
gene 3 7 8 -0.019512 0 7 -0.019512 1
gene 1 2 10 0.17174 0 10 0.17174 1
gene 1 10 8 -0.270343 0 11 -0.270343 1
gene 1 7 10 -0.694549 0 16 0 1
gene 1 3 10 -0.915927 0 18 -0.915927 1
gene 2 4 10 0.606976 0 22 0.606976 1
gene 2 4 20 -5.28619 0 43 -5.28619 1
gene 2 20 10 -1.47032 0 44 -1.47032 1
gene 1 3 20 -0.57644 0 70 0 1
genomeend 3186

/* Organism #3012 Fitness: 3412 Error: 0 */
genomestart 3012
trait 1 0.1 0 0.162916 0 0 0.57244 0.149121 0 
trait 2 0.2 0.0619919 0 0 0 0 0 0 
trait 3 0.924611 0 0 0 0.857846 0 0.824289 0.256942 
node 1 3 1 1
node 2 2 1 1
node 3 1 1 1
node 4 3 1 1
node 5 3 1 1
node 6 1 1 1
node 7 1 1 3
node 8 1 0 2
node 10 1 0 0
node 20 2 0 0
gene 1 1 8 -0.190108 0 1 -0.190108 1
gene 3 2 8 -4.0958 0 2 -4.0958 0
gene 3 3 8 -5.14685 0 3 -5.14685 1
gene 2 4 8 -6.06162 0 4 -6.06162 1
gene 2 5 8 1.94085 0 5 1.94085 1
gene 2 6 8 1.19882 0 6 1.19882 1
gene 3 7 8 -0.019512 0 7 -0.019512 1
gene 1 2 10 0.17174 0 10 0.17174 1
gene 1 10 8 -0.270343 0 11 -0.270343 1
gene 1 7 10 -0.694549 0 16 0 1
gene 1 3 10 -0.915927 0 18 -0.915927 1
gene 2 4 10 0.606976 0 22 0.606976 0
gene 2 4 20 -5.28619 0 43 -5.28619 1
gene 2 20 10 -1.47032 0 44 -1.47032 1
gene 1 3 20 -0.57644 0 70 0 1
genomeend 3012

/* Organism #2890 Fitness: 3412 Error: 0 */
genomestart 2890
trait 1 0.1 0 0 0 0 0.44425 0.205456 0 
trait 2 0.2 0.061674 0 0 0 0 0 0 
trait 3 0.924497 0 0 0 0.857846 0 0.824187 0.256942 
node 1 3 1 1
node 2 2 1 1
node 3 1 1 1
node 4 3 1 1
node 5 3 1 1
node 6 1 1 1
node 7 1 1 3
node 8 1 0 2
node 10 1 0 0
node 20 1 0 0
gene 1 1 8 -0.190108 0 1 -0.190108 1
gene 1 2 8 -4.0958 0 2 -4.0958 0
gene 3 3 8 -5.14685 0 3 -5.14685 1
gene 2 4 8 -6.06162 0 4 -6.06162 1
gene 2 5 8 1.94085 0 5 1.94085 1
gene 2 6 8 1.19882 0 6 1.19882 1
gene 3 7 8 -0.019512 0 7 -0.019512 1
gene 1 2 10 0.17174 0 10 0.17174 1
gene 1 10 8 -0.270343 0 11 -0.270343 1
gene 1 7 10 -0.694549 0 16 0 1
gene 1 3 10 -0.915927 0 18 -0.915927 1
gene 2 4 10 0.606976 0 22 0.606976 0
gene 2 4 20 -5.28619 0 43 -5.28619 1
gene 2 20 10 -1.47032 0 44 -1.47032 1
gene 1 3 20 -0.57644 0 70 0 1
genomeend 2890

/* Organism #3056 Fitness: 3412 Error: 0 */
genomestart 3056
trait 1 0.1 0 0.0814578 0 0 0.51551 0.180603 0 
trait 2 0.2 0.061515 0 0 0 0 0 0 
trait 3 0.92444 0 0 0 0.857846 0 0.824137 0.256942 
node 1 3 1 1
node 2 2 1 1
node 3 1 1 1
node 4 3 1 1
node 5 3 1 1
node 6 1 1 1
node 7 1 1 3
node 8 1 0 2
node 10 1 0 0
node 20 2 0 0
gene 1 1 8 -0.190108 0 1 -0.190108 1
gene 3 2 8 -4.0958 0 2 -4.0958 0
gene 3 3 8 -5.14685 0 3 -5.14685 1
gene 2 4 8 -6.06162 0 4 -6.06162 1
gene 2 5 8 1.94085 0 5 1.94085 1
gene 2 6 8 1.19882 0 6 1.19882 1
gene 3 7 8 -0.019512 0 7 -0.019512 1
gene 1 2 10 0.17174 0 10 0.17174 1
gene 1 10 8 -0.270343 0 11 -0.270343 1
gene 1 7 10 -0.694549 0 16 0 1
gene 1 3 10 -0.915927 0 18 -0.915927 1
gene 2 4 10 0.606976 0 22 0.606976 0
gene 2 4 20 -5.28619 0 43 -5.28619 1
gene 2 20 10 -1.47032 0 44 -1.47032 1
gene 1 3 20 -0.57644 0 70 0 1
genomeend 3056

/* Organism #2765 Fitness: 3405 Error: 0 */
genomestart 2765
trait 1 0.1 0 0.325831 0 0 0.71496 0.0994143 0 
trait 2 0.2 0.061674 0 0 0 0 0 0 
trait 3 0.924497 0 0 0 0.857846 0 0.824187 0.256942 
node 1 3 1 1
node 2 2 1 1
node 3 1 1 1
node 4 3 1 1
node 5 3 1 1
node 6 1 1 1
node 7 1 1 3
node 8 1 0 2
node 10 1 0 0
node 20 1 0 0
gene 1 1 8 -0.190108 0 1 -0.190108 1
gene 3 2 8 -4.0958 0 2 -4.0958 0
gene 3 3 8 -5.14685 0 3 -5.14685 1
gene 2 4 8 -6.06162 0 4 -6.06162 1
gene 2 5 8 1.94085 0 5 1.94085 1
gene 2 6 8 1.19882 0 6 1.19882 1
gene 3 7 8 -0.019512 0 7 -0.019512 1
gene 1 2 10 0.17174 0 10 0.17174 1
gene 1 10 8 -0.270343 0 11 -0.270343 1
gene 1 3 10 -0.915927 0 18 -0.915927 1
gene 2 4 10 0.606976 0 22 0.606976 0
gene 2 4 20 -5.28619 0 43 -5.28619 1
gene 2 20 10 -1.47032 0 44 -1.47032 1
gene 1 5 20 -0.522445 0 51 0 1
gene 1 3 20 -0.57644 0 70 0 1
genomeend 2765

/* Organism #3004 Fitness: 3405 Error: 0 */
genomestart 3004
trait 1 0.1 0 0.325831 0 0 0.71496 0.0994143 0 
trait 2 0.2 0.061674 0 0 0 0 0 0 
trait 3 0.924497 0 0 0 0.857846 0 0.824187 0.256942 
node 1 3 1 1
node 2 2 1 1
node 3 1 1 1
node 4 3 1 1
node 5 3 1 1
node 6 1 1 1
node 7 1 1 3
node 8 1 0 2
node 10 1 0 0
node 20 2 0 0
gene 1 1 8 -0.190108 0 1 -0.190108 1
gene 3 2 8 -4.0958 0 2 -4.0958 0
gene 3 3 8 -5.14685 0 3 -5.14685 1
gene 2 4 8 -6.06162 0 4 -6.06162 1
gene 2 5 8 1.94085 0 5 1.94085 1
gene 2 6 8 1.19882 0 6 1.19882 1
gene 3 7 8 -0.019512 0 7 -0.019512 1
gene 1 2 10 0.17174 0 10 0.17174 1
gene 1 10 8 -0.270343 0 11 -0.270343 1
gene 1 3 10 -0.915927 0 18 -0.915927 1
gene 2 4 10 0.606976 0 22 0.606976 0
gene 2 4 20 -5.28619 0 43 -5.28619 1
gene 2 20 10 -1.47032 0 44 -1.47032 1
gene 1 5 20 -0.522445 0 51 0 1
gene 1 3 20 -0.57644 0 70 0 1
genomeend 3004

/* Organism #3023 Fitness: 3405 Error: 0 */
genomestart 3023
trait 1 0.1 0 0 0 0 0.458581 0.212084 0 
trait 2 0.2 0.0610381 0 0 0 0 0 0 
trait 3 0.92427 0 0 0 0.857846 0 0.823984 0.256942 
node 1 3 1 1
node 2 2 1 1
node 3 1 1 1
node 4 3 1 1
node 5 3 1 1
node 6 1 1 1
node 7 1 1 3
node 8 1 0 2
node 10 1 0 0
node 20 1 0 0
gene 1 1 8 -0.190108 0 1 -0.190108 1
gene 3 2 8 -4.0958 0 2 -4.0958 0
gene 3 3 8 -5.14685 0 3 -5.14685 1
gene 2 4 8 -6.06162 0 4 -6.06162 1
gene 2 5 8 1.94085 0 5 1.94085 1
gene 2 6 8 1.19882 0 6 1.19882 1
gene 3 7 8 -0.019512 0 7 -0.019512 1
gene 1 2 10 0.17174 0 10 0.17174 1
gene 1 10 8 -0.270343 0 11 -0.270343 1
gene 1 3 10 -0.915927 0 18 -0.915927 1
gene 2 4 10 0.606976 0 22 0.606976 0
gene 2 4 20 -5.28619 0 43 -5.28619 1
gene 2 20 10 -1.47032 0 44 -1.47032 1
gene 1 5 20 -0.522445 0 51 0 1
gene 1 3 20 -0.57644 0 70 0 1
genomeend 3023

/* Organism #2595 Fitness: 3405 Error: 0 */
genomestart 2595
trait 1 0.1 0 0 0 0 0.458581 0.212084 0 
trait 2 0.2 0.0610381 0 0 0 0 0 0 
trait 3 0.92427 0 0 0 0.857846 0 0.823984 0.256942 
node 1 3 1 1
node 2 2 1 1
node 3 1 1 1
node 4 3 1 1
node 5 3 1 1
node 6 1 1 1
node 7 1 1 3
node 8 1 0 2
node 10 1 0 0
node 20 1 0 0
gene 1 1 8 -0.190108 0 1 -0.190108 1
gene 3 2 8 -4.0958 0 2 -4.0958 0
gene 3 3 8 -5.14685 0 3 -5.14685 1
gene 2 4 8 -6.06162 0 4 -6.06162 1
gene 2 5 8 1.94085 0 5 1.94085 1
gene 2 6 8 1.19882 0 6 1.19882 1
gene 3 7 8 -0.019512 0 7 -0.019512 1
gene 1 2 10 0.17174 0 10 0.17174 1
gene 1 10 8 -0.270343 0 11 -0.270343 1
gene 1 3 10 -0.915927 0 18 -0.915927 1
gene 2 4 10 0.606976 0 22 0.606976 0
gene 2 4 20 -5.28619 0 43 -5.28619 1
gene 2 20 10 -1.47032 0 44 -1.47032 1
gene 1 5 20 -0.522445 0 51 0 1
gene 1 3 20 -0.57644 0 70 0 1
genomeend 2595

/* Organism #3093 Fitness: 3405 Error: 0 */
genomestart 3093
trait 1 0.1 0 0 0 0 0.44425 0.205456 0 
trait 2 0.2 0.061674 0 0 0 0 0 0 
trait 3 0.924497 0 0 0 0.857846 0 0.824187 0.256942 
node 1 3 1 1
node 2 2 1 1
node 3 1 1 1
node 4 3 1 1
node 5 3 1 1
node 6 1 1 1
node 7 1 1 3
node 8 1 0 2
node 10 1 0 0
node 20 2 0 0
gene 1 1 8 -0.190108 0 1 -0.190108 1
gene 3 2 8 -4.0958 0 2 -4.0958 0
gene 3 3 8 -5.14685 0 3 -5.14685 1
gene 2 4 8 -6.06162 0 4 -6.06162 1
gene 2 5 8 1.94085 0 5 1.94085 1
gene 2 6 8 1.19882 0 6 1.19882 1
gene 3 7 8 -0.019512 0 7 -0.019512 1
gene 1 2 10 0.17174 0 10 0.17174 1
gene 1 10 8 -0.270343 0 11 -0.270343 1
gene 1 3 10 -0.915927 0 18 -0.915927 1
gene 2 4 10 0.606976 0 22 0.606976 0
gene 2 4 20 -5.28619 0 43 -5.28619 1
gene 2 20 10 -1.47032 0 44 -1.47032 1
gene 1 5 20 -0.522445 0 51 0 1
gene 1 3 20 -0.57644 0 70 0 1
genomeend 3093

/* Organism #2483 Fitness: 3405 Error: 0 */
genomestart 2483
trait 1 0.1 0 0 0 0 0.458581 0.212084 0 
trait 2 0.2 0.0610381 0 0 0 0 0 0 
trait 3 0.92427 0 0 0 0.857846 0 0.823984 0.256942 
node 1 3 1 1
node 2 2 1 1
node 3 1 1 1
node 4 3 1 1
node 5 3 1 1
node 6 1 1 1
node 7 1 1 3
node 8 1 0 2
node 10 1 0 0
node 20 1 0 0
gene 1 1 8 -0.190108 0 1 -0.190108 1
gene 1 2 8 -4.0958 0 2 -4.0958 0
gene 3 3 8 -5.14685 0 3 -5.14685 1
gene 2 4 8 -6.06162 0 4 -6.06162 1
gene 2 5 8 1.94085 0 5 1.94085 1
gene 2 6 8 1.19882 0 6 1.19882 1
gene 3 7 8 -0.019512 0 7 -0.019512 1
gene 1 2 10 0.17174 0 10 0.17174 1
gene 1 10 8 -0.270343 0 11 -0.270343 1
gene 1 3 10 -0.915927 0 18 -0.915927 1
gene 2 4 10 0.606976 0 22 0.606976 0
gene 2 4 20 -5.28619 0 43 -5.28619 1
gene 2 20 10 -1.47032 0 44 -1.47032 1
gene 1 5 20 -0.522445 0 51 0 1
gene 1 3 20 -0.57644 0 70 0 1
genomeend 2483

/* Organism #3143 Fitness: 3405 Error: 0 */
genomestart 3143
trait 1 0.1 0 0.122187 0 0 0.518896 0.153264 0 
trait 2 0.176468 0.100947 0 0.0522611 0.0527721 0 0 0 
trait 3 0.924014 0 0 0 0.857846 0 0.823756 0.256942 
node 1 3 1 1
node 2 2 1 1
node 3 1 1 1
node 4 3 1 1
node 5 3 1 1
node 6 1 1 1
node 7 1 1 3
node 8 1 0 2
node 10 1 0 0
node 20 2 0 0
gene 1 1 8 -0.190108 0 1 -0.190108 1
gene 3 2 8 -4.0958 0 2 -4.0958 0
gene 3 3 8 -5.14685 0 3 -5.14685 1
gene 2 4 8 -6.06162 0 4 -6.06162 1
gene 2 5 8 1.94085 0 5 1.94085 1
gene 2 6 8 1.19882 0 6 1.19882 1
gene 3 7 8 -0.019512 0 7 -0.019512 1
gene 1 2 10 0.17174 0 10 0.17174 1
gene 1 10 8 -0.270343 0 11 -0.270343 1
gene 1 3 10 -0.915927 0 18 -0.915927 1
gene 2 4 10 0.606976 0 22 0.606976 0
gene 2 4 20 -5.28619 0 43 -5.28619 1
gene 2 20 10 -1.47032 0 44 -1.47032 1
gene 1 5 20 -0.522445 0 51 0 1
gene 1 3 20 -0.57644 0 70 0 1
genomeend 3143

/* Organism #2521 Fitness: 3405 Error: 0 */
genomestart 2521
trait 1 0.1 0 0 0 0 0.458581 0.212084 0 
trait 2 0.2 0.0610381 0 0 0 0 0 0 
trait 3 0.92427 0 0 0 0.857846 0 0.823984 0.256942 
node 1 3 1 1
node 2 2 1 1
node 3 1 1 1
node 4 3 1 1
node 5 3 1 1
node 6 1 1 1
node 7 1 1 3
node 8 1 0 2
node 10 1 0 0
node 20 1 0 0
gene 1 1 8 -0.190108 0 1 -0.190108 1
gene 3 2 8 -4.0958 0 2 -4.0958 0
gene 3 3 8 -5.14685 0 3 -5.14685 1
gene 2 4 8 -6.06162 0 4 -6.06162 1
gene 2 5 8 1.94085 0 5 1.94085 1
gene 2 6 8 1.19882 0 6 1.19882 1
gene 3 7 8 -0.019512 0 7 -0.019512 1
gene 1 2 10 0.17174 0 10 0.17174 1
gene 1 10 8 -0.270343 0 11 -0.270343 1
gene 1 3 10 -0.915927 0 18 -0.915927 1
gene 2 4 10 0.606976 0 22 0.606976 0
gene 2 4 20 -5.28619 0 43 -5.28619 1
gene 2 20 10 -1.47032 0 44 -1.47032 1
gene 1 5 20 -0.522445 0 51 0 1
gene 1 3 20 -0.57644 0 70 0 1
genomeend 2521

/* Organism #2684 Fitness: 3405 Error: 0 */
genomestart 2684
trait 1 0.1 0 0.651662 0 0 1 0 0 
trait 2 0.2 0.0610381 0 0 0 0 0 0 
trait 3 0.92427 0 0 0 0.857846 0 0.823984 0.256942 
node 1 3 1 1
node 2 2 1 1
node 3 1 1 1
node 4 3 1 1
node 5 3 1 1
node 6 1 1 1
node 7 1 1 3
node 8 1 0 2
node 10 1 0 0
node 20 1 0 0
gene 1 1 8 -0.190108 0 1 -0.190108 1
gene 3 2 8 -4.0958 0 2 -4.0958 0
gene 3 3 8 -5.14685 0 3 -5.14685 1
gene 2 4 8 -6.06162 0 4 -6.06162 1
gene 2 5 8 1.94085 0 5 1.94085 1
gene 2 6 8 1.19882 0 6 1.19882 1
gene 3 7 8 -0.019512 0 7 -0.019512 1
gene 1 2 10 0.17174 0 10 0.17174 1
gene 1 10 8 -0.270343 0 11 -0.270343 1
gene 1 3 10 -0.915927 0 18 -0.915927 1
gene 2 4 10 0.606976 0 22 0.606976 0
gene 2 4 20 -5.28619 0 43 -5.28619 1
gene 2 20 10 -1.47032 0 44 -1.47032 1
gene 1 5 20 -0.522445 0 51 0 1
gene 1 3 20 -0.57644 0 70 0 1
genomeend 2684

/* Organism #2909 Fitness: 3405 Error: 0 */
genomestart 2909
trait 1 0.1 0 0 0 0 0.451416 0.20877 0 
trait 2 0.2 0.061356 0 0 0 0 0 0 
trait 3 0.924383 0 0 0 0.857846 0 0.824086 0.256942 
node 1 3 1 1
node 2 2 1 1
node 3 1 1 1
node 4 3 1 1
node 5 3 1 1
node 6 1 1 1
node 7 1 1 3
node 8 2 0 2
node 10 1 0 0
node 20 1 0 0
gene 1 1 8 -0.190108 0 1 -0.190108 1
gene 3 2 8 -4.0958 0 2 -4.0958 0
gene 3 3 8 -5.14685 0 3 -5.14685 1
gene 2 4 8 -6.06162 0 4 -6.06162 1
gene 2 5 8 1.94085 0 5 1.94085 1
gene 2 6 8 1.19882 0 6 1.19882 1
gene 3 7 8 -0.019512 0 7 -0.019512 1
gene 1 2 10 0.17174 0 10 0.17174 1
gene 1 10 8 -0.270343 0 11 -0.270343 1
gene 1 3 10 -0.915927 0 18 -0.915927 1
gene 2 4 10 0.606976 0 22 0.606976 0
gene 2 4 20 -5.28619 0 43 -5.28619 1
gene 2 20 10 -1.47032 0 44 -1.47032 1
gene 1 5 20 -0.522445 0 51 0 1
gene 1 3 20 -0.57644 0 70 0 1
genomeend 2909

/* Organism #3098 Fitness: 3405 Error: 0 */
genomestart 3098
trait 1 1 0 0.325831 0 0 1 0.534009 0 
trait 2 0.2 0.061674 0 0 0 0 0 0 
trait 3 0.924497 0 0 0 0.857846 0 0.824187 0.256942 
node 1 3 1 1
node 2 2 1 1
node 3 1 1 1
node 4 3 1 1
node 5 3 1 1
node 6 1 1 1
node 7 1 1 3
node 8 1 0 2
node 10 1 0 0
node 20 1 0 0
gene 1 1 8 -0.190108 0 1 -0.190108 1
gene 3 2 8 -4.0958 0 2 -4.0958 0
gene 3 3 8 -5.14685 0 3 -5.14685 1
gene 2 4 8 -6.06162 0 4 -6.06162 1
gene 2 5 8 1.94085 0 5 1.94085 1
gene 2 6 8 1.19882 0 6 1.19882 1
gene 3 7 8 -0.019512 0 7 -0.019512 1
gene 1 2 10 0.17174 0 10 0.17174 1
gene 1 10 8 -0.270343 0 11 -0.270343 1
gene 1 3 10 -0.915927 0 18 -0.915927 1
gene 2 4 10 0.606976 0 22 0.606976 0
gene 2 4 20 -5.28619 0 43 -5.28619 1
gene 2 20 10 -1.47032 0 44 -1.47032 1
gene 1 5 20 -0.522445 0 51 0 1
gene 1 3 20 -0.57644 0 70 0 1
genomeend 3098

/* Organism #3045 Fitness: 3405 Error: 0 */
genomestart 3045
trait 1 0.1 0 0.651662 0 0 1 0 0 
trait 2 0.2 0.0610381 0 0 0 0 0 0 
trait 3 0.92427 0 0 0 0.857846 0 0.823984 0.256942 
node 1 3 1 1
node 2 2 1 1
node 3 1 1 1
node 4 3 1 1
node 5 3 1 1
node 6 1 1 1
node 7 1 1 3
node 8 1 0 2
node 10 1 0 0
node 20 1 0 0
gene 1 1 8 -0.190108 0 1 -0.190108 1
gene 3 2 8 -4.0958 0 2 -4.0958 0
gene 3 3 8 -5.14685 0 3 -5.14685 1
gene 2 4 8 -6.06162 0 4 -6.06162 1
gene 2 5 8 1.94085 0 5 1.94085 1
gene 2 6 8 1.19882 0 6 1.19882 1
gene 3 7 8 -0.019512 0 7 -0.019512 1
gene 1 2 10 0.17174 0 10 0.17174 1
gene 1 10 8 -0.270343 0 11 -0.270343 1
gene 1 3 10 -0.915927 0 18 -0.915927 1
gene 2 4 10 0.606976 0 22 0.606976 0
gene 2 4 20 -5.28619 0 43 -5.28619 1
gene 2 20 10 -1.47032 0 44 -1.47032 1
gene 1 5 20 -0.522445 0 51 0 1
gene 1 3 20 -0.57644 0 70 0 1
genomeend 3045

/* Organism #3053 Fitness: 3405 Error: 0 */
genomestart 3053
trait 1 0.1 0 0.325831 0 0 0.71496 0.0994143 0 
trait 2 0.2 0.061674 0 0 0 0 0 0 
trait 3 0.924497 0 0 0 0.857846 0 0.824187 0.256942 
node 1 3 1 1
node 2 2 1 1
node 3 1 1 1
node 4 3 1 1
node 5 3 1 1
node 6 1 1 1
node 7 1 1 3
node 8 1 0 2
node 10 1 0 0
node 20 1 0 0
gene 1 1 8 -0.190108 0 1 -0.190108 1
gene 3 2 8 -4.0958 0 2 -4.0958 0
gene 3 3 8 -5.14685 0 3 -5.14685 1
gene 2 4 8 -6.06162 0 4 -6.06162 1
gene 2 5 8 1.94085 0 5 1.94085 1
gene 2 6 8 1.19882 0 6 1.19882 1
gene 3 7 8 -0.019512 0 7 -0.019512 1
gene 1 2 10 0.17174 0 10 0.17174 1
gene 1 10 8 -0.270343 0 11 -0.270343 1
gene 1 3 10 -0.915927 0 18 -0.915927 1
gene 2 4 10 0.606976 0 22 0.606976 0
gene 2 4 20 -5.28619 0 43 -5.28619 1
gene 2 20 10 -1.47032 0 44 -1.47032 1
gene 1 5 20 -0.522445 0 51 0 1
gene 1 3 20 -0.57644 0 70 0 1
genomeend 3053

/* Organism #2671 Fitness: 3397 Error: 0 */
genomestart 2671
trait 1 0.1 0 0 0 0 0.458581 0.212084 0 
trait 2 0.2 0.0610381 0 0 0 0 0 0 
trait 3 0.92427 0 0 0 0.857846 0 0.823984 0.256942 
node 1 3 1 1
node 2 2 1 1
node 3 1 1 1
node 4 3 1 1
node 5 3 1 1
node 6 1 1 1
node 7 1 1 3
node 8 1 0 2
node 10 1 0 0
node 20 1 0 0
gene 1 1 8 -0.190108 0 1 -0.190108 1
gene 1 2 8 -4.0958 0 2 -4.0958 0
gene 3 3 8 -5.14685 0 3 -5.14685 1
gene 2 4 8 -6.06162 0 4 -6.06162 1
gene 2 5 8 1.94085 0 5 1.94085 1
gene 2 6 8 1.19882 0 6 1.19882 1
gene 3 7 8 -0.019512 0 7 -0.019512 1
gene 1 2 10 0.17174 0 10 0.17174 1
gene 1 10 8 -0.270343 0 11 -0.270343 1
gene 1 3 10 -0.915927 0 18 -0.915927 1
gene 2 4 10 0.606976 0 22 0.606976 0
gene 1 6 10 -0.205699 0 26 0 1
gene 2 4 20 -5.28619 0 43 -5.28619 1
gene 2 20 10 -1.47032 0 44 -1.47032 1
gene 1 5 20 -0.522445 0 51 0 1
gene 1 3 20 -0.57644 0 70 0 1
genomeend 2671

/* Organism #3152 Fitness: 3396 Error: 0 */
genomestart 3152
trait 1 0.1 0 0 0 0 0.114645 0.053021 0 
trait 2 0.156477 0.0152595 0 0.0794479 0.633265 0 0 0 
trait 3 0.918811 0 0 0 0.857846 0 0.819118 0.256942 
node 1 3 1 1
node 2 2 1 1
node 3 1 1 1
node 4 3 1 1
node 5 3 1 1
node 6 1 1 1
node 7 1 1 3
node 8 1 0 2
node 10 1 0 0
node 20 1 0 0
gene 1 1 8 -0.190108 0 1 -0.190108 1
gene 1 2 8 -4.0958 0 2 -4.0958 0
gene 3 3 8 -5.14685 0 3 -5.14685 1
gene 2 4 8 -6.06162 0 4 -6.06162 1
gene 2 5 8 1.94085 0 5 1.94085 1
gene 2 6 8 1.19882 0 6 1.19882 1
gene 3 7 8 -0.019512 0 7 -0.019512 1
gene 1 2 10 0.17174 0 10 0.17174 1
gene 1 10 8 -0.270343 0 11 -0.270343 1
gene 1 3 10 -0.915927 0 18 -0.915927 0
gene 2 4 10 0.606976 0 22 0.606976 0
gene 3 5 10 -0.920893 0 25 0 1
gene 1 6 10 -0.205699 0 26 0 1
gene 2 4 20 -5.28619 0 43 -5.28619 1
gene 2 20 10 -1.47032 0 44 -1.47032 1
gene 1 5 20 -0.522445 0 51 0 1
gene 1 3 20 -0.57644 0 70 0 1
genomeend 3152

/* Organism #3168 Fitness: 3396 Error: 0 */
genomestart 3168
trait 1 0.1 0 0 0 0 0.114645 0.053021 0 
trait 2 0.0768566 0.187928 0 0.26201 0.633265 0 0 0 
trait 3 0.918811 0 0 0 0.857846 0 0.819118 0.256942 
node 1 3 1 1
node 2 2 1 1
node 3 3 1 1
node 4 3 1 1
node 5 3 1 1
node 6 1 1 1
node 7 1 1 3
node 8 1 0 2
node 10 1 0 0
node 20 1 0 0
gene 1 1 8 -0.190108 0 1 -0.190108 1
gene 1 2 8 -4.0958 0 2 -4.0958 0
gene 3 3 8 -5.14685 0 3 -5.14685 1
gene 2 4 8 -6.06162 0 4 -6.06162 1
gene 2 5 8 1.94085 0 5 1.94085 1
gene 2 6 8 1.19882 0 6 1.19882 1
gene 3 7 8 -0.019512 0 7 -0.019512 1
gene 1 2 10 0.17174 0 10 0.17174 1
gene 1 10 8 -0.270343 0 11 -0.270343 1
gene 1 3 10 -0.915927 0 18 -0.915927 0
gene 2 4 10 0.606976 0 22 0.606976 0
gene 3 5 10 -0.920893 0 25 0 1
gene 1 6 10 -0.205699 0 26 0 1
gene 2 4 20 -5.28619 0 43 -5.28619 1
gene 2 20 10 -1.47032 0 44 -1.47032 1
gene 1 5 20 -0.522445 0 51 0 1
gene 1 3 20 -0.57644 0 70 0 1
genomeend 3168

/* Organism #2924 Fitness: 3388 Error: 0 */
genomestart 2924
trait 1 0.1 0 0 0 0 0.343936 0.159063 0 
trait 2 0.2 0.0661247 0 0 0 0 0 0 
trait 3 0.926089 0 0 0 0.857846 0 0.825606 0.256942 
node 1 3 1 1
node 2 2 1 1
node 3 1 1 1
node 4 3 1 1
node 5 3 1 1
node 6 1 1 1
node 7 1 1 3
node 8 1 0 2
node 10 1 0 0
node 20 1 0 0
gene 1 1 8 -0.190108 0 1 -0.190108 1
gene 3 2 8 -4.0958 0 2 -4.0958 0
gene 3 3 8 -5.14685 0 3 -5.14685 1
gene 2 4 8 -6.06162 0 4 -6.06162 1
gene 2 5 8 1.94085 0 5 1.94085 1
gene 2 6 8 1.19882 0 6 1.19882 1
gene 3 7 8 -0.019512 0 7 -0.019512 1
gene 1 2 10 0.17174 0 10 0.17174 1
gene 1 10 8 -0.270343 0 11 -0.270343 1
gene 1 3 10 -0.915927 0 18 -0.915927 1
gene 2 4 10 0.606976 0 22 0.606976 1
gene 2 4 20 -5.28619 0 43 -5.28619 1
gene 2 20 10 -1.47032 0 44 -1.47032 1
gene 1 3 20 -0.57644 0 70 0 1
genomeend 2924

/* Organism #2653 Fitness: 3387 Error: 0 */
genomestart 2653
trait 1 0.1 0.727848 0.539178 0.187055 0 0 0.334991 0 
trait 2 0.14197 0 0 0.105931 0.844354 0 0 0 
trait 3 0.916992 0 0 0 0.857846 0 0.817496 0.256942 
node 1 3 1 1
node 2 2 1 1
node 3 3 1 1
node 4 3 1 1
node 5 3 1 1
node 6 1 1 1
node 7 1 1 3
node 8 1 0 2
node 10 1 0 0
node 20 1 0 0
gene 1 1 8 -0.190108 0 1 -0.190108 1
gene 1 2 8 -4.0958 0 2 -4.0958 0
gene 2 3 8 -5.14685 0 3 -5.14685 1
gene 2 4 8 -6.06162 0 4 -6.06162 1
gene 2 5 8 1.94085 0 5 1.94085 1
gene 2 6 8 1.19882 0 6 1.19882 1
gene 3 7 8 -0.019512 0 7 -0.019512 1
gene 1 2 10 0.17174 0 10 0.17174 1
gene 1 10 8 -0.270343 0 11 -0.270343 1
gene 1 3 10 -0.915927 0 18 -0.915927 1
gene 2 4 10 0.606976 0 22 0.606976 1
gene 2 4 20 -5.28363 0 43 -5.28363 1
gene 2 20 10 -1.47032 0 44 -1.47032 1
gene 1 5 20 -0.522445 0 51 0 1
genomeend 2653

/* Organism #2614 Fitness: 3385 Error: 0 */
genomestart 2614
trait 1 0.1 0 0 0 0 0.171968 0.0795315 0 
trait 2 0.170985 0.0330623 0 0.0529653 0.422177 0 0 0 
trait 3 0.92154 0 0 0 0.857846 0 0.821551 0.256942 
node 1 3 1 1
node 2 2 1 1
node 3 1 1 1
node 4 3 1 1
node 5 3 1 1
node 6 1 1 1
node 7 1 1 3
node 8 1 0 2
node 10 1 0 0
node 20 2 0 0
gene 1 1 8 -0.190108 0 1 -0.190108 1
gene 1 2 8 -4.0958 0 2 -4.0958 0
gene 3 3 8 -5.14685 0 3 -5.14685 1
gene 2 4 8 -6.06162 0 4 -6.06162 1
gene 2 5 8 1.94085 0 5 1.94085 1
gene 2 6 8 1.19882 0 6 1.19882 1
gene 3 7 8 -0.019512 0 7 -0.019512 1
gene 1 2 10 0.17174 0 10 0.17174 1
gene 1 10 8 -0.270343 0 11 -0.270343 1
gene 1 3 10 -0.915927 0 18 -0.915927 1
gene 2 4 10 0.606976 0 22 0.606976 0
gene 2 4 20 -5.28619 0 43 -5.28619 1
gene 2 20 10 -1.47032 0 44 -1.47032 1
gene 1 3 20 -0.57644 0 70 0 1
genomeend 2614

/* Organism #2672 Fitness: 3385 Error: 0 */
genomestart 2672
trait 1 0.1 0 0 0 0 0.343936 0.159063 0 
trait 2 0.2 0.0661247 0 0 0 0 0 0 
trait 3 0.926089 0 0 0 0.857846 0 0.825606 0.256942 
node 1 3 1 1
node 2 2 1 1
node 3 1 1 1
node 4 3 1 1
node 5 3 1 1
node 6 1 1 1
node 7 1 1 3
node 8 1 0 2
node 10 1 0 0
node 20 1 0 0
gene 1 1 8 -0.190108 0 1 -0.190108 1
gene 1 2 8 -4.0958 0 2 -4.0958 0
gene 3 3 8 -5.14685 0 3 -5.14685 1
gene 2 4 8 -6.06162 0 4 -6.06162 1
gene 2 5 8 1.94085 0 5 1.94085 1
gene 2 6 8 1.19882 0 6 1.19882 1
gene 3 7 8 -0.019512 0 7 -0.019512 1
gene 1 2 10 0.17174 0 10 0.17174 1
gene 1 10 8 -0.270343 0 11 -0.270343 1
gene 1 3 10 -0.915927 0 18 -0.915927 1
gene 2 4 10 0.606976 0 22 0.606976 0
gene 2 4 20 -5.28619 0 43 -5.28619 1
gene 2 20 10 -1.47032 0 44 -1.47032 1
gene 1 3 20 -0.57644 0 70 0 1
genomeend 2672

/* Organism #2778 Fitness: 3385 Error: 0 */
genomestart 2778
trait 1 0.1 0 0 0 0 0.343936 0.159063 0 
trait 2 0.2 0.0661247 0 0 0 0 0 0 
trait 3 0.926089 0 0 0 0.857846 0 0.825606 0.256942 
node 1 3 1 1
node 2 2 1 1
node 3 1 1 1
node 4 3 1 1
node 5 3 1 1
node 6 1 1 1
node 7 1 1 3
node 8 1 0 2
node 10 1 0 0
node 20 1 0 0
gene 1 1 8 -0.190108 0 1 -0.190108 1
gene 3 2 8 -4.0958 0 2 -4.0958 0
gene 3 3 8 -5.14685 0 3 -5.14685 1
gene 2 4 8 -6.06162 0 4 -6.06162 1
gene 2 5 8 1.94085 0 5 1.94085 1
gene 2 6 8 1.19882 0 6 1.19882 1
gene 3 7 8 -0.019512 0 7 -0.019512 1
gene 1 2 10 0.17174 0 10 0.17174 1
gene 1 10 8 -0.270343 0 11 -0.270343 1
gene 1 3 10 -0.915927 0 18 -0.915927 1
gene 2 4 10 0.606976 0 22 0.606976 0
gene 2 4 20 -5.28619 0 43 -5.28619 1
gene 2 20 10 -1.47032 0 44 -1.47032 1
gene 1 3 20 -0.57644 0 70 0 1
genomeend 2778

/* Organism #2646 Fitness: 3385 Error: 0 */
genomestart 2646
trait 1 0.1 0 0 0 0 0.343936 0.159063 0 
trait 2 0.2 0.0661247 0 0 0 0 0 0 
trait 3 0.926089 0 0 0 0.857846 0 0.825606 0.256942 
node 1 3 1 1
node 2 2 1 1
node 3 1 1 1
node 4 3 1 1
node 5 3 1 1
node 6 1 1 1
node 7 1 1 3
node 8 1 0 2
node 10 1 0 0
node 20 2 0 0
gene 1 1 8 -0.190108 0 1 -0.190108 1
gene 1 2 8 -4.0958 0 2 -4.0958 0
gene 3 3 8 -5.14685 0 3 -5.14685 1
gene 2 4 8 -6.06162 0 4 -6.06162 1
gene 2 5 8 1.94085 0 5 1.94085 1
gene 2 6 8 1.19882 0 6 1.19882 1
gene 3 7 8 -0.019512 0 7 -0.019512 1
gene 1 2 10 0.17174 0 10 0.17174 1
gene 1 10 8 -0.270343 0 11 -0.270343 1
gene 1 3 10 -0.915927 0 18 -0.915927 1
gene 2 4 10 0.606976 0 22 0.606976 0
gene 2 4 20 -5.28619 0 43 -5.28619 1
gene 2 20 10 -1.47032 0 44 -1.47032 1
gene 1 3 20 -0.57644 0 70 0 1
genomeend 2646

/* Organism #2663 Fitness: 3385 Error: 0 */
genomestart 2663
trait 1 0.1 0 0 0 0 0.401258 0.185573 0 
trait 2 0.2 0.0635814 0 0 0 0 0 0 
trait 3 0.925179 0 0 0 0.857846 0 0.824795 0.256942 
node 1 3 1 1
node 2 2 1 1
node 3 1 1 1
node 4 3 1 1
node 5 3 1 1
node 6 1 1 1
node 7 1 1 3
node 8 1 0 2
node 10 1 0 0
node 20 2 0 0
gene 1 1 8 -0.190108 0 1 -0.190108 1
gene 3 2 8 -4.0958 0 2 -4.0958 0
gene 3 3 8 -5.14685 0 3 -5.14685 1
gene 2 4 8 -6.06162 0 4 -6.06162 1
gene 2 5 8 1.94085 0 5 1.94085 1
gene 2 6 8 1.19882 0 6 1.19882 1
gene 3 7 8 -0.019512 0 7 -0.019512 1
gene 1 2 10 0.17174 0 10 0.17174 1
gene 1 10 8 -0.270343 0 11 -0.270343 1
gene 1 3 10 -0.915927 0 18 -0.915927 1
gene 2 4 10 0.606976 0 22 0.606976 0
gene 2 4 20 -5.28619 0 43 -5.28619 1
gene 2 20 10 -1.47032 0 44 -1.47032 1
gene 1 3 20 -0.57644 0 70 0 1
genomeend 2663

/* Organism #3005 Fitness: 3385 Error: 0 */
genomestart 3005
trait 1 0.1 0 0 0 0 0.397676 0.183916 0 
trait 2 0.2 0.0637404 0 0 0 0 0 0 
trait 3 0.925236 0 0 0 0.857846 0 0.824846 0.256942 
node 1 3 1 1
node 2 2 1 1
node 3 1 1 1
node 4 3 1 1
node 5 3 1 1
node 6 1 1 1
node 7 1 1 3
node 8 2 0 2
node 10 1 0 0
node 20 1 0 0
gene 1 1 8 -0.190108 0 1 -0.190108 1
gene 3 2 8 -4.0958 0 2 -4.0958 0
gene 3 3 8 -5.14685 0 3 -5.14685 1
gene 2 4 8 -6.06162 0 4 -6.06162 1
gene 2 5 8 1.94085 0 5 1.94085 1
gene 2 6 8 1.19882 0 6 1.19882 1
gene 3 7 8 -0.019512 0 7 -0.019512 1
gene 1 2 10 0.17174 0 10 0.17174 1
gene 1 10 8 -0.270343 0 11 -0.270343 1
gene 1 3 10 -0.915927 0 18 -0.915927 1
gene 2 4 10 0.606976 0 22 0.606976 0
gene 2 4 20 -5.28619 0 43 -5.28619 1
gene 2 20 10 -1.47032 0 44 -1.47032 1
gene 1 3 20 -0.57644 0 70 0 1
genomeend 3005

/* Organism #3018 Fitness: 3385 Error: 0 */
genomestart 3018
trait 1 0.1 0.181962 0.134795 0.0467637 0 0.315274 0.229555 0 
trait 2 0.185492 0.0470502 0 0.0264826 0.211088 0 0 0 
trait 3 0.922905 0 0 0 0.857846 0 0.822768 0.256942 
node 1 3 1 1
node 2 2 1 1
node 3 1 1 1
node 4 3 1 1
node 5 3 1 1
node 6 1 1 1
node 7 1 1 3
node 8 1 0 2
node 10 1 0 0
node 20 2 0 0
gene 1 1 8 -0.190108 0 1 -0.190108 1
gene 3 2 8 -4.0958 0 2 -4.0958 0
gene 3 3 8 -5.14685 0 3 -5.14685 1
gene 2 4 8 -6.06162 0 4 -6.06162 1
gene 2 5 8 1.94085 0 5 1.94085 1
gene 2 6 8 1.19882 0 6 1.19882 1
gene 3 7 8 -0.019512 0 7 -0.019512 1
gene 1 2 10 0.17174 0 10 0.17174 1
gene 1 10 8 -0.270343 0 11 -0.270343 1
gene 1 3 10 -0.915927 0 18 -0.915927 1
gene 2 4 10 0.606976 0 22 0.606976 0
gene 2 4 20 -5.28619 0 43 -5.28619 1
gene 2 20 10 -1.47032 0 44 -1.47032 1
gene 1 3 20 -0.57644 0 70 0 1
genomeend 3018

/* Organism #2666 Fitness: 3385 Error: 0 */
genomestart 2666
trait 1 0.1 0 0 0 0 0.401258 0.185573 0 
trait 2 0.2 0.0635814 0 0 0 0 0 0 
trait 3 0.925179 0 0 0 0.857846 0 0.824795 0.256942 
node 1 3 1 1
node 2 2 1 1
node 3 1 1 1
node 4 3 1 1
node 5 3 1 1
node 6 1 1 1
node 7 1 1 3
node 8 1 0 2
node 10 1 0 0
node 20 1 0 0
gene 1 1 8 -0.190108 0 1 -0.190108 1
gene 1 2 8 -4.0958 0 2 -4.0958 0
gene 3 3 8 -5.14685 0 3 -5.14685 1
gene 2 4 8 -6.06162 0 4 -6.06162 1
gene 2 5 8 1.94085 0 5 1.94085 1
gene 2 6 8 1.19882 0 6 1.19882 1
gene 3 7 8 -0.019512 0 7 -0.019512 1
gene 1 2 10 0.17174 0 10 0.17174 1
gene 1 10 8 -0.270343 0 11 -0.270343 1
gene 1 3 10 -0.915927 0 18 -0.915927 1
gene 2 4 10 0.606976 0 22 0.606976 0
gene 2 4 20 -5.28619 0 43 -5.28619 1
gene 2 20 10 -1.47032 0 44 -1.47032 1
gene 1 3 20 -0.57644 0 70 0 1
genomeend 2666

/* Organism #2743 Fitness: 3385 Error: 0 */
genomestart 2743
trait 1 0.1 0.363924 0.269589 0.0935273 0 0.085984 0.207261 0 
trait 2 0.156477 0.0165312 0 0.0794479 0.633265 0 0 0 
trait 3 0.919266 0 0 0 0.857846 0 0.819524 0.256942 
node 1 3 1 1
node 2 2 1 1
node 3 1 1 1
node 4 3 1 1
node 5 3 1 1
node 6 1 1 1
node 7 1 1 3
node 8 1 0 2
node 10 1 0 0
node 20 2 0 0
gene 1 1 8 -0.190108 0 1 -0.190108 1
gene 1 2 8 -4.0958 0 2 -4.0958 0
gene 2 3 8 -5.14685 0 3 -5.14685 1
gene 2 4 8 -6.06162 0 4 -6.06162 1
gene 2 5 8 1.94085 0 5 1.94085 1
gene 2 6 8 1.19882 0 6 1.19882 1
gene 3 7 8 -0.019512 0 7 -0.019512 1
gene 1 2 10 0.17174 0 10 0.17174 1
gene 1 10 8 -0.270343 0 11 -0.270343 1
gene 1 3 10 -0.915927 0 18 -0.915927 1
gene 2 4 10 0.606976 0 22 0.606976 0
gene 2 4 20 -5.28491 0 43 -5.28491 1
gene 2 20 10 -1.47032 0 44 -1.47032 1
gene 1 3 20 -0.57644 0 70 0 1
genomeend 2743

/* Organism #3020 Fitness: 3385 Error: 0 */
genomestart 3020
trait 1 0.1 0 0 0 0 0.415589 0.192201 0 
trait 2 0.2 0.0629456 0 0 0 0 0 0 
trait 3 0.47999 0 0 0 0.857846 0 0.824593 0.256942 
node 1 3 1 1
node 2 2 1 1
node 3 1 1 1
node 4 3 1 1
node 5 3 1 1
node 6 1 1 1
node 7 1 1 3
node 8 1 0 2
node 10 1 0 0
node 20 2 0 0
gene 1 1 8 -0.190108 0 1 -0.190108 1
gene 3 2 8 -4.0958 0 2 -4.0958 0
gene 3 3 8 -5.14685 0 3 -5.14685 1
gene 2 4 8 -6.06162 0 4 -6.06162 1
gene 2 5 8 1.94085 0 5 1.94085 1
gene 2 6 8 1.19882 0 6 1.19882 1
gene 3 7 8 -0.019512 0 7 -0.019512 1
gene 1 2 10 0.17174 0 10 0.17174 1
gene 1 10 8 -0.270343 0 11 -0.270343 1
gene 1 3 10 -0.915927 0 18 -0.915927 1
gene 2 4 10 0.606976 0 22 0.606976 0
gene 2 4 20 -5.28619 0 43 -5.28619 1
gene 2 20 10 -1.47032 0 44 -1.47032 1
gene 1 3 20 -0.57644 0 70 0 1
genomeend 3020

/* Organism #2931 Fitness: 3385 Error: 0 */
genomestart 2931
trait 1 0.1 0 0 0 0 0.401258 0.185573 0 
trait 2 0.2 0.0635814 0 0 0 0 0 0 
trait 3 0.925179 0 0 0 0.857846 0 0.824795 0.256942 
node 1 3 1 1
node 2 2 1 1
node 3 1 1 1
node 4 3 1 1
node 5 3 1 1
node 6 1 1 1
node 7 1 1 3
node 8 1 0 2
node 10 1 0 0
node 20 1 0 0
gene 1 1 8 -0.190108 0 1 -0.190108 1
gene 3 2 8 -4.0958 0 2 -4.0958 0
gene 3 3 8 -5.14685 0 3 -5.14685 1
gene 2 4 8 -6.06162 0 4 -6.06162 1
gene 2 5 8 1.94085 0 5 1.94085 1
gene 2 6 8 1.19882 0 6 1.19882 1
gene 3 7 8 -0.019512 0 7 -0.019512 1
gene 1 2 10 0.17174 0 10 0.17174 1
gene 1 10 8 -0.270343 0 11 -0.270343 1
gene 1 3 10 -0.915927 0 18 -0.915927 1
gene 2 4 10 0.606976 0 22 0.606976 0
gene 2 4 20 -5.28619 0 43 -5.28619 1
gene 2 20 10 -1.47032 0 44 -1.47032 1
gene 1 3 20 -0.57644 0 70 0 1
genomeend 2931

/* Organism #2946 Fitness: 3385 Error: 0 */
genomestart 2946
trait 1 0.1 0 0 0 0 0.394093 0.18226 0 
trait 2 0.2 0.0638993 0 0 0 0 0 0 
trait 3 0.925293 0 0 0 0.857846 0 0.824897 0.256942 
node 1 3 1 1
node 2 2 1 1
node 3 1 1 1
node 4 3 1 1
node 5 3 1 1
node 6 1 1 1
node 7 1 1 3
node 8 1 0 2
node 10 1 0 0
node 20 1 0 0
gene 1 1 8 -0.190108 0 1 -0.190108 1
gene 1 2 8 -4.0958 0 2 -4.0958 0
gene 3 3 8 -5.14685 0 3 -5.14685 1
gene 2 4 8 -6.06162 0 4 -6.06162 1
gene 2 5 8 1.94085 0 5 1.94085 1
gene 2 6 8 1.19882 0 6 1.19882 1
gene 3 7 8 -0.019512 0 7 -0.019512 1
gene 1 2 10 0.17174 0 10 0.17174 1
gene 1 10 8 -0.270343 0 11 -0.270343 1
gene 1 3 10 -0.915927 0 18 -0.915927 1
gene 2 4 10 0.606976 0 22 0.606976 0
gene 2 4 20 -5.28619 0 43 -5.28619 1
gene 2 20 10 -1.47032 0 44 -1.47032 1
gene 1 3 20 -0.57644 0 70 0 1
genomeend 2946

/* Organism #2899 Fitness: 3385 Error: 0 */
genomestart 2899
trait 1 0.1 0 0 0 0 0.422754 0.195515 0 
trait 2 0.2 0.0626277 0 0 0 0 0 0 
trait 3 0.479876 0 0 0 0.857846 0 0.824491 0.256942 
node 1 3 1 1
node 2 2 1 1
node 3 1 1 1
node 4 3 1 1
node 5 3 1 1
node 6 1 1 1
node 7 1 1 3
node 8 1 0 2
node 10 1 0 0
node 20 2 0 0
gene 1 1 8 -0.190108 0 1 -0.190108 1
gene 1 2 8 -4.0958 0 2 -4.0958 0
gene 3 3 8 -5.14685 0 3 -5.14685 1
gene 2 4 8 -6.06162 0 4 -6.06162 1
gene 2 5 8 1.94085 0 5 1.94085 1
gene 2 6 8 1.19882 0 6 1.19882 1
gene 3 7 8 -0.019512 0 7 -0.019512 1
gene 1 2 10 0.17174 0 10 0.17174 1
gene 1 10 8 -0.270343 0 11 -0.270343 1
gene 1 3 10 -0.915927 0 18 -0.915927 1
gene 2 4 10 0.606976 0 22 0.606976 0
gene 2 4 20 -5.28619 0 43 -5.28619 1
gene 2 20 10 -1.47032 0 44 -1.47032 1
gene 1 3 20 -0.57644 0 70 0 1
genomeend 2899

/* Organism #2934 Fitness: 3385 Error: 0 */
genomestart 2934
trait 1 0.1 0 0 0 0 0.415589 0.192201 0 
trait 2 0.2 0.0629456 0 0 0 0 0 0 
trait 3 0.924952 0 0 0 0.857846 0 0.824593 0.256942 
node 1 3 1 1
node 2 2 1 1
node 3 1 1 1
node 4 3 1 1
node 5 3 1 1
node 6 1 1 1
node 7 1 1 3
node 8 1 0 2
node 10 1 0 0
node 20 2 0 0
gene 1 1 8 -0.190108 0 1 -0.190108 1
gene 3 2 8 -4.0958 0 2 -4.0958 0
gene 3 3 8 -5.14685 0 3 -5.14685 1
gene 2 4 8 -6.06162 0 4 -6.06162 1
gene 2 5 8 1.94085 0 5 1.94085 1
gene 2 6 8 1.19882 0 6 1.19882 1
gene 3 7 8 -0.019512 0 7 -0.019512 1
gene 1 2 10 0.17174 0 10 0.17174 1
gene 1 10 8 -0.270343 0 11 -0.270343 1
gene 1 3 10 -0.915927 0 18 -0.915927 1
gene 2 4 10 0.606976 0 22 0.606976 0
gene 2 4 20 -5.28619 0 43 -5.28619 1
gene 2 20 10 -1.47032 0 44 -1.47032 1
gene 1 3 20 -0.57644 0 70 0 1
genomeend 2934

/* Organism #2725 Fitness: 3385 Error: 0 */
genomestart 2725
trait 1 0.1 0 0 0 0 0.42992 0.198829 0 
trait 2 0.2 0.0623098 0 0 0 0 0 0 
trait 3 1 0 0 0.254634 0.857846 0 0.82439 0.256942 
node 1 3 1 1
node 2 2 1 1
node 3 1 1 1
node 4 3 1 1
node 5 3 1 1
node 6 1 1 1
node 7 1 1 3
node 8 1 0 2
node 10 1 0 0
node 20 1 0 0
gene 1 1 8 -0.190108 0 1 -0.190108 1
gene 3 2 8 -4.0958 0 2 -4.0958 0
gene 3 3 8 -5.14685 0 3 -5.14685 1
gene 2 4 8 -6.06162 0 4 -6.06162 1
gene 2 5 8 1.94085 0 5 1.94085 1
gene 2 6 8 1.19882 0 6 1.19882 1
gene 3 7 8 -0.019512 0 7 -0.019512 1
gene 1 2 10 0.17174 0 10 0.17174 1
gene 1 10 8 -0.270343 0 11 -0.270343 1
gene 1 3 10 -0.915927 0 18 -0.915927 1
gene 2 4 10 0.606976 0 22 0.606976 0
gene 2 4 20 -5.28619 0 43 -5.28619 1
gene 2 20 10 -1.47032 0 44 -1.47032 1
gene 1 3 20 -0.57644 0 70 0 1
genomeend 2725

/* Organism #2845 Fitness: 3385 Error: 0 */
genomestart 2845
trait 1 0.1 0.363924 0.269589 0.0935273 0 0.200629 0.260282 0 
trait 2 0.170985 0.0317907 0 0.0529653 0.422177 0 0 0 
trait 3 0.921086 0 0 0 0.857846 0 0.821146 0.256942 
node 1 3 1 1
node 2 2 1 1
node 3 1 1 1
node 4 3 1 1
node 5 3 1 1
node 6 1 1 1
node 7 1 1 3
node 8 1 0 2
node 10 1 0 0
node 20 1 0 0
gene 1 1 8 -0.190108 0 1 -0.190108 1
gene 1 2 8 -4.0958 0 2 -4.0958 0
gene 3 3 8 -5.14685 0 3 -5.14685 1
gene 2 4 8 -6.06162 0 4 -6.06162 1
gene 2 5 8 1.94085 0 5 1.94085 1
gene 2 6 8 1.19882 0 6 1.19882 1
gene 3 7 8 -0.019512 0 7 -0.019512 1
gene 1 2 10 0.17174 0 10 0.17174 1
gene 1 10 8 -0.270343 0 11 -0.270343 1
gene 1 3 10 -0.915927 0 18 -0.915927 1
gene 2 4 10 0.606976 0 22 0.606976 0
gene 2 4 20 -5.28491 0 43 -5.28491 1
gene 2 20 10 -1.47032 0 44 -1.47032 1
gene 1 3 20 -0.57644 0 70 0 1
genomeend 2845

/* Organism #2971 Fitness: 3385 Error: 0 */
genomestart 2971
trait 1 0.1 0.090981 0.393228 0.0233818 0 0.614645 0.0948948 0 
trait 2 0.192746 0 0 0.0132413 0.105544 0 0 0 
trait 3 0.92245 0 0 0 0.857846 0 0.822362 0.256942 
node 1 3 1 1
node 2 2 1 1
node 3 1 1 1
node 4 3 1 1
node 5 3 1 1
node 6 1 1 1
node 7 1 1 3
node 8 1 0 2
node 10 1 0 0
node 20 1 0 0
gene 1 1 8 -0.190108 0 1 -0.190108 1
gene 1 2 8 -4.0958 0 2 -4.0958 0
gene 2 3 8 -5.14685 0 3 -5.14685 1
gene 2 4 8 -6.06162 0 4 -6.06162 1
gene 2 5 8 1.94085 0 5 1.94085 1
gene 2 6 8 1.19882 0 6 1.19882 1
gene 3 7 8 -0.019512 0 7 -0.019512 1
gene 1 2 10 0.17174 0 10 0.17174 1
gene 1 10 8 -0.270343 0 11 -0.270343 1
gene 1 3 10 -0.915927 0 18 -0.915927 1
gene 2 4 10 0.606976 0 22 0.606976 0
gene 2 4 20 -5.28491 0 43 -5.28491 1
gene 2 20 10 -1.47032 0 44 -1.47032 1
gene 1 3 20 -0.57644 0 70 0 1
genomeend 2971

/* Organism #2726 Fitness: 3385 Error: 0 */
genomestart 2726
trait 1 0.1 0 0 0 0 0.42992 0.198829 0 
trait 2 0.2 0.0623098 0 0 0 0 0 0 
trait 3 0.479762 0 0 0 0.857846 0 0.82439 0.256942 
node 1 3 1 1
node 2 2 1 1
node 3 1 1 1
node 4 3 1 1
node 5 3 1 1
node 6 1 1 1
node 7 1 1 3
node 8 1 0 2
node 10 1 0 0
node 20 2 0 0
gene 1 1 8 -0.190108 0 1 -0.190108 1
gene 1 2 8 -4.0958 0 2 -4.0958 0
gene 3 3 8 -5.14685 0 3 -5.14685 1
gene 2 4 8 -6.06162 0 4 -6.06162 1
gene 2 5 8 1.94085 0 5 1.94085 1
gene 2 6 8 1.19882 0 6 1.19882 1
gene 3 7 8 -0.019512 0 7 -0.019512 1
gene 1 2 10 0.17174 0 10 0.17174 1
gene 1 10 8 -0.270343 0 11 -0.270343 1
gene 1 3 10 -0.915927 0 18 -0.915927 1
gene 2 4 10 0.606976 0 22 0.606976 0
gene 2 4 20 -5.28619 0 43 -5.28619 1
gene 2 20 10 -1.47032 0 44 -1.47032 1
gene 1 3 20 -0.57644 0 70 0 1
genomeend 2726

/* Organism #2843 Fitness: 3385 Error: 0 */
genomestart 2843
trait 1 0.1 0.181962 0.134795 0.0467637 0 0.272283 0.209672 0 
trait 2 0.178239 0.0387847 0 0.039724 0.316633 0 0 0 
trait 3 0.921768 0 0 0 0.857846 0 0.821754 0.256942 
node 1 3 1 1
node 2 2 1 1
node 3 1 1 1
node 4 3 1 1
node 5 3 1 1
node 6 1 1 1
node 7 1 1 3
node 8 1 0 2
node 10 1 0 0
node 20 2 0 0
gene 1 1 8 -0.190108 0 1 -0.190108 1
gene 3 2 8 -4.0958 0 2 -4.0958 0
gene 2 3 8 -5.14685 0 3 -5.14685 1
gene 2 4 8 -6.06162 0 4 -6.06162 1
gene 2 5 8 1.94085 0 5 1.94085 1
gene 2 6 8 1.19882 0 6 1.19882 1
gene 3 7 8 -0.019512 0 7 -0.019512 1
gene 1 2 10 0.17174 0 10 0.17174 1
gene 1 10 8 -0.270343 0 11 -0.270343 1
gene 1 3 10 -0.915927 0 18 -0.915927 1
gene 2 4 10 0.606976 0 22 0.606976 0
gene 2 4 20 -5.28555 0 43 -5.28555 1
gene 2 20 10 -1.47032 0 44 -1.47032 1
gene 1 3 20 -0.57644 0 70 0 1
genomeend 2843

/* Organism #2677 Fitness: 3385 Error: 0 */
genomestart 2677
trait 1 0.1 0 0 0 0 0.401258 0.185573 0 
trait 2 0.2 0.0635814 0 0 0 0 0 0 
trait 3 0.925179 0 0 0 0.857846 0 0.824795 0.256942 
node 1 3 1 1
node 2 2 1 1
node 3 1 1 1
node 4 3 1 1
node 5 3 1 1
node 6 1 1 1
node 7 1 1 3
node 8 1 0 2
node 10 1 0 0
node 20 1 0 0
gene 1 1 8 -0.190108 0 1 -0.190108 1
gene 3 2 8 -4.0958 0 2 -4.0958 0
gene 3 3 8 -5.14685 0 3 -5.14685 1
gene 2 4 8 -6.06162 0 4 -6.06162 1
gene 2 5 8 1.94085 0 5 1.94085 1
gene 2 6 8 1.19882 0 6 1.19882 1
gene 3 7 8 -0.019512 0 7 -0.019512 1
gene 1 2 10 0.17174 0 10 0.17174 1
gene 1 10 8 -0.270343 0 11 -0.270343 1
gene 1 3 10 -0.915927 0 18 -0.915927 1
gene 2 4 10 0.606976 0 22 0.606976 0
gene 2 4 20 -5.28619 0 43 -5.28619 1
gene 2 20 10 -1.47032 0 44 -1.47032 1
gene 1 3 20 -0.57644 0 70 0 1
genomeend 2677

/* Organism #2687 Fitness: 3385 Error: 0 */
genomestart 2687
trait 1 0.1 0 0 0 0 0.401258 0.185573 0 
trait 2 0.2 0.0635814 0 0 0 0 0 0 
trait 3 0.0352551 0 0 0 0.857846 0 0.824795 0.256942 
node 1 3 1 1
node 2 2 1 1
node 3 1 1 1
node 4 3 1 1
node 5 3 1 1
node 6 1 1 1
node 7 1 1 3
node 8 1 0 2
node 10 1 0 0
node 20 2 0 0
gene 1 1 8 -0.190108 0 1 -0.190108 1
gene 1 2 8 -4.0958 0 2 -4.0958 0
gene 3 3 8 -5.14685 0 3 -5.14685 1
gene 2 4 8 -6.06162 0 4 -6.06162 1
gene 2 5 8 1.94085 0 5 1.94085 1
gene 2 6 8 1.19882 0 6 1.19882 1
gene 3 7 8 -0.019512 0 7 -0.019512 1
gene 1 2 10 0.17174 0 10 0.17174 1
gene 1 10 8 -0.270343 0 11 -0.270343 1
gene 1 3 10 -0.915927 0 18 -0.915927 1
gene 2 4 10 0.606976 0 22 0.606976 0
gene 2 4 20 -5.28619 0 43 -5.28619 1
gene 2 20 10 -1.47032 0 44 -1.47032 1
gene 1 3 20 -0.57644 0 70 0 1
genomeend 2687

/* Organism #2589 Fitness: 3385 Error: 0 */
genomestart 2589
trait 1 0.1 0 0 0 0 0.343936 0.159063 0 
trait 2 0.2 0.0661247 0 0 0 0 0 0 
trait 3 0.926089 0 0 0 0.857846 0 0.825606 0.256942 
node 1 3 1 1
node 2 2 1 1
node 3 1 1 1
node 4 3 1 1
node 5 3 1 1
node 6 1 1 1
node 7 1 1 3
node 8 1 0 2
node 10 1 0 0
node 20 2 0 0
gene 1 1 8 -0.190108 0 1 -0.190108 1
gene 1 2 8 -4.0958 0 2 -4.0958 0
gene 3 3 8 -5.14685 0 3 -5.14685 1
gene 2 4 8 -6.06162 0 4 -6.06162 1
gene 2 5 8 1.94085 0 5 1.94085 1
gene 2 6 8 1.19882 0 6 1.19882 1
gene 3 7 8 -0.019512 0 7 -0.019512 1
gene 1 2 10 0.17174 0 10 0.17174 1
gene 1 10 8 -0.270343 0 11 -0.270343 1
gene 1 3 10 -0.915927 0 18 -0.915927 1
gene 2 4 10 0.606976 0 22 0.606976 0
gene 2 4 20 -5.28619 0 43 -5.28619 1
gene 2 20 10 -1.47032 0 44 -1.47032 1
gene 1 3 20 -0.57644 0 70 0 1
genomeend 2589

/* Organism #2404 Fitness: 3385 Error: 0 */
genomestart 2404
trait 1 0.1 0 0 0 0 0.458581 0.212084 0 
trait 2 0.2 0.0610381 0 0 0 0 0 0 
trait 3 0.92427 0 0 0 0.857846 0 0.823984 0.256942 
node 1 3 1 1
node 2 2 1 1
node 3 1 1 1
node 4 3 1 1
node 5 3 1 1
node 6 1 1 1
node 7 1 1 3
node 8 1 0 2
node 10 1 0 0
node 20 1 0 0
gene 1 1 8 -0.190108 0 1 -0.190108 1
gene 1 2 8 -4.0958 0 2 -4.0958 0
gene 3 3 8 -5.14685 0 3 -5.14685 1
gene 2 4 8 -6.06162 0 4 -6.06162 1
gene 2 5 8 1.94085 0 5 1.94085 1
gene 2 6 8 1.19882 0 6 1.19882 1
gene 3 7 8 -0.019512 0 7 -0.019512 1
gene 1 2 10 0.17174 0 10 0.17174 1
gene 1 10 8 -0.270343 0 11 -0.270343 1
gene 1 3 10 -0.915927 0 18 -0.915927 1
gene 2 4 10 0.606976 0 22 0.606976 0
gene 2 4 20 -5.28619 0 43 -5.28619 1
gene 2 20 10 -1.47032 0 44 -1.47032 1
gene 1 3 20 -0.57644 0 70 0 1
genomeend 2404

/* Organism #2945 Fitness: 3385 Error: 0 */
genomestart 2945
trait 1 0.1 0 0 0 0 0.401258 0.185573 0 
trait 2 0.192746 0.0534084 0 0.0132413 0.105544 0 0 0 
trait 3 0.92336 0 0 0 0.857846 0 0.823173 0.256942 
node 1 3 1 1
node 2 2 1 1
node 3 1 1 1
node 4 3 1 1
node 5 3 1 1
node 6 1 1 1
node 7 1 1 3
node 8 1 0 2
node 10 1 0 0
node 20 1 0 0
gene 1 1 8 -0.190108 0 1 -0.190108 1
gene 1 2 8 -4.0958 0 2 -4.0958 0
gene 3 3 8 -5.14685 0 3 -5.14685 1
gene 2 4 8 -6.06162 0 4 -6.06162 1
gene 2 5 8 1.94085 0 5 1.94085 1
gene 2 6 8 1.19882 0 6 1.19882 1
gene 3 7 8 -0.019512 0 7 -0.019512 1
gene 1 2 10 0.17174 0 10 0.17174 1
gene 1 10 8 -0.270343 0 11 -0.270343 1
gene 1 3 10 -0.915927 0 18 -0.915927 1
gene 2 4 10 0.606976 0 22 0.606976 0
gene 2 4 20 -5.28619 0 43 -5.28619 1
gene 2 20 10 -1.47032 0 44 -1.47032 1
gene 1 3 20 -0.57644 0 70 0 1
genomeend 2945

/* Organism #2863 Fitness: 3385 Error: 0 */
genomestart 2863
trait 1 0.1 0.181962 0.134795 0.0467637 0 0.272283 0.209672 0 
trait 2 0.178239 0.0387847 0 0.039724 0.316633 0 0 0 
trait 3 0.921768 0 0 0 0.857846 0 0.821754 0.256942 
node 1 3 1 1
node 2 2 1 1
node 3 1 1 1
node 4 3 1 1
node 5 3 1 1
node 6 1 1 1
node 7 1 1 3
node 8 1 0 2
node 10 1 0 0
node 20 2 0 0
gene 1 1 8 -0.190108 0 1 -0.190108 1
gene 3 2 8 -4.0958 0 2 -4.0958 0
gene 2 3 8 -5.14685 0 3 -5.14685 1
gene 2 4 8 -6.06162 0 4 -6.06162 1
gene 2 5 8 1.94085 0 5 1.94085 1
gene 2 6 8 1.19882 0 6 1.19882 1
gene 3 7 8 -0.019512 0 7 -0.019512 1
gene 1 2 10 0.17174 0 10 0.17174 1
gene 1 10 8 -0.270343 0 11 -0.270343 1
gene 1 3 10 -0.915927 0 18 -0.915927 1
gene 2 4 10 0.606976 0 22 0.606976 0
gene 2 4 20 -5.28555 0 43 -5.28555 1
gene 2 20 10 -1.47032 0 44 -1.47032 1
gene 1 3 20 -0.57644 0 70 0 1
genomeend 2863

/* Organism #3016 Fitness: 3385 Error: 0 */
genomestart 3016
trait 1 0.1 0 0 0 0 0.229291 0.106042 0 
trait 2 0.2 0.0712112 0 0 0 0 0 0 
trait 3 0.927908 0 0 0 0.857846 0 0.827228 0.256942 
node 1 3 1 1
node 2 2 1 1
node 3 1 1 1
node 4 3 1 1
node 5 3 1 1
node 6 1 1 1
node 7 1 1 3
node 8 1 0 2
node 10 1 0 0
node 20 1 0 0
gene 1 1 8 -0.190108 0 1 -0.190108 1
gene 1 2 8 -4.0958 0 2 -4.0958 0
gene 3 3 8 -5.14685 0 3 -5.14685 1
gene 2 4 8 -6.06162 0 4 -6.06162 1
gene 2 5 8 1.94085 0 5 1.94085 1
gene 2 6 8 1.19882 0 6 1.19882 1
gene 3 7 8 -0.019512 0 7 -0.019512 1
gene 1 2 10 0.17174 0 10 0.17174 1
gene 1 10 8 -0.270343 0 11 -0.270343 1
gene 1 3 10 -0.915927 0 18 -0.915927 1
gene 2 4 10 0.606976 0 22 0.606976 0
gene 2 4 20 -5.28619 0 43 -5.28619 1
gene 2 20 10 -1.47032 0 44 -1.47032 1
gene 1 3 20 -0.57644 0 70 0 1
genomeend 3016

/* Organism #2558 Fitness: 3385 Error: 0 */
genomestart 2558
trait 1 0.1 0 0 0 0 0.229291 0.106042 0 
trait 2 0.2 0.0712112 0 0 0 0 0 0 
trait 3 0.927908 0 0 0 0.857846 0 0.827228 0.256942 
node 1 3 1 1
node 2 2 1 1
node 3 1 1 1
node 4 3 1 1
node 5 3 1 1
node 6 1 1 1
node 7 1 1 3
node 8 1 0 2
node 10 1 0 0
node 20 1 0 0
gene 1 1 8 -0.190108 0 1 -0.190108 1
gene 1 2 8 -4.0958 0 2 -4.0958 0
gene 3 3 8 -5.14685 0 3 -5.14685 1
gene 2 4 8 -6.06162 0 4 -6.06162 1
gene 2 5 8 1.94085 0 5 1.94085 1
gene 2 6 8 1.19882 0 6 1.19882 1
gene 3 7 8 -0.019512 0 7 -0.019512 1
gene 1 2 10 0.17174 0 10 0.17174 1
gene 1 10 8 -0.270343 0 11 -0.270343 1
gene 1 3 10 -0.915927 0 18 -0.915927 1
gene 2 4 10 0.606976 0 22 0.606976 0
gene 2 4 20 -5.28619 0 43 -5.28619 1
gene 2 20 10 -1.47032 0 44 -1.47032 1
gene 1 3 20 -0.57644 0 70 0 1
genomeend 2558

/* Organism #2643 Fitness: 3385 Error: 0 */
genomestart 2643
trait 1 0.1 0.181962 0.134795 0.0467637 0 0.229291 0.18979 0 
trait 2 0.185492 0.0508651 0 0.0264826 0.211088 0 0 0 
trait 3 0.920631 0 0 0 0.857846 0 0.82074 0.256942 
node 1 3 1 1
node 2 2 1 1
node 3 1 1 1
node 4 3 1 1
node 5 3 1 1
node 6 1 1 1
node 7 1 1 3
node 8 1 0 2
node 10 1 0 0
node 20 1 0 0
gene 1 1 8 -0.190108 0 1 -0.190108 1
gene 1 2 8 -4.0958 0 2 -4.0958 0
gene 2 3 8 -5.14685 0 3 -5.14685 1
gene 2 4 8 -6.06162 0 4 -6.06162 1
gene 2 5 8 1.94085 0 5 1.94085 1
gene 2 6 8 1.19882 0 6 1.19882 1
gene 3 7 8 -0.019512 0 7 -0.019512 1
gene 1 2 10 0.17174 0 10 0.17174 1
gene 1 10 8 -0.270343 0 11 -0.270343 1
gene 1 3 10 -0.915927 0 18 -0.915927 1
gene 2 4 10 0.606976 0 22 0.606976 0
gene 2 4 20 -5.28363 0 43 -5.28363 1
gene 2 20 10 -1.47032 0 44 -1.47032 1
gene 1 3 20 -0.57644 0 70 0 1
genomeend 2643

/* Organism #2674 Fitness: 3384 Error: 0 */
genomestart 2674
trait 1 0.1 0.363924 0.269589 0.0935273 0 0.171968 0.247027 0 
trait 2 0.170985 0.0330623 0 0.0529653 0.422177 0 0 0 
trait 3 0.92154 0 0 0 0.857846 0 0.821551 0.256942 
node 1 3 1 1
node 2 2 1 1
node 3 3 1 1
node 4 3 1 1
node 5 3 1 1
node 6 1 1 1
node 7 1 1 3
node 8 1 0 2
node 10 1 0 0
node 20 1 0 0
gene 1 1 8 -0.190108 0 1 -0.190108 1
gene 1 2 8 -4.0958 0 2 -4.0958 0
gene 3 3 8 -5.14685 0 3 -5.14685 1
gene 2 4 8 -6.06162 0 4 -6.06162 1
gene 2 5 8 1.94085 0 5 1.94085 1
gene 2 6 8 1.19882 0 6 1.19882 1
gene 3 7 8 -0.019512 0 7 -0.019512 1
gene 1 2 10 0.17174 0 10 0.17174 1
gene 1 10 8 -0.270343 0 11 -0.270343 1
gene 1 3 10 -0.915927 0 18 -0.915927 1
gene 2 4 10 0.606976 0 22 0.606976 0
gene 2 4 20 -5.28363 0 43 -5.28363 1
gene 2 20 10 -1.47032 0 44 -1.47032 1
gene 1 5 20 -0.522445 0 51 0 1
genomeend 2674

/* Organism #2604 Fitness: 3384 Error: 0 */
genomestart 2604
trait 1 0.1 0.727848 0.539178 0.187055 0 0 0.334991 0 
trait 2 0.14197 0 0 0.105931 0.844354 0 0 0 
trait 3 0.916992 0 0 0 0.857846 0 0.817496 0.256942 
node 1 3 1 1
node 2 2 1 1
node 3 3 1 1
node 4 3 1 1
node 5 3 1 1
node 6 1 1 1
node 7 1 1 3
node 8 1 0 2
node 10 1 0 0
node 20 1 0 0
gene 1 1 8 -0.190108 0 1 -0.190108 1
gene 1 2 8 -4.0958 0 2 -4.0958 0
gene 2 3 8 -5.14685 0 3 -5.14685 1
gene 2 4 8 -6.06162 0 4 -6.06162 1
gene 2 5 8 1.94085 0 5 1.94085 1
gene 2 6 8 1.19882 0 6 1.19882 1
gene 3 7 8 -0.019512 0 7 -0.019512 1
gene 1 2 10 0.17174 0 10 0.17174 1
gene 1 10 8 -0.270343 0 11 -0.270343 1
gene 1 3 10 -0.915927 0 18 -0.915927 1
gene 2 4 10 0.606976 0 22 0.606976 0
gene 2 4 20 -5.28363 0 43 -5.28363 1
gene 2 20 10 -1.47032 0 44 -1.47032 1
gene 1 5 20 -0.522445 0 51 0 1
genomeend 2604

/* Organism #2430 Fitness: 3384 Error: 0 */
genomestart 2430
trait 1 0.1 0 0 0 0 0 0 0 
trait 2 0.2 0.0813842 0 0 0 0 0 0 
trait 3 0.916992 0 0 0 0.857846 0 0.817496 0.256942 
node 1 3 1 1
node 2 2 1 1
node 3 3 1 1
node 4 3 1 1
node 5 3 1 1
node 6 1 1 1
node 7 1 1 3
node 8 1 0 2
node 10 1 0 0
node 20 1 0 0
gene 1 1 8 -0.190108 0 1 -0.190108 1
gene 1 2 8 -4.0958 0 2 -4.0958 0
gene 2 3 8 -5.14685 0 3 -5.14685 1
gene 2 4 8 -6.06162 0 4 -6.06162 1
gene 2 5 8 1.94085 0 5 1.94085 1
gene 2 6 8 1.19882 0 6 1.19882 1
gene 3 7 8 -0.019512 0 7 -0.019512 1
gene 1 2 10 0.17174 0 10 0.17174 1
gene 1 10 8 -0.270343 0 11 -0.270343 1
gene 1 3 10 -0.915927 0 18 -0.915927 1
gene 2 4 10 0.606976 0 22 0.606976 0
gene 2 4 20 -5.28363 0 43 -5.28363 1
gene 2 20 10 -1.47032 0 44 -1.47032 1
gene 1 5 20 -0.522445 0 51 0 1
genomeend 2430

/* Organism #2637 Fitness: 3384 Error: 0 */
genomestart 2637
trait 1 0.1 0 0 0 0 0.229291 0.106042 0 
trait 2 0.2 0.0712112 0 0 0 0 0 0 
trait 3 0.920631 0 0 0 0.857846 0 0.82074 0.256942 
node 1 3 1 1
node 2 2 1 1
node 3 3 1 1
node 4 3 1 1
node 5 3 1 1
node 6 1 1 1
node 7 1 1 3
node 8 1 0 2
node 10 1 0 0
node 20 1 0 0
gene 1 1 8 -0.190108 0 1 -0.190108 1
gene 1 2 8 -4.0958 0 2 -4.0958 0
gene 2 3 8 -5.14685 0 3 -5.14685 1
gene 2 4 8 -6.06162 0 4 -6.06162 1
gene 2 5 8 1.94085 0 5 1.94085 1
gene 2 6 8 1.19882 0 6 1.19882 1
gene 3 7 8 -0.019512 0 7 -0.019512 1
gene 1 2 10 0.17174 0 10 0.17174 1
gene 1 10 8 -0.270343 0 11 -0.270343 1
gene 1 3 10 -0.915927 0 18 -0.915927 1
gene 2 4 10 0.606976 0 22 0.606976 0
gene 2 4 20 -5.28619 0 43 -5.28619 1
gene 2 20 10 -1.47032 0 44 -1.47032 1
gene 1 5 20 -0.522445 0 51 0 1
genomeend 2637

/* Organism #2445 Fitness: 3384 Error: 0 */
genomestart 2445
trait 1 0.1 0 0 0 0 0 0 0 
trait 2 0.14197 0 0 0.105931 0.844354 0 0 0 
trait 3 0.916992 0 0 0 0.857846 0 0.817496 0.256942 
node 1 3 1 1
node 2 2 1 1
node 3 3 1 1
node 4 3 1 1
node 5 3 1 1
node 6 1 1 1
node 7 1 1 3
node 8 1 0 2
node 10 1 0 0
node 20 1 0 0
gene 1 1 8 -0.190108 0 1 -0.190108 1
gene 1 2 8 -4.0958 0 2 -4.0958 0
gene 2 3 8 -5.14685 0 3 -5.14685 1
gene 2 4 8 -6.06162 0 4 -6.06162 1
gene 2 5 8 1.94085 0 5 1.94085 1
gene 2 6 8 1.19882 0 6 1.19882 1
gene 3 7 8 -0.019512 0 7 -0.019512 1
gene 1 2 10 0.17174 0 10 0.17174 1
gene 1 10 8 -0.270343 0 11 -0.270343 1
gene 1 3 10 -0.915927 0 18 -0.915927 1
gene 2 4 10 0.606976 0 22 0.606976 0
gene 2 4 20 -5.28363 0 43 -5.28363 1
gene 2 20 10 -1.47032 0 44 -1.47032 1
gene 1 5 20 -0.522445 0 51 0 1
genomeend 2445

/* Organism #2918 Fitness: 3384 Error: 0 */
genomestart 2918
trait 1 0.1 0.363924 0.269589 0.0935273 0 0.200629 0.260282 0 
trait 2 0.170985 0.0317907 0 0.0529653 0.422177 0 0 0 
trait 3 0.476124 0 0 0 0.857846 0 0.821146 0.256942 
node 1 3 1 1
node 2 2 1 1
node 3 3 1 1
node 4 3 1 1
node 5 3 1 1
node 6 1 1 1
node 7 1 1 3
node 8 1 0 2
node 10 1 0 0
node 20 1 0 0
gene 1 1 8 -0.190108 0 1 -0.190108 1
gene 1 2 8 -4.0958 0 2 -4.0958 0
gene 2 3 8 -5.14685 0 3 -5.14685 1
gene 2 4 8 -6.06162 0 4 -6.06162 1
gene 2 5 8 1.94085 0 5 1.94085 1
gene 2 6 8 1.19882 0 6 1.19882 1
gene 3 7 8 -0.019512 0 7 -0.019512 1
gene 1 2 10 0.17174 0 10 0.17174 1
gene 1 10 8 -0.270343 0 11 -0.270343 1
gene 1 3 10 -0.915927 0 18 -0.915927 1
gene 2 4 10 0.606976 0 22 0.606976 0
gene 2 4 20 -5.28491 0 43 -5.28491 1
gene 2 20 10 -1.47032 0 44 -1.47032 1
gene 1 5 20 -0.522445 0 51 0 1
genomeend 2918

/* Organism #2699 Fitness: 3384 Error: 0 */
genomestart 2699
trait 1 0.1 0.363924 0.59542 0.0935273 0 0.5 0.167495 0 
trait 2 0.170985 0.0305191 0 0.0529653 0.422177 0 0 0 
trait 3 0.920631 0 0 0 0.857846 0 0.82074 0.256942 
node 1 3 1 1
node 2 2 1 1
node 3 1 1 1
node 4 3 1 1
node 5 3 1 1
node 6 1 1 1
node 7 1 1 3
node 8 1 0 2
node 10 1 0 0
node 20 1 0 0
gene 1 1 8 -0.190108 0 1 -0.190108 1
gene 1 2 8 -4.0958 0 2 -4.0958 0
gene 3 3 8 -5.14685 0 3 -5.14685 1
gene 2 4 8 -6.06162 0 4 -6.06162 1
gene 2 5 8 1.94085 0 5 1.94085 1
gene 2 6 8 1.19882 0 6 1.19882 1
gene 3 7 8 -0.019512 0 7 -0.019512 1
gene 1 2 10 0.17174 0 10 0.17174 1
gene 1 10 8 -0.270343 0 11 -0.270343 1
gene 1 3 10 -0.915927 0 18 -0.915927 1
gene 2 4 10 0.606976 0 22 0.606976 0
gene 2 4 20 -5.28619 0 43 -5.28619 1
gene 2 20 10 -1.47032 0 44 -1.47032 1
gene 1 5 20 -0.522445 0 51 0 1
genomeend 2699

/* Organism #2730 Fitness: 3384 Error: 0 */
genomestart 2730
trait 1 0.1 0.363924 0.269589 0.0935273 0 0.229291 0.273537 0 
trait 2 0.170985 0.0305191 0 0.0529653 0.422177 0 0 0 
trait 3 0.920631 0 0 0 0.857846 0 0.82074 0.256942 
node 1 3 1 1
node 2 2 1 1
node 3 1 1 1
node 4 3 1 1
node 5 3 1 1
node 6 1 1 1
node 7 1 1 3
node 8 1 0 2
node 10 1 0 0
node 20 1 0 0
gene 1 1 8 -0.190108 0 1 -0.190108 1
gene 1 2 8 -4.0958 0 2 -4.0958 0
gene 2 3 8 -5.14685 0 3 -5.14685 1
gene 2 4 8 -6.06162 0 4 -6.06162 1
gene 2 5 8 1.94085 0 5 1.94085 1
gene 2 6 8 1.19882 0 6 1.19882 1
gene 3 7 8 -0.019512 0 7 -0.019512 1
gene 1 2 10 0.17174 0 10 0.17174 1
gene 1 10 8 -0.270343 0 11 -0.270343 1
gene 1 3 10 -0.915927 0 18 -0.915927 1
gene 2 4 10 0.606976 0 22 0.606976 0
gene 2 4 20 -5.28491 0 43 -5.28491 1
gene 2 20 10 -1.47032 0 44 -1.47032 1
gene 1 5 20 -0.522445 0 51 0 1
genomeend 2730

/* Organism #2631 Fitness: 3384 Error: 0 */
genomestart 2631
trait 1 0.1 0.363924 0.269589 0.0935273 0 0 0.167495 0 
trait 2 0.170985 0.0406921 0 0.0529653 0.422177 0 0 0 
trait 3 0.916992 0 0 0 0.857846 0 0.817496 0.256942 
node 1 3 1 1
node 2 2 1 1
node 3 3 1 1
node 4 3 1 1
node 5 3 1 1
node 6 1 1 1
node 7 1 1 3
node 8 1 0 2
node 10 1 0 0
node 20 1 0 0
gene 1 1 8 -0.190108 0 1 -0.190108 1
gene 1 2 8 -4.0958 0 2 -4.0958 0
gene 2 3 8 -5.14685 0 3 -5.14685 1
gene 2 4 8 -6.06162 0 4 -6.06162 1
gene 2 5 8 1.94085 0 5 1.94085 1
gene 2 6 8 1.19882 0 6 1.19882 1
gene 3 7 8 -0.019512 0 7 -0.019512 1
gene 1 2 10 0.17174 0 10 0.17174 1
gene 1 10 8 -0.270343 0 11 -0.270343 1
gene 1 3 10 -0.915927 0 18 -0.915927 1
gene 2 4 10 0.606976 0 22 0.606976 0
gene 2 4 20 -5.28363 0 43 -5.28363 1
gene 2 20 10 -1.47032 0 44 -1.47032 1
gene 1 5 20 -0.522445 0 51 0 1
genomeend 2631

/* Organism #2865 Fitness: 3380 Error: 0 */
genomestart 2865
trait 1 0.1 0 0 0 0 0.458581 0.212084 0 
trait 2 0.2 0.0610381 0 0 0 0 0 0 
trait 3 0.92427 0 0 0 0.857846 0 0.823984 0.256942 
node 1 3 1 1
node 2 2 1 1
node 3 1 1 1
node 4 3 1 1
node 5 3 1 1
node 6 1 1 1
node 7 1 1 3
node 8 1 0 2
node 10 1 0 0
node 20 1 0 0
gene 1 1 8 -0.190108 0 1 -0.190108 1
gene 3 2 8 -4.0958 0 2 -4.0958 0
gene 3 3 8 -5.14685 0 3 -5.14685 1
gene 2 4 8 -6.06162 0 4 -6.06162 1
gene 2 5 8 1.94085 0 5 1.94085 1
gene 2 6 8 1.19882 0 6 1.19882 1
gene 3 7 8 -0.019512 0 7 -0.019512 1
gene 1 2 10 0.17174 0 10 0.17174 1
gene 1 10 8 -0.270343 0 11 -0.270343 1
gene 1 3 10 -0.915927 0 18 -0.915927 1
gene 2 4 10 0.606976 0 22 0.606976 0
gene 3 5 10 -0.920893 0 25 0 1
gene 2 4 20 -5.28619 0 43 -5.28619 1
gene 2 20 10 -1.47032 0 44 -1.47032 1
gene 1 5 20 -0.522445 0 51 0 1
gene 1 3 20 -0.57644 0 70 0 1
genomeend 2865

/* Organism #2656 Fitness: 3377 Error: 0 */
genomestart 2656
trait 1 0.1 0 0 0 0 0 0 0 
trait 2 0.14197 0 0 0.105931 0.844354 0 0 0 
trait 3 0.916992 0 0 0 0.857846 0 0.817496 0.256942 
node 1 3 1 1
node 2 2 1 1
node 3 3 1 1
node 4 3 1 1
node 5 3 1 1
node 6 1 1 1
node 7 1 1 3
node 8 1 0 2
node 10 1 0 0
node 20 1 0 0
gene 1 1 8 -0.190108 0 1 -0.190108 1
gene 1 2 8 -4.0958 0 2 -4.0958 0
gene 2 3 8 -5.14685 0 3 -5.14685 1
gene 2 4 8 -6.06162 0 4 -6.06162 1
gene 2 5 8 1.94085 0 5 1.94085 1
gene 2 6 8 1.19882 0 6 1.19882 1
gene 3 7 8 -0.019512 0 7 -0.019512 1
gene 1 2 10 0.17174 0 10 0.17174 1
gene 1 10 8 -0.270343 0 11 -0.270343 1
gene 1 3 10 -0.915927 0 18 -0.915927 1
gene 2 4 10 0.606976 0 22 0.606976 0
gene 1 6 10 -0.205699 0 26 0 1
gene 2 4 20 -5.28363 0 43 -5.28363 1
gene 2 20 10 -1.47032 0 44 -1.47032 1
gene 1 5 20 -0.522445 0 51 0 1
genomeend 2656

/* Organism #2720 Fitness: 3377 Error: 0 */
genomestart 2720
trait 1 0.1 0 0 0 0 0 0 0 
trait 2 0.14197 0 0 0.105931 0.844354 0 0 0 
trait 3 0.916992 0 0 0 0.857846 0 0.817496 0.256942 
node 1 3 1 1
node 2 2 1 1
node 3 3 1 1
node 4 3 1 1
node 5 3 1 1
node 6 1 1 1
node 7 1 1 3
node 8 1 0 2
node 10 1 0 0
node 20 1 0 0
gene 1 1 8 -0.190108 0 1 -0.190108 1
gene 1 2 8 -4.0958 0 2 -4.0958 0
gene 2 3 8 -5.14685 0 3 -5.14685 1
gene 2 4 8 -6.06162 0 4 -6.06162 1
gene 2 5 8 1.94085 0 5 1.94085 1
gene 2 6 8 1.19882 0 6 1.19882 1
gene 3 7 8 -0.019512 0 7 -0.019512 1
gene 1 2 10 0.17174 0 10 0.17174 1
gene 1 10 8 -0.270343 0 11 -0.270343 1
gene 1 3 10 -0.915927 0 18 -0.915927 1
gene 2 4 10 0.606976 0 22 0.606976 0
gene 1 6 10 -0.205699 0 26 0 1
gene 2 4 20 -5.28363 0 43 -5.28363 1
gene 2 20 10 -1.47032 0 44 -1.47032 1
gene 1 5 20 -0.522445 0 51 0 1
genomeend 2720

/* Organism #2719 Fitness: 3377 Error: 0 */
genomestart 2719
trait 1 0.1 0 0 0 0 0 0 0 
trait 2 0.14197 0 0 0.105931 0.844354 0 0 0 
trait 3 0.916992 0 0 0 0.857846 0 0.817496 0.256942 
node 1 3 1 1
node 2 2 1 1
node 3 3 1 1
node 4 3 1 1
node 5 3 1 1
node 6 1 1 1
node 7 1 1 3
node 8 1 0 2
node 10 1 0 0
node 20 1 0 0
gene 1 1 8 -0.190108 0 1 -0.190108 1
gene 1 2 8 -4.0958 0 2 -4.0958 0
gene 2 3 8 -5.14685 0 3 -5.14685 1
gene 2 4 8 -6.06162 0 4 -6.06162 1
gene 2 5 8 1.94085 0 5 1.94085 1
gene 2 6 8 1.19882 0 6 1.19882 1
gene 3 7 8 -0.019512 0 7 -0.019512 1
gene 1 2 10 0.17174 0 10 0.17174 1
gene 1 10 8 -0.270343 0 11 -0.270343 1
gene 1 3 10 -0.915927 0 18 -0.915927 1
gene 2 4 10 0.606976 0 22 0.606976 0
gene 1 6 10 -0.205699 0 26 0 1
gene 2 4 20 -5.28363 0 43 -5.28363 1
gene 2 20 10 -1.47032 0 44 -1.47032 1
gene 1 5 20 -0.522445 0 51 0 1
genomeend 2719

/* Organism #2512 Fitness: 3367 Error: 0 */
genomestart 2512
trait 1 0.1 0 0 0 0 0 0 0 
trait 2 0.2 0.0902856 0 0 0 0 0 0 
trait 3 0.926771 0 0 0 0.857846 0 0.826215 0.256942 
node 1 3 1 1
node 2 3 1 1
node 3 1 1 1
node 4 3 1 1
node 5 3 1 1
node 6 1 1 1
node 7 1 1 3
node 8 1 0 2
node 10 1 0 0
node 20 1 0 0
gene 1 1 8 -0.190108 0 1 -0.190108 1
gene 1 2 8 -4.0958 0 2 -4.0958 0
gene 2 3 8 -5.14685 0 3 -5.14685 1
gene 2 4 8 -6.06162 0 4 -6.06162 1
gene 2 5 8 1.94085 0 5 1.94085 1
gene 2 6 8 1.19882 0 6 1.19882 1
gene 3 7 8 -0.019512 0 7 -0.019512 1
gene 1 2 10 0.17174 0 10 0.17174 1
gene 1 10 8 -0.270343 0 11 -0.270343 1
gene 1 3 10 -0.915927 0 18 -0.915927 1
gene 2 4 10 0.606976 0 22 0.606976 1
gene 2 4 20 -5.28427 0 43 -5.28427 1
gene 2 20 10 -1.47032 0 44 -1.47032 1
genomeend 2512

/* Organism #2464 Fitness: 3367 Error: 0 */
genomestart 2464
trait 1 0.1 0 0 0 0 0 0 0 
trait 2 0.2 0.10173 0 0 0 0 0 0 
trait 3 0.920631 0 0 0 0.857846 0 0.82074 0.256942 
node 1 3 1 1
node 2 2 1 1
node 3 3 1 1
node 4 3 1 1
node 5 3 1 1
node 6 1 1 1
node 7 1 1 3
node 8 1 0 2
node 10 1 0 0
node 20 1 0 0
gene 1 1 8 -0.190108 0 1 -0.190108 1
gene 1 2 8 -4.0958 0 2 -4.0958 0
gene 2 3 8 -5.14685 0 3 -5.14685 1
gene 2 4 8 -6.06162 0 4 -6.06162 1
gene 2 5 8 1.94085 0 5 1.94085 1
gene 2 6 8 1.19882 0 6 1.19882 1
gene 3 7 8 -0.019512 0 7 -0.019512 1
gene 1 2 10 0.17174 0 10 0.17174 1
gene 1 10 8 -0.270343 0 11 -0.270343 1
gene 1 3 10 -0.915927 0 18 -0.915927 1
gene 2 4 10 0.606976 0 22 0.606976 1
gene 2 4 20 -5.28363 0 43 -5.28363 1
gene 2 20 10 -1.47032 0 44 -1.47032 1
genomeend 2464

/* Organism #2519 Fitness: 3367 Error: 0 */
genomestart 2519
trait 1 0.1 0 0 0 0 0 0 0 
trait 2 0.2 0.100459 0 0 0 0 0 0 
trait 3 0.921313 0 0 0 0.857846 0 0.821349 0.256942 
node 1 3 1 1
node 2 2 1 1
node 3 3 1 1
node 4 3 1 1
node 5 3 1 1
node 6 1 1 1
node 7 1 1 3
node 8 1 0 2
node 10 1 0 0
node 20 1 0 0
gene 1 1 8 -0.190108 0 1 -0.190108 1
gene 1 2 8 -4.0958 0 2 -4.0958 0
gene 2 3 8 -5.14685 0 3 -5.14685 1
gene 2 4 8 -6.06162 0 4 -6.06162 1
gene 2 5 8 1.94085 0 5 1.94085 1
gene 2 6 8 1.19882 0 6 1.19882 1
gene 3 7 8 -0.019512 0 7 -0.019512 1
gene 1 2 10 0.17174 0 10 0.17174 1
gene 1 10 8 -0.270343 0 11 -0.270343 1
gene 1 3 10 -0.915927 0 18 -0.915927 1
gene 2 4 10 0.606976 0 22 0.606976 1
gene 2 4 20 -5.28395 0 43 -5.28395 1
gene 2 20 10 -1.47032 0 44 -1.47032 1
genomeend 2519

/* Organism #2395 Fitness: 3367 Error: 0 */
genomestart 2395
trait 1 0.1 0 0 0 0 0 0 0 
trait 2 0.2 0.10173 0 0 0 0 0 0 
trait 3 0.920631 0 0 0 0.857846 0 0.82074 0.256942 
node 1 3 1 1
node 2 2 1 1
node 3 3 1 1
node 4 3 1 1
node 5 3 1 1
node 6 1 1 1
node 7 1 1 3
node 8 1 0 2
node 10 1 0 0
node 20 1 0 0
gene 1 1 8 -0.190108 0 1 -0.190108 1
gene 1 2 8 -4.0958 0 2 -4.0958 0
gene 2 3 8 -5.14685 0 3 -5.14685 1
gene 2 4 8 -6.06162 0 4 -6.06162 1
gene 2 5 8 1.94085 0 5 1.94085 1
gene 2 6 8 1.19882 0 6 1.19882 1
gene 3 7 8 -0.019512 0 7 -0.019512 1
gene 1 2 10 0.17174 0 10 0.17174 1
gene 1 10 8 -0.270343 0 11 -0.270343 1
gene 1 3 10 -0.915927 0 18 -0.915927 1
gene 2 4 10 0.606976 0 22 0.606976 1
gene 2 4 20 -5.28363 0 43 -5.28363 1
gene 2 20 10 -1.47032 0 44 -1.47032 1
genomeend 2395

/* Organism #2495 Fitness: 3367 Error: 0 */
genomestart 2495
trait 1 0.1 0 0 0 0 0 0 0 
trait 2 0.2 0.099187 0 0 0 0 0 0 
trait 3 0.921995 0 0 0 0.857846 0 0.821957 0.256942 
node 1 3 1 1
node 2 3 1 1
node 3 1 1 1
node 4 3 1 1
node 5 3 1 1
node 6 1 1 1
node 7 1 1 3
node 8 1 0 2
node 10 1 0 0
node 20 1 0 0
gene 1 1 8 -0.190108 0 1 -0.190108 1
gene 1 2 8 -4.0958 0 2 -4.0958 0
gene 2 3 8 -5.14685 0 3 -5.14685 1
gene 2 4 8 -6.06162 0 4 -6.06162 1
gene 2 5 8 1.94085 0 5 1.94085 1
gene 2 6 8 1.19882 0 6 1.19882 1
gene 3 7 8 -0.019512 0 7 -0.019512 1
gene 1 2 10 0.17174 0 10 0.17174 1
gene 1 10 8 -0.270343 0 11 -0.270343 1
gene 1 3 10 -0.915927 0 18 -0.915927 1
gene 2 4 10 0.606976 0 22 0.606976 1
gene 2 4 20 -5.28427 0 43 -5.28427 1
gene 2 20 10 -1.47032 0 44 -1.47032 1
genomeend 2495

/* Organism #2578 Fitness: 3367 Error: 0 */
genomestart 2578
trait 1 0.1 0 0 0 0 0 0 0 
trait 2 0.2 0.100459 0 0 0 0 0 0 
trait 3 0.921313 0 0 0 0.857846 0 0.821349 0.256942 
node 1 3 1 1
node 2 2 1 1
node 3 3 1 1
node 4 3 1 1
node 5 3 1 1
node 6 1 1 1
node 7 1 1 3
node 8 1 0 2
node 10 1 0 0
node 20 1 0 0
gene 1 1 8 -0.190108 0 1 -0.190108 1
gene 1 2 8 -4.0958 0 2 -4.0958 0
gene 2 3 8 -5.14685 0 3 -5.14685 1
gene 2 4 8 -6.06162 0 4 -6.06162 1
gene 2 5 8 1.94085 0 5 1.94085 1
gene 2 6 8 1.19882 0 6 1.19882 1
gene 3 7 8 -0.019512 0 7 -0.019512 1
gene 1 2 10 0.17174 0 10 0.17174 1
gene 1 10 8 -0.270343 0 11 -0.270343 1
gene 1 3 10 -0.915927 0 18 -0.915927 1
gene 2 4 10 0.606976 0 22 0.606976 1
gene 2 4 20 -5.28395 0 43 -5.28395 1
gene 2 20 10 -1.47032 0 44 -1.47032 1
genomeend 2578

/* Organism #2575 Fitness: 3367 Error: 0 */
genomestart 2575
trait 1 0.1 0 0 0 0 0 0 0 
trait 2 0.2 0.0966437 0 0 0 0 0 0 
trait 3 0.92336 0 0 0 0.857846 0 0.823173 0.256942 
node 1 3 1 1
node 2 3 1 1
node 3 1 1 1
node 4 3 1 1
node 5 3 1 1
node 6 1 1 1
node 7 1 1 3
node 8 1 0 2
node 10 1 0 0
node 20 1 0 0
gene 1 1 8 -0.190108 0 1 -0.190108 1
gene 1 2 8 -4.0958 0 2 -4.0958 0
gene 2 3 8 -5.14685 0 3 -5.14685 1
gene 2 4 8 -6.06162 0 4 -6.06162 1
gene 2 5 8 1.94085 0 5 1.94085 1
gene 2 6 8 1.19882 0 6 1.19882 1
gene 3 7 8 -0.019512 0 7 -0.019512 1
gene 1 2 10 0.17174 0 10 0.17174 1
gene 1 10 8 -0.270343 0 11 -0.270343 1
gene 1 3 10 -0.915927 0 18 -0.915927 1
gene 2 4 10 0.606976 0 22 0.606976 1
gene 2 4 20 -5.28427 0 43 -5.28427 1
gene 2 20 10 -1.47032 0 44 -1.47032 1
genomeend 2575

/* Organism #2580 Fitness: 3367 Error: 0 */
genomestart 2580
trait 1 0.1 0 0 0 0 0 0 0 
trait 2 0.2 0.0985512 0 0 0 0 0 0 
trait 3 0.922336 0 0 0 0.857846 0 0.822261 0.256942 
node 1 3 1 1
node 2 2 1 1
node 3 3 1 1
node 4 3 1 1
node 5 3 1 1
node 6 1 1 1
node 7 1 1 3
node 8 1 0 2
node 10 1 0 0
node 20 1 0 0
gene 1 1 8 -0.190108 0 1 -0.190108 1
gene 1 2 8 -4.0958 0 2 -4.0958 0
gene 2 3 8 -5.14685 0 3 -5.14685 1
gene 2 4 8 -6.06162 0 4 -6.06162 1
gene 2 5 8 1.94085 0 5 1.94085 1
gene 2 6 8 1.19882 0 6 1.19882 1
gene 3 7 8 -0.019512 0 7 -0.019512 1
gene 1 2 10 0.17174 0 10 0.17174 1
gene 1 10 8 -0.270343 0 11 -0.270343 1
gene 1 3 10 -0.915927 0 18 -0.915927 1
gene 2 4 10 0.606976 0 22 0.606976 1
gene 2 4 20 -5.28427 0 43 -5.28427 1
gene 2 20 10 -1.47032 0 44 -1.47032 1
genomeend 2580

/* Organism #2524 Fitness: 3367 Error: 0 */
genomestart 2524
trait 1 0.1 0 0 0 0 0.229291 0.106042 0 
trait 2 0.2 0.0801126 0 0 0 0 0 0 
trait 3 0.923132 0 0 0 0.857846 0 0.822971 0.256942 
node 1 3 1 1
node 2 3 1 1
node 3 1 1 1
node 4 3 1 1
node 5 3 1 1
node 6 1 1 1
node 7 1 1 3
node 8 1 0 2
node 10 1 0 0
node 20 1 0 0
gene 1 1 8 -0.190108 0 1 -0.190108 1
gene 1 2 8 -4.0958 0 2 -4.0958 0
gene 2 3 8 -5.14685 0 3 -5.14685 1
gene 2 4 8 -6.06162 0 4 -6.06162 1
gene 2 5 8 1.94085 0 5 1.94085 1
gene 2 6 8 1.19882 0 6 1.19882 1
gene 3 7 8 -0.019512 0 7 -0.019512 1
gene 1 2 10 0.17174 0 10 0.17174 1
gene 1 10 8 -0.270343 0 11 -0.270343 1
gene 1 3 10 -0.915927 0 18 -0.915927 1
gene 2 4 10 0.606976 0 22 0.606976 1
gene 2 4 20 -5.28427 0 43 -5.28427 1
gene 2 20 10 -1.47032 0 44 -1.47032 1
genomeend 2524

/* Organism #2425 Fitness: 3367 Error: 0 */
genomestart 2425
trait 1 0.1 0 0 0 0 0 0 0 
trait 2 0.2 0.0813842 0 0 0 0 0 0 
trait 3 0.931547 0 0 0 0.857846 0 0.830473 0.256942 
node 1 3 1 1
node 2 2 1 1
node 3 1 1 1
node 4 3 1 1
node 5 3 1 1
node 6 1 1 1
node 7 1 1 3
node 8 1 0 2
node 10 1 0 0
node 20 1 0 0
gene 1 1 8 -0.190108 0 1 -0.190108 1
gene 1 2 8 -4.0958 0 2 -4.0958 0
gene 2 3 8 -5.14685 0 3 -5.14685 1
gene 2 4 8 -6.06162 0 4 -6.06162 1
gene 2 5 8 1.94085 0 5 1.94085 1
gene 2 6 8 1.19882 0 6 1.19882 1
gene 3 7 8 -0.019512 0 7 -0.019512 1
gene 1 2 10 0.17174 0 10 0.17174 1
gene 1 10 8 -0.270343 0 11 -0.270343 1
gene 1 3 10 -0.915927 0 18 -0.915927 1
gene 2 4 10 0.606976 0 22 0.606976 1
gene 2 4 20 -5.28619 0 43 -5.28619 1
gene 2 20 10 -1.47032 0 44 -1.47032 1
genomeend 2425

/* Organism #2442 Fitness: 3367 Error: 0 */
genomestart 2442
trait 1 0.1 0 0 0 0 0 0 0 
trait 2 0.2 0.0966437 0 0 0 0 0 0 
trait 3 0.92336 0 0 0 0.857846 0 0.823173 0.256942 
node 1 3 1 1
node 2 3 1 1
node 3 1 1 1
node 4 3 1 1
node 5 3 1 1
node 6 1 1 1
node 7 1 1 3
node 8 1 0 2
node 10 1 0 0
node 20 1 0 0
gene 1 1 8 -0.190108 0 1 -0.190108 1
gene 1 2 8 -4.0958 0 2 -4.0958 0
gene 2 3 8 -5.14685 0 3 -5.14685 1
gene 2 4 8 -6.06162 0 4 -6.06162 1
gene 2 5 8 1.94085 0 5 1.94085 1
gene 2 6 8 1.19882 0 6 1.19882 1
gene 3 7 8 -0.019512 0 7 -0.019512 1
gene 1 2 10 0.17174 0 10 0.17174 1
gene 1 10 8 -0.270343 0 11 -0.270343 1
gene 1 3 10 -0.915927 0 18 -0.915927 1
gene 2 4 10 0.606976 0 22 0.606976 1
gene 2 4 20 -5.28427 0 43 -5.28427 1
gene 2 20 10 -1.47032 0 44 -1.47032 1
genomeend 2442

/* Organism #2635 Fitness: 3364 Error: 0 */
genomestart 2635
trait 1 0.1 0 0 0 0 0.229291 0.106042 0 
trait 2 0.2 0.0788409 0 0 0 0 0 0 
trait 3 0.923815 0 0 0 0.857846 0 0.823579 0.256942 
node 1 3 1 1
node 2 3 1 1
node 3 1 1 1
node 4 3 1 1
node 5 3 1 1
node 6 1 1 1
node 7 1 1 3
node 8 1 0 2
node 10 1 0 0
node 20 1 0 0
gene 1 1 8 -0.190108 0 1 -0.190108 1
gene 1 2 8 -4.0958 0 2 -4.0958 0
gene 2 3 8 -5.14685 0 3 -5.14685 1
gene 2 4 8 -6.06162 0 4 -6.06162 1
gene 2 5 8 1.94085 0 5 1.94085 1
gene 2 6 8 1.19882 0 6 1.19882 1
gene 3 7 8 -0.019512 0 7 -0.019512 1
gene 1 2 10 0.17174 0 10 0.17174 1
gene 1 10 8 -0.270343 0 11 -0.270343 1
gene 1 3 10 -0.915927 0 18 -0.915927 1
gene 2 4 10 0.606976 0 22 0.606976 0
gene 2 4 20 -5.28523 0 43 -5.28523 1
gene 2 20 10 -1.47032 0 44 -1.47032 1
genomeend 2635

/* Organism #2535 Fitness: 3364 Error: 0 */
genomestart 2535
trait 1 0.1 0 0 0 0 0.229291 0.106042 0 
trait 2 0.2 0.0813842 0 0 0 0 0 0 
trait 3 0.92245 0 0 0 0.857846 0 0.822362 0.256942 
node 1 3 1 1
node 2 2 1 1
node 3 3 1 1
node 4 3 1 1
node 5 3 1 1
node 6 1 1 1
node 7 1 1 3
node 8 1 0 2
node 10 1 0 0
node 20 1 0 0
gene 1 1 8 -0.190108 0 1 -0.190108 1
gene 3 2 8 -4.0958 0 2 -4.0958 0
gene 3 3 8 -5.14685 0 3 -5.14685 1
gene 2 4 8 -6.06162 0 4 -6.06162 1
gene 2 5 8 1.94085 0 5 1.94085 1
gene 2 6 8 1.19882 0 6 1.19882 1
gene 3 7 8 -0.019512 0 7 -0.019512 1
gene 1 2 10 0.17174 0 10 0.17174 1
gene 1 10 8 -0.270343 0 11 -0.270343 1
gene 1 3 10 -0.915927 0 18 -0.915927 1
gene 2 4 10 0.606976 0 22 0.606976 0
gene 2 4 20 -5.28491 0 43 -5.28491 1
gene 2 20 10 -1.47032 0 44 -1.47032 1
genomeend 2535

/* Organism #2489 Fitness: 3364 Error: 0 */
genomestart 2489
trait 1 0.1 0 0 0 0 0.917162 0.424168 0 
trait 2 0.2 0.0406921 0 0 0 0 0 0 
trait 3 0.235277 0 0.505845 0 0.857846 0 0 0.256942 
node 1 3 1 1
node 2 2 1 1
node 3 1 1 1
node 4 3 1 1
node 5 3 1 1
node 6 1 1 1
node 7 1 1 3
node 8 1 0 2
node 10 1 0 0
node 20 1 0 0
gene 1 1 8 -0.190108 0 1 -0.190108 1
gene 1 2 8 -4.0958 0 2 -4.0958 0
gene 2 3 8 -5.14685 0 3 -5.14685 1
gene 2 4 8 -6.06162 0 4 -6.06162 1
gene 2 5 8 1.94085 0 5 1.94085 1
gene 2 6 8 1.19882 0 6 1.19882 1
gene 3 7 8 -0.019512 0 7 -0.019512 1
gene 1 2 10 0.17174 0 10 0.17174 1
gene 1 10 8 -0.270343 0 11 -0.270343 1
gene 1 3 10 -0.915927 0 18 -0.915927 1
gene 2 4 10 0.606976 0 22 0.606976 0
gene 2 4 20 -5.28619 0 43 -5.28619 1
gene 2 20 10 -1.47032 0 44 -1.47032 1
genomeend 2489

/* Organism #2479 Fitness: 3364 Error: 0 */
genomestart 2479
trait 1 0.1 0 0 0 0 0.229291 0.106042 0 
trait 2 0.2 0.0712112 0 0 0 0 0 0 
trait 3 0.927908 0 0 0 0.857846 0 0.827228 0.256942 
node 1 3 1 1
node 2 2 1 1
node 3 1 1 1
node 4 3 1 1
node 5 3 1 1
node 6 1 1 1
node 7 1 1 3
node 8 1 0 2
node 10 1 0 0
node 20 1 0 0
gene 1 1 8 -0.190108 0 1 -0.190108 1
gene 1 2 8 -4.0958 0 2 -4.0958 0
gene 3 3 8 -5.14685 0 3 -5.14685 1
gene 2 4 8 -6.06162 0 4 -6.06162 1
gene 2 5 8 1.94085 0 5 1.94085 1
gene 2 6 8 1.19882 0 6 1.19882 1
gene 3 7 8 -0.019512 0 7 -0.019512 1
gene 1 2 10 0.17174 0 10 0.17174 1
gene 1 10 8 -0.270343 0 11 -0.270343 1
gene 1 3 10 -0.915927 0 18 -0.915927 1
gene 2 4 10 0.606976 0 22 0.606976 0
gene 2 4 20 -5.28619 0 43 -5.28619 1
gene 2 20 10 -1.47032 0 44 -1.47032 1
genomeend 2479

/* Organism #2466 Fitness: 3364 Error: 0 */
genomestart 2466
trait 1 0.1 0 0 0 0 0 0 0 
trait 2 0.2 0.0813842 0 0 0 0 0 0 
trait 3 0.92427 0 0 0 0.857846 0 0.823984 0.256942 
node 1 3 1 1
node 2 2 1 1
node 3 3 1 1
node 4 3 1 1
node 5 3 1 1
node 6 1 1 1
node 7 1 1 3
node 8 1 0 2
node 10 1 0 0
node 20 1 0 0
gene 1 1 8 -0.190108 0 1 -0.190108 1
gene 1 2 8 -4.0958 0 2 -4.0958 0
gene 2 3 8 -5.14685 0 3 -5.14685 1
gene 2 4 8 -6.06162 0 4 -6.06162 1
gene 2 5 8 1.94085 0 5 1.94085 1
gene 2 6 8 1.19882 0 6 1.19882 1
gene 3 7 8 -0.019512 0 7 -0.019512 1
gene 1 2 10 0.17174 0 10 0.17174 1
gene 1 10 8 -0.270343 0 11 -0.270343 1
gene 1 3 10 -0.915927 0 18 -0.915927 1
gene 2 4 10 0.606976 0 22 0.606976 0
gene 2 4 20 -5.28491 0 43 -5.28491 1
gene 2 20 10 -1.47032 0 44 -1.47032 1
genomeend 2466

/* Organism #3275 Fitness: 100001 Error: 0 */
/* ##------$ WINNER 3275 SPECIES #8 $------## */
genomestart 3275
trait 1 0.1 0 0.122187 0 0 0.526062 0.156578 0 
trait 2 0.176468 0.100629 0 0.0522611 0.0527721 0 0 0 
trait 3 0.9239 0 0 0 0.857846 0 0.823655 0.256942 
node 1 3 1 1
node 2 2 1 1
node 3 1 1 1
node 4 3 1 1
node 5 3 1 1
node 6 1 1 1
node 7 1 1 3
node 8 1 0 2
node 10 1 0 0
node 20 1 0 0
gene 1 1 8 -0.190108 0 1 -0.190108 1
gene 3 2 8 -4.0958 0 2 -4.0958 0
gene 3 3 8 -5.14685 0 3 -5.14685 1
gene 2 4 8 -6.06162 0 4 -6.06162 1
gene 2 5 8 1.94085 0 5 1.94085 1
gene 2 6 8 1.19882 0 6 1.19882 1
gene 3 7 8 -0.019512 0 7 -0.019512 1
gene 1 2 10 1.84258 0 10 1.84258 1
gene 1 10 8 -1.18431 0 11 -1.18431 1
gene 1 3 10 1.73992 0 18 1.73992 0
gene 2 4 10 0.716175 0 22 0.716175 0
gene 2 4 20 0.727434 0 43 0.727434 1
gene 2 20 10 -1.47032 0 44 -1.47032 1
gene 1 5 20 2.32682 0 51 2.32682 1
gene 1 3 20 -0.57644 0 70 0 1
genomeend 3275

/* Species #9 : (Size 3) (AF 0) (Age 1)  */


/* Organism #2875 Fitness: 128 Error: 0 */
genomestart 2875
trait 1 0.1 0 0 0 0 0 0 0 
trait 2 0.387762 0 0.0231419 0 0.228381 0.0767079 0.410357 0 
trait 3 0.15 0 0.479758 0.319504 0 0 0 0 
node 1 3 1 1
node 2 3 1 1
node 3 1 1 1
node 4 3 1 1
node 5 3 1 1
node 6 1 1 1
node 7 1 1 3
node 8 1 0 2
node 10 1 0 0
gene 1 1 8 1.41471 0 1 1.41471 1
gene 1 2 8 1.3256 0 2 1.3256 0
gene 2 3 8 -1.33533 0 3 -1.33533 1
gene 2 4 8 -2.56435 0 4 -2.56435 1
gene 2 5 8 2.1587 0 5 2.1587 1
gene 2 6 8 1.41762 0 6 1.41762 1
gene 3 7 8 -0.0923201 0 7 -0.0923201 1
gene 1 2 10 0.399404 0 10 0.399404 1
gene 1 10 8 0.0436444 0 11 0.0436444 1
gene 3 1 10 0.399819 0 14 0.399819 1
gene 1 7 10 -0.694549 0 16 0 1
gene 2 4 10 -0.386581 0 22 -0.386581 1
gene 3 5 10 -1.0339 0 25 -1.0339 1
genomeend 2875

/* Organism #3191 Fitness: 128 Error: 0 */
genomestart 3191
trait 1 0.1 0 0 0 0 0 0 0 
trait 2 0.387762 0 0.0231419 0 0.228381 0.0767079 0.410357 0 
trait 3 0.15 0 0.479758 0.319504 0 0 0 0 
node 1 3 1 1
node 2 1 1 1
node 3 1 1 1
node 4 3 1 1
node 5 3 1 1
node 6 1 1 1
node 7 1 1 3
node 8 1 0 2
node 10 1 0 0
gene 1 1 8 1.41471 0 1 1.41471 1
gene 1 2 8 1.3256 0 2 1.3256 0
gene 2 3 8 -1.33533 0 3 -1.33533 1
gene 2 4 8 -2.56435 0 4 -2.56435 1
gene 2 5 8 2.1587 0 5 2.1587 1
gene 2 6 8 1.41762 0 6 1.41762 1
gene 3 7 8 -0.0923201 0 7 -0.0923201 1
gene 1 2 10 0.399404 0 10 0.399404 1
gene 1 10 8 0.0436444 0 11 0.0436444 1
gene 3 1 10 0.399819 0 14 0.399819 1
gene 1 7 10 -0.694549 0 16 0 1
gene 2 4 10 -0.386581 0 22 -0.386581 1
gene 3 5 10 -1.0339 0 25 -1.0339 1
genomeend 3191

/* Organism #3255 Fitness: 128 Error: 0 */
genomestart 3255
trait 1 0.1 0 0 0 0 0 0 0 
trait 2 0.387762 0 0.0231419 0 0.228381 0.0767079 0.410357 0 
trait 3 0.15 0 0.479758 0.319504 0 0 0 0 
node 1 3 1 1
node 2 3 1 1
node 3 1 1 1
node 4 3 1 1
node 5 3 1 1
node 6 1 1 1
node 7 1 1 3
node 8 1 0 2
node 10 1 0 0
gene 1 1 8 1.41471 0 1 1.41471 1
gene 1 2 8 1.3256 0 2 1.3256 0
gene 2 3 8 -1.33533 0 3 -1.33533 1
gene 2 4 8 -2.56435 0 4 -2.56435 1
gene 2 5 8 2.1587 0 5 2.1587 1
gene 2 6 8 1.41762 0 6 1.41762 1
gene 3 7 8 -0.0923201 0 7 -0.0923201 1
gene 1 2 10 0.399404 0 10 0.399404 1
gene 1 10 8 0.0436444 0 11 0.0436444 1
gene 3 1 10 0.399819 0 14 0.399819 1
gene 1 7 10 -0.694549 0 16 0 1
gene 2 4 10 -0.386581 0 22 -0.386581 1
gene 3 5 10 -1.0339 0 25 -1.0339 1
genomeend 3255

/* Species #10 : (Size 2) (AF 0) (Age 1)  */


/* Organism #2203 Fitness: 104 Error: 0 */
genomestart 2203
trait 1 0.1 0 0 0 0 0 0 0 
trait 2 0.199142 0 0 0 0.833288 0.56222 0 0.619435 
trait 3 0.3 0 0 0 0 0 0 0 
node 1 3 1 1
node 2 3 1 1
node 3 1 1 1
node 4 3 1 1
node 5 3 1 1
node 6 1 1 1
node 7 1 1 3
node 8 1 0 2
node 10 1 0 0
node 12 1 0 0
gene 1 1 8 5.00852 0 1 5.00852 1
gene 1 2 8 -3.562 0 2 -3.562 0
gene 2 3 8 0.348991 0 3 0.348991 1
gene 2 4 8 -3.18198 0 4 -3.18198 1
gene 2 5 8 3.26547 0 5 3.26547 1
gene 2 6 8 5.43024 0 6 5.43024 1
gene 3 7 8 -0.794611 0 7 -0.794611 1
gene 1 2 10 0.418073 0 10 0.418073 1
gene 1 10 8 0.430521 0 11 0.430521 1
gene 3 1 10 -2.03409 0 14 -2.03409 1
gene 1 1 12 0.980196 0 20 0.980196 1
gene 1 12 8 1.11799 0 21 1.11799 1
genomeend 2203

/* Organism #2307 Fitness: 104 Error: 0 */
genomestart 2307
trait 1 0.1 0 0 0 0 0 0 0 
trait 2 0.199142 0 0 0 0.833288 0.56222 0 0.619435 
trait 3 0.3 0 0 0 0 0 0 0 
node 1 3 1 1
node 2 3 1 1
node 3 1 1 1
node 4 3 1 1
node 5 3 1 1
node 6 1 1 1
node 7 1 1 3
node 8 1 0 2
node 10 1 0 0
node 12 1 0 0
gene 1 1 8 5.00852 0 1 5.00852 1
gene 1 2 8 -3.562 0 2 -3.562 0
gene 2 3 8 0.348991 0 3 0.348991 1
gene 2 4 8 -3.18198 0 4 -3.18198 1
gene 2 5 8 3.26547 0 5 3.26547 1
gene 2 6 8 5.43024 0 6 5.43024 1
gene 3 7 8 -0.794611 0 7 -0.794611 1
gene 1 2 10 0.418073 0 10 0.418073 1
gene 1 10 8 0.430521 0 11 0.430521 1
gene 3 1 10 -2.03409 0 14 -2.03409 1
gene 1 1 12 0.980196 0 20 0.980196 1
gene 1 12 8 1.11799 0 21 1.11799 1
genomeend 2307

/* Species #17 : (Size 3) (AF 0) (Age 1)  */


/* Organism #2835 Fitness: 150 Error: 0 */
genomestart 2835
trait 1 0.778088 0 0.677585 0.0746321 0.474287 0.435363 0 0 
trait 2 0.2 0 0 0 0 0 0 0 
trait 3 0.3 0 0 0 0 0 0 0 
node 1 3 1 1
node 2 2 1 1
node 3 1 1 1
node 4 3 1 1
node 5 3 1 1
node 6 1 1 1
node 7 1 1 3
node 8 1 0 2
node 10 1 0 0
node 11 1 0 0
gene 1 1 8 -2.74907 0 1 -2.74907 1
gene 1 2 8 -0.823559 0 2 -0.823559 0
gene 2 3 8 7.81278 0 3 7.81278 0
gene 2 4 8 -0.799737 0 4 -0.799737 1
gene 2 5 8 7.26925 0 5 7.26925 1
gene 2 6 8 1.72467 0 6 1.72467 1
gene 3 7 8 -3.93844 0 7 -3.93844 1
gene 1 2 10 -2.83745 0 10 -2.83745 1
gene 1 10 8 -3.75243 0 11 -3.75243 1
gene 2 3 11 -1.75841 0 12 -1.75841 1
gene 2 11 8 7.30245 0 13 7.30245 1
gene 3 5 10 -2.9315 0 25 -2.9315 1
genomeend 2835

/* Organism #3071 Fitness: 150 Error: 0 */
genomestart 3071
trait 1 0.778088 0 0.677585 0.0746321 0.474287 0.435363 0 0 
trait 2 0.2 0 0 0 0 0 0 0 
trait 3 0.3 0 0 0 0 0 0 0 
node 1 3 1 1
node 2 2 1 1
node 3 1 1 1
node 4 3 1 1
node 5 3 1 1
